,0,1,2,3,4,5,6,7,8,9,10,11,12,13,14,15,16,17,18,19,20,21,22,23,24,25,26,27,28,29,30,31,32,33,34,35,36,37,38,39,40,41,42,43,44,45,46,47,48,49,50,51,52,53,54,55,56,57,58,59,60,61,62,63,64,65,66,67,68,69,70,71,72,73,74,75,76,77,78,79,80,81,82,83,84,85,86,87,88,89,90,91,92,93,94,95,96,97,98,99
0,0.03795606,0.13637409,-0.084288634,-0.060659554,0.13748634,-0.0756234,-0.13730608,-0.007927955,0.08001099,0.08986946,-0.12936647,-0.09661816,0.098871,0.10545187,-0.019185191,0.006453091,0.024161028,0.1617501,-0.045530744,0.1536942,-0.012838328,0.12840335,-0.0028807,0.13513348,-0.013702601,0.07044892,0.036290146,0.046538763,0.16827504,0.03955838,0.06260823,-0.05935396,0.029267695,-0.10808652,0.14806002,0.033671338,-0.050396856,-0.055754572,-0.010042416,0.1584276,-0.018107248,-0.007417653,0.11953603,-0.10618901,-0.101672724,-0.10644307,0.15341349,0.030089378,-0.014670067,-0.08926087,0.10289906,-0.04668461,0.0006937609,0.09390104,-0.052946255,-0.003315891,-0.1426715,-0.11430133,0.14918417,0.03990896,0.09363386,-0.048289303,-0.011608214,0.12509608,-0.0313133,0.08133029,0.08720379,-0.06440996,0.12759787,0.1114479,0.0063917385,0.09180568,0.0030078157,0.11087657,-0.14871249,-0.12359915,0.09541031,0.11971598,-0.09433092,0.07462771,0.13867044,0.030305995,-0.1216536,0.010329754,0.05290453,0.053890333,0.1198878,-0.043719385,0.10121813,-0.080949254,0.107631564,0.026156493,-0.013549389,0.07463558,0.09105088,-0.14671414,-0.06366388,-0.0847864,0.06566766,-0.001597762
1,0.0048938394,0.083415516,-0.06682464,0.1347331,-0.08730973,0.13378592,-0.011684387,-0.13042498,-0.14154989,0.05113494,-0.1523292,0.11518727,-0.022725534,0.040318582,0.16920066,0.059822347,-0.0067893076,-0.11919836,-0.048346907,-0.0923317,0.16497666,-0.065612875,0.082976684,0.042722262,-0.12725334,-0.11688327,0.00046600608,0.1367564,0.049383733,0.007974371,-0.004040553,0.019986836,0.09948971,0.13990782,-0.10250804,-0.07096728,0.097917885,0.10698105,-0.11459728,-0.028202372,-0.025323983,0.014681139,0.14553596,0.0050838836,0.17069033,0.08777144,-0.09800175,0.04738785,-0.005315984,-0.060240746,-0.04280849,-0.062227257,-0.08250229,0.13097559,0.10755019,0.12316225,-0.097091585,-0.13260981,-0.12582627,-0.0342983,-0.11196777,-0.060623165,-0.12305237,-0.0021903017,-0.035463262,0.16321996,-0.019362466,-0.13275221,-0.055099998,-0.026672235,0.1491864,-0.07223082,0.101160176,0.02031018,0.08970964,-0.1501945,0.088847004,-0.01677972,0.0047596535,0.16685387,-0.015231432,0.0069722007,-0.035519484,0.12388637,0.035786804,-0.0658798,0.12109116,0.104166046,-0.021557532,0.023865713,-0.020787587,-0.01603316,-0.011228412,-0.011084785,0.061511043,-0.0515397,-0.07606147,0.14853863,0.10635283,-0.11099437
2,-0.07273156,0.056407526,-0.05734766,-0.1311337,-0.08066171,-0.07184074,-0.0936223,-0.05988039,-0.15237041,0.07447363,0.121244624,0.00765941,0.001015736,0.017422691,-0.04064289,-0.14619839,0.09754546,-0.03897649,0.059886064,0.14000675,0.01606836,0.08949969,-0.06210251,-0.1193714,0.07420682,-0.01662842,-0.1608696,0.110167444,0.025526555,0.074150324,-0.05059983,-0.04944833,0.049088117,-0.12266427,-0.037465297,-0.14213724,-0.11337953,-0.008924631,-0.17684312,-0.013557105,0.020496404,-0.055231817,-0.08192725,0.045500115,0.06485517,-0.016372522,0.10340954,-0.012658306,0.038842622,0.06140081,0.11883974,0.09002643,0.10555273,-0.093927585,0.099689975,0.03776323,-0.12413032,-0.12510662,-0.031047935,0.101419136,-0.13500819,0.020265924,0.042616148,-0.034172263,-0.05333659,-0.17147258,0.029713886,-0.041353345,0.067260146,-0.077768266,-0.06494727,0.12600943,-0.028602973,0.13388662,-0.04080325,-0.13316266,0.09021228,-0.12545963,-0.1555862,-0.15429251,-0.048548818,-0.016103897,0.03322575,-0.1143995,0.14746727,0.041305646,-0.07375724,0.110810086,0.027076682,-0.082216166,-0.07884779,0.13301784,0.018906588,-0.12811962,-0.12959547,-0.05339137,-0.15184173,-0.13717858,-0.1103835,-0.08430057
3,-0.13155742,0.008458976,0.03171028,0.14419302,0.03968738,-0.021833926,0.08704391,0.12633756,0.041436903,0.13011636,0.10900189,-0.15855591,-0.055350345,-0.048597064,0.09631589,-0.13464782,-0.07361944,0.017740313,-0.03351968,0.043909453,0.14338996,-0.14472009,0.015120889,-0.117139705,0.15329343,0.083573826,0.0020216792,-0.060297046,0.11659437,-0.11129477,0.07798134,-0.11358788,0.15879732,0.10522791,-0.05778534,-0.0147933755,0.12943834,-0.027498204,-0.02003117,0.06319835,0.1375006,0.09945233,-0.09913864,0.013960998,-0.12208645,0.034326144,-0.08036495,0.12576543,0.11415708,-0.069355294,-0.09197417,-0.14376816,0.08390657,-0.039155267,0.10861613,-0.0155129125,0.121719964,0.062245615,-0.14930928,-0.0752455,-0.02138285,0.12297101,0.090860635,0.09197008,0.08286193,-0.14987968,-0.005606527,-0.06396503,0.025345096,-0.12597698,-0.07927869,0.08878673,0.1568703,-0.06719971,0.074793324,-0.06865904,0.0015108937,-0.14481017,-0.01813259,0.05351328,-0.07778698,0.049441237,-0.056002237,-0.120431535,0.07259257,0.12737474,0.0748447,0.009078203,-0.12497602,-0.1474831,0.10723772,-0.0023796824,0.071807995,0.09947072,-0.107587494,0.011264192,-0.1635124,0.061543178,0.09826323,-0.0028232506
4,-0.06495644,0.13080361,0.094036035,-0.1079224,0.016263375,-0.003944261,0.106561184,0.10259186,0.07718611,0.108771235,0.12744801,0.110940196,-0.09296736,0.041216325,0.14164266,0.071706645,-0.15275078,-0.015606533,-0.06422259,0.09611002,-0.06471632,-0.008552455,-0.07283676,0.0040033096,0.07936905,-0.009733883,-0.117551036,0.09235666,0.06056046,-0.028549444,0.029452255,-0.07910155,0.07407577,-0.08464013,-0.060904577,-0.03522536,0.09941925,0.03018647,-0.086943604,-0.038681746,-0.112774424,0.1039185,-0.116282925,-0.08777561,0.052628297,-0.09122581,0.14938122,-0.18039133,-0.054501355,0.055281002,-0.05044172,0.08535246,-0.052688375,0.06410807,0.10789306,-0.08778668,-0.004338263,-0.063962676,-0.032266263,-0.113014355,0.082619846,-0.13390966,-0.10035797,-0.10328512,0.1421434,-0.1671601,0.059854377,0.08251808,-0.070704944,0.12956443,-0.01954157,0.13580132,-0.070390634,0.06344037,0.07076833,0.029376205,-0.026176883,-0.0029430669,0.0050801444,0.07759016,-0.093434624,-0.11663412,-0.01550221,0.04971581,0.13812707,0.13791497,0.07638186,-0.04071864,-0.13885921,0.12654689,-0.12408657,0.027819293,-0.09290057,-0.1208521,0.072567925,-0.06965247,-0.07733746,-0.0035227546,-0.13049307,-0.12176174
5,0.012770196,0.0032896383,0.0072383294,-0.072292626,0.1423179,-0.047625978,-0.024229202,-0.09977988,-0.1412313,0.05589953,0.08932744,0.0032128678,0.09258188,-0.047547407,-0.07701577,-0.099270545,-0.1000738,-0.021159086,-0.0627936,-0.060720142,-0.031897802,0.009263744,0.08959112,-0.03462805,0.123945855,0.069677696,-0.07552182,0.061890844,-0.120054804,0.09413588,0.11563433,-0.14760403,-0.07681339,-0.08782392,0.065373555,-0.12620571,0.07054183,0.09159942,-0.14582111,0.022124818,-0.005135186,0.12997788,0.102119595,0.03128934,0.041884817,0.0017456772,-0.11380332,-0.059287548,-0.099386804,0.13366748,-0.12778154,0.015667146,0.0048760427,-0.097467065,0.023141928,0.10231106,0.17473699,-0.016704649,-0.1203892,0.058024596,0.10922661,0.03739156,0.11297813,-0.059416026,-0.098938696,-0.074572004,0.06683519,-0.013076429,-0.034436494,0.028252507,-0.048826367,0.09688366,-0.0674692,0.022432087,0.098125905,0.06513645,0.021953123,-0.021939421,0.014471039,-0.14871395,-0.017341692,-0.024499556,0.03743687,-0.08536631,-0.07780935,-0.06829739,0.13643354,-0.0042989515,0.07178316,0.056393757,-0.07667874,0.14889619,-0.119415164,0.09287432,0.04990111,-0.04123304,0.045905754,-0.008418695,-0.09059741,0.07216834
6,-0.10015306,0.10016962,-0.071512245,-0.062989704,-0.12091309,0.018813947,0.11719031,-0.11809725,0.08036221,-0.10900817,-0.027296057,0.14880177,0.00047376365,-0.12644109,0.09958518,-0.104972,-0.07100801,-0.03174733,0.019228479,-0.10097003,0.011601501,0.0065107415,-0.079803325,-0.09955202,-0.1396748,-0.044839285,0.0999629,0.111516945,0.029839134,0.088943556,0.1488935,-0.07202403,0.09359173,-0.036972165,-0.00354471,-0.12576886,0.007864067,0.15709028,-0.10081435,0.034724835,0.03956954,-0.016401898,-0.04404435,-0.11591508,0.05446224,0.14726229,0.06574231,-0.013621392,-0.03147819,0.03663248,-0.08199525,-0.1401652,-0.10884408,-0.06429644,0.0036799926,0.06826302,-0.11895989,0.05881417,0.06619409,-0.017875537,0.07825514,-0.11781129,0.09797555,-0.05720148,-0.11075485,0.12257678,-0.12603626,-0.063121475,0.06760331,-0.018321361,0.12420433,-0.060973633,-0.043780643,-0.09487731,-0.07088646,0.03155492,-0.008836114,-0.0015171231,0.11788416,0.04046865,0.1308008,0.10311076,0.14085738,-0.020875264,0.019165097,0.10600706,0.000582947,-0.04064208,0.014540776,-0.08520906,-0.006817358,0.093259536,0.01471925,-0.13025169,0.051371593,-0.064484045,-0.009494708,0.052456867,0.1221462,-0.097617045
7,0.07902084,-0.12458879,-0.09301663,-0.10156875,-0.09638358,0.14973216,0.010856738,-0.0131415725,-0.13010693,-0.083565645,0.015145012,-0.10374805,-0.025927907,-0.07706993,-0.09104151,-0.034197167,-0.05478816,-0.010063832,-0.11312434,-0.12176622,0.11658073,0.0046160608,0.12942876,-0.0903349,0.019228688,-0.06587018,-0.00056973984,0.03160826,-0.03437814,-0.07365468,0.06435987,0.1130081,0.08218613,-0.004748144,0.121757366,-0.071488194,-0.058342274,-0.1007439,-0.10577446,-4.047246e-05,0.0002209337,0.048100866,0.049998723,-0.117160425,0.031134635,-0.052432746,-0.07646509,0.1649041,0.08453653,-0.06473252,-0.116403885,0.045075554,-0.11668834,-0.107920125,-0.061186828,-0.022180567,0.10130038,-0.17133932,0.026798809,-0.0033342987,-0.047603633,-0.025217995,-0.15099786,-0.12066409,-0.12739378,0.11633215,-0.0950411,-0.06163746,-0.02421173,-0.11609694,-0.12427232,0.021298124,0.033025328,-0.10363906,-0.08570345,0.07278911,0.092558,0.0084342025,-0.11660942,0.0928096,-0.007625596,-0.07941118,-0.04065278,0.012420981,-0.08268426,0.04954992,0.065853916,-0.08654962,-0.022203911,-0.01256684,-0.028038347,0.06418273,-0.01412148,0.03949412,-0.049671233,-0.09796924,0.03142605,-0.078737386,-0.0020476943,-0.12623027
8,0.040144186,0.0006550903,-0.063148804,-0.109419756,-0.1015013,-0.13241822,0.106228225,-0.03505291,-0.044716444,-0.034482643,-0.14886056,-0.088272914,-0.12216062,-0.12326418,-0.11484231,0.12841347,0.08244509,0.117165774,0.040565763,-0.06630808,0.054342944,0.0451122,-0.046389647,0.08323313,0.027664918,-0.07018191,0.12449274,0.15135343,-0.0631386,0.12608726,-0.058897156,0.15165661,-0.0029197026,-0.01722993,0.13271457,-0.13247049,0.05715598,0.107632376,-0.065836444,0.10702072,0.016951619,0.062550105,0.063986644,-0.087559074,0.06890527,0.11775413,-0.11767086,-0.08278631,-0.037985004,0.10746766,-0.085348845,0.0065145018,0.043140333,0.08984974,-0.078164086,0.007553989,-0.042835936,-0.13031596,0.095525704,-0.10008126,0.11855142,-0.09398924,0.016338645,0.115458846,0.16148041,-0.1211236,0.0691074,0.16419904,-0.14083444,0.078910455,-0.12514585,-0.14979349,-0.029129617,-0.1015367,-0.08644979,0.053367972,0.13521604,0.07951635,0.0747239,-0.07985051,-0.1329996,-0.07170123,0.13815913,0.040736526,-0.082553424,-0.13401677,0.032382715,0.055885773,-0.100203566,-0.14150923,-0.0336355,0.057679012,-0.054854054,0.12530002,0.023797022,0.1195109,-0.11790046,0.031516332,-0.015568409,-0.04919706
9,-0.10204372,0.018851392,-0.13473707,0.04680545,-0.11270447,0.037352152,-0.07492655,0.12754902,-0.059340715,0.14774685,-0.13907672,0.10080282,-0.10307265,-0.015704844,-0.056875102,0.0821553,-0.12146121,0.041597944,-0.12869653,0.06756966,0.017328858,0.09013494,-0.0666165,-0.043390974,-0.02881584,0.03411182,0.007854781,0.063450396,-0.089716576,-0.10714298,0.12951592,0.070930116,-0.031976163,-0.020026984,-0.092175186,0.09183971,0.04164397,0.0068336804,0.056573816,0.038898963,-0.040953018,-0.14858697,-0.11182611,0.058376845,-0.18345022,0.021332877,-0.008096415,-0.1025046,-0.16205768,-0.11350318,-0.051964223,-0.07658814,-0.14404,-0.05013463,-0.012962014,-0.14009069,-0.121450774,-0.09550052,0.1090188,-0.10432498,-0.022079373,-0.06541628,0.013550723,0.052504793,0.04193268,0.026280608,-0.11031206,-0.07916967,-0.1136631,0.08996464,0.05707863,0.080834106,0.12435986,0.13857916,0.078404136,0.062384326,-0.12139945,0.045894377,0.10745033,-0.136519,0.07571068,-0.14545338,0.07664166,-0.044941943,-0.028569086,-0.09764989,-0.12321924,0.11146332,0.10626408,0.09847901,-0.14333762,-0.076503515,0.114095666,0.054851457,0.095554434,-0.07436613,0.09185361,0.060733672,-0.031157997,0.006952511
10,-0.0504466,0.045346405,0.056387506,-0.08459443,0.07690434,-0.10217268,0.15659378,0.14639308,-0.03721938,0.10079354,0.006033445,-0.020682842,-0.12666996,0.101890676,-0.10478767,-0.14570391,0.10967747,0.012576553,-0.0077300705,-0.052454464,-0.06080406,0.06832242,0.08465586,0.13620123,0.11185398,0.036157683,-0.056489136,0.043817367,-0.13769993,-0.042570673,0.093268074,-0.017094418,0.06905456,-0.061921466,-0.08905111,-0.10367249,0.07032904,0.061452117,0.0134780025,0.052702304,-0.025972497,-0.12544021,0.09134638,-0.12560281,-0.08337106,-0.09979188,0.0045480267,-0.035359506,-0.018660747,0.04205797,0.037841145,-0.02426754,-0.079422675,0.13456371,0.17438997,0.10151971,-0.13470134,-0.13298887,0.009663547,-0.039045777,0.002122121,0.09367913,-0.06985641,0.07018297,-0.10625303,0.10710806,0.13126892,-0.096168995,-0.091121525,-0.054416597,-0.031754203,-0.12702411,-0.11056202,-0.041262563,-0.06716956,0.059918024,0.12117336,0.09686126,0.009748516,0.1681175,0.11736557,0.01141418,0.034449507,0.14452703,0.12463319,-0.0055700713,-0.07268004,0.1322171,0.0784535,-0.07650311,0.030933544,-0.050215483,0.09039781,-0.06252229,0.12229019,0.10227952,-0.034083687,-0.15531486,0.09351602,-0.011206176
11,0.14222573,0.047345594,-0.036684386,0.13040884,0.1324693,-0.09036356,0.10046847,0.11310609,0.01327337,-0.12336414,0.1228828,-0.05383046,-0.0278529,-0.07167255,-0.030394744,0.14337991,0.08216273,-0.041254744,-0.009262516,0.012791443,0.06732411,-0.014152518,-0.10959858,0.0059858984,-0.03737366,-0.056055207,-0.04257123,0.031180926,0.15228541,-0.025321716,0.07915418,0.014932132,-0.021671155,-0.07908972,-0.06225645,0.07160844,0.14878015,0.08360583,-0.07449617,-0.08773345,0.046077676,-0.13264848,0.0010560253,-0.06770361,0.0035161886,-0.06679825,-0.030499376,0.061921358,0.12411973,-0.06654805,-0.0020984167,0.14200708,-0.11474117,0.11988703,0.13152005,-0.09465872,-0.010124422,0.11124522,-0.06167923,-0.068453066,0.11130048,-0.08533224,-0.005224376,0.05384118,0.070197284,-0.102203354,-0.10218276,0.07714564,-0.059193753,0.14725351,0.11960196,0.12480816,0.10546288,-0.12517056,-0.1453509,-0.0075135874,0.09659717,-0.109316364,-0.03962248,-0.044354446,-0.009684015,-0.09019798,0.0135083,0.06927063,-0.08859226,0.00089586683,-0.061099004,-0.07524172,-0.120688125,0.0013836779,-0.05187517,-0.052679885,0.058522623,0.10152773,0.0321132,-0.0074603967,-0.14319007,-0.10883178,-0.090371944,0.049575858
12,-0.08279206,0.08143975,0.05195963,-0.039693568,-0.030155642,0.010418636,-0.04933729,-0.15200222,-0.036205053,0.11806686,-0.106249355,0.0434527,0.045359597,-0.0007793235,-0.01066597,0.025540553,0.052066706,0.08399757,0.13693497,-0.03092738,-0.124303006,-0.030227765,-0.04705056,-0.012413082,-0.03230356,-0.13878492,0.023274366,0.04592155,0.09017515,-0.037407033,-0.11490587,0.09337454,0.07009224,-0.049044717,0.004320504,0.06680401,-0.121144034,0.08361199,0.027136166,0.09461956,-0.17334025,0.000693991,0.018490251,-0.1261954,-0.09742554,-0.073605776,0.123969816,-0.046694227,-0.17697652,-0.058365207,-0.0945114,0.01306811,-0.080218665,0.071459524,0.0024680933,-0.12610267,-0.051038735,-0.051458165,0.10429605,-0.0034216605,0.11616943,-0.020052074,0.1371618,-0.082560115,-0.032989793,0.11064377,0.015916862,0.08319783,0.049575523,-0.067155145,-0.14857267,0.0062536183,-0.10426014,0.0021256555,-0.08263928,-0.1545668,0.050846756,0.052379467,-0.14999686,-0.066790454,-0.016831253,-0.11598953,-0.117703326,0.09335691,-0.12270561,-0.13414034,0.09673599,-0.027215282,0.012663542,-0.0125627825,0.10969933,-0.15146638,0.08765681,-0.07469297,0.02788748,-0.06547423,0.018717343,-0.0839979,-0.12482562,-0.05620506
13,0.040207826,0.11713383,-0.01912222,-0.03726654,-0.11612286,-0.16312842,-0.0019166298,-0.015575673,0.074617475,0.115755424,0.09384819,0.119249396,0.0623898,0.0722734,-0.10342334,-0.046897072,0.15278457,-0.063458376,-0.05050539,0.060865127,0.07736624,-0.13360107,-0.011779339,0.08457236,-0.10036558,0.034258872,-0.04514072,-0.09617931,0.07519665,0.0481331,0.056976236,0.11215941,0.13216929,-0.011784075,-0.09990349,-0.030983914,-0.05117099,-0.08174782,0.11581651,0.047476217,-0.13512263,0.06163678,0.07643679,0.0007678586,-0.028229576,-0.16726848,0.1522072,0.067572355,-0.12508497,-0.07909534,-0.03954386,-0.017341882,-0.07409162,-0.020733807,0.096666515,0.020904887,0.080215074,0.13311304,-0.044626564,-0.14486007,-0.006532198,0.14828329,-0.15525638,0.045847178,0.10121252,0.001695833,-0.030718302,0.15653381,0.13150944,-0.1295558,0.09308784,-0.046222344,0.11633214,0.07768105,-0.10238711,-0.07471889,-0.08194981,0.10407777,0.10304712,-0.015534617,-0.1308819,-0.14074156,-0.018977568,-0.09460793,-0.07980928,0.10973962,0.11584376,0.018404156,0.13653667,-0.0142105855,0.15378223,-0.14526069,-0.045207787,-0.028178602,0.041208565,0.10870391,-0.02461997,0.09679122,0.13909462,0.1174227
14,0.10236821,-0.05774814,-0.071870975,0.07169263,-0.038969405,-0.07001208,-0.116579644,0.10425694,0.08569811,0.07041682,-0.045283318,-0.03602119,0.012545686,-0.0017345162,0.068714075,0.11022228,-0.04858927,0.15146177,-0.10712774,-0.013960118,0.020380015,-0.15667726,0.08187335,0.0802327,-0.060348526,-0.048496008,-0.07257167,0.12188828,-0.106638625,-0.010506041,0.03262351,-0.09964726,-0.0848131,-0.039349616,0.033312228,0.0013321992,-0.067360036,0.14703916,0.03232326,0.04884058,-0.13892826,-0.1250856,0.03861391,0.049044367,-0.060316127,-0.0028463304,-0.06386767,-0.10947548,-0.12547737,0.12211501,0.015312047,0.061194498,0.058443416,0.021277498,0.023103826,-0.08357053,0.11691453,-0.1056122,-0.046319906,0.14342843,-0.08779994,-0.069865175,0.051532023,0.019049507,0.1512666,-0.11532475,0.055676036,0.038346406,-0.068504214,0.03646606,0.051726785,0.13566187,-0.07642472,0.09303413,0.077485874,-0.0759563,0.037466582,-0.073591836,0.14291148,-0.06423549,0.058036096,-0.058896355,0.090326466,-0.022790218,-0.03876243,-0.07047285,0.09253037,-0.11983771,-0.031498957,-0.07073372,0.034825444,-0.067320675,-0.05887627,0.12885027,0.11914269,0.12858859,-0.018858293,-0.0151278395,-0.07004876,-0.07583312
15,0.036017306,0.1467259,0.05144416,-0.0380943,-0.04062565,0.12250521,0.061456367,0.008707926,-0.060760174,0.12923363,-0.10104306,-0.031479266,0.0018058785,0.022664754,0.107207514,0.13987301,-0.074675605,0.008662361,0.038636293,-0.13714671,-0.0802852,0.0968076,-0.13555062,-0.03168843,0.031139845,-0.15140676,0.01912474,-0.13644403,-0.06917272,0.034069862,0.15569337,0.0808115,-0.13839094,0.045830633,0.0019532135,-0.13394801,-0.13751571,0.1488796,0.0034790807,-0.11550258,0.10484642,-0.052385163,0.032501318,0.11868996,-0.10427463,0.065285526,-0.100262456,-0.029450163,0.026654663,0.14433488,-0.09363226,0.01154371,-0.078912325,-0.0848204,-0.121318996,-0.1205624,-0.016858866,0.10413266,0.12568699,0.06816985,0.09540556,0.043268513,-0.114376254,-0.078060865,-0.0824854,0.049201585,0.041231148,-0.040981542,-0.09458712,-0.077192545,-0.14189316,-0.1213498,0.14171842,-0.095790125,0.13015388,0.014962062,-0.0727897,-0.06289461,-0.012507538,-0.08275675,0.12922087,-0.09062664,-0.023492878,0.15914962,-0.12702365,-0.027913537,-0.020200964,0.040664952,0.07576176,0.14797467,0.09795506,0.15681618,0.034651563,0.12896611,-0.035183363,-0.12930681,0.036888342,0.02550638,-0.111828156,-0.063549966
16,0.09894672,0.15204005,0.05931058,-0.028576767,0.13495944,-0.10064031,0.0032975983,-0.12648736,0.12927243,0.043882564,0.11752497,0.021943538,-0.030737624,-0.11525941,0.116308294,0.017222797,-0.0118701495,0.084204584,-0.01660487,0.013851369,0.10799069,0.116933234,-0.011917708,0.16438635,-0.13413759,0.03869415,0.15551631,0.09446598,-0.11497428,-0.0577066,-0.09375208,-0.08970667,0.14152148,0.14215669,0.067386866,-0.035225667,-0.07188099,0.101434544,0.16897184,-0.01962234,-0.11623753,0.07428412,-0.05001826,0.047657155,-0.011358678,-0.000114527276,-0.12420369,-0.1183233,-0.070943706,-0.13108164,-0.116650276,-0.15489787,-0.1438154,-0.12460075,0.10533094,0.047740996,0.1429498,0.05321636,0.096304886,-0.08952885,0.035645187,0.01630415,-0.14948706,-0.13775559,-0.0029808157,0.15123731,-0.077181995,0.14789131,0.16080436,-0.12883636,-0.12351462,0.09523295,0.14365204,0.10835971,-0.13377126,0.033070322,0.03436976,0.038978815,-0.005351111,0.08659017,-0.12050782,0.14465368,-0.06852451,-0.09951708,-0.05820807,-0.04434686,-0.040617876,0.12196254,-0.04173828,-0.018274102,0.10151816,0.052537676,-0.1073632,-0.12883033,0.14786384,0.05446391,-0.077523865,0.07644076,-0.053909928,-0.060612068
17,0.1595792,0.10486618,0.022738615,0.04655863,-0.11225159,0.0865596,-0.04340922,-0.08937259,0.10804391,-0.09382094,0.0434902,-0.14758743,0.0047023618,-0.12709498,0.14039487,0.13241231,0.112837255,-0.03887109,-0.09461981,0.024604205,0.037308756,0.02746915,-0.051887214,0.08074064,-0.14425838,0.09765934,-0.0036405453,0.07300223,-0.048515316,0.10981049,-0.1078558,0.098653585,0.14758447,-0.118770376,0.13785228,0.10571934,-0.11967008,-0.08718408,0.040049758,-0.085997164,0.012690113,-0.14121379,-0.010977535,0.08274245,0.10804104,0.10805507,-0.10097401,0.12157687,-0.039070595,0.08080133,-0.009943898,-0.018226512,-0.008321475,-0.036904193,0.18305032,0.039804455,-0.036682915,-0.072580025,0.012128027,0.024249868,0.07917817,0.08591916,-0.06811165,0.084346816,0.057719443,0.17694016,-0.10758573,-0.08977169,0.113407746,0.10032518,0.1143397,-0.13826396,-0.07263281,-0.11444046,-0.021504823,0.030798068,-0.08452341,-0.13872923,0.0855705,-0.0051646214,0.12900959,-0.13379568,-0.03541756,0.043516822,-0.12159891,0.0042321472,-0.03541865,-0.13619985,-0.0029884474,0.09238639,0.1498607,0.017509833,0.03328022,-0.109716095,0.13555631,-0.07922928,-0.1411563,0.0865578,-0.05831713,0.016867338
18,-0.01091165,-0.015880328,0.08244357,-0.043061767,0.118668795,0.057969958,-0.11539959,0.07940802,0.0005755696,0.029850228,0.15480937,0.008172468,0.049762107,0.10395407,-0.14150856,-0.10394624,-0.1592677,-0.09980176,0.044096872,0.08277793,0.12879345,0.061102152,0.117068335,0.12980574,0.016145274,0.013950604,0.14290342,0.16192494,-0.061841346,0.08302088,-0.062277414,0.009403117,0.039967388,-0.00024466854,0.0008922563,0.12715323,-0.0108661475,-0.026938338,0.026917798,0.11677986,-0.013213727,0.06344282,-0.007222156,0.026089214,0.11292189,0.045277655,-0.030231398,-0.08703336,-0.053593785,0.12798314,0.06873554,0.10501603,-0.07298327,-0.10929361,-0.13942428,-0.031495046,0.027525146,-0.14927627,0.12825386,-0.11062629,0.014729016,0.052925806,-0.031002598,0.18860415,0.03865506,0.10396991,-0.112641975,-0.059173588,-0.10221367,0.0029332244,-0.094016224,-0.11909918,-0.09365131,-0.02165536,0.05907488,0.089321375,0.0014346378,0.024340078,0.029363807,-0.099959575,-0.042767923,-0.12911871,-0.02552857,0.06163719,-0.03799793,0.13734248,0.13654463,-0.05831191,0.1562611,-0.07695786,0.041665204,0.10017186,0.07836606,0.0158012,-0.11183028,0.10708784,0.08919828,0.021990577,0.05391842,-0.20165285
19,0.06902081,0.10268386,0.08234395,-0.07165862,-0.03540748,0.14274526,0.115940645,-0.041317593,0.029784651,0.14213519,-0.04800132,-0.017373841,-0.18463573,-0.009270144,-0.005973166,0.13209426,0.13280375,0.011347116,0.0066281906,-0.004090455,-0.112540275,0.018884206,0.14463866,-0.07131954,-0.029258333,-0.08963091,-0.08444797,0.08308182,-0.048498247,-0.09083136,-0.03371805,0.096282385,0.107224904,0.04731432,0.04491285,-0.14991494,-0.009022914,-0.06844941,-0.18177207,-0.06799877,0.13868314,0.002515557,-0.12122193,0.0700421,0.07013497,-0.0055579757,0.045721393,-0.16717741,0.14169675,-0.089938425,0.1296234,0.08548229,0.17704941,0.025076019,-0.11547525,-0.017399104,0.11956076,0.21447235,0.06540719,-0.01122558,-0.11478206,0.069236845,-0.08847645,-0.0060577975,0.06911625,-0.11830703,0.06051167,0.12213229,0.011481054,0.04249584,0.063943215,-0.041146807,-0.0033477112,-0.0097116195,0.1335727,-0.14175147,-0.039146878,-0.074363306,-0.032780703,-0.10936506,-0.012392529,-0.054058447,0.033760697,-0.11919854,-0.04431124,0.037365068,-0.108173035,0.14376219,-0.13450287,0.13844942,0.09813544,0.009128179,0.0065382384,0.084744476,0.092108235,-0.12367844,0.040627275,0.09644795,-0.007509625,-0.13887055
20,-0.129985,0.1172051,0.06620663,0.049851093,-0.00311801,0.13279998,0.11249545,-0.0931402,0.12303072,-0.13759622,-0.108110845,-0.04631618,0.09212048,-0.050314274,0.08208189,0.05196794,0.16151665,0.13204454,0.10421049,0.12754825,0.1311681,-0.0002104516,0.06001795,0.14352868,0.072558485,0.09128459,-0.1085788,0.12953225,-0.05895254,0.07393903,0.16648096,0.022639731,-0.001405125,0.021617984,-0.0017230879,-0.016350016,0.112093754,0.029112915,0.10912642,-0.018372076,0.089509845,0.08076443,-0.035605233,-0.02679441,0.06639836,0.14490876,0.05147145,0.13974015,0.07617039,-0.003995909,0.01027473,-0.13017231,-0.14556174,0.027698722,-0.0016893474,-0.095842,-0.13668029,0.15398988,0.08458953,-0.121996626,-0.07532522,0.09342382,-0.09251025,0.04781208,-0.14779755,0.03258447,-0.03081935,-0.022344302,-0.061043,0.010896991,-0.054808374,-0.03710105,0.06511608,-0.10137519,-0.15657398,0.17441183,-0.039602827,0.14220336,-0.04755102,-0.12501498,-0.047755778,-0.13093288,0.009243301,0.1274207,-0.12980507,0.10730542,-0.024459992,-0.0759932,0.028961914,-0.09370336,0.003976028,-0.018484453,0.052912537,0.06403134,-0.093491375,0.019585371,-0.037359864,0.079680465,0.019947138,-0.07171539
21,0.08071631,0.12878652,0.076517634,-0.13949874,-0.056288827,-0.14269327,0.09022632,0.049875744,0.014958706,0.09046428,0.07061368,0.11709727,0.08725656,0.08771637,-0.056115452,0.038881257,0.113829106,-0.11255876,0.07375894,0.12232766,0.003773164,-0.100468144,0.15671913,-0.15543237,-0.103174716,-0.1700273,0.16938321,0.056659605,0.021210032,-0.0020584706,0.16014455,-0.012738928,-0.07766139,-0.011461015,-0.022275629,-0.15534216,0.115406714,0.12040881,-0.1626303,-0.115406014,-0.0059261266,-0.15321851,-0.00077006465,-0.12229333,0.090118274,-0.13652663,-0.064762294,0.04566846,0.034501977,-0.013600538,-0.11017633,0.06791027,0.103045665,-0.07202214,0.096312374,0.047586795,-0.0007228669,0.11203925,0.15077135,0.08285569,-0.12254518,0.01670868,-0.0077694547,-0.09322261,0.12841603,-0.03295815,-0.14126214,-0.13579078,-9.3725655e-05,0.022449207,-0.139353,-0.057082474,0.026982266,0.12677445,0.13825844,0.073119566,-0.056087002,0.1294759,0.009078812,-0.028009586,0.0008038389,-0.04904253,0.15227988,-0.050324403,0.042993855,-0.07767972,0.046009995,-0.10713142,0.11114614,-0.056269374,-0.01835345,0.050579883,-0.11871592,0.04559335,0.101582035,-0.02460248,-0.062385064,0.16819951,-0.0072554704,0.09645637
22,-0.0039534057,0.113666646,0.084191315,-0.124898836,-0.105338044,-0.08281339,0.11854439,0.057958394,0.11685758,0.04355922,0.017480638,0.15257038,0.100033775,-0.026901718,0.012507845,0.09699804,0.099479064,-0.006285277,0.013376031,-0.0127825,-0.1031563,0.025577812,0.03718745,-0.03510513,0.10984299,-0.11497105,-0.05496625,-0.07323727,-0.07993679,0.020072171,0.15115161,-0.12571418,-0.10168369,-0.026218235,-0.07466866,-0.013819574,0.017515555,0.052856937,-0.15200208,-0.12039373,0.13254789,0.030847928,0.102256365,0.082594,0.10475291,0.15023519,0.054810688,-0.08504043,0.1621905,0.07228061,0.1465291,0.13401164,-0.08947625,0.06944831,-0.09207812,-0.094824314,-0.041656274,0.032762837,-0.13392463,0.11395044,0.13127828,0.04197026,0.02960484,0.13458228,0.02688578,-0.0037015714,-0.05159647,-0.0827494,-0.0044371895,0.10640774,-0.0580917,-0.059845574,0.12350775,-0.036870863,-0.14179093,-0.09793672,0.0920651,-0.07020327,-0.11686646,-0.016789306,-0.057119552,-0.02248205,0.0019636333,-0.019836308,-0.023260547,0.043874506,-0.119383544,-0.07932639,0.03778569,0.1069576,-0.12058081,-0.109489396,0.040599227,0.03767566,-0.11297697,-0.11382962,0.06428673,-0.028189762,-0.12642728,-0.045381665
23,-0.08078126,0.009214242,-0.058769133,-0.1765919,0.024554946,-0.0126371775,-0.06991514,0.111591145,-0.009675225,-0.05930833,0.057050884,-0.0072231456,0.050195213,-0.121248685,-0.14869818,0.0071008317,0.1323143,0.12165215,0.12740631,-0.070833385,-0.08997746,-0.027225493,-0.10260525,0.016993808,-0.12268306,-0.12156886,-0.12563835,-0.12262619,-0.019759782,-0.0362116,-0.09722611,0.06308652,0.06406275,-0.13752732,0.014149392,0.09505738,0.042198997,-0.12574993,-0.13576171,-0.026276065,0.08683691,0.10127239,-0.006838662,-0.09634273,0.11636345,0.06600362,0.13636443,-0.012443078,0.04843329,-0.12788229,0.01738292,-0.077169806,0.071421586,-0.004809808,-0.081481345,-0.025389988,-0.06576575,0.0090209255,-0.08890439,0.10776263,-0.04417927,0.10508523,0.019455193,-0.15107745,0.13664688,-0.1232399,0.12434885,-0.01389413,-0.06982625,-0.043286327,0.06804246,0.13435091,0.14989519,-0.04918864,0.012265299,-0.036878448,-0.04784969,0.002013228,0.014840884,0.050004896,-0.13070527,0.079484545,0.059837554,0.12881306,-0.0681619,-0.1507223,0.14604253,0.012093679,-0.05072062,-0.0008022942,0.063599296,0.12779589,-0.059638735,-0.098236226,0.13070637,-0.08388383,0.12877926,0.14114317,0.14619274,0.06535889
24,-0.13702014,0.05690219,0.030025888,-0.04936488,0.117945194,-0.11381258,0.035811212,-0.04608191,-0.033134807,-0.139763,-0.028507236,-0.07764736,0.04533637,-0.06846822,0.032190356,-0.07211912,0.08459115,-0.013878788,-0.063487634,0.09449808,-0.06657195,-0.045963034,0.031872187,-0.11609134,-0.0087180585,-0.16283698,-0.1005834,-0.10243832,-0.067739666,-0.065730676,-0.0513155,0.060731277,-0.05782651,-0.14644203,0.10315217,0.04797977,0.09495894,-0.14652742,-0.053319518,-0.040323798,-0.06136335,0.06055813,0.10008457,-0.18329704,0.008376136,-0.039963044,-0.042541992,0.078637846,0.08292009,0.021774812,-0.055172857,-0.10207238,-0.096438155,-0.057928037,0.032789513,0.08524142,0.10596466,0.0004632963,-0.114928484,-0.03141738,0.066535406,-0.07951094,-0.10447632,-0.14606108,-0.042387642,-0.15738331,0.0068822987,0.069737375,0.014734424,0.11852918,-0.0071813394,0.02786669,-0.13478561,-0.05526527,-0.10373416,-0.02316594,-0.07271138,0.10795949,-0.03264141,-0.03276557,-0.08882036,0.12925701,0.030190755,0.06565542,0.070246115,-0.13170716,-0.05993019,-0.08367942,-0.0011460074,0.012077658,0.057688683,-0.12713993,-0.0044646873,0.035438772,0.025116196,0.007416643,0.12808584,0.0817992,0.100893855,0.06067579
25,-0.11623932,0.10161477,0.087440304,0.100219004,-0.09347581,0.06833716,0.0065705394,0.041932534,-0.009169056,0.010408213,0.043359008,0.1155482,-0.111562915,-0.1271448,0.13648619,0.019646408,-0.103666656,-0.112029605,0.026443249,0.13482465,-0.010987858,-0.09357993,0.049005788,-0.14114913,-0.09834374,0.11999088,0.06562719,0.057150204,0.042382088,-0.047721792,0.116077565,-0.12754132,-0.08575364,0.14647244,0.08375838,-0.14414677,0.06350424,0.020470884,0.17050546,-0.07606465,0.09645555,0.09179544,-0.020517299,0.15080187,0.153993,0.1017333,0.14296517,-0.05875749,-0.036062177,0.09180971,0.17087829,-0.094832495,-0.095802814,0.12826985,-0.059973255,-0.12170685,-0.115613714,0.13526142,0.12734401,-0.14779145,0.06900052,-0.10039135,-0.107484706,0.06321227,0.02363464,0.031806957,0.01579032,-0.12689596,-0.11106712,0.064085044,-0.005762852,0.12941505,-0.1415198,-0.059623245,-0.09041417,-0.08922729,-0.014736943,0.00013009064,0.06460069,0.064609736,-0.046201047,0.055179898,-0.09445707,0.037713617,-0.14676411,0.08623263,-0.14814737,-0.056201294,-0.012028212,-0.023875624,-0.1236543,0.054790348,0.0077872826,-0.0015145735,-0.09430742,-0.008783408,0.1133845,0.01434331,0.033545125,0.015535327
26,-0.17011112,0.1101368,-0.06713347,0.0049299505,0.15277228,-0.05294434,0.12468676,0.0016142629,0.13442704,0.10587935,0.0029449188,0.005737053,-0.08150307,0.021857496,0.084912956,-0.094754755,0.085565045,-0.035235777,0.018379018,-0.11684043,-0.024850523,0.027862754,-0.00886571,0.046435893,0.015959976,-0.107316874,-0.10626453,-0.12541318,-0.053220347,-0.08683586,-0.04993402,0.111271486,0.041852154,-0.029621707,-0.09808154,-0.14801203,-0.048668884,-0.077760905,0.054356728,0.12211622,-0.016588753,0.03611178,0.14620852,-0.122407496,0.13781254,0.0833098,0.008309579,-0.07604558,-0.08585306,0.06069294,0.0046041687,0.12946263,-0.020120952,0.09611904,0.13266711,-0.046280604,-0.077895254,0.13161139,-0.1093025,0.03593171,0.015018907,-0.012654577,0.0074949292,-0.14411248,0.13275492,-0.1822522,-0.15852372,0.04181185,0.015344787,0.06455364,0.11358894,-0.13255599,-0.13114363,0.1439911,-0.08381524,0.10022969,-0.004018973,-0.10790682,0.02527986,-0.11688068,0.09490047,0.039341882,0.005129348,0.024816269,0.08021824,-0.07119545,0.008067355,0.0643361,-0.01147342,0.031233905,-0.14360823,-0.085685916,-0.07931351,0.13629226,0.06453693,-0.14704518,0.20026118,0.12343545,-0.14102656,0.026290702
27,-0.06939184,0.104601376,0.049345907,0.11009849,0.020204455,-0.059509788,-0.1257777,0.067110136,-0.07762708,0.018934973,-0.1419495,0.06600463,-0.010741498,-0.061793048,0.0036469994,-0.027643738,0.069208056,-0.06501357,-0.1740961,-0.09147937,0.08543996,-0.08158196,0.024107426,-0.13014859,0.15653579,-0.16302808,-0.02522003,0.18015614,0.12517174,0.0731338,-0.1316679,0.056146722,0.06491655,-0.11085673,0.058495168,0.030215507,0.045981403,-0.09762969,-0.03667808,0.119027674,0.041026365,0.046878736,-0.13187103,-0.005816681,-0.034839664,0.042541057,-0.03458254,-0.07920459,-0.05079166,-0.0857588,-0.0023403603,-0.0066583226,-0.085679136,0.13006961,-0.13428839,-0.13374506,-0.09189508,0.10916842,0.08427355,-0.13043024,-0.097637974,0.10712459,-0.07330562,0.03553857,0.10674324,0.020426478,0.07761858,-0.13419212,-0.04982201,0.031264942,-0.14734958,0.0118522,-0.07723148,-0.010388785,-0.040713195,-0.12183488,0.044210397,0.039526474,-0.13138601,-0.08438805,0.101509705,0.13969795,-0.031712145,0.05976685,0.091973215,0.069680095,-0.030679904,0.103704646,-0.0100846635,-0.042923164,-0.14536664,0.027436143,-0.020072345,-0.118284516,-0.01939203,-0.0091228625,0.047148712,0.025413217,-0.08987577,0.089414984
28,-0.056784432,0.05906192,0.14589526,-0.021585157,-0.03408433,-0.103972256,0.14465863,0.06619623,-0.12664726,-0.08917529,0.10747642,0.0025169395,0.026848037,0.0019294727,-0.1438352,-0.07032803,-0.08050166,0.07407218,0.055040706,-0.084881715,0.1657999,0.14012437,-0.06654886,-0.06885649,-0.029340038,-0.09811599,0.13645023,0.05323462,-0.056364626,-0.010062815,0.10118022,0.025627032,0.023987215,0.03663784,0.15444168,-0.10003154,-0.108179264,0.02135086,0.10575053,0.048682615,-0.032787334,-0.06177109,-0.06555473,-0.0791604,-0.12602223,0.044279452,-0.028960716,-0.10190194,-0.08949023,-0.14067352,-0.0754311,0.043307584,0.14216352,0.15399078,0.17820956,-0.027177043,0.0014979513,0.054695636,-0.10601806,-0.08424484,0.11890923,-0.038579375,-0.044893987,-0.066835955,-0.012654859,0.06660744,0.066064686,0.092506826,-0.046251822,-0.09208841,0.040775668,-0.12605771,0.12572734,0.030513197,0.027233597,0.019054852,-0.011856135,0.008386014,0.06623609,0.012353479,0.15778618,0.1530257,0.086480916,-0.0152480705,-0.014135797,-0.08554554,-0.10288395,-0.088380784,-0.11712084,-0.05704961,0.11988167,-0.048452687,-0.13286248,0.008718824,-0.057708554,0.086323306,0.009071064,-0.04169955,-0.007966199,0.043174744
29,-0.12707289,-0.12707895,0.10542569,-0.063644744,0.1484881,0.154658,0.044174146,-0.1384411,0.009713178,-0.025343673,-0.04150648,0.10150364,0.06193503,-0.04147563,-0.104020394,0.13360848,0.06404294,0.09236676,-0.1070026,-0.13276522,0.008572428,-0.04136302,0.09666886,0.12099745,0.016189167,-0.029852163,-0.08918221,0.111661196,0.062185094,0.13525678,-0.08021371,-0.13134067,0.096921906,-0.036920186,0.1144585,0.08139727,-0.07476631,-0.08193533,-0.07749095,-0.13730665,-0.12781397,-0.012018532,0.056130227,0.059444215,0.02301774,-0.031098356,0.023792077,-0.021883266,0.117796786,0.0728517,0.14168735,-0.04989469,0.027768161,-0.14064431,-0.06998264,0.12311226,-0.13257194,-0.01964597,-0.12788393,0.10011249,0.018508693,-0.1033502,0.06892416,-0.082002915,-0.11059355,0.061412137,-0.15960588,0.14979717,0.033338524,-0.04296699,-0.10982899,0.09265749,0.007925108,-0.09200846,0.08158384,0.12520479,-0.1179077,0.06834532,-0.0034272734,0.104092605,0.0087493835,0.11030004,0.04934418,-0.05842729,0.082943946,0.007516999,0.110886835,-0.08237493,0.12636001,-0.035686884,0.1317496,0.016354274,-0.112068005,0.009765711,-0.070103996,0.15326606,-0.03238093,0.052768,-0.04284963,0.051434997
30,0.12984776,-0.0189574,-0.08802354,0.020328011,0.10164057,0.007247597,0.0020214617,-0.0030060536,-0.090823695,-0.10583645,0.06537112,-0.030871492,0.14056195,0.1497427,-0.023554381,0.14978847,-0.0817491,0.13813572,0.16153097,-0.07256897,0.12150899,-0.04523531,-0.15238279,0.014050312,0.14764905,-0.105841056,0.035691105,0.12194294,0.09124068,-0.06912754,0.15506606,0.008679045,0.06743808,-0.032617837,0.060737215,0.028867157,-0.048253402,0.056734264,-0.086887166,0.10652124,0.0554685,-0.072825454,0.01853039,0.11458762,0.15018985,-0.0549952,0.082152426,0.05066764,0.03214983,0.08072035,0.05948297,-0.07012288,-0.13190192,-0.026003629,0.09490578,-0.07136772,-0.0149703175,0.035148427,0.07470856,0.12122319,-0.086204395,0.054940894,0.09176815,0.04259931,0.118380636,-0.12024574,-0.07933293,-0.09504466,-0.016308991,-0.0266562,0.07191942,-0.053340424,-0.08804628,-0.07459819,0.12674136,0.10728011,0.0239907,0.13880159,-0.07327255,-0.06222072,0.1609797,0.02022929,-0.098087594,0.021759897,0.114754364,-0.1403941,0.015249575,0.016080333,-0.02113992,0.119128734,0.04103635,0.08902637,0.12619318,-0.058840394,0.097399116,0.05876089,-0.11412392,-0.1369954,0.09884338,-0.01145991
31,0.104141794,-0.06307712,-0.16241722,-0.14963421,0.043650873,-0.13330561,-0.12196956,-0.039275784,-0.005669229,0.12322173,-0.122558445,-0.061456356,-0.024469493,-0.102715336,0.14455353,0.12824677,0.1733629,-0.0013595934,0.0019523398,-0.08565795,-0.01538672,0.14342453,-0.101534866,0.08794429,-0.02679259,-0.092580505,-0.09878059,-0.028430032,-0.0040464625,0.16493489,0.064668685,-0.007491356,-0.036240205,-0.056436803,-0.022968065,0.10971852,0.06542472,-0.07680266,-0.11414023,-0.115211554,-0.041311495,-0.005490997,-0.124111995,-0.041525584,0.016950004,0.11062348,0.11188848,0.13249592,0.010383919,-0.0054308237,0.09184647,0.033571858,0.0703369,0.05138016,0.06362969,-0.041708585,-0.07035277,-0.028810835,0.09757525,0.01174703,-0.07020063,0.091813564,-0.042657327,0.0038949142,-0.10442346,-0.13292302,-0.113719195,0.054702748,0.133587,-0.09498165,0.13244839,-0.13733101,-0.088233426,-0.10595442,-0.08784811,0.15331185,-0.0019273226,0.16421768,0.075091414,0.072665766,-0.039436974,-0.036858425,-0.16657344,0.12630364,-0.11323491,0.12855113,0.13912842,-0.1064542,0.11279896,-0.09164318,-0.11799259,0.1657201,-0.0029536055,0.10598585,0.12962717,0.008883166,0.00782429,-0.049806368,0.08528267,-0.08796014
32,-0.14679521,-0.11057808,-0.11392853,-0.1609233,-0.12010073,0.091860555,0.07517425,-0.07538033,0.017661478,-0.0921799,0.11044533,-0.08894781,-0.18307069,-0.06332218,0.055721488,-0.08875045,-0.11689854,0.038290787,-0.062896505,-0.115216665,-0.03054044,0.05263388,0.12733166,-0.13977428,-0.0011609405,0.08695302,0.029681291,-0.064422145,-0.047990642,0.051673677,0.07278037,0.002416001,-0.061709143,-0.14323974,-0.09462407,-0.030547962,-0.023091603,0.0967319,-0.17199676,-0.045316074,-0.12002917,0.030354263,0.1394382,0.09020322,-0.07791623,0.030432794,-0.106367,-0.0952261,-0.07118084,0.0060135303,0.024516609,0.012509704,0.13973191,-0.14761382,-0.13822044,0.0081844665,0.054696757,0.03674115,-0.06816955,-0.04688771,-0.16706069,0.07256989,-0.13817054,-0.0059857406,-0.11190712,-0.1287362,0.15665814,0.059487946,0.0012061485,-0.017090041,-0.008217632,0.10313386,-0.033400312,-0.014919742,-0.08389052,-0.12748383,-0.052352738,-0.004518242,-0.100813925,-0.15830049,0.14144601,-0.12017424,0.078659624,-0.1824637,0.06975981,0.03550197,-0.068923764,0.14010903,0.09395083,0.039774407,-0.11933182,-0.16110604,0.009076546,-0.09911382,-0.15899372,0.1448648,0.0903383,-0.045494173,0.09611453,-0.02184671
33,0.0049071806,0.09299671,0.17949437,0.112825,0.01791868,0.11824396,0.14074826,0.063304916,-0.049434826,-0.022857644,0.041836534,-0.06579032,-0.08265684,-0.0022712802,0.09170828,0.12532596,0.14382403,-0.0076074316,-0.1141497,0.0024442202,0.06604195,-0.002083623,0.061104793,0.10440444,-0.08426296,0.069621585,0.13785659,-0.15162842,-0.015544044,-0.08629515,0.019785557,-0.021611754,-0.10419695,-0.04833847,-0.10945751,0.14319628,-0.061921015,0.14787783,0.09900602,-0.064737365,-0.039740514,0.040690154,-0.06365973,0.0840876,0.018575447,0.1374831,0.064370565,0.010355338,0.1611019,0.01793891,-0.0029260754,-0.12183849,-0.0484362,-0.036701776,-0.05844403,0.04055086,0.11137205,0.14415313,-0.042652898,0.084867574,0.0052544596,-0.14342847,-0.08848942,0.15954353,-0.14125076,-0.111027874,0.11615619,0.012858268,0.023573011,0.04285772,-0.011329078,0.13701549,0.081731856,0.12225676,0.12216461,-0.12044883,-0.1365009,-0.14986728,0.04930179,-0.054841034,0.09751436,0.013269728,0.09751813,0.12522773,-0.11191931,-0.05216401,-0.124676496,-0.06517387,0.09493125,-0.073347285,-0.07130368,0.009943808,-0.08903938,0.011432278,0.08709326,0.032437302,-0.086922415,-0.04908676,0.10623667,-0.034952242
34,0.013528006,0.030473884,0.015714334,-0.05533551,-0.163849,0.09186905,0.032957036,-0.14257853,0.114643775,0.020036863,0.14784476,0.10944876,-0.12754878,0.055297386,-0.15995006,-0.06933524,0.10167809,0.107803844,-0.029929072,-0.042874873,0.13392776,-0.07411139,0.010681164,0.0700116,0.04460591,0.10222977,-0.16635786,0.16225834,0.07754937,0.049035758,-0.052349385,0.00956209,-0.07436273,0.03400756,0.06389166,-0.04192171,0.012301242,0.018669907,0.13931854,-0.096555576,0.004164536,-0.050528746,-0.10477269,-0.053549457,0.13927642,0.03628427,-0.009412227,-0.04846267,-0.09321286,-0.096540734,-0.014434927,0.08763915,0.010327371,-0.056796327,0.14574835,0.013037828,0.108424515,0.11255594,-0.07586917,0.08553091,-0.17546599,-0.11507425,-0.14655682,0.11628954,-0.107622296,-0.13128568,0.048907094,0.045081593,-0.17455827,0.110706724,-0.078843474,0.03432824,0.0061152265,-0.05860837,0.079826616,0.034503493,0.15282628,-0.039594766,-0.16032264,0.08318396,0.09327507,-0.113947585,0.115395114,-0.0031330597,0.12025182,0.050339088,-0.10126849,-0.047745552,0.0076260087,-0.07894627,-0.08915777,0.083865784,0.074670315,0.013847827,0.02901834,-0.022925623,-0.090997666,-0.09860492,-0.01731326,-0.13315396
35,-0.020422002,0.095056154,-0.13486473,-0.07268247,-0.012042587,0.06389857,-0.04040259,-0.056197792,-0.11435007,0.06935873,-0.052773308,0.1268302,-0.054042056,-0.048212282,-0.08251621,-0.06429505,-0.055308376,-0.06573863,0.096859224,-0.028933734,-0.04305366,0.05271458,-0.027678903,0.028371274,-0.14789948,0.06217572,-0.03086542,0.038291432,-0.1272023,-0.07210294,0.11422675,-0.08579126,0.055764772,0.06671217,0.07684317,0.06799984,-0.03544288,-0.06472488,0.13224825,0.030656137,-0.012541221,0.045719653,0.08176142,0.110233635,-0.020121386,-0.12797047,0.095277704,-0.099238776,0.10314118,-0.07299679,-0.059862107,-0.09509471,0.073655754,-0.049262613,-0.16920453,-0.030436268,-0.0826469,-0.14284985,-0.01586137,0.0068303947,-0.0877441,0.14334923,-0.084979616,-0.11011064,-0.091821,-0.09175915,0.017544938,0.009808311,-0.03225358,0.043003283,-0.02044835,0.09103999,-0.10924278,-0.14084992,-0.1496417,-0.012966522,-0.021054035,0.11727044,-0.003485404,-0.0109803695,-0.068715975,0.045643326,0.064644724,-0.14908768,0.13174716,0.13978273,-0.06953733,-0.12296836,-0.03408157,0.013904976,-0.06674757,0.11005498,-0.12267637,0.11199553,0.03030512,-0.023631735,-0.10877928,-0.060009338,-0.080645375,0.06577046
36,0.023927514,0.1397789,0.055591922,0.11511834,-0.11615295,0.007621425,0.004550691,0.12985907,0.015035023,-0.03662671,-0.07514344,-0.1374375,0.17396998,0.10833283,-0.08181302,0.05908818,-0.06419897,-0.093973555,0.07265163,0.09213225,-0.05267271,-0.13240297,-0.08268066,0.116995454,0.0035884308,0.15770766,-0.0057398174,-0.0009133022,-0.09074086,0.058979213,-0.09713832,-0.03312368,0.1208699,-0.0035698696,0.12996432,0.114666045,0.09309964,0.16068444,-0.062188342,0.1440605,-0.0030226375,-0.09706333,0.073557846,-0.12162958,0.15633564,-0.062460024,-0.13979661,-0.02009553,0.08223042,0.011578115,0.068791695,0.09405513,0.14347526,-0.052046098,0.09198701,0.02865526,-0.013577749,-0.012502612,-0.14315999,0.087435946,0.014860985,0.05210566,-0.056535225,0.024499586,-0.019378476,-0.08303671,-0.018998643,-0.022368776,0.052106988,0.14791477,0.13148983,-0.06058906,-0.028963389,0.06319212,0.03335678,-0.02100455,0.026294162,-0.048097964,-0.020298399,0.15576245,0.09877431,0.008827262,-0.11007831,0.14015241,0.07737245,0.15195686,-0.07643728,-0.033482093,0.14561753,-0.05576767,0.12884547,-0.05772383,-0.03726958,-0.037750993,-0.05344398,-0.006434815,0.100637965,-0.11584334,0.057781186,0.13028876
37,-0.018342547,0.106504865,0.037577353,0.076748215,0.09949097,-0.12447031,-0.0067493743,-0.0061273617,0.04104334,-0.0009018219,0.049508166,-0.026549708,0.01933489,-0.13366286,-0.060845345,0.049726356,-0.110727586,-0.1050638,0.092918776,-0.030985067,0.0427016,-0.014153008,0.033917833,-0.04520035,-0.1155964,-0.030414857,0.13183346,-0.08050682,-0.14037475,-0.085958466,-0.032218985,0.045353677,0.056129623,-0.037238862,0.12026991,-0.029783478,-0.098251306,-0.0065911594,-0.11705666,0.038349167,-0.05464093,-0.07421766,-0.15597188,-0.01297244,-0.006457952,0.005450268,0.0734852,-0.1450046,0.15081105,-0.09889657,-0.008114836,0.041431945,0.058825854,0.05345269,-0.09702554,0.10897758,0.10991769,-0.16835433,0.1089526,0.066564485,0.066304706,0.03005355,0.091346554,-0.097346105,-0.10144899,-0.040627066,0.06520396,-0.09332243,-0.07900177,-0.1036071,-0.044762544,0.084425196,0.063086815,0.12821265,0.11976451,-0.028034788,-0.059503537,0.0619042,-0.09573504,-0.028358012,-0.012618657,0.07632479,-0.088358976,-0.003292229,0.013571852,0.08716399,0.06501432,-0.08340521,0.13646926,-0.01316005,0.010871649,-0.016837686,-0.06413497,0.14743604,-0.053235814,0.09438261,0.16065738,0.026150562,0.057420682,-0.11340261
38,0.0019540442,0.14821465,-0.0065536285,0.063260786,0.050407566,0.098646544,-0.08752217,-0.076981984,0.04407582,-0.015953332,-0.09643231,0.05400582,-0.11364945,-0.115071885,-0.079830095,0.07408796,-0.0016756969,0.03262803,-0.048523497,0.114372954,0.1046461,0.098260835,0.046728197,-0.0043712305,-0.08524827,-0.1292066,-0.057092622,0.07972606,0.024402484,-0.036119126,0.009455562,-0.1422418,0.12111602,-0.088175006,-0.005059766,-0.055331226,0.0009171258,-0.12067709,-0.019496454,-0.10755344,-0.09576266,-0.11408295,-0.044147655,-0.0182217,-0.11282192,0.11551343,-0.034281716,-0.09485897,-0.009023446,0.07303644,-0.14181773,0.093426935,-0.055279605,0.10950113,-0.12782061,-0.083464794,-0.05635611,-0.17346641,0.087327465,-0.05692325,0.09102207,0.007046374,0.14980754,-0.08462555,-0.0486472,-0.19255048,0.124516875,-0.024408396,-0.07316311,-0.10342832,-0.084625386,0.03668781,-0.1040454,-0.1837534,0.030422464,-0.07582879,0.07418119,0.1114133,0.023613995,-0.03559467,0.058335003,-0.017155409,-0.16026612,0.13188824,-0.15027954,-0.069694646,0.082113594,-0.077191345,0.13454737,0.10616612,0.08676369,0.019870965,-0.036726248,-0.05334558,0.14502165,0.119586885,-0.12816964,0.09309937,-0.06014579,-0.10065109
39,-0.0029909597,0.06769931,-0.016101275,0.04088921,0.0833928,0.068437956,0.14124024,0.03420651,0.035528287,-0.1027696,0.12805082,0.13316469,0.06123222,-0.09558987,-0.032876525,-0.043049436,-0.065101914,-0.104104385,0.06021049,-0.12470652,-0.09322242,-0.0016026638,0.103999995,0.10883975,-0.12959962,-0.0473428,0.05346806,-0.072936535,0.057275895,-0.104071245,-0.013608672,0.06141535,0.13927346,0.14815988,0.02240137,-0.14651652,-0.053388137,-0.06502297,-0.017335916,-0.02696286,0.112202615,0.12717517,-0.11345334,0.13922152,0.16646291,-0.13398707,0.01952151,0.13379586,0.099006854,0.16896816,-0.041423894,-0.033033367,0.060263257,0.028688943,-0.05784409,0.114078514,-0.04444079,0.08672728,0.110457115,-0.05767732,0.020154359,0.09795022,0.040366344,0.083843395,0.083015546,-0.08473018,0.14635137,-0.050096624,-0.053731427,0.027190778,0.11587388,-0.02720875,-0.07797885,-0.14597327,0.016047297,-0.0028249922,0.09943063,0.13664159,0.03632364,0.105874784,-0.043912657,0.12937593,-0.058998346,-0.09788181,0.07111642,-0.011024872,0.023131048,-0.028657382,-0.15091103,0.04092478,0.0336065,-0.11848801,0.059218653,-0.008717505,-0.109790586,0.04829086,-0.08553762,0.026618596,0.050212678,-0.014290294
40,-0.08770243,-0.08720805,0.10573499,0.15862337,0.11851516,-0.015873246,0.06465893,0.0378357,0.11788473,-0.053361546,-0.11808882,0.07157072,0.05621637,0.014212335,-0.0016578768,0.13507153,-0.01885327,-0.029587822,0.13705903,-0.04442472,-0.084223054,-0.13608326,-0.076780476,0.049961578,-0.08011515,0.11181429,0.120663896,-0.056575112,0.021550972,0.065380365,-0.024988405,-0.13632473,0.060309175,0.11107663,-0.05136356,0.0059903683,-0.13730803,0.11257447,0.0011788957,-0.030232333,0.10737264,0.008773485,-0.111174375,0.079085976,-0.08874734,0.040410675,0.13360807,-0.1321046,-0.062485054,-0.095936276,-0.079547554,-0.067705065,-0.10341132,0.13521446,-0.06915274,0.15655093,-0.06761908,-0.0803556,-0.1176445,-0.14224458,-0.025007408,-0.13019504,0.058152247,-0.07527569,-0.14768799,-0.09181625,-0.021027073,0.11580239,0.07802762,-0.050556824,0.11533252,-0.09852624,0.083532,-0.050728142,-0.123215646,0.11960366,-0.10987982,0.08772058,0.014352593,0.08820656,0.060014553,0.15526271,0.088746436,0.033974946,-0.032484844,0.01520761,-0.13396722,0.019353699,0.05170165,0.10626841,0.06560794,0.031528328,-0.014627971,0.13714871,0.025944041,0.025539173,-0.14562006,-0.01930276,-0.050212212,0.11019143
41,0.10868294,-0.1365655,0.07867579,0.054956518,0.019334443,-0.049752347,-0.09366481,-0.0980515,0.0710428,0.012236407,-0.096381225,-0.0066659465,-0.06227432,0.09274839,-0.021782447,0.019182734,0.10049196,0.09064282,0.101543196,0.14527245,-0.043971658,0.03583477,-0.074447885,0.017521055,0.035516374,-0.12737454,0.14944495,-0.13140129,0.04689104,0.10994712,0.05327931,-0.12321076,-0.03494293,-0.02496172,-0.14411536,-0.044989012,-0.13368231,0.017588194,-0.12246365,-0.049807586,0.13994543,-0.08799053,-0.037451223,-0.067062765,-0.02408092,0.0040582316,0.055551913,-0.10097817,0.14278305,-0.14560997,-0.11537022,0.0961214,0.0057415995,-0.08745021,-0.112938285,0.048081424,0.06595727,-0.1589339,-0.14196394,0.09508524,-0.04835297,0.14923385,-0.023543024,0.113480434,0.07735427,-0.016188882,-0.04552947,0.13108249,0.031255573,0.08044232,0.15360932,-0.12762405,-0.08152761,-0.12800795,-0.1419359,-0.09136302,-0.11092943,0.0035043193,0.14306965,0.12715349,-0.08480186,0.07045734,-0.018444747,-0.0022622943,0.08369474,0.007143322,-0.0030586263,0.06111888,0.0261775,0.04988356,-0.12577227,-0.16206421,-0.109869696,0.025022505,0.117324606,0.007745942,-0.060252894,0.12401219,-0.10954798,-0.038818683
42,-0.038987286,-0.14294943,0.013745172,-0.05266883,-0.07138916,-0.07222016,0.11652107,-0.15435866,-0.035427336,-0.107315,0.06274665,-0.07996365,-0.0698381,0.06598943,0.06574901,-0.023369782,0.03766687,0.10469553,-0.15275507,-0.05216316,0.04171212,0.06163055,-0.07609388,-0.04756937,0.06660546,-0.05484721,0.0967011,0.07896727,0.01197787,-0.0595057,0.12894991,0.11208498,0.09616342,0.024972467,0.06606812,-0.0038348928,0.0650955,0.122625425,-0.049305093,0.0959367,-0.039601438,0.10188313,-0.10542118,-0.0415905,0.052544594,-0.028422272,0.022791144,-0.012153266,0.109731965,0.018196901,-0.0684279,0.027185822,-0.13614258,-0.052789073,-0.06941858,-0.118129656,-0.002604464,0.014845062,-0.008623863,0.05495758,-0.047890887,0.0033752257,0.12681602,0.06388859,0.091474906,0.16844723,0.055926725,-0.13219374,-0.10791376,-0.030458521,-0.09832073,-0.0012450797,-0.08644842,-0.122059986,-0.11054682,-0.12689576,-0.11733482,-0.007927207,0.04825547,-0.005910217,0.02937595,0.09178775,-0.06090932,0.006963517,-0.13084924,-0.011410851,-0.023346223,0.11079589,-0.049618926,-0.12025756,-0.047331624,-0.07795528,-0.049702715,-0.13899006,0.121146314,0.0730125,-0.025930513,-0.056594513,0.091279715,0.01518902
43,0.14399579,-0.036617458,0.03700221,-0.118512474,-0.13597171,0.10761673,0.11250837,0.06894753,-0.08367791,-0.044245042,0.028754665,0.072528325,0.1443403,0.08557481,-0.0817434,-0.03107458,-0.029960476,-0.048776504,0.08504211,0.16121443,0.0035071892,-0.14233571,-0.12429641,-0.16188957,0.071025014,0.019863492,-0.0626951,0.14635089,-0.041173033,0.090007275,-0.071954615,0.0027272438,-0.10629368,-0.006378223,-0.05280942,-0.06882145,0.09287587,-0.11162668,-0.016472833,0.06444766,-0.07691679,0.09168255,0.051449906,0.038179338,-0.03752613,0.07456046,-0.086002715,0.123767585,-0.032580502,0.10478371,0.12097088,0.068226375,-0.12916532,-0.14613892,-0.035770785,-0.17669502,0.11468017,-0.022543548,-0.025686262,0.08464168,-0.009344784,-0.097991355,-0.06396931,0.029538246,0.14253452,0.014168927,0.15811211,-0.13230947,-0.11476726,-0.013602229,0.1106053,0.021502916,0.08607506,0.041061416,-0.0478396,-0.04258515,0.013532524,-0.083201125,0.039710477,-0.05619829,0.024207827,-0.0070923953,0.110776156,0.14557962,-0.073121026,0.043358468,-0.11760194,-0.05009926,-0.13865131,0.09346522,-0.04256587,0.11867185,0.115005344,0.052926205,-0.04121742,0.108134404,0.13074258,-0.11437193,0.10768769,-0.14453104
44,-0.06144435,0.0003174693,0.15547167,0.18000163,0.027037147,0.13912119,0.11500081,0.07979058,-0.018009063,-0.07200384,-0.12624346,0.03364303,0.11841863,0.044282198,0.025256777,-0.15082346,-0.02276844,-0.13306072,0.06115391,0.08667876,0.04522861,0.10634474,0.09090499,-0.08506583,-0.10059866,0.029184246,-0.08077788,0.054269485,0.15233879,0.13219275,-0.06051719,-0.07947191,0.12605032,-0.12817769,-0.08597246,-0.11059808,-0.05496335,-0.07917529,0.07204859,-0.13921271,-0.025053138,0.096431695,-0.015975151,0.1385911,-0.099504635,-0.021400403,0.00962631,0.17544954,0.06047135,-0.0068843598,0.15910245,-0.14940946,-0.012957678,0.029714726,0.11300708,0.036028486,-0.009773137,0.085680746,-0.01645554,0.043107446,0.14968319,0.023719499,0.09491448,0.06261912,0.039701074,-0.029475456,0.037545644,0.06235515,-0.052863408,0.15537168,0.06635733,0.071662374,-0.029710596,0.05089667,-0.029332852,0.04410724,-0.1071188,-0.024171392,0.090296015,0.08691336,-0.08010688,-0.10075242,0.002683253,0.049636696,-0.015270558,-0.09644374,-0.05991328,-0.1401259,-0.09232144,-0.060038216,0.032544967,0.13810472,-0.14045274,-0.09414793,-0.1507863,0.098923095,-0.15363713,-0.11566088,0.13443723,-0.10496657
45,-0.08538438,0.06626985,-0.113584906,-0.16342707,0.07262557,0.08473581,-0.14211637,0.13978863,0.1339687,0.13058506,-0.10254198,0.048653346,-0.069559805,-0.10740492,-0.082879275,-0.043420512,-0.021512195,-0.016135223,0.10182593,-0.10065014,0.07511586,-0.023298418,0.11662759,-0.0035260166,-0.040275116,-0.06782029,-0.15395291,0.013091536,-0.10998446,-0.0031748482,0.08042029,-0.117590375,0.12502377,0.094956085,0.10687429,-0.01632819,-0.126769,-0.11813956,8.5075466e-05,-0.03445205,0.09322232,-0.10453697,-0.1462587,-0.10159711,-0.05547381,0.017061135,-0.07743008,-0.054765414,0.09577574,-0.022093661,-0.11359434,0.121928155,0.008149111,0.038056552,0.0926444,0.013286986,0.12328735,-0.12279074,0.005549483,0.07839738,0.124881126,-0.05121168,0.15087408,-0.1297266,-0.08061054,0.06303576,0.061524797,0.09056244,-0.029389827,0.040943045,0.050820667,0.005436446,0.021913411,0.13910283,-0.030812941,-0.13207944,0.06409626,0.0023536393,-0.002310461,0.048204653,0.06710091,-0.061656248,-0.115928605,-0.024289712,-0.04391659,-0.06434098,0.08142255,0.04384779,-0.015710281,-0.073706515,0.051972274,0.06857663,-0.082429715,-0.087091506,0.11061498,0.050991274,-0.118768066,-0.07843378,0.11720463,-0.0074340994
46,-0.10286459,0.09900726,0.097778045,0.020445,-0.11652321,0.1721794,-0.09499459,0.11170698,0.0008450888,0.06846048,0.026226256,-0.075794466,-0.113548726,-0.10319631,0.07341985,-0.03889448,-0.047775127,0.00029480184,0.13398506,0.13545509,-0.08091156,-0.019889938,-0.044389237,0.039761685,0.00024415902,0.13081188,0.080488585,0.11640398,-0.043919135,0.11787605,0.062749684,0.10790189,-0.03005833,0.13670787,-0.04530971,-0.11696099,-0.003843695,0.12048646,0.037880607,-0.030155223,-0.03455815,0.004602316,0.120812304,-0.06062997,0.15050735,-0.14143685,0.036150277,-0.013089054,0.055153888,0.13003819,0.04111869,-0.09935186,0.044152234,-0.02763509,-0.085942894,-0.08174302,0.056581557,0.13277353,0.12080529,-0.11427325,0.10986377,0.0070027816,-0.014009716,0.087041005,-0.02441583,0.14029612,-0.08455964,-0.05841103,0.14868374,-0.010147851,0.07339921,-0.08522147,-0.0027742567,0.004508808,-0.012955501,-0.09571634,-0.09884534,0.14203623,0.10824798,-0.09662206,0.078862414,-0.11804617,0.1311352,0.071406156,-0.020765107,-0.102778025,-0.14364696,-0.025290037,-0.09976366,0.1337033,-0.051715724,-0.06258957,-0.021174273,0.0409452,0.13436015,-0.0609725,0.055343024,-0.102692105,-0.09141693,-0.027196007
47,-0.07507093,0.11531566,-0.09835438,0.027167879,0.09100698,0.053780973,0.05247428,-0.08036423,0.041084316,-0.15453903,0.10702334,-0.1017317,-0.0039705643,-0.13836186,0.07389099,0.03673161,-0.05161908,-0.07152809,-0.12347367,0.13762367,0.054626722,0.0376235,-0.11640847,0.023636356,0.08660445,0.06296132,0.17678079,0.074335836,-0.0819901,0.031083846,-0.10512132,-0.0557836,0.037206504,0.0677199,-0.06710494,0.13327248,-0.03727428,-0.09404388,0.114106886,0.0073148087,0.091772005,0.1164806,-0.053184535,0.15073901,-0.088386014,0.036763772,0.0073189307,0.12770239,-0.12144272,0.029334716,0.17201068,-0.017422209,-0.14322829,0.02247294,0.0052434797,-0.00078759156,0.08478332,0.09035744,-0.084871955,0.14785483,-0.028770955,0.10647145,-0.037812456,0.08463639,-0.078664765,0.06763125,-0.052990567,0.0003995725,0.028516673,0.072013624,-0.056672882,-0.02428368,0.039874468,0.06267297,-0.08930062,-0.077210255,0.120776944,0.026428044,0.10040464,0.037882507,0.0012461467,0.06474139,0.15056737,0.054692537,-0.08866832,0.004783689,0.11270964,0.07271895,0.06962896,-0.14314151,0.08898841,0.14670645,-0.011087861,-0.14279321,-0.12856272,-0.027008228,0.011485559,0.10552941,-0.015610947,0.034009274
48,-0.04674023,0.061480574,0.1339053,-0.084149085,0.09687793,0.1589414,-0.07008941,-0.025856743,0.1509841,0.14384449,-0.06323173,-0.117188334,-0.02276045,-0.13429286,0.13235475,0.13825265,0.060382195,-0.01874519,0.0014600167,0.14713688,-0.0675166,-0.09999119,-0.010432691,0.02381461,0.13642216,-0.112988606,0.015862957,-0.1393086,-0.068861976,-0.039753783,-0.1427599,-0.078784935,-0.122323744,-0.11951041,0.0619049,0.076398134,-0.033038016,-0.021118404,0.08129157,-0.10521954,0.10134352,-0.13863365,-0.09369655,0.029100863,0.12854089,0.12939651,-0.008757571,0.16388924,0.14082664,-0.1386711,0.08205115,-0.047395483,-0.1412179,0.046242617,0.006282328,0.11063239,0.062082164,0.0072768456,-0.033701055,-0.15241867,0.07292595,-0.012695549,-0.11929962,-0.0026451624,-0.0874134,-0.11582941,0.019541813,0.004061082,-0.021908104,-0.06728422,-0.11296706,-0.009934652,-0.029571915,0.06270619,0.048424,-0.13382983,0.03960506,0.10650793,-0.0586606,0.13929994,-0.0123892035,-0.019279875,-0.14871344,-0.1447353,-0.09070913,0.087770976,-0.046766244,0.0033607825,0.07807722,0.056591082,-0.12503004,0.17196374,-0.0026629448,-0.08189973,0.13130683,-0.04152352,0.1104484,-0.052059356,0.011935225,0.0701193
49,0.1444217,0.14381135,0.09895062,-0.105518945,-0.1094499,-0.012118177,-0.028813979,0.13708678,-0.12994422,-0.08355747,-0.04566828,-0.13305451,-0.015406345,-0.05617555,0.0071866936,-0.13441934,-0.06641344,0.13565901,-0.023783209,-0.021261072,-0.08589941,-0.05800342,0.024119684,-0.08144134,-0.08611996,0.10703088,-0.035121582,-0.14464855,-0.13065948,-0.14517945,-0.04497934,-0.07959876,-0.015537588,0.02839833,-0.007752923,-0.052686613,0.027220279,0.049876995,0.115419656,0.01634996,-0.06986712,-0.15405942,0.0051083434,-0.12907566,0.11171254,-0.013031682,0.08707565,-0.11511288,-0.09628278,-0.08150812,0.045445394,0.019528298,-0.046529144,-0.015681606,-0.12043365,-0.10582214,0.13494717,0.085527584,0.05778573,-0.04161902,0.10113762,-0.017034186,0.026217502,0.08781698,-0.14827216,0.069359265,-0.058683865,0.11775997,-0.004446939,0.01807571,-0.013042712,0.05664383,0.044810243,-0.1286877,-0.0053995345,-0.026675863,-0.080495685,-0.012430011,0.00158344,0.05879794,0.0460337,-0.062756956,0.005644689,0.14749768,0.07881914,-0.11445717,0.06816936,-0.079489686,0.07110569,-0.085379206,-0.07072731,0.15283558,0.04749935,0.15433438,0.043672208,0.074133806,0.06855565,0.14085644,-0.12689777,0.07099725
50,0.1390713,0.09536883,0.04124749,-0.07097138,0.011405302,0.046464797,0.11814639,0.065646134,-0.1367883,0.11367476,0.04156871,0.019461632,0.13942102,0.116292514,-0.114260584,-0.14144419,0.1389444,0.096846975,0.053950533,-0.028945519,-0.09686489,-0.04627997,0.09087314,0.093366235,-0.10381194,0.08916573,-0.06543963,0.09496068,-0.036209356,-0.07478148,-0.053780854,0.004505813,-0.08539466,-0.038463753,0.0823252,-0.10350442,-0.015439249,0.07782427,0.05945603,0.011011048,0.06897155,0.10430957,-0.057239432,-0.079316,0.19628929,-0.12769134,0.048625723,-0.17122027,0.19799227,0.13982822,-0.026094707,0.030406713,0.045817494,0.048168503,0.037756544,0.10183224,0.08372153,-0.057697974,-0.12669373,-0.12468066,-0.12524177,0.02188544,-0.0596722,-0.08915642,0.1370043,0.06495345,0.004447641,0.11269118,-0.08782214,-0.015526215,0.08231032,0.0402058,-0.053903986,-0.040303655,-0.13072848,0.09600595,0.08457376,0.10441928,-0.0725587,-0.12761675,-0.06900539,0.11635282,-0.15803547,-0.11882309,-0.025948128,0.09366951,-0.07238542,0.052859385,-0.10408944,-0.11776964,0.01824792,-0.061816823,-0.08219561,0.07464079,-0.0655529,0.014156151,0.05177734,0.12120105,-0.10749307,0.10428567
51,-0.08180354,-0.012003145,-0.11264993,-0.06562692,0.12165428,0.07210939,0.037004925,-0.11796269,-0.10202602,0.09888269,-0.070287704,0.0023863786,-0.0037428793,0.13396826,0.09358138,0.042635527,0.12256712,0.106982775,0.015336923,0.007968197,-0.047326054,0.03173798,0.019608412,-0.05628533,-0.07913051,-0.13222176,0.10996831,-0.14041878,0.030837959,-0.0132385725,0.010847594,-0.01757164,-0.14219274,-0.10250155,0.06945008,0.055587284,-0.050428726,0.117494985,-0.10918357,0.081576645,-0.14063805,0.11178767,-0.11552091,-0.12145593,0.025604405,0.034105532,0.1103048,-0.14523555,-0.08132577,-0.019257456,0.09037977,-0.039193913,0.14684556,-0.03770789,0.13421592,0.13033527,-0.08473222,-0.06995094,-0.109578274,0.030014016,-0.047898814,-0.067018464,-0.0023332818,0.022623029,-0.1495812,0.0005943946,0.031938203,0.08080214,-0.022712542,-0.08152029,0.0081550125,0.15014142,0.03527724,0.07584203,-0.08969863,-0.14078702,0.04767914,0.0017783267,0.16112857,0.14179952,0.10271714,0.024499107,0.12997352,0.0017688606,-0.0157924,0.086462006,-0.079960294,0.14119647,0.15761434,-0.13108999,-0.073290505,-0.0022711095,0.038087174,-0.114459656,-0.05919462,-0.042807594,-0.08695015,-0.11446825,0.040541857,-0.04883849
52,0.13940641,-0.047797523,0.16241625,-0.08409157,0.14174674,0.16079456,0.12286002,-0.06046712,0.11954497,0.004068737,-0.057072803,0.07279745,0.020149719,-0.056661073,-0.13715613,0.015578956,0.10478375,0.04643262,0.094615415,0.0049926154,0.08362183,0.021921553,0.020555228,-0.13915892,0.08516371,0.1501476,0.07543966,-0.050403833,-0.12630485,-0.008901575,-0.02147789,0.08481783,0.094581,-0.07991561,0.07537338,-0.06752119,0.041035526,-0.016248215,0.015853364,-0.031860374,0.08114963,-0.076423965,0.060535762,0.010881422,-0.027405389,-0.14849429,0.0022229971,0.04580533,0.1582001,-0.10989143,-0.009561579,-0.038991887,-0.026489753,-0.049747434,0.08839171,0.121814296,0.049818132,-0.11464545,-0.041499555,0.13815252,-0.088450626,0.037845045,0.045933887,-0.10523613,-0.10339802,-0.061022818,-0.17032288,-0.06417193,-0.15750945,-0.026085438,-0.10803596,0.10241974,-0.10648767,-0.02062554,0.121933185,0.03532989,0.0840264,-0.0998301,-0.14167441,-0.11801846,-0.017309867,0.049641445,-0.024548667,0.06513648,-0.08249755,0.05800214,-0.13776061,0.07816313,-0.060938917,-0.008350782,-0.019461773,0.008588742,-0.04323722,-0.120813385,0.04147452,0.03199884,-0.12361216,-0.02464696,0.10105288,-0.11079711
53,0.02943847,-0.089691356,0.104971185,0.16493529,-0.03750317,0.1194597,-0.0028091774,0.09238469,0.0012292204,0.10244054,0.025775319,-0.032875996,-0.05852918,0.06405944,-0.07195684,0.035296377,0.13608181,0.14206684,-0.072833195,-0.008207433,-0.049714655,0.12069108,-0.045002364,-0.09213285,-0.074399896,-0.12514505,0.13883051,-0.001206879,-0.13829842,-0.06938593,0.07288842,-0.089130394,0.06450793,0.07324329,-0.080604665,0.021704257,-0.0146293575,0.03842737,0.0011958651,-0.019161273,0.056570433,-0.012920496,-0.09791282,0.049711782,0.012065615,-0.091052935,0.06497695,-0.10554179,0.0404358,0.08234151,-0.11554096,0.13943529,0.036057644,-0.11800636,0.0147487,-0.08046128,-0.09845014,0.012948424,-0.06711236,-0.049527522,0.09348238,-0.053816676,-0.08917778,-0.12741692,0.045830537,-0.069152564,0.061352067,0.06596293,-0.09508704,-0.009246012,-0.021745175,-0.03523447,-0.023406118,0.12623197,-0.08303521,-0.1421235,0.007063911,0.06630279,-0.023647528,-0.011390147,-0.124028556,0.08903201,-0.054711543,0.02792413,0.06541954,-0.095597856,0.0014433308,0.13015968,0.104371615,0.07465207,0.030989558,0.07384137,0.044875868,-0.09056302,0.121468194,-0.12462999,-0.0060413904,-0.010125597,0.061214726,0.14592725
54,-0.08965002,-0.02703082,-0.030212145,-0.11722648,0.053342998,0.14306626,0.09088503,0.040728346,0.03366008,-0.10911768,-0.06845591,-0.073312275,-0.062273495,0.0010622219,-0.07922227,0.07741782,0.060879804,-0.086434685,0.021233909,-0.04950926,0.12621754,0.00957109,0.022966774,-0.080237284,-0.06714673,-0.12009616,-0.07733809,0.052157775,-0.1216158,-0.07483446,0.027879694,-0.07807101,0.08423734,-0.024405848,-0.028140198,0.030670982,-0.08031008,0.11281962,-0.08196963,-0.11442397,0.10127119,-0.0342602,0.15620045,-0.081991486,0.07409174,0.04260505,-0.14220871,-0.13696802,0.021410558,-0.12545107,0.12773755,0.0906375,-0.14488935,0.13955851,0.016695667,0.058284257,0.13237052,-0.085728236,0.064035416,-0.066347785,-0.07410797,-0.15306072,-0.0678294,-0.028233161,-0.0641989,-0.060476452,-0.093316495,0.114743315,-0.1206612,0.101512246,0.15550345,0.10027431,-0.055181578,-0.101953685,0.11405137,0.14648917,0.07236538,-0.022084294,0.078377955,-0.020148082,-0.097015224,0.096099816,0.10936768,0.02566318,-0.07092124,0.03114299,0.086443834,-0.11906936,-0.030354308,-0.0011166286,0.03230245,0.06760772,0.10250394,-0.048719972,0.0021328866,-0.1388368,-0.0025475516,0.034810487,0.1217546,0.09135035
55,0.09807168,0.016225133,0.13513033,0.0010077476,-0.109138004,-0.17223357,-0.14930636,-0.07808382,0.13047007,-0.0010649895,0.067134894,-0.0020842103,-0.11698185,0.08565774,-0.08512034,0.09409585,0.07226176,-0.07809419,-0.027894104,-0.1567077,-0.0766201,0.11778765,-0.036460824,0.008501387,-0.03243071,-0.14756562,-0.015134356,0.054278895,-0.14204203,0.1577379,0.063391015,-0.051361855,0.1177077,-0.11931909,-0.08609401,-0.107433386,-0.062293246,0.0027597698,-0.105013125,-0.07596461,-0.15420367,-0.044188086,0.13602118,-0.05642,-0.10760837,-0.13227706,0.019776126,-0.018203719,0.027286697,-0.00010246629,0.020286152,-0.08257043,-0.068823926,-0.12777199,-0.16169837,-0.0979847,0.11235363,0.06663149,0.091397405,0.017997209,0.028708095,0.11895058,-0.13913698,-0.057135213,0.023667946,-0.04010675,-0.029985078,0.17811844,0.023226604,0.12217429,0.13937235,0.0933748,-0.05272547,-0.11717332,-0.107526764,-0.056449916,-0.09238823,-0.10706702,0.046394378,0.0027347577,0.054936334,-0.05677562,0.016526423,-0.09381959,-0.08088771,0.13194112,-0.08274021,-0.10112612,-0.04101444,0.040620837,-0.093858436,-0.039116308,0.122163884,0.06835637,-0.13757037,-0.08851276,-0.059523303,-0.035841946,-0.15917936,-0.044549562
56,-0.046371456,-0.0148254465,-0.007702077,0.16051513,0.027259173,-0.104955524,0.054413877,0.019790621,0.06186175,0.11083481,-0.0075140675,-0.09471879,-0.052719742,0.06838951,-0.05195352,-0.07578043,0.115610905,-0.068825826,-0.119928166,0.034110885,0.012211051,0.12323639,-0.019095663,0.0041419044,-0.11363823,0.13153268,-0.05818478,0.12708853,0.00051144714,-0.073374785,-0.0553244,0.08423128,-0.026067797,0.12003791,0.09167242,0.026296983,0.027984811,0.008768925,-0.1399329,0.07462465,-0.07260169,-0.13409445,0.1564446,0.14874773,-0.015915617,-0.02985551,-0.13691068,0.119389445,0.14191206,0.12890151,-0.008522202,-0.0101146,0.041191697,0.00047839584,-0.042809233,0.025880096,0.1116242,-0.08330476,0.08785001,-0.017575294,0.10583814,-0.015250987,0.001981548,-0.09866241,0.11011547,0.15229312,0.0818871,-0.0537382,-0.08755697,-0.023472862,-0.10662177,-0.098637,0.009681341,0.1519651,-0.03943341,-0.020827368,0.0475571,0.112928435,0.03778992,0.09245512,0.15534393,0.13091248,0.092832595,-0.04711427,0.13042483,-0.042526912,-0.08968872,0.013274476,-0.102350906,-0.07677161,0.02816769,0.05625087,-0.11811462,0.12645389,0.023646904,-0.0887095,-0.12371219,-0.07364498,0.032894824,0.13670227
57,0.13316266,0.04346744,-0.016586998,-0.0987467,0.009493595,-0.04324824,0.07317838,-0.039604597,0.06741521,0.02563747,0.0043027503,0.053518873,0.16760698,-0.011985988,0.012450646,-0.034732692,0.060056,-0.18162014,-0.17250168,0.09413496,-0.114423804,-0.058060635,-0.0043795803,-0.07187382,0.1977448,-0.04689337,0.100513935,0.12401912,0.07500895,0.035645332,-0.0038146526,0.036056355,0.073395476,-0.0673821,0.0045961556,0.095702745,0.079245344,0.07527686,-0.023805233,0.014504289,0.042261656,-0.057077993,0.08045232,0.11279629,0.05359208,0.07766198,0.034129534,-0.08527453,-0.070066884,0.096303165,0.009951766,0.08845471,-0.06738813,-0.09082431,-0.00999841,-0.1077769,-0.1018207,0.108664244,0.07071731,0.13017656,0.13225104,-0.005961792,0.07865881,-0.010360107,0.030964155,0.06580144,-0.07069468,-0.051660065,0.10254988,0.06721514,-0.1209394,-0.032290682,-0.13514353,-0.18112677,0.027094273,0.05667842,-0.18024933,-0.1613606,-0.06507722,0.056717817,0.07730354,0.09302235,0.054872226,0.087725684,-0.08678782,0.10855738,-0.15137033,0.06161389,-0.08031023,0.100498095,0.0027790307,-0.033294182,-0.047455925,-0.016932473,0.047456548,-0.11497344,-0.042586844,-0.16045396,-0.026403058,-0.0047867927
58,-0.022789778,-0.12199261,-0.06645583,0.106740765,-0.057897612,-0.122427516,0.019287612,0.10926418,-0.11262751,0.07257437,0.10194922,-0.060216207,-0.0695751,0.037326906,-0.024591058,0.0599258,-0.024679907,-0.11680007,-0.08124914,-0.07001089,-0.02370067,0.15024641,-0.0056076264,0.035748437,0.04516188,-0.078844845,0.07126973,0.07149037,0.13539468,-0.03228852,-0.09403263,0.06192516,0.112755835,-0.039029215,-0.016393214,0.041168887,0.084359966,-0.052287817,0.07240661,0.076675944,-0.1229982,-0.108444355,-0.13584855,0.013095374,0.07908642,0.12382848,-0.13075727,0.030126788,0.04853147,0.098145925,0.08378654,-0.05205143,0.1408192,0.06352799,-0.12565398,0.09614668,0.16420084,0.057434637,0.09865014,-0.08410774,-0.09829327,0.13273716,-0.013267855,0.041813016,-0.063674584,0.12159791,-0.11248022,-0.02086931,0.19135064,-0.036901314,0.13045372,-0.115753226,0.034301855,-0.016376752,-0.1098631,0.1561294,0.011463808,0.01909859,0.019510247,0.0004770872,0.042946633,0.01056055,0.046220455,-0.009446299,0.050500333,-0.14492777,-0.07081139,-0.14470828,0.026875028,0.005747215,-0.0951873,0.052765273,-0.05512577,-0.14297225,-0.0773468,0.123128295,0.033070974,-0.035219163,-0.08412386,0.06804093
59,0.11926791,-0.08395153,0.008442873,0.0845297,-0.03322606,-0.071432024,-0.03159283,0.08825416,0.14189719,0.122818574,0.07221647,0.08305181,-0.09182619,0.04108657,-0.059169356,0.046980213,-0.013318481,0.13544498,0.07414365,0.004020723,0.031344507,-0.0434036,-0.030923942,-0.082057334,-0.14162855,0.053233657,-0.10630224,0.17939113,0.034965537,-0.03610318,0.016951177,0.13069004,0.07381859,-0.12068629,0.053872053,0.11935575,-0.14245984,-0.10743441,0.046671916,0.14509736,-0.15496637,0.06057453,0.047575865,0.01990942,-0.14556251,0.06318261,-0.086114876,-0.13610858,-0.11918563,-0.050758626,0.09595801,-0.071289316,-0.08867636,-0.11767058,-0.1100825,0.048333142,-0.033234097,-0.1670572,-0.010096161,-0.13931818,0.1442,0.1682538,-0.045691423,-0.05158761,0.075207464,0.025981128,-0.01690392,0.07576702,-0.09326743,-0.08346263,0.08750849,0.014969577,0.08436265,-0.069735795,0.13116324,0.015472798,-0.021061651,0.07713978,-0.12758353,0.069530755,0.16689894,-0.0993912,0.104088515,0.058872852,0.1265534,0.10164258,-0.09133136,0.021204796,-0.08552581,-0.03586767,0.14426304,0.027484061,-0.04898408,-0.06332453,-0.13644691,0.11254209,-0.089099675,0.024404448,0.14237458,-0.0629839
60,0.09929563,-0.10261957,0.1568808,0.06499692,0.04501452,0.116355486,0.07471661,0.033699244,-0.124473765,-0.107888766,0.05347149,-0.14482087,0.049005285,-0.030210713,0.05916993,-0.09777058,0.064526945,0.059783183,0.13264968,-0.043335456,0.1647799,-0.0012190184,-0.021490434,-0.1051382,-0.14253004,0.09406627,-0.016799776,-0.08129617,-0.097270265,0.12290439,-0.048171464,0.13657923,0.14109848,0.08161937,0.13043599,-0.08060093,0.060287345,-0.052206878,-0.022243999,-0.07272771,0.00536059,-0.07399647,-0.044391688,-0.09477564,-0.08704266,-0.13699467,0.14963843,0.09506228,-0.026301054,0.070642464,0.0289487,0.01789506,0.121119194,-0.08785364,0.07727813,0.05555736,-0.08383459,0.08597126,0.01938486,-0.1364966,0.061325375,-0.0757771,0.14877279,0.07333978,-0.014568289,-0.07739779,0.01762322,-0.026888775,0.020104855,-0.042047977,-0.025171055,0.059192143,-0.00884462,0.09877564,-0.04494176,0.118833676,0.16053508,0.012734162,-0.08998971,-0.034350313,-0.03444202,-0.09032088,0.14359745,-0.02562905,-0.13171764,-0.07228243,0.14758034,-0.035558496,0.1013863,-0.0816346,-0.039651383,-0.09206072,0.057286777,0.021862742,-0.13849384,0.031217428,0.07688202,0.08236016,-0.11397596,0.06954686
61,-0.03800852,-0.068537876,0.14684948,0.1038486,-0.12688386,-0.063923545,-0.12508264,-0.02465761,0.08718341,0.03998912,0.15560865,-0.09563535,-0.081735075,0.1493946,0.13310602,-0.044127706,-0.14113827,0.019443791,-0.065615594,-0.09006605,0.13950649,0.050085995,-0.07534382,0.08294956,0.0390967,0.01504853,0.1602001,-0.06594276,0.13559078,0.14521787,-0.0263299,0.09043513,-0.11043945,-0.045753375,0.07100414,0.10027866,-0.01312926,0.02931121,0.028377892,-0.09152461,0.050203227,0.050201323,0.047823153,-0.032687366,0.07459006,0.009176216,0.10624443,0.053798344,0.14073889,0.1187963,0.14634475,0.04144904,-0.09873629,-0.029103093,0.10730608,-0.017767621,0.12010031,-0.009916115,-0.14541556,-0.04598341,0.05216379,0.037938006,-0.06255886,0.12950423,0.03456713,0.08558398,-0.14534074,0.043272026,0.012675736,0.08914422,0.11297448,0.103753656,0.09700268,-0.025765354,0.1436488,0.011031318,-0.038676478,-0.07622048,-0.10546607,0.15707187,0.042520404,0.06152399,-0.007766946,0.03021655,0.067573994,-0.14170527,0.1280712,-0.091838054,0.1077611,-0.13862844,-0.040550485,0.053312182,0.115458794,0.061613087,0.03952579,0.0839573,-0.018446619,0.09815176,0.06465238,-0.137745
62,-0.117533475,-0.010805362,-0.01291198,0.053331766,-0.1038065,-0.108257644,-0.10979278,-0.07846749,-0.07496063,0.036431532,0.09629807,0.12461322,0.1251338,-0.04765447,-0.0609356,-0.006885524,0.006950716,0.07531377,0.16168255,0.094781764,0.11552001,0.12075816,-0.14950892,-0.08962294,-0.024709413,0.07816534,0.021197079,0.009956694,-0.030513706,-0.1072876,-0.0376176,-0.04856703,-0.06837469,-0.13478814,0.08010513,-0.07400698,-0.010790724,0.08678774,0.15449908,0.024181165,0.14983441,-0.08326433,0.0019207215,0.08690147,-0.116925925,-0.07367643,0.12946433,-0.16283688,0.05810328,0.11003725,-0.10906721,-0.13514113,0.052757297,-0.102901965,0.16860124,0.14406969,0.042303793,-0.17361939,0.025820158,0.15110777,0.08721159,0.019305957,-0.08171048,-0.031580515,0.053535085,0.16846578,0.0751855,-0.015456801,-0.0061139623,0.025760574,-0.08192516,-0.017669274,0.016156629,0.12534855,0.14122951,-0.091165215,-0.117061555,0.1435098,0.1379447,-0.1339927,-0.074155614,-0.113523535,-0.05615644,0.0010270985,0.13065217,-0.03788374,0.019442149,-0.003917718,0.04171238,0.01726828,0.09865008,-0.018445054,-0.0311557,0.08842293,-0.09644804,-0.14370987,0.016222395,-0.08146324,-0.08555949,0.09029413
63,-0.109521925,-0.06353423,-0.12687539,-0.1622079,-0.029574882,-0.03951719,-0.10006986,-0.04964231,-0.07639495,0.121369556,-0.065292664,-0.061409462,-0.012177943,0.11827599,-0.12696189,-0.029714523,-0.007457994,0.11333663,0.106809445,0.11521371,-0.11675068,-0.049597334,0.05668415,-0.016687397,0.046445403,-0.17617005,-0.08264803,0.0435677,0.15858746,0.15482639,-0.14735584,0.00931387,0.05806393,-0.07183925,-0.08870181,-0.0030184872,-0.11803652,0.02215073,0.09563436,-0.058902744,0.13419273,0.088916935,0.121839784,-0.10491567,-0.17576402,0.056313362,0.101391435,-0.0119851185,0.09692301,-0.09350962,-0.06946673,0.11245461,-0.005452663,-0.0057164533,-0.067326315,-0.09399757,0.15830636,-0.11098496,0.15855706,0.101175144,0.089452244,-0.16579613,-0.10303118,-0.034138653,0.028280217,-0.05649365,-0.10493599,0.05487581,-0.088307925,0.032176897,-0.09966795,0.075016454,-0.14809677,-0.011032933,0.05487732,-0.16397622,0.0054491353,-0.023578575,0.017998766,-0.042068865,0.058674563,0.10808013,0.08063775,-0.08302507,0.063721806,-0.124512866,-0.08258679,0.031861916,-0.10532989,-0.017704004,0.11339994,-0.09435987,0.16639014,-0.07066797,-0.14172466,-0.092293635,0.08793891,0.066102244,0.0034558566,0.07085593
64,-0.056251302,0.15910631,0.13028063,0.14858535,-0.09817211,0.11459329,-0.083709836,-0.15869911,-0.063483685,0.12639041,0.11228656,-0.114441104,0.060087744,0.092236236,0.12728111,0.09979381,-0.03973748,0.13033131,-0.115130894,0.08330867,-0.019191949,0.12412688,-0.11698227,-0.047718883,-0.09534794,0.164671,0.022905963,0.087145664,-0.11165901,-0.038787063,-0.08523861,-0.076621816,0.015071515,0.10559872,0.024375336,-0.055077247,-0.031790994,0.06299443,0.017446151,0.03420878,0.026591608,-0.11264798,0.023005238,0.08084986,0.16346245,0.08699952,0.07857536,-0.06433335,0.07540626,-0.13813765,-0.05302863,-0.006975107,0.085703924,0.12726201,-0.10911098,0.0716633,-0.1284671,-0.0023449573,-0.044833016,-0.08877157,-0.14504084,-0.1453122,-0.12630303,0.14525637,-0.061458316,0.05474171,-0.00089213194,-0.0527034,-0.16501129,0.14694525,-0.06771636,-0.10447079,0.10735149,0.024154529,-0.058839858,-0.037402794,0.17339657,-0.04600206,-0.07874528,0.06513846,-0.06517478,-0.07316447,0.022544228,-0.060700744,-0.052093316,-0.09006363,0.10340757,-0.044733632,0.0032576974,-0.086957715,-0.07923117,0.013152822,-0.006656337,-0.027568264,0.09268383,-0.08251569,0.15079178,-0.09443711,0.10817389,-0.15109171
65,-0.10161611,-0.020799406,-0.07600951,0.072259694,0.02030802,-0.029658554,-0.12770213,-0.15863141,0.05840995,0.08879965,0.07398598,-0.03896132,0.09347386,0.13521262,0.088152185,0.08134764,0.14799969,-0.103085,0.18417294,0.090228446,0.024119955,0.045600142,0.13252394,0.021102415,0.09889109,-0.13432232,0.032478265,0.05567417,-0.1324224,0.08198711,0.110965244,-0.037537728,0.0085200695,-0.0902249,-0.030190827,-0.10700709,0.10758446,0.004461469,0.009581183,0.037583258,0.10640545,0.11010193,-0.11856313,-0.006223066,0.10196696,0.015027027,0.13992591,0.014284109,0.013401397,-0.010752258,0.15730955,0.09283323,-0.077897,-0.06568123,-0.026559906,-0.11471256,0.1392358,-0.08193006,0.007880459,0.07033942,0.13563225,0.12270204,0.048354108,-0.049396083,-0.059413835,0.15370446,0.023297323,0.06973528,-0.008507334,-0.040479317,-0.15799199,-0.1244409,-0.09884876,-0.036151092,-0.12768301,0.12427796,0.08552436,-0.02613333,0.15025946,-0.020237753,0.043407753,0.13499238,-0.021894306,-0.010647987,-0.06501019,0.13496651,0.14138749,0.04436632,0.058991674,0.049278602,0.04928581,-0.07007018,0.10694114,0.09333046,-0.13311777,-0.0012829886,0.17285156,0.004614043,-0.06970999,0.0840434
66,0.16723607,-0.093222946,-0.030390197,0.0049042734,-0.12224538,0.10257551,0.1700549,-0.056250885,-0.09137147,-0.062117442,0.0431391,0.12360215,-0.05407905,0.092134245,0.06256998,0.10380586,0.06698594,0.023288721,-0.00581961,-0.10844066,-0.061718233,-0.09713314,-0.12484699,0.0034702907,-0.049234737,-0.005621356,0.10725711,0.06737181,0.12675612,0.13192834,-0.14158398,0.1142682,-0.05780248,-0.05836172,-0.19327553,0.13606378,0.03323913,-0.082873955,0.07811884,0.008502455,-0.047370974,0.047892984,0.026574042,0.06868344,0.078317486,0.1234747,0.049434803,0.030278303,-0.0030627714,0.16655898,0.041449733,0.0072724465,0.11201121,0.05899576,-0.005899037,0.16505699,0.122066475,-0.050206404,0.016351564,0.019931737,-0.062287834,0.17349057,0.10766453,0.12763172,0.02284173,0.08833174,0.096453324,-0.15273866,-0.0424044,0.13547477,-0.06588981,-0.0370393,-0.13817206,0.02046208,0.029467989,-0.054056697,0.12760772,-0.15035589,0.0061835265,-0.10574843,0.1283816,0.10406795,-0.039651122,-0.06196242,0.12556235,-0.044945505,-0.01647778,0.06591977,0.10342127,0.11822079,-0.116886355,0.03508196,0.0024573389,0.050983924,0.0056646103,0.124526665,0.079028696,0.067690924,0.12318443,-0.10917962
67,-0.121468194,0.11873356,0.14657249,0.12661567,-0.097774886,0.005356366,-0.08236992,-0.09271927,0.10295295,0.032937024,-0.10073995,-0.070071466,-0.12057867,0.15748711,0.08057752,0.0353009,-0.07247869,0.12214109,0.06919505,-0.1374261,0.076144345,-0.100309364,-0.023437645,-0.0155763,-0.06952963,0.02887935,-0.00131773,-0.12304853,-0.010610158,-0.045746427,-0.05841808,-0.123717345,-0.08955028,0.14950868,0.061798897,0.054712884,0.02336763,-0.05691916,0.10122482,0.047066502,-0.10034096,0.062624246,-0.114173286,0.078480154,0.052840285,0.012177853,-0.06201047,-0.0658292,0.12608582,0.1452566,-0.078184195,0.08212648,0.027178805,0.094872646,0.13364916,0.0075645903,0.0279113,0.06668545,-0.05413284,0.03700609,0.0328613,-0.14382309,-0.013793985,-0.01183629,-0.10943245,0.17694235,-0.044016548,-0.066193774,-0.05917095,0.09815178,0.10531422,0.0021294444,0.09647941,-0.00048974744,-0.060459334,-0.12545802,0.02450218,0.050427318,0.15332316,-0.0967506,0.03136001,0.081211485,0.0009471676,-0.13259114,0.0018886024,-0.050758332,0.033006467,-0.1141455,-0.12806587,0.034575813,-0.04671474,-0.09601014,0.1273732,0.033706356,0.052380893,-0.12061258,0.083940335,0.056100696,0.035612695,-0.14129624
68,-0.11449619,-0.10812151,-0.09227707,-0.10076129,0.035871323,0.13948493,-0.1355709,0.10513693,-0.026622029,-0.004326875,0.1284274,0.15199696,-0.087523445,-0.15394677,0.08013382,0.087832704,0.053811632,0.06492782,0.043597147,-0.14167997,-0.003737654,-0.102432586,-0.03990274,-0.06010456,0.007930292,-0.06686157,0.07686676,-0.1258972,0.030531473,-0.03033902,-0.066837735,-0.042550333,-0.03227188,0.030286998,0.1241391,0.03174407,0.01612662,0.0623401,-0.055778567,0.0039602215,0.07954214,0.05277287,-0.13647586,-0.12074807,-0.022279564,-0.07583396,0.13057747,0.11550416,0.09304606,0.14160177,0.06769838,-0.14024854,0.0028596544,0.05447195,0.14189999,-0.081740916,0.07820879,-0.027415514,-0.07849584,0.051531218,0.09625199,0.014961419,0.13619943,-0.089290164,0.13592862,0.13709316,0.09230654,-0.09918242,0.13161778,0.027835917,0.11774059,-0.003188252,0.14136645,0.021217123,-0.084756285,-0.080946214,0.0071037966,-0.00680003,0.16460298,0.111848064,0.07996728,-0.13323647,0.11109708,0.08320564,0.045364868,0.016076313,0.09199517,0.13818142,0.103542656,0.035051912,-0.090746306,0.14750253,0.13015634,-0.14610855,-0.007963377,0.04662441,0.066061996,0.14797959,-0.064927004,0.06439863
69,0.05019384,-0.12645915,0.11925745,-0.058578473,0.00517454,0.10616179,-0.020416675,0.14357789,-0.0014669969,0.13816151,-0.086586535,0.007568402,0.025225058,0.029791446,0.027772686,-0.09685012,-0.14915258,-0.06875656,0.051929552,-0.15505292,-0.18720312,0.035785533,0.014459769,-0.13625924,-0.12870921,-0.059115656,0.11763699,0.03540036,-0.076534584,-0.083656564,0.060365662,-0.0071719713,-0.06343495,-0.047473993,-0.040156685,0.10180256,-0.10160937,0.06451453,-0.004130147,-0.11704535,-0.05148392,0.02026509,0.03558539,-0.07757415,-0.0116031,0.068355195,-0.047941413,0.060626462,-0.11671233,-0.00047276658,-0.15758559,0.12839362,0.03295344,-0.024312176,-0.05948984,0.09111062,-0.08816878,0.12504853,-0.026276516,0.14232746,-0.13659877,0.009524007,-0.042825595,-0.074468285,0.012865349,-0.028509429,0.076076925,0.10681376,-0.118818216,0.12807463,-0.12974487,-0.020461803,-0.0861784,0.06170869,-0.039709028,-0.06483589,-0.1063182,-0.0065898104,-0.13643706,0.08392841,0.083589934,-0.060040765,0.07213702,0.022593422,0.03923123,0.078336395,0.0140867345,0.102329426,0.013144436,0.1431858,-0.00026826034,0.027545001,0.076060794,-0.008343915,0.06477567,0.04893624,-0.023473017,-0.008738341,0.063449115,-0.014318612
70,-0.061220974,0.09469058,0.10528232,-0.06601993,-0.02296195,-0.090424754,-0.16447324,-0.08993845,-0.06042315,0.08337092,-0.06940919,0.018141255,0.0008994888,-0.021473294,0.013191003,0.0018854678,0.14994758,0.08689828,-0.07621584,0.11127742,-0.1300487,-0.036596358,0.118490875,0.11591756,0.12592106,-0.05487752,0.12129797,-0.048316672,-0.058355726,-0.06505367,-0.10302899,0.051266406,0.11736932,-0.0647088,-0.14997199,0.023637623,0.011888945,-0.1590746,0.01000508,0.06908378,0.09485521,0.11540852,-0.13796094,-0.009925659,-0.009514781,0.03643657,0.011916212,-0.049591605,-0.12086558,-0.111201726,-0.14618573,0.13875572,-0.15244365,-0.055039227,0.11996365,-0.019277066,-0.105138235,-0.16053768,0.14361578,-0.036506794,-0.0056524156,0.014524108,0.03451516,0.0173223,-0.108498715,-0.095694356,0.11428799,0.02929845,0.015460141,0.13889223,-0.08895241,0.0128047485,0.11844005,0.14910172,-0.11822102,-0.05624726,0.012681865,0.02063089,0.087709226,-0.04408205,-0.020901667,0.114365466,0.04829167,-0.14332548,0.08014567,0.04446221,0.13644329,0.012310471,-0.044942435,0.13864833,0.02356562,-0.16284327,-0.12527162,-0.021734944,0.04076563,-0.0024868895,-0.008673426,-0.06506569,-0.09932883,-0.12813239
71,0.04795153,0.082225695,0.09785931,0.012489347,-0.09992302,-0.15071195,-0.091447495,0.021912325,-0.098920815,0.05697814,0.09243533,0.0016555459,-0.15181667,0.13217568,0.062263384,-0.056999974,0.123485684,-0.037574243,-0.12235579,0.09120931,0.011262345,0.043410674,-0.072444975,-0.046411544,-0.062357366,-0.015268809,-0.1411032,0.13297823,0.018092303,0.097012974,-0.13177954,-0.12271205,0.16133717,0.09793147,-0.030767752,0.07104518,-0.06316752,-0.06174861,-0.16170226,0.13377002,0.023656622,-0.03954658,0.11967836,-0.045630258,-0.07516239,-0.049516283,0.10537669,-0.033521242,-0.11537093,0.008657321,-0.16004464,-0.07272413,0.097633824,-0.021082725,-0.11790012,0.0029220416,-0.14850578,0.099275745,-0.13475135,0.042002186,0.14948614,0.12800229,-0.06626986,0.108413555,-0.06991803,0.023978183,-0.13355093,-0.007825012,0.071476966,-0.11162005,-0.07600713,0.122165844,0.09630053,0.09163195,0.008959822,-0.06524461,0.08480122,0.025869068,-0.08775683,-0.05586668,0.11706371,-0.08632437,0.13839011,-0.05344092,0.091527514,0.025763795,-0.004751491,0.09709096,-0.01138139,-0.15134302,-0.033914052,-0.12744267,0.13425125,0.023102805,-0.12937291,-0.12041961,-0.17691317,-0.0543901,0.107696615,0.103464566
72,-0.086159535,0.08610158,-0.009561604,0.04702017,0.15085396,0.1735644,-0.09689793,0.032620117,0.0013453569,-0.04503865,0.02403927,0.09732821,-0.03075733,0.022773743,-0.109182514,0.061329395,0.1594678,0.15038261,0.08331512,-0.022825511,0.12230499,0.11023527,-0.13402824,0.037475366,-0.05515252,-0.065900505,0.06589835,0.043751992,-0.0062228367,0.09396006,0.09912821,-0.013681816,-0.14154692,0.016995912,-0.0779037,-0.049057644,0.060735285,-0.068800986,-0.0492209,-0.0938924,0.10674976,0.14587128,-0.027496947,-0.11043431,-0.025136182,-0.106054425,-0.077162206,0.027264135,-0.115624934,0.06311277,0.10374581,-0.14841339,-0.06349808,-0.012410198,-0.107850626,0.011124962,0.12031724,0.083130874,0.059328984,-0.014246485,-0.11642893,0.037498213,0.04030922,-0.0049417345,0.021633295,-0.11793005,-0.05441418,0.16007045,-0.1213641,-0.03989696,-0.04633361,0.14108884,-0.14279938,-0.021453602,0.025274672,-0.015747169,0.07988296,0.004018592,-0.071897544,0.080558844,-0.034040693,0.065981284,0.093813196,-0.082901135,-0.047397505,-0.055095706,-0.11385417,0.12208441,-0.06254224,-0.043463163,0.13351218,0.095935404,0.039154496,-0.007517003,0.027553478,-0.12148974,-0.09669647,-0.121324316,-0.089595795,0.04909542
73,-0.12851603,-0.12857664,-0.07073546,-0.17391546,-0.10433624,0.077007525,-0.008020101,-0.028567698,-0.08919605,0.010667433,0.12105183,-0.075773954,0.087850444,-0.10954967,-0.06252277,0.054578535,-0.09094813,0.12123811,0.08571813,0.03684575,-0.088182285,-0.071099535,0.08531818,0.08648583,0.037121173,-0.03437849,-0.04009067,-0.048258636,-0.019392138,-0.019496918,0.028064527,0.119938724,0.11075085,0.096492924,-0.08385065,-0.006581842,0.059272747,0.008660395,-0.08992252,0.0062842867,0.097526565,-0.026381794,0.06830838,0.03393999,-0.018629331,-0.15644926,0.023945505,0.03584808,0.021457236,-0.05416089,-0.16125257,-0.054922976,0.13846904,0.08536666,0.06639374,0.045154896,0.1438972,0.024403172,-0.05498449,-0.120774046,0.09361984,0.09774581,-0.04895122,0.10764936,-0.018750181,-0.030934572,-0.05425059,-0.14598125,0.0383352,0.11933491,0.07788278,-0.04548427,0.09893509,-0.05452159,0.17734282,-0.08421748,0.0387082,0.037991982,0.030115606,-0.023801336,-0.022629188,0.08630588,-0.1276538,0.040855944,0.10326704,0.087407775,0.023765247,-0.06140379,0.08553885,0.018959586,-0.069760196,-0.11916246,0.011367262,0.12456194,-0.10320184,0.05367458,0.12572074,0.1176613,0.11094772,-0.047761723
74,-0.05698505,-0.029819231,0.011663964,-0.018707937,-0.13475089,0.04998029,0.12828068,0.024105728,-0.1457725,-0.054689977,0.059995253,0.09916009,-0.05965542,0.023662208,0.10478527,0.14734893,-0.0876147,-0.0201307,0.07247436,-0.025696019,-0.109104574,0.0070281196,-0.081327826,-0.15127073,0.16102143,0.062363163,-0.12719563,0.0073828646,0.14637743,0.11329645,-0.12432304,0.100484684,0.019923266,-0.123519294,-0.043490693,-0.0014973866,0.06428951,0.10920025,-0.1483879,-0.009909006,0.019218817,0.032319073,0.067274906,0.041404277,0.07040165,0.044562038,0.02942399,0.052435044,0.07834395,0.07772116,-0.11481187,0.13309003,0.093612395,0.023317931,-0.16387387,-0.004649396,0.029303513,0.07481838,-0.093907304,0.15273698,-0.09236031,0.15845007,0.060526915,-0.012248714,0.04113845,-0.03860642,-0.0024659873,-0.05349408,-0.11890538,0.14814973,-0.034319304,-0.041746415,0.11877378,0.0715986,0.1484904,0.025518274,0.10010559,0.09339196,0.0573692,-0.16716136,-0.09044402,-0.14106452,-0.12451551,-0.08867673,0.1312824,0.05378131,-0.076334834,0.08143588,-0.0167263,0.0053695724,-0.11346374,-0.060535192,-0.12865402,-0.00051465974,-0.12389163,-0.1455007,0.035015333,-0.022057928,0.12547444,-0.10929169
75,0.11704861,-0.015646115,0.050274417,-0.08888399,0.048343766,-0.019064067,0.09635759,0.15115577,-0.12020626,0.10617085,0.09895749,-0.119960696,0.02269449,0.14473954,0.070233054,0.119982235,-0.041166924,0.0034973887,-0.05288116,0.1169705,0.17324911,-0.014341385,-0.11632684,-0.0943414,-0.11829342,-0.069612905,0.00074484176,-0.040393453,0.06756838,-0.09502965,-0.027023345,-0.075186506,0.13882053,0.10308846,0.08578131,0.14284219,-0.00894117,0.059771642,0.03680702,0.09883257,0.105591394,-0.048498172,-0.14483593,0.09710288,0.107079156,-0.09996714,0.054271042,0.1655294,-0.0073602083,0.08267592,0.04320175,-0.08653556,-0.005821528,-0.07796615,0.0064234524,-0.048514467,0.07471315,0.12919635,0.048040565,-0.07194735,-0.048875134,0.057678502,0.073869556,0.04336255,0.010110153,-0.12208551,-0.045623258,0.041646436,0.09899115,-0.02627078,0.008049233,-0.079838306,0.09305391,-0.12050582,-0.018118683,0.041375656,0.028920049,0.00024360509,0.15163714,-0.093964174,0.09483702,0.071185246,-0.14465576,-0.07460955,0.045289323,0.057657238,-0.15562892,-0.028231882,0.109843984,-0.016631737,-0.14864469,-0.0044154515,0.0012993403,-0.030654265,0.13258938,-0.07551751,0.005604588,-0.011470285,0.10153258,-0.010923017
76,0.13058351,-0.08800493,-0.10817401,-0.08328254,0.010748911,0.040586576,-0.14534336,-0.1442529,0.04350293,0.07313661,-0.124338314,0.118567996,0.045736335,-0.035606816,-0.10504087,-0.1521587,-0.0548397,0.045764092,0.014105815,0.03775628,0.035172526,-0.12394505,-0.12628476,0.002180113,-0.03485757,0.110689074,0.11846367,0.13549647,0.0323908,-0.016844543,-0.13361725,0.023813112,-0.07073347,-0.1381446,-0.020088486,-0.10472318,0.12572043,0.041453954,-0.053973906,0.07867234,-0.037521426,0.109462164,0.019309854,0.08686535,-0.049021628,0.08576639,0.025225015,-0.086411096,-0.05872404,-0.10070033,-0.10180139,-0.07779302,-0.0798186,0.08716024,0.11615116,-0.08297395,0.12088728,0.15794052,-0.010464882,0.090657435,-0.102296144,0.07622335,0.13334556,-0.18426734,-0.016898515,-0.08477952,-0.10202558,-0.06548509,-0.1346189,-0.06599652,-0.06948241,-0.059363194,0.116380826,-0.13503051,0.04952691,0.15979876,0.057335455,-0.0027775182,0.09515336,0.12584247,-0.027313748,0.12313779,0.13829187,-0.07167356,0.07780588,-0.058714,0.042649712,0.14842029,-0.0043100757,0.019540273,-0.10330363,-0.031280033,0.066801,-0.020020982,-0.027037462,0.005917497,-0.009589663,0.13754521,0.06581616,0.06526484
77,-0.14543208,-0.07634326,-0.14408492,-0.115958944,0.15258396,0.07510359,0.093483046,0.11899284,0.03353141,0.0057725753,0.079229034,0.08143235,-0.01855598,-0.0045824093,-0.106149465,0.14212893,-0.11704237,-0.13915548,0.03633649,-0.14246602,-0.16145396,0.08644049,0.13361873,-0.121535204,0.12821014,-0.102486156,-0.13462701,-0.07253623,-0.09019907,-0.0980378,-0.028852077,-0.13753583,-0.07014294,0.009923885,-0.04604092,0.058994673,0.1389462,-0.05053125,-0.14691769,-0.007071637,-0.07957083,0.065954916,-0.069446,-0.04098868,-0.1615029,-0.023543188,-0.020413207,-0.15403408,-0.14680333,0.12605391,-0.061359476,0.033177536,-0.08091334,0.022348143,0.05606159,0.08497757,-0.120202705,-0.07961681,-0.07431517,0.054728903,0.13161294,0.01469833,-0.008148846,-0.066190004,0.10323131,-0.08999765,0.052309442,0.073100574,0.04471266,0.03544063,-0.10230051,0.07386403,-0.0010625295,-0.13231911,0.10679039,-0.05675317,-0.08499975,0.0755037,0.03368813,-0.019899024,0.05838466,-0.06903266,-0.12955526,-0.14749724,0.035883076,0.03409084,0.06340195,0.12428959,0.029589675,-0.043463048,-0.034703076,0.051911555,0.06883183,-0.055467058,0.032203186,0.12092642,-0.094474256,-0.014557118,0.0073667513,0.057097275
78,-0.1253431,-0.081598274,-0.06972441,0.005599947,0.060779165,0.13753313,-0.03270194,-0.012475941,0.03253578,-0.057727322,0.11183984,0.009131778,0.16542454,-0.13170469,-0.022406835,0.08367618,0.08800475,0.009609846,-0.09033761,-0.019142285,-0.04540878,0.0170478,0.14383064,-0.033511378,0.066943064,0.028286802,0.07284772,0.06863667,-0.006467866,0.12530671,0.0003778855,0.116804674,0.014814883,0.10929373,-0.0854628,0.01377374,-0.06384875,0.08805225,0.05459101,0.098487936,0.006718984,-0.022247626,-0.03429293,-0.09584673,0.17713891,-0.11078875,0.018088803,0.10401674,-0.012398198,0.06670077,0.007930191,-0.10117644,-0.12289836,-0.054442,0.09305044,0.099147715,-0.06581442,-0.010547829,0.124414854,-0.07329854,-0.0434383,0.14362863,0.034154866,0.12155495,0.10565695,0.124436356,0.020137684,0.061892822,-0.15721586,-0.049780026,0.09463665,0.01492481,0.017865177,0.07135488,0.12166645,-0.11127495,-0.0050698603,0.036367446,0.060561515,-0.10018852,-0.08717631,0.1273169,-0.15494804,-0.032992937,0.073860146,-0.101811446,-0.035080347,-0.02497442,-0.064033486,-0.14233832,0.059201315,0.1079187,-0.029867766,0.10839693,0.0022800001,0.10974388,0.010614559,-0.034105603,0.08154436,0.12963155
79,0.017597286,0.041717373,0.1439842,-0.04389082,-0.009745114,-0.0892708,0.14494692,-0.08011244,-0.14881632,0.13700935,-0.10362825,-0.028094187,0.06970555,-0.095887,-0.16655146,0.119959116,0.06077435,0.0061750654,0.07605445,0.07589094,0.071172595,0.060169905,0.106977366,0.07413072,-0.08760635,-0.16946332,0.013341642,-0.10208862,-0.070403285,0.10415413,0.022694783,0.0013413166,0.08527842,0.08693751,0.10613763,-0.13572702,-0.01862978,0.031281278,0.1369654,0.11663597,0.12992162,0.15847166,0.13871957,-0.06174891,0.069462284,-0.05476594,0.1713223,-0.11539818,0.078390375,-0.13254032,-0.03287021,0.062993295,0.10397374,-0.049625788,0.04742478,0.12539771,-0.08494336,0.012640528,0.12078989,-0.076425254,0.0118267145,0.13775544,-0.13269657,0.14066,0.0019479778,0.025696136,0.0878026,-0.008299073,-0.005785182,-0.14733243,-0.08445698,0.0635391,0.05150039,-0.007316168,-0.050171647,-0.06649352,-0.06252874,-0.08841564,-0.070288636,0.12761573,-0.13161437,-0.14887871,0.0074585285,0.06536719,-0.092158295,0.053134855,-0.051717907,0.15060297,-0.019225337,0.067597516,-0.08042956,0.061406326,-0.015154096,-0.06529212,-0.012534314,-0.048523962,0.004005327,-0.03008031,0.11244209,-0.124793835
80,-0.10332799,-0.121749386,0.05306893,-0.08095392,0.052348275,0.080598906,-0.034972824,0.100262105,-0.15416406,0.09892067,-0.052605335,-0.07596373,0.0016516334,0.102245286,0.018697279,0.11526325,0.10062733,0.120237485,-0.12130489,0.05336895,0.059849907,0.10454958,0.08161986,0.08176771,-0.064480305,-0.02798273,-0.15154095,-0.036239978,0.06996113,-0.10729967,0.14299633,0.001764859,0.09608653,-0.0058550197,-0.0958726,0.09149948,0.052260384,0.109018765,-0.11302745,0.06508527,0.12118468,0.0077855974,-0.08712562,-0.06594336,-0.10050046,0.079230085,-0.039722867,0.09621307,0.013217857,-0.1069411,0.14281084,0.054328717,-0.1327735,-0.03315884,0.06480161,0.014033316,-0.14053,0.07383548,-0.06648147,-0.059708524,0.15144683,-0.009056187,0.10006575,0.101636276,-0.07753112,0.056534767,-0.17054835,-0.039083388,0.089167304,-0.024508907,0.060960315,-0.016325211,0.107819974,-0.12740675,0.088423185,0.07498929,-0.08803536,-0.061781574,-0.023822708,0.19343469,-0.10551185,0.09085795,-0.093682945,0.123638146,-0.040925298,-0.032425065,-0.06493536,-0.05495135,0.13732873,-0.11304355,0.020822998,-0.1057627,-0.03796801,-0.03270058,-0.14039977,-0.16210456,-0.06251903,0.060395584,-0.0008864601,0.101046465
81,-0.038385674,0.10670202,0.08234627,0.044981707,0.13529043,-0.051699396,-0.030754723,0.061579835,0.052839674,0.028187513,-0.0022166956,-0.10690347,-0.031932548,0.1368009,-0.072547115,-0.061052002,-0.0022427647,-0.11351338,-0.034497328,0.08759508,-0.00034186232,-0.009762404,0.021957565,-0.01977298,0.055172686,-0.0015474141,0.14902194,0.088745296,0.092407025,-0.15366766,-0.120983526,-0.0042993254,0.057354912,0.107606314,0.033399872,-0.028087402,-0.019718459,0.07413121,0.13115981,-0.083828785,0.16243717,-0.048749443,-0.08661603,0.12425201,0.10825098,0.112446226,-0.10856925,0.02997319,-0.1680707,0.12554012,0.1174046,-0.11889014,0.07656105,-0.06588097,0.116136245,0.16009341,0.018480176,-0.01788321,-0.06435619,0.1097432,0.06518309,0.001489198,-0.006497195,0.02380828,0.125082,0.02625524,-0.06914828,0.014231111,0.008259153,-0.018518982,-0.11451326,-0.10823326,-0.078132056,-0.10887879,-0.06690005,0.07463512,0.047098875,0.08328681,0.062500976,-0.021929743,-0.023053812,-0.02435949,0.16000944,-0.12804003,-0.03866071,-0.14199282,-0.14483328,0.035287045,-0.071547255,0.0693111,0.04028872,0.11817384,0.059025347,-0.050214916,0.109941565,-0.007512475,-0.13933566,0.029129494,0.109508455,0.017914426
82,-0.055232417,0.079537965,0.13209681,-0.061592948,-0.057516918,0.010999629,-0.05901492,-0.09669454,0.03827147,0.14544927,-0.07213823,0.100988336,-0.0710612,0.13227701,0.13151346,-0.0013500787,0.01888411,0.14190687,0.06740221,0.09623022,-0.07864165,-0.15275738,-0.05335541,0.05657264,0.15538092,0.13691051,-0.12604876,0.10910341,-0.1441591,0.12779002,0.13371319,-0.034586318,0.059347223,-0.08617559,0.04949585,-0.12001044,0.11103206,-0.046782076,0.073914655,-0.03615954,-0.012060351,-0.08050232,0.05417826,0.06133484,0.08171911,-0.12348299,-0.051715057,0.013880384,0.11534259,0.051984698,0.05822693,-0.0054208594,-0.12622094,0.080269545,0.0459659,0.059089888,0.14958403,0.07598634,-0.101152435,-0.15030839,-0.01154358,-0.10803608,0.05395981,0.00075415435,0.009696953,-0.056999184,-0.113346085,0.14665672,-0.055457193,-0.121247984,0.08543401,-0.04972192,0.118167676,0.051480662,-0.04376716,-0.08564175,0.095276184,0.017879998,-0.12460375,-0.053140815,-0.07246792,-0.08479814,0.10162926,-0.04544993,-0.1437902,-0.10167209,-0.09387118,0.016690474,0.013847691,0.153418,-0.088151015,-0.016094873,-0.0044231713,-0.04997466,-0.021984559,-0.013102219,0.065257005,-0.15486784,0.053800892,-0.03862096
