,0,1,2,3,4,5,6,7,8,9,10,11,12,13,14,15,16,17,18,19,20,21,22,23,24,25,26,27,28,29,30,31,32,33,34,35,36,37,38,39,40,41,42,43,44,45,46,47,48,49,50,51,52,53,54,55,56,57,58,59,60,61,62,63,64,65,66,67,68,69,70,71,72,73,74,75,76,77,78,79,80,81,82,83,84,85,86,87,88,89,90,91,92,93,94,95,96,97,98,99,100,101,102,103,104,105,106,107,108,109,110,111,112,113,114,115,116,117,118,119,120,121,122,123,124,125,126,127,128,129,130,131,132,133,134,135,136,137,138,139,140,141,142,143,144,145,146,147,148,149
0,-0.12679711,0.022268306,0.03133711,0.12250435,-0.08134262,-0.04204372,0.055243373,-0.018919446,0.047619265,-0.024972545,0.053391684,0.01252103,0.102672935,-0.12832077,-0.07637743,-0.030983537,0.12517466,-0.03487038,0.1179383,0.08800659,-0.13523448,-0.110688984,-0.01225916,-0.119592875,-0.009560545,0.14553083,0.07179197,-0.044948354,-0.0009742763,-0.013500916,-0.12399152,-0.09704331,0.04189201,0.07122377,0.09816896,-0.070696376,0.07179193,0.093052246,-0.013345827,0.025766278,0.1120799,0.06327592,0.08444546,0.004304421,0.11098991,0.002552073,-0.08870205,0.08434401,-0.1041154,-0.026510788,0.045644656,-0.04035592,-0.013884936,-0.058581337,0.105768494,-0.051158864,0.1333733,-0.009184079,0.054090824,-0.024799932,0.13744593,-0.104968816,-0.09024987,-0.1004269,-0.004620025,-0.05801596,-0.06140279,0.041133422,0.12587164,-0.122225516,0.08545863,0.1043034,-0.06021897,0.11459014,-0.09924057,0.12792343,-0.027037146,0.107940376,0.048178688,0.11153859,-0.06512989,-0.016359473,0.10159614,-0.030753477,0.022287931,0.06780349,0.0313503,-0.08508694,-0.11476749,0.095945396,0.028835353,-0.02025779,-0.028498096,0.047636136,-0.028478136,-0.109856255,-0.09928988,-0.02658241,0.069625005,-0.028880056,0.13103215,0.025895856,0.082617484,-0.10631197,-0.04310488,0.027640563,0.1042415,0.09158444,-0.089597225,0.0325744,0.09076592,0.06591398,-0.10575547,-0.098464325,0.050246492,0.09835107,0.062526,0.024589248,-0.110452816,0.061412185,0.08155493,-0.07801805,-0.07017458,-0.02844377,0.097464524,-0.0010577469,0.06410853,0.06407896,-0.06280643,-0.09476264,-0.06865573,0.1380047,0.015156706,-0.11220336,-0.097580776,-0.104832344,-0.037922587,-0.1199891,-0.11278068,-0.05090246,-0.07748767,-0.12305786,0.066023484,0.033878602,-0.0042934995,0.12972887,-0.12485489,-0.028669152,-0.1268915,-0.052021578
1,0.07038898,-0.036402818,-0.010675867,0.010147224,0.09254786,0.01702522,-0.022860501,0.18391113,0.10959558,-0.027320715,-0.096098,0.0030020056,-0.11053571,0.08210719,-0.087028526,-0.0038600732,0.06444621,-0.02919929,-0.0052903113,0.086633585,-0.13515732,0.07126362,0.053575076,0.0084895175,-0.0647068,-0.063308656,0.0010758317,-0.009502639,-0.04578335,0.089766525,0.07032601,0.020805217,0.07357275,0.05278711,-0.106182136,0.07648971,0.05806621,-0.06246095,-0.03751609,-0.11714871,0.01927234,0.08292115,-0.032855548,-0.012973152,-0.03967733,-0.08988885,0.038290493,0.007241926,-0.09580666,0.12310822,0.06113056,-0.07267178,-0.12121038,0.0844428,0.08177504,0.032741934,0.037044868,-0.07304453,0.122564666,-0.05156688,-0.09904539,0.08020757,0.0486894,-0.0110037625,-0.09641095,0.08545848,0.015591531,-0.037614234,-0.0066792015,0.030701831,-0.07202449,-0.008196053,-0.100602016,-0.006442778,0.024227882,0.01769163,0.023381524,-0.0013896895,-0.07849057,-0.0346443,-0.061345614,0.0669841,0.11914113,0.07466075,0.07625419,-0.058069706,0.078811854,-0.017633814,-0.018806836,0.030956758,-0.0144511545,-0.10578483,0.020455,-0.13253072,0.028462775,-0.03798606,0.07129374,0.100452974,0.1303858,-0.022325065,-0.08502379,-0.08905018,0.041860446,0.09170438,0.06195439,0.05360761,-0.0569087,-0.027727012,-0.06807824,-0.094160475,0.012897443,0.10767097,0.007341343,-0.10343725,-0.04319626,0.033465978,-0.049706228,0.073085055,-0.03687571,-0.036472157,0.0954477,0.12775743,-0.0035434477,0.070358366,0.037973396,-0.108508095,0.015086595,-0.11132176,-0.11239438,0.061355945,-0.05108822,0.06503267,-0.06585534,0.101866364,0.106965475,-0.061852936,-0.06718285,0.11022468,0.11427228,-0.10443483,0.04750686,-0.070122786,-0.075866,0.046734102,-0.0024265002,-0.09380508,0.08097014,-0.04620862,0.10894954,0.01299979
2,-0.10884608,-0.039444935,-0.027436417,-0.09246792,-0.006780719,-0.04205982,-0.03439219,0.102914736,-0.051492777,-0.09224084,-0.008468732,-0.024993557,-0.015916802,-0.13602269,0.11584711,-0.09140812,-0.086006865,0.06363197,0.04182434,-0.039565537,-0.12588842,0.028463412,-0.107827105,-0.06360635,-0.09338134,0.01785561,0.11531681,-0.1090659,0.07971341,-0.078362785,0.004602739,-0.027491312,0.07818036,-0.054188386,-0.034747384,0.06337982,-0.01142101,0.09590854,0.013385496,-0.06188692,-0.0006198616,-0.07768113,-0.13162754,0.1276919,-0.11852711,0.032785993,-0.13655148,-0.09431297,-0.10265087,-0.04711591,0.11945687,0.11087273,0.07396782,-0.116064236,0.014201221,-0.07259819,-0.030549739,0.07370179,-0.07253084,0.06286729,-0.1063908,-0.076585256,0.11504585,0.06667184,0.017410096,0.013140322,0.071238644,-0.12760253,-0.0836058,0.018422572,0.08233291,0.00051284983,-0.061538342,0.07165162,-0.08452453,0.105785795,0.080491446,0.07650206,0.11156804,0.12504181,0.07204727,-0.04093157,0.058653288,0.11975455,0.060803194,0.091529034,-0.07857444,-0.033356134,0.07266323,-0.08590519,0.11597235,-0.08446087,-0.063171186,0.04148515,-0.13471349,-0.044124763,0.025758956,-0.10919164,0.115990795,-0.0644746,0.08931514,-0.089438066,0.12766315,0.123620875,-0.00857367,-0.07431783,0.0051265336,-0.091742985,-0.051557567,0.10414572,-0.04585217,-0.11824895,-0.097756624,0.10990457,0.010878739,0.012911242,-0.0599804,-0.05762494,0.030003002,0.03223885,0.036793333,0.11840815,0.081489876,-0.07100036,0.02932876,0.10907397,-0.12418159,0.027541118,-0.14547597,-0.0045701317,0.11060451,-0.048640653,-0.03096478,0.054157145,-0.02553712,-0.01998749,0.07698038,-0.020204667,-0.06344471,0.07724514,-0.12096269,-0.037000015,-0.023927536,0.09110968,0.12195101,0.09134968,0.03501675,-0.028824475,-0.021503191,-0.061476614
3,0.10005908,-0.0006991422,-0.06899627,-0.0042808442,0.057514887,0.015959809,-0.13778308,-0.07790388,-0.122874856,-0.07766651,0.04130739,-0.0044448553,0.023253078,-0.018333808,0.008750967,-0.016328884,0.052832957,0.02098131,0.068796605,0.009789326,0.0867634,-0.0756887,-0.03186284,-0.03459491,-0.09237613,0.08462581,-0.028817238,-0.023403982,-0.103959434,0.03570465,0.09339398,0.066523865,-0.101326436,-0.060609464,0.07025994,-0.021194926,-0.12272446,0.052601308,-0.007611558,-0.13109188,0.021885276,-0.06874369,0.07008996,0.082335345,-0.042243365,-0.11347062,0.10514157,-0.013015855,0.068084195,-0.09381595,-0.06886419,0.12450143,-0.010688681,-0.08812809,0.07182357,0.060606603,0.005940227,-0.1132185,-0.12762478,-0.07154084,-0.047578264,-0.09828188,-0.12881607,-0.119851686,0.060857408,0.09991202,-0.12077876,-0.08273795,0.080105215,0.09014501,0.1272991,0.11740434,0.04668581,-0.028176833,-0.09758769,0.0067954576,0.08185517,-0.044029284,-0.032315414,0.123772755,0.0050139483,-0.05996981,-0.04937958,-0.03228747,-0.037336353,0.075736344,-0.07853707,0.12131399,-0.11317614,-0.009920963,-0.029457673,-0.117238,-0.062381744,-0.13628273,0.11637152,0.090318486,-0.0503135,-0.0037865858,0.0660961,-0.06946041,-0.100844756,-0.067474216,-0.07310985,-0.0827766,0.056852277,-0.123652495,-0.10848239,0.031140413,-0.037077796,0.066836804,-0.038801093,-0.024130072,0.07244244,-0.099927865,-0.07157647,0.10789973,0.081354156,0.08178793,0.04451527,-0.1126108,0.035594076,0.05473377,-0.10758088,-0.10936249,-0.10055818,0.02860708,-0.06084603,0.026314149,-0.03868331,0.04497286,-0.10035347,-0.11649942,0.0029403958,0.04922719,-0.06529928,-0.07704401,0.0024433527,0.05708057,0.05419327,-0.056131303,-0.0046205656,0.0010341431,-0.0041272924,0.028563889,-0.07048485,0.053943098,-0.09633779,0.081681915,-0.073782556,0.061745934
4,-0.106620975,0.042664878,0.11369479,0.02931422,0.052606773,0.06441647,0.10766925,-0.05668699,0.01816546,-0.0685364,0.119128026,0.013408051,0.05244593,0.12833798,0.08663267,0.06398407,0.004228272,-0.038534813,0.05261713,0.121759236,-0.07847954,0.042401407,0.04400862,0.060458075,0.005799173,0.01720668,0.0712183,0.029158542,0.007905278,-0.1028803,0.022231402,-0.02759567,0.09155109,0.1386957,-0.08613108,-0.033226423,-0.05381169,0.049304273,0.11760591,-0.068430856,-0.037069004,0.005827277,-0.05465616,-0.08507159,0.032014705,0.013935683,-0.10089936,0.12431285,-0.0072064064,0.07818787,-0.10063186,-0.057279445,0.10987146,-0.12066865,0.07841413,-0.10329215,-0.09390902,0.10706375,-0.0104854,0.09577291,-0.020455983,-0.022657756,-0.06456796,-0.079033,-0.12194314,0.1307935,-0.023371276,0.047827233,-0.07715082,0.1157786,0.05618533,0.0063644797,-0.08224166,0.014363925,0.058126997,0.08169752,0.13704714,0.04539744,-0.037974223,-0.1131348,0.030430682,-0.09134237,-0.08145374,0.0590547,-0.06086775,0.13355228,0.055152427,0.04190261,0.057427622,0.12501049,0.06694279,0.06408839,-0.010559189,0.04979826,0.1029697,0.11157498,0.101677746,0.09521111,-0.05649943,0.05062993,-0.048577078,0.055889886,0.07396914,-0.036440697,0.01673196,-0.04839086,0.11700102,-0.025997873,-0.05583853,-0.08144745,-0.018642193,-0.06937764,0.09317526,-0.10066193,0.10396157,-0.06801487,0.009679322,0.082003064,-0.029533222,-0.12724146,-0.12632507,0.077264376,-0.041003484,0.12323887,0.099203154,0.05369446,0.07475887,-0.11475175,-0.0027188067,-0.02017891,-0.05361636,0.06767781,0.042867456,-0.0693583,0.025773158,0.06177282,-0.08330244,-0.10859198,-0.12609673,0.051935688,0.018674327,0.012890297,0.09261267,-0.0012888833,0.112778455,-0.07099878,0.105409205,-0.09038135,0.046332374,-0.050053988
5,0.006137747,0.061325774,-0.053206567,0.005405804,0.04488211,-0.109745875,-0.1078482,0.122958995,-0.11900158,-0.03623204,0.061016615,-0.079540305,-0.09136196,-0.11176456,-0.099953994,-0.025319763,0.048176322,-0.09417515,0.047997706,0.11963176,-0.06681833,0.018863795,-0.12069177,-0.022619102,0.022158146,-0.065210976,-0.0489505,-0.0064508338,0.10610918,-0.07317695,0.06057239,0.033129904,-0.051725604,0.06119111,-0.008085518,-0.08388446,-0.08619602,-0.1095853,0.06586438,-0.062289108,0.10177742,0.114581816,-0.094231054,-0.115555085,-0.08222266,0.07482495,0.05038725,-0.049228676,0.008368504,0.10422441,-0.08545942,0.06786218,0.04249535,-0.051678237,-0.07730476,-0.013473102,-0.027935285,0.006409258,0.09937781,0.02727756,-0.05721949,0.062825024,-0.08757866,0.027744431,0.05724545,-0.05904683,0.0074116187,0.073156245,-0.08896085,0.011111176,0.0041134614,0.10429531,-0.15349898,-0.048988525,0.100002475,0.077511765,0.120391965,0.11517113,-0.004354772,-0.04377814,-0.07190064,-0.10214132,-0.16872242,0.05241772,0.1166694,0.08630908,-0.010883127,0.0649056,0.027161906,0.024278061,-0.028796887,0.03374712,-0.03293225,-0.10150158,0.045812625,0.11532177,0.100870855,0.026092974,0.09492414,-0.07827326,0.05086885,-0.01248023,-0.008027835,-0.036716416,0.015715724,0.02726613,0.08543818,-0.10386497,-0.14107782,-0.021416107,-0.010932384,-0.03556952,0.014138414,0.07542786,-0.06460396,0.029243458,0.03896371,-0.07322236,-0.023422083,-0.07653073,-0.118939884,0.018427812,-0.062320407,-0.01914695,-0.07750208,-0.064749844,-0.14579901,0.03787177,-0.13669814,-0.019565482,0.035704393,-0.06895176,-0.10552702,0.06709886,0.061236802,-0.013758865,-0.04558284,-0.104227066,0.018581927,-0.032152403,0.027680052,0.07739334,0.005346882,0.059387192,0.01616977,0.04667039,0.028426504,-0.13614577,-0.093811065,0.07289963
6,-0.10508856,0.07251983,-0.010571588,0.043312956,-0.02380334,0.009490649,0.11076801,-0.14033644,0.032101322,0.020008657,-0.027385643,-0.06635785,0.05811328,-0.10619291,-0.045218248,0.043142587,-0.07471319,0.08535026,-0.012586059,0.07981902,-0.0048611285,-0.0024565929,0.04958994,0.036204673,0.07523275,-0.114382274,-0.05776341,0.047405563,-0.118537545,0.07811273,-0.010619062,0.0077389935,-0.07349087,-0.03728407,-0.041664448,-0.043386653,-0.01433453,0.11698109,-0.061432734,-0.01745207,0.033536326,-0.084900275,0.018490141,-0.10112883,0.095079534,-0.10222137,-0.13668194,-0.16701339,0.06609752,0.055565212,-0.03002697,-0.016761316,0.044026818,-0.088944845,-0.0057406207,-0.061563566,-0.09388823,-0.05304737,0.078195475,-0.09901597,0.07879453,0.02844764,0.001674722,-0.07531804,0.050879724,-0.020030545,-0.09099379,0.031167487,0.04627282,0.058143083,0.105857275,-0.08540891,0.010935367,0.03511274,-0.06861241,-0.116175234,-0.09384212,0.062652044,0.07539843,0.04208212,-0.04768773,-0.09875107,-0.1564689,0.085862905,-0.10938852,-0.0056564114,-0.08475012,0.08218304,-0.09959921,0.020216815,0.103250876,0.025370974,0.09796624,-0.039417863,0.07574328,-0.08924384,0.033531893,-0.056548297,-0.09016413,-0.058584698,0.039578978,-0.08390771,-0.04650717,0.08661965,-0.08189706,0.04367369,0.06058126,-0.03639609,0.07307663,0.12271427,-0.11198067,-0.10506317,-0.03211029,-0.083403625,0.03944615,0.1279026,-0.09931904,-0.024434133,-0.06263294,-0.047135357,0.10851717,0.043142553,0.08536139,0.10106328,-0.052272536,-0.041990586,0.118266664,0.106663175,0.07457889,-0.08409044,-0.023165492,0.091691785,0.034207333,0.1090537,0.06786718,-0.111654714,0.069722064,-0.0010445293,-0.10610964,-0.102966495,0.04460263,-0.14320403,-0.083084315,-0.014916836,0.01602438,-0.00831422,0.04942285,0.0115062,0.0039275032,0.12192538
7,-0.07792526,0.10905973,0.036405887,-0.10257785,0.109519966,0.014044077,0.1395809,0.044866085,0.10724056,-0.08054274,0.014719827,0.097206265,0.087709144,-0.033399936,0.094069004,0.08406279,0.083050266,0.008919291,0.12520048,-0.12889788,0.08906779,0.0032787563,-0.068224944,0.049593665,-0.05938012,0.016413605,0.041858,0.07532229,-0.09155851,-0.08440907,0.035683524,0.06239346,-0.07396622,0.007506447,0.018195854,-0.032974675,0.11816724,0.0061829574,-0.06552349,-0.08849178,0.036352165,0.10340177,-0.066505216,-0.03469665,-0.11771279,-0.0009271741,0.14660828,-0.12384365,0.059323456,-0.09039703,0.109795086,0.020979282,0.0980062,0.026554108,0.09067287,0.032333754,-0.08722145,-0.021790601,-0.043541007,0.04654137,0.0328736,-0.032245338,0.010635503,-0.12592432,0.08628609,0.10071943,0.11740979,-0.068390064,0.072487615,0.031829853,-0.038494278,0.108496696,-0.102061816,0.05436675,0.007179041,-0.10869404,0.1201656,0.1219761,0.011434869,-0.031760257,-0.1066707,0.041061312,-0.072656155,-0.118869066,0.11941262,0.053935684,0.011851803,0.13837664,-0.107443154,0.027272983,-0.04137032,-0.11774338,-0.03160799,-0.124988385,0.060221735,0.03659007,-0.018505413,0.0553645,-0.09099383,0.0739733,0.04656413,-0.07468395,-0.13029453,-0.098203555,0.034025483,0.022150854,0.04526338,0.047614776,-0.09945992,0.098642915,0.108496584,0.062123343,0.02228986,-0.08512019,-0.11378994,0.043336373,-0.10002364,0.10009152,-0.1185707,-0.09854583,0.082719,-0.09450765,0.123987295,0.11596803,0.09598718,-0.019299686,0.032965373,0.086907625,0.09413497,0.0935879,0.0120474165,0.1081064,-0.0950959,0.07178434,-0.027196158,-0.07264123,-0.014683013,0.0029502003,-0.041152705,0.030851174,-0.043869063,-0.104239024,-0.002071171,0.012583183,0.090954885,0.09780651,0.10892188,-0.039793484,-0.03732038,0.13389859
8,-0.07785767,0.06269144,-0.090569794,-0.045811027,-0.08204531,-0.007744458,-0.0009256844,-0.054995447,0.06830069,-0.089897536,-0.038615342,-0.059504516,-0.09867254,-0.034162123,-0.03832441,-0.09299306,-0.011809074,-0.043402307,0.015025601,0.039982688,0.0049676592,0.006798952,-0.09517149,-0.076222524,-0.082358554,-0.045879375,-0.10903076,0.08402794,-0.0917057,0.016403813,-0.007841592,0.124565534,-0.005029601,-0.054558568,0.07461239,-0.09409852,0.11124907,-0.007288477,-0.07305139,0.11391793,-0.100798965,0.025176533,0.063499846,0.1178351,-0.07239634,0.10317438,0.13364501,-0.08615301,-0.0036843799,0.06356879,-0.0739954,0.10734031,0.025378471,0.084540814,0.12794542,-0.052774344,0.08821698,-0.07466905,-0.044945076,0.12056114,-0.068257995,-0.04207396,-0.035821244,-0.054102823,-0.12245762,-0.05949906,0.13662703,0.13643116,0.006475166,-0.033932485,0.12319277,0.101374686,0.07476428,-0.054495957,0.082342595,-0.024189966,-0.004622978,-0.06769861,-0.009767185,-0.10190112,-0.026830425,0.001968107,0.08606711,-0.074278,-0.074318446,0.09921184,0.0014390672,-0.059038505,-0.013236817,-0.058969274,0.07390017,0.09417583,0.13821223,0.06879018,-0.06412273,-0.054764997,0.083550744,0.030591521,-0.111303546,0.035967946,-0.031372033,0.0013567498,-0.109992936,-0.09416353,0.00067863474,-0.05056228,0.11626416,0.019571923,-0.022569465,-0.06406019,-0.108548716,0.064876154,0.05756062,-0.0064858315,-0.09941881,-0.1180617,0.0812437,-0.096921444,-0.04550349,-0.0858585,-0.10011162,-0.08826851,-0.033161532,0.03577395,0.014598941,-0.048017506,0.063068405,0.12982856,0.09494452,-0.036792114,-0.12824832,0.09116804,-0.066914804,0.06152015,-0.12529838,-0.08598737,0.014606341,-0.004738565,0.06294158,0.12200195,0.0693562,0.11759087,0.059510514,0.11215302,0.06457764,-0.105833985,-0.046822306,0.010844302,-0.07161051,-0.09357854
9,-0.084593676,-0.082072295,-0.10860664,-0.11020039,0.015866233,0.046841547,0.10746401,-0.05166647,-0.025625627,0.110792756,-0.08445876,0.0734558,0.013396719,-0.09395303,0.057710398,0.062516764,0.08997947,0.013280245,0.07184833,0.084200725,-0.1065333,-0.053148195,0.11900211,0.06312887,-0.06324045,-0.1245831,0.009636082,0.10094112,0.123368196,-0.1044528,0.03142288,0.08024333,-0.11780914,0.06878775,-0.04291659,-0.005046909,0.05076915,0.09865812,-0.057517517,-0.14198957,-0.034266405,-0.03300152,-0.08039674,-0.06964203,0.12698919,0.09071671,0.065202564,-0.060041163,0.05433209,-0.056734797,0.017111005,-0.12839003,-0.005108587,0.061538767,0.007596688,-0.07538486,-0.06910315,0.062502176,-0.04662464,0.025694333,-0.11276024,0.021177283,0.06450477,0.02706996,-0.07479438,-0.07134933,0.061342977,-0.028342456,-0.010772316,0.07112108,0.02242677,0.0805098,-0.019732008,-0.0996707,-0.09117368,0.024132105,-0.050111677,-0.0032486818,-0.07790719,0.050448034,0.11499025,0.0035945803,0.0442324,-0.10036351,0.094376594,0.104550846,0.095134534,0.047976136,0.06649632,-0.116794735,-0.07266873,-0.11272845,-0.066698164,-0.041236103,-0.034113865,-0.1356572,-0.043818824,-0.09284939,0.08569026,-0.044147428,-0.11099248,-0.07366216,0.024130655,-0.12400335,0.017774327,0.05463698,0.04695518,-0.08536957,0.0858427,0.124811836,0.04223157,0.02258247,0.11953471,-0.104535885,0.014282705,-0.07237866,-0.04178118,-0.047331646,-0.11631822,-0.010746835,0.018013641,0.073824376,-0.08351807,0.025032911,0.11388158,-0.06270858,0.09706289,-0.01639864,0.04622904,0.04518918,-0.018156698,0.119281836,0.011286741,-0.0475373,-0.051220234,0.010448619,0.05582638,-0.04180969,0.07379694,-0.11255674,-0.112057485,0.021178069,0.038230725,0.07799358,0.039110713,-0.14987993,0.06705322,0.06632421,-0.10364857,-0.069098376
10,0.04037776,0.09891385,-0.06198105,0.11357299,0.0891164,-0.0649152,-0.105169214,-0.12976222,-0.09471829,-0.12825936,0.07287606,0.12903975,0.030909974,0.07463087,0.11498129,-0.0021527163,-0.032311145,0.068246774,-0.09326725,-0.010185015,0.099028565,-0.08306033,0.019401738,-0.040956024,0.0037499713,-0.014564644,-0.06042941,-0.11808776,-0.028985787,0.14301123,0.11445977,0.10378889,-0.011480616,0.037769023,0.12693019,0.064380124,-0.029426768,0.12513036,-0.028265778,-0.08452904,-0.043589093,0.01282979,0.08496478,-0.12389475,-0.05893174,-0.10023485,-0.04821545,0.06094701,-0.02456193,-0.049830258,-0.083630085,0.060548306,0.08073937,-0.077543445,0.10388495,-0.08107768,0.11220252,0.11805504,0.026063956,0.051471673,-0.030487249,0.10630359,0.016246865,-0.07929014,-0.12442985,-0.047913678,0.046089884,0.06933036,0.014097401,-0.10852773,-0.09667641,0.06505624,0.06618439,0.1298165,-0.018477023,-0.08137986,0.018942721,0.08328268,-0.046377156,0.0025956773,0.08577801,0.072748564,0.060396116,0.03346188,0.015299308,-0.03197498,0.03789823,0.07250099,0.1099336,-0.0316459,-0.021238921,-0.08542304,0.037659656,0.0061362903,0.12373401,0.02527978,-0.08343607,-0.11578183,-0.030145679,0.08282195,-0.054354426,0.04511542,0.09914329,-0.13188928,0.14129958,0.05230732,0.09133977,0.03699273,0.0686394,0.041057445,0.013885815,0.06409314,0.0985167,0.08190289,0.0026253583,0.08952176,-0.12568255,-0.025562571,-0.08105762,-0.08221104,-0.020902706,-0.003848566,-0.08508022,0.048470404,0.03651768,-0.00045645688,0.029964358,0.033967104,-0.08731842,0.09119728,0.11064677,-0.10094635,-0.09660118,0.002319152,-0.052316695,0.14347546,-0.069574736,0.016522234,-0.03437964,0.14060706,0.047833744,0.0971445,-0.106537305,0.056110956,0.10557403,-0.032952763,0.041542083,0.14080001,-0.07307251,0.033025578
11,0.008690177,-0.06984444,-0.0057156626,-0.09530864,0.0075470945,0.08819678,0.08641614,0.06086989,0.00083993026,-0.0076712216,0.05443533,-0.12391876,0.105223015,-0.024492316,0.11287384,0.03529074,0.041675925,-0.051392198,0.041219182,-0.1265589,0.03403555,-0.11658133,0.032935828,0.12876625,-0.069520235,0.033663884,-0.05416663,0.121666476,0.06564489,0.05277159,0.12237918,-0.07354873,-0.12786298,-0.049325295,-0.054666705,0.024681259,0.13658619,-0.12857734,0.09732147,0.006359913,-0.020561274,0.021811575,0.07758214,0.04226749,-0.0516952,-0.08148518,-0.11173224,-0.014865537,0.10077689,0.11936401,0.11819435,-0.072768256,0.059526876,-0.036524333,-0.1005483,-0.025648253,0.12865664,-0.06890855,-0.10915322,0.099584684,0.06171487,0.10086466,0.12020779,-0.07203805,-0.095052466,0.079310305,0.0070579047,-0.02839129,0.13858156,-0.058702033,0.04543487,0.046118483,-0.07003921,0.13511007,0.058459643,0.0822456,0.12917773,-0.107083336,-0.008866754,0.09080952,-0.092445806,0.038490534,0.14481959,0.11922413,0.027894475,0.09295115,0.08215168,-0.09675235,0.044663146,-0.09476905,-0.09640288,-0.10063149,-0.027479585,-0.0032542283,0.06609983,0.041614506,0.017104926,-0.10920926,0.055126958,0.11535523,0.08741503,-0.021786988,0.1214216,0.06523009,0.12263479,-0.057339054,-0.05323352,0.10134822,0.13438845,0.11934037,0.0038164025,0.09918081,0.014521645,0.037361935,0.016428832,-0.0017755294,-0.04952916,-0.1021076,-0.095186956,0.11063195,0.047053803,-0.0047416002,-0.09108217,-0.11946217,0.10695612,0.059534464,0.11594406,0.04245884,-0.06179265,-0.02274788,-0.12673245,0.1311109,-0.1103063,0.0024098156,0.11527841,-0.054288413,0.060418148,-0.063823976,-0.12076659,0.0076406817,-0.026791763,-0.1208314,0.042679723,0.06752479,-0.12366631,-0.042472787,-0.04359087,0.11921274,0.053212106,-0.118901186
12,-0.06391809,0.035700314,-0.03571667,-0.100834265,-0.059056923,0.11239539,0.0052909376,0.108102925,-0.046982124,0.060550522,0.027275374,-0.07146366,0.06445563,0.059490126,0.09506984,0.011706766,-0.07195975,-0.11543021,-0.09737593,-0.10206354,-0.08065907,-0.009673281,0.07772203,0.044027988,-0.10007813,-0.029975604,0.03178754,0.07766372,0.08957313,0.1104351,0.050146855,-0.04039082,0.083156414,-0.08069027,-0.09380653,-0.027893819,-0.07397241,0.09977708,-0.0024371275,-0.01972495,-0.078187674,-0.11775295,-0.07457712,-0.09566318,-0.09975883,0.02389436,0.060773134,0.1233763,0.03105669,0.00506063,0.0963166,0.08010352,-0.109161474,0.043459646,0.10723033,0.08858338,0.01215256,0.08990165,-0.018811809,-0.0028425853,-0.051907837,0.049960904,0.086250275,-0.014974528,0.04215889,-0.0718284,-0.058512203,0.056077544,-0.050584722,-0.007787477,0.05524929,0.10413933,0.016273275,-0.030654347,0.03893064,-0.025500612,-0.00125416,-0.03833249,0.047095396,0.030884309,-0.04364605,0.054099534,0.089865156,-0.09333338,0.1012584,0.06656256,0.02312885,-0.046662904,-0.07195936,0.024639726,0.0052543855,-0.04117503,-0.07239121,0.027581109,-0.08892495,-0.13457893,-0.03425759,-0.0010308662,0.038361218,0.07471861,0.02453147,-0.016714247,0.014231178,-0.040411014,-0.15003565,0.02673507,-0.0014342413,-0.0820784,-0.045402046,0.052623473,-0.068928994,0.04511754,-0.08149663,0.08219702,-0.0885483,0.04081591,-0.04995587,-0.094505064,0.030718619,0.16614494,-0.0019071777,-0.1306607,0.07877642,-0.032593247,0.104234144,-0.060880195,-0.103336826,-0.14171156,0.005905362,-0.13189638,0.10236476,-0.040341552,-0.026744928,-0.008631259,-0.042575616,-0.0008369991,-0.07930029,0.025263926,0.12704319,-0.015879074,-0.108574145,0.02776846,0.017304443,-0.0055639106,0.03694246,-0.08078767,0.103583135,0.05800813,-0.02402228,-0.1130561
13,5.0787447e-05,-0.079985514,0.0074053626,0.0949307,0.024973892,-0.029249448,0.052562177,-0.06547469,-0.08841325,0.085496366,-0.017880667,0.042692807,0.05377001,0.063350864,-0.077921465,0.08220074,-0.107381865,-0.0607482,-0.052601043,-0.07277618,-0.058104746,0.10052461,-0.07262197,-0.099390954,-0.109422974,0.044746388,0.12299629,0.013815251,-0.0028047299,0.10241349,-0.12052803,-0.112587295,-0.11122005,-0.05205537,-0.06692434,0.05730175,-0.05745187,-0.03343579,0.05851592,0.110691786,0.06936071,0.054265205,-0.11833071,0.1073317,0.053524252,-0.12600139,-0.035074215,0.03976022,0.050075978,-0.1377785,-0.027712643,0.113604754,0.039980546,-0.08797145,0.022319132,0.11963616,-0.1039617,-0.022135654,0.060463853,0.04118426,-0.10606601,0.02488253,-0.021300144,0.07982691,0.12094596,-0.07248365,0.052410465,0.064298235,0.04584804,0.08980579,-0.052018374,0.076706484,-0.05947769,-0.10291188,0.11680023,0.014565168,0.0062009124,-0.08988941,-0.046262942,0.10763554,0.08202084,-0.022300843,0.06672892,-0.05065161,0.097378284,-0.04258573,-0.06395735,0.06823159,-0.10217129,-0.043999474,0.006054193,-0.06659506,0.05043401,-0.023661474,-0.038273707,0.064284824,-0.08083576,0.082911,-0.05169238,-0.10290317,0.116023675,0.054312583,0.0058040493,0.062935725,-0.043106243,-0.13524191,0.023340253,-0.08099956,-0.11155289,0.074265435,0.07210651,0.006891319,0.067197785,-0.011955659,-0.077748254,-0.07365769,0.04954103,-0.022421272,0.10307105,-0.057408236,-0.07878733,0.1104725,0.037430372,0.11835009,0.102293946,0.13058063,-0.12113157,0.13402042,-0.009859281,-0.13400394,-0.052304015,0.009205109,-0.039504904,-0.086153254,0.053358354,0.09905426,0.0020800743,0.081583776,0.038986124,0.104823165,-0.062349096,0.0789237,0.04787922,-0.03252674,0.064865425,-0.033791304,-0.07467693,-0.031466473,0.04424661,0.010648534
14,-0.054635767,-0.0714304,-0.071912065,-0.0063155782,-0.062143683,0.041076906,0.083699875,0.033708822,0.009757681,-0.1216815,-0.061529197,0.040298935,-0.064343035,-0.0037371658,0.009033059,-0.024689965,-0.11174863,-0.11734492,0.013265152,0.030092537,0.038841683,0.11672165,-0.044049785,-0.0699393,0.09417876,-0.09798046,-0.0075466963,0.056022145,-0.22604951,-0.08765912,-0.049576,0.04676277,0.053033464,0.024983795,0.033034917,0.075000644,-0.04661524,-0.061572507,-0.066331886,0.056511264,-0.078204006,-0.03458006,-0.028151395,-0.071314655,-0.095683716,0.098164566,-0.03153671,-0.063318335,-0.070080474,0.013303139,-0.11611207,0.0783583,-0.07930318,0.075510405,-0.05071279,0.0018317155,0.04118924,-0.121682584,0.0135491965,-0.020843262,0.05300507,0.071567304,-0.111107334,-0.047909297,0.10306829,0.07740515,-0.08075725,0.044874858,-0.08354791,0.05224532,0.046998084,-0.10299761,0.037976213,0.000650382,-0.042481363,0.012243847,-0.07437573,0.10057765,-0.068347275,0.0651708,0.019696169,-0.0580969,0.0060624876,0.059718177,-0.0010168381,-0.11402522,-0.045182813,-0.0074134753,-0.06340842,-0.023921466,0.043349933,-0.12638924,-0.07191928,-0.04819326,-0.037264265,0.13947427,0.123407766,0.008337525,-0.011284447,0.045042213,-0.017783718,-0.05156483,0.12068398,0.017422458,-0.15173602,-0.08397921,-0.043192636,-0.11952781,0.07957681,-0.05880171,-0.10464529,-0.07864231,0.035896692,-0.054275326,0.118913,0.10563492,0.06220112,-0.032812405,0.03233285,0.05695145,-0.04034402,0.112785004,-0.019824725,0.05369347,-0.04527668,0.078770235,0.075646885,-0.075316526,0.055204265,0.09641276,0.0073483493,-0.023385542,0.06651466,-0.10375711,0.05877572,-0.094472505,-0.0016488654,-0.090911865,-0.080749996,0.0921665,0.1082674,0.03352545,-0.0010890458,0.031518694,-0.0036131293,0.087853245,0.022428924,0.08931076,-0.069282494,0.0034254754
15,0.057358414,-0.1255239,0.056046624,0.07867789,0.06766902,0.08043076,-0.12164253,-0.14863153,0.121660694,0.05502369,0.057977665,0.033343885,0.03379265,0.09334684,0.069869176,-0.06172884,-0.047774836,-0.14665821,-0.044543453,-0.020886704,-0.08816925,-0.013397992,0.053963307,0.14364669,-0.09428957,-0.05138896,0.069526605,0.05348097,0.030485012,0.016318975,-0.10708508,-0.0047048926,0.027976716,0.11942565,0.05682646,-0.12885788,0.011311021,0.100924514,0.028898817,0.089629985,0.018136645,0.10892491,-0.09347889,0.015919957,0.042659614,-0.0611817,0.08899316,-0.13108064,-0.16801007,0.092000104,-0.047205735,-0.07137828,0.10145462,-0.12467842,0.0554898,0.090486035,-0.06371748,-0.06792698,0.03649982,-0.09194697,-0.08068163,-0.10118146,-0.10408474,0.029897569,0.11459752,-0.0970406,0.12563175,-0.056527615,0.07874888,-0.075813286,-0.12587245,-0.10383489,0.06917171,-0.05550553,0.03671199,-0.011027612,0.030430024,0.10940522,0.037564456,0.06043722,-0.07140381,0.09424128,0.09839652,0.103961445,-0.067177825,0.08611557,-0.06784777,-0.039103698,0.08962992,0.011962352,0.076931275,-0.0055320216,0.06461669,0.11209436,0.13735156,-0.07577829,-0.07839796,-0.0068140435,0.043017402,0.04739864,0.06657505,-0.08957595,0.0037067756,0.02405074,-0.09683703,-0.10077832,0.0005676759,0.0018842085,0.06956153,-0.11106001,0.06211914,-0.06562468,0.11664799,-0.044466857,0.092853,0.041598134,0.06676342,0.10770852,-0.07783854,-0.06628847,0.030458901,-0.0060780104,0.07416019,0.13096432,0.06089327,-0.09758944,-0.026907174,-0.10750836,0.025932219,-0.0358892,0.0048016114,-0.0793942,0.10376112,-0.11919099,0.06116769,0.09683562,0.040122345,-0.045964483,-0.09846613,0.043353368,0.087170996,-0.07776703,0.07598497,0.038773067,-0.06575498,-0.063147664,0.13518015,-0.04694453,-0.051502287,0.14203937
16,-0.081060834,-0.06804312,0.021719366,-0.012357484,-0.065882556,-0.08463054,0.057834227,0.08952685,0.00035602323,0.038044862,0.030278936,0.03420351,0.050194122,-0.099674374,-0.011451446,0.13485248,-0.08799299,-0.04758586,0.01256714,-0.047664583,-0.075036,0.07943712,-0.06757155,-0.03519726,-0.014278695,-0.08963868,0.0015758219,0.026876226,-0.001997977,0.038370177,-0.00068198337,-0.13295215,-0.07090952,0.010437166,-0.016286282,-0.06922049,-0.07388165,-0.089511745,-0.116454154,0.094147876,0.18213987,-0.055619568,0.06835338,-0.1256489,-0.034059078,0.08632437,0.07994825,-0.13798675,0.003836497,0.031005595,0.044583905,-0.032182943,-0.025873527,-0.0925255,-0.048653435,-0.09219858,-0.020594986,0.016405,-0.1479233,0.087546095,-0.049996763,-0.1447538,-0.11777592,-0.12087078,-0.005389512,-0.011146009,-0.10218695,-0.043258812,0.029248731,-0.025787901,0.09852249,0.09495505,0.1002183,-0.054959424,-0.11954321,0.062481668,-0.13371773,0.048768383,0.115035504,0.09461039,0.058713607,0.05392675,-0.027837329,0.014485349,-0.045124825,0.08338275,0.052639283,-0.045524348,0.08609599,0.12042166,-0.11517689,-0.0025322211,0.07729504,-0.102339886,-0.09867278,-0.041576914,-0.0028975944,0.08292802,-0.057046324,0.015622265,0.0012856155,0.033837512,-0.055034965,-0.062229697,0.05119898,0.0323353,-0.05569288,0.07209847,0.015138686,0.07950426,0.06925716,0.0682866,-0.03161129,0.103268966,-0.09979317,-0.04249534,0.040215645,-0.082739025,-0.111208156,-0.08175077,0.01985496,0.03256329,-0.09171466,-0.036332786,0.013801747,0.01837625,-0.08746813,0.067511536,-0.060952153,-0.12207155,-0.08034222,-0.05924763,0.0955555,0.12781017,0.0332308,0.012114886,-0.025241684,0.09881914,-0.055227343,-0.12269877,-0.010861406,0.025891345,0.06384034,-0.014506925,-0.02264852,-0.06378203,-0.06821295,-0.058143158,-0.075198226,0.09422058
17,0.03162987,-0.062244818,-0.079001844,0.08978345,0.10994462,-0.08132298,0.13978359,-0.112002134,-0.05463719,-0.060402215,0.07142759,0.042234574,0.035424966,-0.090165034,0.11869004,0.07014844,-0.0003485616,-0.116926186,-0.031967882,-0.112278365,0.04906958,-0.0013976017,-0.045236815,-0.13524152,0.03229104,-0.062483966,0.04367847,0.008114776,0.09470804,0.09492644,0.11001131,0.10589551,-0.06931123,0.17760338,0.092604816,-0.0105977645,0.06452953,0.015347406,-0.05060062,0.058000106,0.0779406,0.03992954,-0.024131112,0.05777579,0.018446451,0.055980977,0.01539089,0.031159958,0.01223459,-0.06687828,-0.024826718,0.08219666,0.11375863,0.047716334,-0.010731054,0.02853928,-0.025215827,0.037348602,0.06174985,0.101268224,0.05664709,0.043906737,-0.12208375,0.07270752,0.062068522,0.113813095,0.023041,-0.08213336,0.12784086,-0.10984932,0.024143329,0.0051660575,-0.07773417,-0.07139698,0.09724038,0.028079271,-0.10541328,-0.07299082,-0.05849458,0.05010326,0.11767214,-0.05023148,-0.076343484,-0.026690481,0.08208757,-0.05896926,0.05590269,0.10596772,-0.02339151,-0.07977302,-0.07296171,-0.049648415,-0.08286426,0.04466248,0.05200712,0.006648543,-0.107290566,0.06996396,-0.011673312,0.0067808763,-0.11259011,0.101602435,0.052878782,0.030249812,-0.02772652,-0.07633038,0.11810028,-0.091650106,-0.11132778,0.050441984,-0.10507568,0.107100844,-0.015332001,-0.06256721,0.10521959,-0.11820944,0.051245622,-0.05591767,-0.060847167,0.0133959735,0.059191447,0.0023737894,0.061067097,0.089909546,0.12136861,-0.045635276,-0.047431584,0.071607485,-0.10636324,-0.0849065,0.015871957,0.020695137,-0.096794404,-0.008485962,-0.09314344,-0.018915245,0.078713976,-0.0004250518,-0.023321997,-0.06592964,0.06229408,-0.061607808,0.09987689,0.06683643,-0.04518702,-0.0690206,-0.014911905,0.047097936,0.1383134,0.0940756
18,0.106121935,-0.05804571,0.010094569,0.13003275,0.08663434,-0.04455847,-0.052548025,-0.051973283,-0.01785815,-0.031011794,-0.06934214,-0.0455602,0.07392057,-0.07040487,0.1389111,-0.022674797,0.16911879,0.07978683,-0.11162445,0.0654775,0.047239278,-0.017452851,0.0419985,-0.019991107,0.04820213,-0.07949378,-0.031280745,0.07863804,-0.06038754,-0.0899379,0.092195846,0.0021720054,0.13748263,0.06685486,0.03285462,0.045178566,0.037340533,0.107390694,0.015672985,0.044609148,-0.07221635,-0.004572303,0.013356166,0.0014456306,-0.040571135,-0.048054222,0.060463045,-0.105555035,-0.074251205,-0.12473154,0.14090736,-0.11593182,0.077381164,-0.076690204,-0.15244487,-0.021505667,0.083157085,-0.07236135,-0.012160698,0.03070905,-0.018231457,-0.11727273,0.0101529015,0.0775377,-0.07456906,0.060331102,-0.08259791,0.14097643,0.057851158,0.074195236,0.006654075,-0.10429552,0.11100687,-0.03616536,-0.045889374,-0.04865862,0.0012669706,0.070388444,-0.04033095,-0.08204362,-0.01642008,0.011482206,-0.14185247,-0.088869125,-0.13448739,-0.0024399555,-0.11780539,-0.051184375,-0.115806215,-0.07045652,0.035734244,-0.03663804,-0.03967814,-0.13432194,-0.079449296,-0.06926949,-0.12107054,-0.065021195,0.085973494,0.0171989,-0.14396906,-0.12802902,0.091527,0.052542895,0.0709786,-0.24968167,0.03673254,0.047835648,-0.0080279885,0.06780315,-0.033857703,0.04920425,-0.067448415,-0.087133124,0.120822065,-0.09519763,-0.06754201,-0.03430248,-0.055225972,0.07389379,0.05666955,-0.030437745,-0.0020050192,0.040621266,0.09697501,-0.010140771,-0.10958721,-0.07422731,0.100989915,-0.057025738,-0.06787207,0.09381655,0.106261015,-0.10611539,0.09211276,0.05038801,-0.054858908,-0.0390046,0.06298849,0.046541005,0.088405326,0.027015066,-0.19320935,-0.10645184,0.07344142,0.11994952,0.009826419,-0.080186896,-0.08162397,0.093076676
19,0.026896724,0.12542276,0.02457723,-0.07491202,-0.052350853,0.086832404,0.11018105,0.09286241,-0.007180856,0.020928154,0.013413327,-0.078126825,-0.031683467,0.0025910123,0.050278626,-0.07545258,0.01663656,0.11344419,0.12641113,-0.023499401,-0.10992225,-0.055481836,-0.016241776,0.07058053,0.022717133,-0.006773403,0.05138152,-0.07769597,-0.13307947,0.13299243,0.008778188,-0.08417634,-0.13850576,0.0932363,-0.12761657,-0.13320671,0.04315394,-0.06340793,0.10299588,0.13750242,0.1356449,0.08576402,-0.035746876,-0.031289563,0.06738763,0.04821608,0.049953833,0.016478505,-0.0745202,0.07993277,0.06800012,-0.08931495,0.11300312,-0.0257069,-0.09077897,0.060386457,-0.07306786,-0.082710005,-0.103120424,-0.03054778,0.102602206,-0.047153607,-0.096407756,-0.018100686,-0.044085644,0.018637825,-0.031256706,-0.0011835026,0.11829542,-0.06453589,0.07035087,0.024288539,-0.034698334,-0.016064307,-0.069427475,0.021061344,-0.07227731,0.08997296,-0.058137797,-0.018347336,-0.039192636,0.13785423,0.113851614,0.081269786,0.056155257,-0.0249121,0.085659586,0.01533325,0.13485838,-0.063401684,-0.053928945,-0.12744904,0.003410815,0.05639381,0.10065178,-0.080551825,-0.0028502669,-0.080186546,0.045295883,0.047021203,0.04436869,0.020518072,-0.091715,-0.08923266,0.1358554,-0.05787662,-0.018722983,0.048700683,0.017415896,0.10596656,-0.08156798,0.08659628,-0.022826653,0.12289752,0.011349879,-0.034207888,-0.08780928,0.09685845,-0.025353877,-0.04066468,0.010418516,-0.06878734,0.058830153,-0.06098921,-0.0644425,-0.069968954,0.13675638,-0.017082622,-0.06164739,0.12761582,0.034308452,-0.11438613,0.04593143,0.04247695,-0.01615559,-0.06383283,-0.05988174,0.08983,0.04415381,-0.085482195,0.08927091,0.008115771,0.00592786,0.06648402,-0.068483666,-0.08449278,-0.08715257,0.06560806,-0.038468603,-0.09367874
20,-0.024858275,0.08031764,0.07202383,0.062409278,0.091242336,0.016843263,0.039624814,-0.058286007,-0.017842708,0.085894205,-0.013862365,0.07185578,0.023471644,0.0069105485,-0.07644228,0.008959544,-0.06791053,-0.0758715,0.07700373,-0.08937106,-0.0670261,-0.11201807,-0.055029143,0.08118834,-0.031307913,0.0113491835,-0.01850914,-0.1311725,-0.04417861,-0.013688165,-0.049619127,-0.031362414,0.118378565,0.007845687,0.10954348,-0.11036007,-0.021219717,0.005416125,-0.13456623,-0.062152687,0.06385587,0.051215276,-0.12272081,0.00024250927,0.0144753475,0.10067297,-0.110988,0.09213926,0.02128738,-0.014857959,0.08264945,-0.0003967494,0.026671965,-0.02049955,0.014959003,-0.10246522,0.011625933,-0.01628248,0.009988894,0.029469252,-0.117742084,-0.00084862165,-0.030939886,0.078962035,-0.0963648,0.08876046,-0.11693794,0.102093756,-0.09799153,-0.14447968,-0.049748424,0.041771986,-0.0067190663,-0.06425006,0.07783138,-0.014342211,0.081080675,-0.00013480721,-0.05044794,0.00302274,-0.037753507,0.049180802,0.04316772,0.1305305,-0.009103428,-0.06797726,-0.09214623,-0.006621385,0.110241316,0.110727526,0.035908014,-0.012512148,-0.0045691677,-0.09225108,-0.059575897,0.053558823,-0.022638403,0.070937105,0.05129666,0.09428431,-0.0062806034,-0.053135972,0.10376322,0.050630134,0.10553985,-0.059522428,0.08333268,-0.10848158,-0.07449051,0.060692485,-0.089962095,-0.0958596,-0.00032630446,0.026903355,0.067178205,0.0061651715,0.034415804,-0.04653657,0.08372961,-0.117585994,0.0576717,0.0782595,0.088566646,-0.0515998,-0.013131066,0.08532594,-0.15907657,-0.13331763,0.0069954945,0.02318487,0.03463332,-0.1122266,0.007621722,-0.1074633,0.043322194,-0.09598332,0.01048027,0.0151500525,-0.056506284,0.053592954,-0.069822915,-0.031459346,0.07488448,-0.06520346,0.11071025,0.092709616,0.04448543,-0.11828983,-0.040128827,-0.03212823
21,-0.05773254,-0.055231206,0.041144118,0.06237271,0.06432129,-0.055659283,0.107578084,0.1496712,-0.07520115,-0.0014126229,0.12960593,0.008269749,-0.049551744,0.11675875,-0.01694812,0.00011456825,0.06874796,-0.08890134,0.08659381,-0.017232273,0.14074203,0.05369871,0.1193893,0.07642091,-0.07530385,0.06344296,0.01065408,0.054603383,-0.072008684,0.1093862,0.014128317,0.12222428,-0.12875703,-0.03754788,-0.06953702,-0.11521818,-0.059885014,0.11548232,0.08745595,-0.06327383,-0.008006475,0.08876689,0.024402743,0.014272121,0.037396755,-0.05972157,-0.08126909,0.026769426,-0.046516716,0.12023977,0.077691406,0.11922893,0.092072904,-0.015639804,0.10091035,0.005756746,0.08425863,-0.130238,0.056727096,0.11038651,-0.017640488,0.09389795,-0.065664455,0.080472425,0.10967674,0.038504783,-0.06285742,-0.08324847,0.092378415,-0.06004761,-0.09236278,0.07998579,0.00025659162,0.0631368,-0.1049625,0.06767741,0.045669436,-0.11597308,-0.10796306,-0.009236621,-0.0917258,0.067100905,-0.00834789,-0.046871986,-0.07644471,0.09524519,0.0739139,0.06790857,-0.14930423,-0.0603459,-0.06451851,-0.0922595,-0.10733506,0.061101247,-0.030665357,-0.021635044,-0.052437823,-0.08832267,0.038308326,-0.018967157,0.039361496,0.094377525,0.047027003,0.09087154,0.108709805,0.10331987,-0.13351257,-0.059180703,0.06464315,0.03976704,0.005526707,0.023313342,-0.0006785625,0.042725794,0.04463898,0.06521342,0.06426189,-0.062000517,0.07509019,-0.03956844,-0.08933573,-0.023180312,-0.06379361,-0.12074939,-0.10303314,-0.011601233,0.055421233,0.06506074,-0.025178147,-0.06952611,-0.13199353,0.09059437,-0.06150722,0.0012805072,-0.061123967,0.06580557,-0.015004233,-0.039168358,0.07484794,-0.053401504,-0.07767234,0.13675512,-0.068691224,0.0021131395,-0.1126564,0.101599775,0.04245209,0.05923866,-0.100334145,0.06340787
22,0.072249606,0.011938286,0.049375743,-0.10379448,-0.014420786,-0.07299125,-0.039213646,0.03451527,-0.020828731,-0.086666346,0.021886574,0.06615904,-0.06402168,-0.07180468,-0.0877454,-0.057890367,0.08193475,-0.02162664,0.10127986,0.11998247,0.15014364,-0.039266195,-0.012865301,-0.0425581,0.032865502,0.11014153,0.026143625,-0.03583089,-0.011326247,0.008969372,-0.046095073,-0.10553607,0.06311995,0.06344851,0.012078084,0.026162904,-0.026496483,-1.9862047e-05,0.019003183,0.032883976,-0.11620789,0.05790483,-0.0031147238,0.057116844,0.09994255,-0.0029416995,-0.09776677,-0.08522183,0.0959424,0.04613379,0.10538508,0.054867145,0.08937223,-0.04140626,0.07824892,0.03273875,-0.07100126,0.08642966,-0.085796356,0.12562045,0.03671968,-0.037749033,0.038585372,0.11752677,0.11616108,0.07603206,0.11786942,0.016521933,0.0013524472,0.021071946,0.025499398,-0.04676006,-0.011923371,0.06778961,0.03558661,-0.05735473,0.12612648,0.1189257,0.059100676,-0.055355407,0.08510273,0.12371663,0.08418084,-0.018562123,0.13488942,-0.016812153,-0.108018726,0.034224004,0.005167596,0.08255218,-0.09539053,-0.06372711,-0.06321031,0.08675925,0.019038117,0.10121087,0.034498025,0.04277255,-0.011707726,-0.02158176,-0.116328955,-0.123147644,-0.09020883,-0.059987653,0.0125042265,0.008065552,-0.10095999,0.022689674,0.07304611,-0.09144613,-0.05224179,-0.05107235,0.09823544,0.04965055,0.07571859,0.13062689,-0.09675425,0.10462058,-0.098467305,0.11120374,0.122312985,0.01941614,0.0072442167,0.09930243,0.09730922,0.037065487,-0.046768446,0.038976174,0.08138156,-0.119212486,-0.003400697,0.029330267,0.08775616,-0.011711478,-0.10387987,-0.08985755,0.13446642,-0.03986906,-0.121018484,0.101431705,0.037877727,-0.0330503,-0.020984866,0.04710832,0.06829823,0.00024121159,-0.0029633301,0.034829848,-0.07457916,0.092287056
23,0.09078578,0.0049430695,0.041887015,-0.024679832,-0.093587644,-0.12576304,0.050722476,0.029111128,0.064623915,-0.07747863,-0.09922696,-0.07367531,-0.014249422,-0.042715535,0.08798932,-0.042959083,-0.05310741,0.08769525,0.09663817,0.05329307,-0.004626672,0.027907146,-0.087267466,0.014364689,-0.07796202,-0.009032944,-0.06747539,-0.069347665,-0.03220671,0.017715465,-0.007407303,0.022202699,0.029865768,0.09402517,-0.07419057,0.075260855,0.0788501,-0.018931607,0.028367635,-0.06826889,0.010015953,0.02375551,-0.08619277,-0.07841704,-0.10602989,-0.12775604,0.12190318,0.061731946,0.08329353,-0.07606939,0.09784734,-0.02093996,0.06574249,0.050191585,-0.015585234,-0.04004155,0.021535367,0.0707217,0.075607225,0.054046974,-0.10740302,0.08315769,0.10299195,-0.016253801,-0.039241396,0.018690148,0.035086296,0.13512392,0.11331726,-0.02008599,0.06783019,-0.11860138,0.10888182,0.06215723,0.13116507,0.026651977,0.08614874,0.0057308692,-0.12618607,0.014291416,0.027725443,-0.05567019,-0.08386911,-0.08292191,0.035319317,-0.075875826,0.03417941,0.009667941,-0.06064801,0.018693503,-0.12122118,0.048584756,0.06993678,0.04904333,-0.065128244,0.06295918,0.06866277,-0.038498204,-0.11880895,0.0070539634,0.023687394,0.021358082,-0.03246998,0.09335886,0.13755569,0.07704356,-0.09135508,0.052152026,0.06133395,-0.04886615,-0.060134772,0.11735934,0.024245435,0.089441836,-0.03922686,-0.029938992,-0.03858497,0.061123423,-0.066441394,-0.047324575,0.031782303,-0.030620523,0.006336066,0.12793143,-0.04869261,-0.086753115,0.0955035,-0.10239858,0.14628904,-0.09675305,0.054065395,-0.1102485,-0.022721263,0.016710024,0.049845487,0.0979508,0.12947688,-0.1312232,-0.01729829,-0.10152885,0.006624426,-0.058130763,0.020573912,-0.056454014,-0.05120389,-0.0048499024,-0.062360074,-0.0036120794,-0.033718154,0.047891103
24,-0.0037706862,-0.0077864686,0.047613088,0.040237788,-0.031834617,-0.043620165,-0.12312238,0.12123429,0.0049091615,0.034706753,-0.029793916,-0.01710604,0.121818684,0.031525247,-0.076201126,-0.08503094,-0.0147593515,-0.022242974,-0.0082121035,0.048130948,-0.051430512,0.043602966,0.0075904373,0.110499896,-0.07792199,-0.14754777,0.013350729,0.100162365,-0.1363083,-0.080453835,-0.036067553,0.03389732,0.069571495,-0.13546486,0.07724356,0.020611938,0.016056469,0.015244247,-0.05131851,-0.14362565,-0.09912344,-0.04562582,0.09051873,-0.014526066,0.056551706,-0.06928349,0.017331384,-0.06061048,-0.10514693,-0.052247524,-0.08265262,-0.051524043,0.021742964,0.028420014,-0.069306545,0.066303894,-0.04523837,-0.014046381,-0.07492191,-0.020160194,-0.043403696,-0.07248678,-0.049918316,-0.10262469,0.005828376,-0.10758827,0.11672909,0.060183298,0.04889508,0.09879672,-0.082258284,-0.033383247,0.051940277,0.08213007,-0.010246757,0.019436527,0.045407686,0.080531605,-0.10761443,-0.1181269,0.08581745,-0.06101091,-0.041395534,0.074084215,-0.09804509,-0.11656274,0.07550381,0.09823695,0.0003961766,-0.057973925,-0.007850701,-0.0155088315,0.054822616,-0.083088696,-0.09159208,0.024553303,-0.01034052,0.09067327,-0.06952546,0.07774566,0.09079153,-0.09723497,0.063688345,-0.011137884,-0.0040538055,-0.12503622,-0.11411419,-0.013734213,-0.115598105,0.0278574,0.0045749815,-0.053379346,0.034878444,-0.01113081,0.03981342,0.019865679,0.06883297,-0.12755816,0.07271659,-0.007978536,-0.11351861,0.13028702,0.086467795,-0.057716396,-0.032834463,0.09558138,-0.044565022,0.060767364,-0.14534222,-0.059940282,-0.100934565,-0.09102245,-0.030221287,0.059144065,-0.1182,0.08076745,0.006824127,-0.041893218,0.070550494,-0.13254851,0.070162594,-0.11871132,-0.09562243,0.0012020705,0.0485722,0.06459066,0.094900355,-0.03556275,0.038592976,-0.025748007
25,-0.0308715,0.0512541,0.09610317,-0.023441084,-0.036572278,0.06881707,-0.06845797,0.12810142,0.017877853,0.049683996,0.084881544,-0.041744795,-0.033437986,-0.024732638,-0.0046303235,-0.027999451,-0.048600033,-0.07121716,0.11157479,0.09701896,-0.1006874,0.06876874,-0.099146284,-0.11415081,0.0061072307,-0.10438929,0.090245895,0.08486884,0.06355147,0.12019668,-0.048183903,-0.0069469833,-0.114668034,0.10544008,-0.0016684056,-0.029515397,-0.043893136,-0.10368159,0.013437143,-0.07343643,0.015196746,-0.015616986,-0.06630999,0.027556824,0.002155203,0.058188356,0.010990597,0.07014407,-0.051578235,-0.008925232,-0.058060937,0.06094539,0.011693885,-0.1298531,-0.06881115,-0.030482559,0.0440757,0.06324244,0.002176182,0.12040751,-0.04471272,0.08876184,-0.11957799,0.017137846,0.069517285,0.07281598,-0.016964287,-0.09322607,0.11740582,-0.06488743,0.09061861,-0.117641784,0.0037960357,-0.10745646,0.11728453,0.0035877242,0.0074081565,0.012786916,0.031428933,-0.095530406,-0.045754388,-0.112819314,-0.092290714,-0.048187762,0.0060830424,-0.14400661,0.027296862,-0.13347545,-0.032800663,-0.008078496,0.0038382197,-0.055419587,-0.10613532,-0.08400465,-0.021569502,-0.0064690746,0.11569927,0.12156193,-0.020664122,-0.018165763,0.0154014025,0.11429955,0.05384879,0.10470596,0.07735747,0.08689321,-0.064382546,0.028861111,-0.024124349,0.10746607,0.0317953,-0.11152968,-0.05387831,-0.093648665,0.10201073,-0.11686426,0.049845185,0.093234494,-0.06731681,-0.12984188,-0.004592525,0.09813008,0.0809773,0.060106684,-0.078206204,-0.008216835,-0.082337976,-0.029963795,0.112324275,0.036162585,-0.07305802,0.051876836,0.03297007,0.03043005,0.041364376,-0.100595936,0.038151488,-0.05177765,0.008596274,0.110318355,0.07040936,0.09339711,0.00017769827,0.011136329,-0.12549746,0.085725665,0.007508126,0.008582361,0.054031495,0.004220425
26,0.036619898,0.052845236,0.1243489,0.11093761,-0.042346787,-0.0945132,0.1031623,-0.030973732,-0.065724805,0.00968572,0.102549344,0.001657753,0.07853969,-0.08300204,0.008397998,-0.08583941,0.10701933,-0.009859298,-0.04025907,0.04324639,-0.06640686,-0.10887693,-0.13605753,0.09488618,-0.028670935,0.027171258,0.05263864,0.08125059,-0.09576804,-0.08347278,0.10345425,0.09687805,0.027588772,-0.021119643,0.057849262,0.084311955,-0.11993138,0.038672205,0.10587123,0.09648235,-0.009075,0.03262112,-0.06043668,0.06489924,-0.049493734,0.07791809,-0.008513286,-0.08137999,-0.05216723,-0.06497235,0.100194216,0.11165899,-0.069880925,-0.08836121,0.11540762,-0.12500894,-0.067527115,0.081881694,-0.08926708,0.035388477,0.067100376,-0.06847843,-0.07659395,0.10691844,-0.05084498,0.006149696,-0.08988333,0.10112701,-0.11411808,0.02759721,-0.06739105,-0.01683643,-0.017709933,0.077182785,-0.060346335,0.00018796555,-0.09381947,0.09465509,0.034252245,0.13755031,-0.0679457,0.0003320846,-0.047070384,0.05246909,0.090800665,-0.120596915,0.09329687,-0.12518527,0.046271585,-0.06568659,-0.006756743,-0.024805877,0.094831266,-0.08879526,-0.058880225,0.08813589,-0.0073090154,-0.11600466,-0.055672854,0.062191978,0.023654535,-0.0706359,-0.07046798,0.03985158,-0.054704748,-0.04181637,-0.119975895,-0.00024478423,0.104009934,-0.06500978,0.028044106,-0.03854946,0.054813977,0.04400226,-0.01571647,0.080630705,-0.059724186,-0.06773919,0.052015007,-0.0011152576,0.037153162,0.018480785,0.10694791,-0.05112999,-0.010418023,0.08148019,0.09063168,0.06683384,0.012320773,0.03027919,-0.07746579,-0.10464099,0.08693246,0.10444645,-0.040076632,-0.035366032,-0.11763819,-0.002969714,-0.10363997,0.12619787,0.08927992,0.065602854,-0.0014310686,-0.014236044,0.039777294,0.092978954,-0.08411665,-0.08459424,0.06596929,-0.051194992
27,0.091639355,0.104339205,-0.05894447,0.052414093,0.0045735086,-0.07484832,-0.020359688,0.099897034,-0.105274536,0.01562101,-0.057390116,-0.00045002217,0.0019840915,-0.06502095,-0.057388585,-0.07358865,-0.084121205,-0.09746959,0.16538462,0.032332014,-0.08253259,-0.06464169,0.00072305166,0.027257005,-0.052307684,-0.050313458,0.07498631,0.061179772,-0.030834291,0.04068896,-0.0029368235,-0.04888964,0.061306976,0.07458129,0.030760223,0.07830889,-0.018113118,-0.044999644,0.13109721,0.024627771,0.01855542,0.08307906,-0.04273684,0.103419624,0.10958882,0.010593825,0.10561085,0.095676646,0.07724243,0.0128711825,-0.02136089,-0.024685245,0.07995857,0.07586861,0.06004429,-0.06311882,0.07312015,-0.11001342,-0.092672385,-0.08332816,-0.10465361,0.04062349,-0.010857178,0.0013350676,-0.058234546,0.11513844,0.04163824,-0.031055965,-0.03295895,-0.026529452,-0.105909444,-0.010960205,0.14233185,-0.004407111,0.10056042,0.0119655235,0.067311086,0.14203323,0.11682365,-0.06548726,0.08662809,-0.053720765,0.10100675,-0.08890718,-0.05799691,-0.03535226,-0.026071848,-0.07760939,0.0031787483,-0.024027066,-0.09814709,0.06594257,-0.047328424,0.0065395776,-0.14306574,-0.077392384,0.012875884,0.031622585,-0.11455726,0.073374346,0.11285297,0.11579209,0.10029912,0.032041293,-0.04189918,0.09503302,-0.052367877,-0.11529564,-0.08468977,0.06976241,0.051934294,0.072293445,0.03788131,0.083106525,-0.10195868,0.122123875,-0.105174445,0.035447765,0.1232912,0.11875626,0.0857879,-0.06662163,-0.04091262,-0.006192456,0.059046715,0.03764889,-0.040287524,-0.12674536,-0.1018724,0.17168218,0.05243308,0.113939956,0.05087591,-0.025203591,0.0017506774,-0.09074424,-0.11651841,0.009512425,-0.009181568,-0.11201708,-0.04612054,0.115998544,-0.017240973,0.026417384,-0.0060605654,-0.028739406,0.01697255,-0.020748679,-0.069412775,-0.023624891
28,0.02059452,0.14437805,0.12848353,0.103974976,-0.052219294,0.09806926,0.13108017,-0.11080566,0.09853672,-0.13076232,0.0342404,0.11643944,-0.08916059,0.09191686,0.0067972466,0.05629839,0.07487429,0.057734143,0.0011660657,-0.07942964,-0.057831235,-0.06401388,-0.059772987,-0.07047306,-0.0033835564,0.0137521485,0.016280329,-0.055190414,0.126426,0.13916075,-0.060429648,-0.08740505,-0.059965026,-0.019835323,0.03611399,-0.052753713,0.12114311,-0.052328315,-0.03313055,0.030097865,0.10802097,-0.04053689,0.10186035,0.019494472,0.03878818,0.07088444,0.13089804,-0.008587983,-0.045841023,0.038154513,-0.122328565,0.1066737,0.07274402,0.119476914,0.06484535,-0.09456227,0.039773732,0.010562755,-0.08046683,0.06918216,0.108434305,0.08257223,-0.09547345,-0.029442688,-0.041687362,0.06742326,-0.0059843385,0.010513891,0.060826574,0.057314463,0.057016324,-0.06302237,-0.1103794,0.105652265,-0.034784626,0.06423306,0.12137224,0.054154467,-0.038436327,-0.0709307,0.07487076,0.14819148,-0.07344771,-0.056134913,0.008675759,0.0337624,-0.022089014,0.08386168,-0.03917503,0.11870541,-0.10848652,0.030196972,0.060694627,-0.009279877,-0.08188595,-0.06250723,0.06995845,0.11684465,-0.04791953,-0.0941309,-0.10903985,-0.10322744,-0.13438419,0.064771295,0.06568545,0.034829352,0.12142971,-0.0146200275,-0.08135547,0.034995113,0.02774662,0.12295957,0.115824595,-0.06933946,-0.023968019,0.033694603,0.07208511,-0.0583763,0.10913676,-0.06712107,-0.02938987,-0.09982334,-0.12367887,-0.072644405,-0.06829577,0.0437461,-0.074479446,0.021911776,0.108803555,-0.04682469,0.053865556,-0.025430879,-0.05667971,0.059939783,-0.069923595,-0.0015985373,0.004857826,-0.058850538,0.034185708,0.068543695,0.120304726,0.08795463,-0.0050580204,-0.029673832,0.10936356,0.023777487,-0.07715988,0.059120867,0.085378975,0.034274634
29,0.09436356,-0.026347045,0.12156949,-0.060990397,-0.08920693,0.015536556,0.032488156,0.0273502,-0.0029093567,0.013438337,-0.008286084,0.036450136,-0.091516346,0.06639858,-0.050439626,0.033228543,-0.03873024,-0.07015809,-0.04257052,0.075744234,-0.10978454,-0.0495564,-0.032240205,0.053121176,0.05819384,0.09471741,-0.1317492,-0.101649165,-0.0024759206,0.023206944,0.14049281,0.077690996,0.095564425,-0.06922115,-0.0013930822,0.03991688,-0.0069738613,0.078099325,0.108553536,0.10626803,-0.12224342,0.09181696,0.02193156,-0.08273194,0.048613705,0.08865461,-0.006866416,0.08871293,0.06922095,0.12149502,0.010332281,-0.20728241,0.043392103,-0.115283035,0.15703218,-0.09157625,-0.05141397,0.11560287,0.15227985,0.02388295,0.09416443,-0.075297765,-0.0553221,0.09297148,0.08942978,-0.044412624,0.051436655,0.03908661,-0.011539665,0.015538564,-0.12704219,0.09915358,-0.085212946,0.02802253,-0.121405624,0.09048024,0.04762282,-0.14383663,0.031908747,0.06471964,0.08073715,-0.100215316,0.06836521,-0.048900437,-0.049833413,-0.10974356,-0.10430116,0.0045981463,-0.104789965,0.07522148,-0.05373478,-0.031338815,-0.0070476374,0.006256483,-0.0054620863,-0.1169726,-0.08232757,-0.025072258,-0.059395365,0.047352787,0.010231896,0.018344887,-0.10697752,-0.030064296,0.102894045,-0.070552275,-0.0401341,0.054013282,-0.102627546,0.041036196,-0.1220283,-0.06098497,0.0007506353,-0.04449183,0.086787045,0.103067555,-0.055496585,0.058403388,-0.047519706,0.03255967,0.05032487,0.1278211,0.060294293,0.09933714,-0.09451852,0.08866244,-0.052080747,0.108870536,0.07437246,-0.08463316,0.023461003,0.11309272,0.0051922426,-0.0052122637,0.02918083,0.08354999,-0.01607048,-0.051855966,-0.091680676,0.03362411,-0.028736344,-0.05248964,0.014258086,0.046000484,0.043934446,0.012352364,0.04483723,0.103015296,-0.055870917,0.09230484
30,-0.007883843,0.0042522224,0.024132537,0.0039885403,0.04789266,0.06532385,-0.10230308,-0.058854356,-0.013189237,-0.103611305,-0.047134247,-0.0280746,0.10321763,-0.07250996,0.050223142,-0.046002023,0.009656826,0.08902973,-0.0478938,-0.0019556098,0.026608933,0.076142244,0.08185823,0.06565392,0.06431254,0.11110844,-0.052577846,0.09540726,0.044821315,0.08785938,-0.067945234,-0.005089786,-0.042039886,0.0131011885,-0.055995237,0.009638709,-0.032010317,-0.02402035,0.036186513,0.07913658,0.031273253,-0.05715902,-0.045212094,-0.0622742,-0.106906764,-0.06472141,-0.031984285,0.004623497,-0.09248914,0.032020573,-0.05134549,0.10745214,-0.04672079,0.018185282,-0.04881271,-0.0012229168,0.13289323,-0.022514807,0.06992119,0.03888261,-0.039619006,0.106357835,-0.026725963,0.06715685,-0.07991386,-0.10607688,0.12977837,0.06399494,0.14008285,0.04392603,-0.028470837,-0.002700542,0.07166302,-0.087503985,0.024584664,0.15594308,-0.018882696,0.080223285,0.005713889,-0.014935983,0.018055812,0.11293121,0.12100494,0.12545644,-0.063785166,0.00392425,-0.050292544,-0.123634934,0.02632126,-0.098306395,-0.071040556,-0.006466236,-0.078916796,0.07982243,0.05280708,0.056981236,0.049655978,0.0075230035,0.020535357,0.10798843,0.06924395,0.06855944,-0.050240796,-0.012324911,0.084374174,0.043241873,-0.08594023,0.12342451,-0.0071047726,-0.07263025,-0.101212695,0.06438668,-0.08401237,-0.06066688,-0.03899193,0.06538344,-0.008372069,-0.05412302,-0.08864965,0.08997805,0.11698933,-0.09501745,0.0054467632,-0.08702044,0.013630987,-0.14136423,0.05135635,-0.089757055,0.14146395,-0.083244085,0.1060193,0.08627259,-0.10653962,-0.028145714,-0.022825992,0.0029028666,0.02438035,-0.03187133,-0.04801926,-0.1085048,0.030998986,0.0138409445,-0.022570401,0.035997808,0.024178151,-0.07583243,-0.059982944,-0.042733688,-0.09764516,0.02863214
31,-0.06766097,-0.016466457,0.051490802,0.066122964,0.10657452,-0.010877545,0.06153816,0.077275224,0.049228415,0.016245453,0.009005321,0.02711335,0.049587227,0.06824629,-0.110771246,-0.02337711,-0.110229634,-0.054288417,-0.07288004,0.06219533,-0.09906638,-0.054943375,-0.0048961216,0.13839443,-0.0029614377,-0.13069546,-0.052209415,0.051572807,-0.10608379,-0.01263544,-0.050082546,-0.01750419,-0.040518884,-0.09889582,-0.037043013,-0.010940758,0.078704104,0.08803842,-0.036884446,-0.008247669,0.077053174,0.12843922,-0.0072968323,-0.022411795,-0.10902251,0.094079085,0.03625763,0.026566073,-0.08693105,0.0750387,8.1140344e-05,-0.11917686,-0.0729514,-0.010121574,-0.13759285,0.072441824,-0.06520455,0.053742353,0.082051925,-0.10964547,-0.10790995,0.03873876,-0.10181355,-0.037132416,0.09077227,0.00011777003,0.1039745,-0.096390784,-0.09513987,0.02680038,-0.054183967,0.038041607,0.11208082,0.0791449,-0.07403402,-0.009200969,0.04697571,-0.11405778,0.042552292,-0.08668739,0.03486147,0.004089622,-0.117646895,0.08569583,0.06126249,-0.016249245,0.009647528,-0.10918261,0.00095756544,-0.03510862,0.13335179,0.0020946297,-0.11530736,-0.007009731,-0.07703643,0.069932714,0.042656776,-0.070315205,0.09468531,0.059748188,0.03607605,0.0037954727,-0.013247053,0.007836164,0.02732151,0.0074300063,-0.013239696,0.0051475153,-0.07130945,0.07299584,-0.018273372,0.12514645,0.116688915,0.051989853,-0.13037702,0.046940055,0.027946753,0.07369584,-0.089319296,-0.030755827,0.023787666,0.09282129,0.11477416,0.008411378,-0.01457039,-0.08661347,-0.08219823,0.09105897,0.036782227,-0.15739657,-0.010283342,0.032344237,0.061988037,0.06695617,-0.10098722,-0.114019394,-0.12476721,-0.077051744,-0.12546001,0.01863266,-0.11509465,0.044627175,0.10250645,-0.10926178,0.012747928,0.029903604,-0.00524149,-0.12301607,0.03108603,-0.08021626
32,-0.088616,-0.0015274073,-0.0037007313,0.096267216,-0.09974308,0.059297513,-0.07057364,0.0783654,0.08667718,0.062032536,-0.040096622,0.12756984,-0.10434966,0.054492407,-0.02533607,-0.10287654,0.11730795,0.1312008,-0.12660372,0.07555324,-0.013626187,0.12403286,0.052976772,0.07736562,0.13002414,-0.10440548,0.037012946,0.12140649,-0.04395505,0.0899802,0.02291418,-0.05220273,-0.00041305667,-0.003610717,-0.1320872,-0.08819939,-0.031687707,-0.0867574,0.11831418,0.05825951,-0.0790168,-0.043889932,0.025657505,-0.040350214,0.025924444,0.032702744,0.04093018,0.09263347,0.007770916,0.06307917,-0.07405472,0.03286049,0.03869718,-0.012958649,0.11319645,-0.034893833,-0.1251114,-0.10318445,-0.055358235,0.00532879,0.05488728,-0.057473704,0.09503163,-0.007931275,-0.024502259,0.07704346,0.006247094,0.09748247,0.117853105,0.042071022,-0.10701427,-0.032174475,-0.07593765,-0.0314649,0.10051831,0.07816648,-0.07907752,-0.07668922,0.0067445827,-0.013332738,0.03768524,-0.061412707,-0.0710723,-0.06462522,-0.05274018,0.0065675196,0.10399755,-0.029597752,0.06609054,-0.05336296,-0.03293438,-0.042610705,0.053862475,0.099856004,0.11196764,0.124698095,-0.011201113,-0.025913833,-0.11143554,0.08795072,-0.10482069,0.02652501,0.09771064,0.07744095,-0.090759516,0.08162275,-0.091414854,0.08237082,0.018883443,0.11378294,-0.06062729,0.06976274,-0.011847856,-0.020517662,-0.06585586,-0.10689261,0.048304405,-0.11439742,-0.00841307,0.07922583,-0.031587876,0.04129519,-0.004034875,0.00010035163,0.0064976676,-0.12617894,0.048626136,-0.06946919,-0.076267995,-0.0147815775,0.09401542,0.1322689,-0.034151092,-0.111861125,0.030913439,-0.08713092,-0.10467893,-0.050419077,0.09732437,-0.039296903,-0.06938239,0.022958683,0.10606638,-0.00021052726,0.025920471,-0.006682008,0.010812757,-0.08409308,0.12242027,0.094439596
33,0.051404405,-0.14256597,-0.102108225,0.013456438,0.06323035,0.12674674,0.09670017,-0.01733158,0.09876891,0.056826826,-0.0053243665,-0.07704013,0.063882634,-0.1257534,-0.015158494,-0.07042248,0.09188694,-0.07314364,0.04578188,0.033860326,0.029453997,0.119366206,-0.04231435,-0.012490677,0.031572994,-0.034098566,-0.085505314,0.10367447,0.10311794,0.09827063,0.010748579,-0.09680013,-0.03410941,0.04870687,0.086044006,0.026748024,-0.078997724,-0.05937636,0.00056202116,-0.14414372,-0.124851376,0.11416403,-0.11581411,-0.05768476,-0.061570685,0.02260164,-0.10141776,0.06626595,0.071582526,-0.0101922145,0.033288505,-0.012015823,-0.05035698,0.08016337,-0.0085774455,-0.07477409,-0.055029728,0.028934808,-0.0061152717,0.056684688,0.0058080778,0.056528367,-0.009495924,0.03570628,0.014397908,0.12525767,0.027221682,-0.12650506,-0.047773097,-0.07097679,-0.026661145,-0.027041737,0.0038209578,-0.023736369,0.10381136,-0.05620301,0.053322423,0.08399767,0.02647138,0.0066273324,0.034653217,-0.08266469,-0.1511973,0.07944905,-0.1378469,-0.0067073605,-0.052054286,0.027423115,0.11761652,-0.032979254,-0.07026299,0.11757975,-0.05582076,0.010011049,-0.05717055,-0.13082974,-0.032965183,-0.06750161,-0.016495751,-0.034544803,-0.13763438,-0.087690584,-0.0714168,0.09263113,0.044677794,-0.02105427,0.100758575,-0.06617298,0.08072891,0.106070764,0.09923073,-0.05560479,0.06480699,-0.110259175,0.029215101,-0.019876268,0.045887288,-0.07921131,-0.12603675,0.03782911,-0.110490836,-0.030602088,0.11531963,-0.0995593,0.107219025,-0.06619562,0.07418993,0.036220256,-0.10589102,-0.027617885,0.0971524,0.025162086,0.097919494,0.054139633,0.10400494,-0.08859909,0.10717913,-0.051472288,-0.069455154,0.056855883,-0.119347915,-0.035127867,-0.006427203,-0.11600076,-0.11312694,-0.125012,-0.048845693,0.060855575,-0.133418,0.11848986
34,-0.12061432,0.03286528,-0.008031646,0.08302345,0.10830266,0.050603222,-0.035447937,0.0767745,0.049532615,-0.0024547114,0.07928789,-0.06495625,0.10989161,-0.05433143,-0.05035903,0.07505692,-0.06925269,-0.09643414,-0.076644175,-0.045350805,0.06605092,-0.05814941,0.10466109,0.03355617,0.029528808,0.083355285,0.0051957904,0.007764248,0.082310356,0.04558643,-0.09428053,0.022534406,-0.10556183,0.002406838,-0.0113699185,0.0098695485,-0.0592282,0.110485464,-0.044127475,0.0005158731,0.07071234,0.0051744343,0.0069310754,-0.07310085,-0.12581515,-0.049952984,0.04323086,0.049742986,-0.12922879,-0.0061701033,0.09058492,-0.07114963,0.0499953,0.009609143,-0.04897922,0.07642006,-0.10162461,0.0100275045,0.04651696,0.13837054,0.07563298,0.09845421,0.021052014,0.023055183,-0.026111715,0.023674795,-0.10727458,-0.11018371,-0.11991177,0.054497983,0.07113244,-0.018844174,0.08586413,0.07816855,-0.05094741,0.07233911,0.028052222,0.03116626,0.057506293,-0.042069934,-0.116566435,-0.01619153,0.08228157,-0.09898481,0.07387125,0.02408459,-0.0024898883,0.079397194,0.11335915,-0.028739862,-0.03752206,0.051891267,0.05942483,0.09554485,0.029534375,-0.035043355,0.024585932,-0.035257317,-0.035403114,-0.1270701,-0.13035922,-0.05484034,0.0045160665,0.10936675,-0.00326871,0.020164492,0.010819524,-0.078821324,-0.057394404,-0.04025518,-0.0025492115,-0.12985966,0.067760415,0.06593431,0.029899767,-0.04373879,-0.021317037,-0.12149131,0.11693647,-0.0014352446,0.04523121,0.12716848,-0.04587725,0.12715013,-0.10434455,-0.05282763,0.086553454,-0.072588615,-0.0574025,-0.0723478,-0.10595161,-0.039991304,0.09035263,0.07272969,0.06935671,0.086663924,0.10404439,-0.05093718,-0.06410552,-0.10139871,0.002846246,-0.10478852,-0.019321742,-0.0043836376,0.014210595,-0.040659502,0.026229866,-0.015168347,0.023782356,0.049521748
35,-0.062106505,0.033553623,0.033527374,0.09398528,-0.12647438,-0.044671703,0.06843165,0.023655098,-0.053494617,0.013239008,-0.013688148,0.016441157,0.1094305,0.065424666,-0.029911429,-0.06216374,-0.035608187,0.00087690476,0.1218358,0.122718275,0.07413975,-0.092820935,0.06736296,-0.08999252,-0.039047983,0.074845344,0.037508618,-0.012489201,-0.11934665,-0.036059234,-0.05864366,-0.07744796,-0.09918692,-0.029304206,-0.05779419,-0.008195903,-0.042322636,-0.006378894,-0.0877736,0.023623746,0.021684395,-0.0409011,-0.074987374,-0.060620736,0.048825692,-0.016571626,-0.13161503,0.014628091,-0.089286946,-0.034425754,0.09780901,-0.0797054,-0.010822405,0.0939205,-0.11906156,-0.10946315,0.1359743,-0.11031153,0.052000113,0.021026284,0.10707175,-0.05892389,0.0007806915,0.045478154,-0.113866314,-0.11930711,0.12586616,-0.06264606,-0.019658562,0.057319626,0.04424445,-0.10481904,-0.061641894,0.044755608,-0.111859344,0.12562816,0.05566163,0.07729406,0.13037284,0.05999036,0.0047717714,0.04111643,-0.039996613,0.07849612,-0.08065885,-0.0013762272,-0.11550523,-0.045562908,0.09601449,0.06630725,0.015558203,0.08550904,0.10631015,-0.10200028,0.06553529,0.11344029,-0.028649792,0.07102639,-0.060463857,0.003846239,-0.022896256,-0.035792354,0.08288827,0.011933404,-0.07670319,-0.01417303,-0.14499895,-0.0015810947,-0.11409108,0.020894164,-0.061005678,0.08814801,-0.08113075,0.08710629,0.08180485,0.08896461,-0.06831625,0.065774485,0.11629451,-0.039600573,0.003932158,-0.07954679,0.11030135,-0.11438173,0.05809142,-0.026257187,0.04909729,0.09097694,-0.02149126,0.098024085,-0.012416566,0.10956193,0.029701276,0.032246675,-0.062432364,0.05239415,0.0062892865,0.02993977,-0.044263612,-0.08243796,0.06416191,-0.04268467,-0.062022127,0.07997052,0.1322526,-0.115532696,-0.104787625,-0.052888412,-0.038325913,-0.043767124
36,0.035839118,-0.0038665957,0.11216801,0.031497616,0.07961722,0.018020649,-0.052130427,-0.0912622,0.09337387,-0.011760982,0.06921271,-0.11665259,-0.12314589,-0.006338017,0.052925225,-0.07164769,0.059395157,-0.1157161,0.09309232,-0.039644595,0.031344254,-0.05500206,0.010857296,0.13459535,0.04901103,-0.11900967,0.102998085,-0.010690284,-0.11377968,0.06800407,0.1100044,0.12779717,-0.06443497,-0.09166244,0.1044271,-0.00175689,0.055456243,0.058653064,0.06314574,0.044741854,0.057824213,0.02137803,0.08849582,0.07704286,-0.09488352,0.07040842,0.04546742,-0.05685869,-0.0893799,0.09636702,0.0025374936,-0.10709474,-0.0035747103,-0.09266009,0.11405999,0.0823434,0.06478341,0.01468629,0.029235201,0.07794382,-0.008394248,-0.12519549,0.09924941,-0.0332001,-0.012975137,-0.12898263,-0.06463232,0.00056338764,-0.06046216,0.025276886,0.09547019,0.021579511,-0.0714604,0.08416254,-0.008136721,-0.08107928,-0.05272819,0.11213485,-0.08140175,-0.012575277,-0.11640453,0.059721287,-0.12770285,-0.10275842,-0.020387374,0.030172056,-0.08864727,0.04707411,0.1027116,0.08737257,-0.08217762,0.08339897,-0.10505633,-0.04213331,-0.10202694,0.018062087,-0.035082784,0.114733525,-0.062261596,0.11034167,-0.0983605,-0.026945574,0.03329082,-0.13320443,0.048200145,0.05850912,-0.10935899,-0.13106142,0.028873669,0.114534944,-0.09856088,-0.11375249,-0.036656983,-0.027838416,0.030880768,0.13244641,0.009143215,-0.0648855,-0.08032479,-0.07972404,0.038453434,-0.02735233,0.114197575,-0.12829505,0.05907456,0.09994453,-0.0999255,0.121363685,-0.04799685,-0.0048079197,0.09417522,0.05503439,0.03611852,0.047063295,0.058354575,-0.11566847,-0.116839655,0.06339705,0.10136674,0.110371485,0.062125918,0.03628973,0.078402914,-0.103308365,0.06956307,0.089179635,-0.045460794,-0.15502886,-0.115228854,0.09360905
37,-0.060128454,-0.055455223,0.06552299,0.013682399,0.0541238,-0.047087874,-0.009275326,-0.110555924,-0.039019234,0.057178702,-0.007900907,-0.055493664,-0.042952064,0.09538467,0.11658519,-0.117246896,-0.08517154,-0.1200197,0.053975716,0.008477189,-0.14755514,-0.061160795,-0.10691773,0.005120674,0.07920512,-0.1448253,0.021508507,-0.07339224,0.021924317,0.035275314,-0.089609675,-0.05930468,0.014062147,-0.065365575,-0.09911204,-0.06791702,-0.061245866,0.04024098,0.08739992,-0.12149236,0.006012028,-0.12638764,0.12376834,0.12752302,0.07830202,0.092593454,-0.044051316,0.09176377,-0.05694471,-0.020457018,-0.088409,0.052453965,-0.12604183,-0.068645045,0.06443414,0.106752075,0.059959054,-0.07032563,-0.06575417,-0.11909813,-0.062177576,-0.05268075,0.03543157,-0.008725368,0.03737648,-0.061154816,-0.09374492,0.06556441,-0.043341234,0.07616877,0.0662986,0.10755575,-0.13634634,-0.014841093,-0.098968826,-0.0204182,-0.09154608,0.01467788,-0.12851752,0.015664171,0.10318399,0.060555708,0.07751919,0.019981366,-0.056483176,-0.09626348,-0.05725834,0.09511074,0.120445155,0.12398902,0.0076806387,-0.05656913,-0.14125122,-0.123350315,0.036870565,0.10773082,-0.011682657,0.11353978,0.03375107,-0.038422693,-0.09329479,0.069960356,-0.06708861,0.066422015,0.052690767,-0.035286456,0.11777271,-0.021404691,-0.13041778,0.10803297,-0.075165145,0.04347957,-0.0075646094,0.07791016,0.1024908,0.12313504,0.082369685,0.014878573,0.032685198,0.11941759,0.11246938,-0.087054715,-0.10802343,-0.04910863,0.05197178,-0.09001196,-0.10637973,-0.05014658,0.011758393,0.06093564,0.03792744,0.09778538,0.0050245333,-0.013525973,-0.015532241,0.042142734,0.028293397,0.11321189,0.034256555,-0.007273794,-0.027329773,-0.054788932,-0.061712723,0.0622592,-0.009552354,-0.059381388,0.0075448244,0.047073368,-0.0059213494,-0.014328611
38,-0.044571918,0.05667199,0.015666498,0.05042867,-0.022767624,0.042041957,-0.015717844,-0.08432884,0.103379644,-0.0767255,0.1468256,0.033065945,0.01655926,-0.06658724,0.0750098,-0.046165008,-0.041258376,0.008147306,0.039249107,0.042558502,0.069647,0.11084929,-0.077885725,0.115882255,0.11623809,0.12412071,0.10011108,0.07986102,0.11070295,-0.00854922,-0.0031001386,-0.009314752,-0.035915263,-0.048223354,0.086290345,0.10156561,0.016667891,0.03100327,-0.013354601,-0.046494953,-0.060434636,-0.021736756,-0.034537602,0.018844586,0.1386963,-0.009430424,0.0166194,0.12303007,0.11036788,0.12974808,0.023838647,-0.12960552,0.014275648,-0.09267133,-0.01905681,-0.04504304,0.046745453,0.050158676,-0.10367202,-0.10484128,-0.055540867,-0.09996447,0.039916664,0.106958576,-0.03938657,-0.051077515,0.072287574,-0.061697353,0.030790932,0.084705934,0.029801251,-0.12686291,0.056549948,-0.010051447,0.090617605,0.05147306,-0.0150955,0.1070993,-0.05729323,-0.0002871379,-0.058100518,0.15145968,-0.08295109,0.004499343,-0.026286662,-0.027858535,0.06548038,-0.022117812,-0.079622485,0.051454637,0.011798809,0.03842591,0.036851108,-0.10058129,-0.09026671,0.019837817,-0.016729867,-0.054296836,0.117655784,-0.10753712,-0.09548795,0.073372744,-0.0871951,-0.0855432,0.020804139,0.011036501,0.051152356,0.05155483,-0.064327516,0.020223485,0.016924158,0.03794471,-0.020375077,0.07515969,0.03156427,0.00528893,-0.10635844,-0.024437506,-0.04387697,-0.0066144266,-0.045578685,-0.017661707,-0.0950269,-0.056745905,-0.04851523,0.13469855,-0.05793274,-0.06948328,0.07062297,0.10075676,0.024355808,-0.10171005,-0.025493689,-0.047821164,-0.10972766,-0.10204167,-0.07014589,-0.015528039,0.028984472,0.009366975,-0.06612102,-0.109865606,-0.09619767,0.049319677,0.031805363,-0.03490484,-0.039114937,-0.017329656,0.069520585,-0.074972466
39,0.102249056,0.042346902,-0.041800626,0.11325598,-0.05253438,-0.11976451,0.124096885,-0.077947505,-0.08642926,0.11439875,0.14648704,-0.035877373,0.13004078,-0.012604833,-0.112894036,-0.018054307,0.09697672,-0.044998392,0.07624596,0.05451471,-0.055820268,-0.040795743,0.058895063,0.11737534,0.12364763,0.16635285,-0.0036041024,0.06996703,0.10483779,-0.106322095,-0.026404988,0.09801513,-0.121447556,-0.055007245,0.05704408,-0.06133914,0.11750828,-0.03755686,0.010958451,0.121823765,0.07079636,-0.09203468,0.055863284,-0.037582576,0.1053062,0.037807245,0.06729212,-0.09124649,-0.013765911,0.07473918,0.10084354,0.10294483,0.033121035,-0.08786258,0.13728872,-0.022348108,-0.05600553,0.0055686836,0.073435284,-0.04131605,0.095211625,-0.061993714,-0.046233788,-0.08810756,-0.02923455,0.008750213,0.0755503,-0.020949341,0.049965914,0.01110486,0.12063062,-0.10651746,0.11974335,-0.051801886,-0.11222988,0.04522609,-0.034843456,0.0672025,0.02218802,0.0457482,0.02052823,-0.08518661,-0.012226136,-0.026687006,-0.08949167,0.14171293,-0.045675997,-0.09953387,0.04076889,-0.020898826,-0.025335617,0.10289453,0.13886891,-0.053968396,0.07576535,-0.017508253,0.1089206,0.10045804,0.07317586,0.016907774,-0.10217268,-0.095359676,-0.1152448,0.122183,-0.12108637,-0.057360627,0.052590184,0.1142542,0.05154658,-0.068056844,-0.07233392,0.051868767,0.051094193,0.033553403,0.008306515,0.113848194,-0.06506844,-0.11341306,0.034444224,-0.011638252,-0.013603754,0.09050791,-0.0006425886,-0.027179614,-0.06861249,-0.0671335,0.028458823,0.09441609,0.12215745,0.08805884,-0.06558052,-0.09214321,0.005750148,-0.09866326,0.010374187,-0.07844896,0.007607651,-0.059043538,-0.0063492334,0.13913454,-0.036556073,0.051302806,0.01721214,0.05720398,0.104601145,0.079667255,-0.121733256,0.034302734,0.009070047,0.04452387
40,-0.07410192,-0.049533375,-0.034986462,0.064805955,0.062022742,0.0149940215,-0.030995756,0.119330466,0.050365638,-0.08887028,-0.00535313,-0.058731146,0.15797165,0.059372284,0.05054386,-0.05930748,-0.060828354,-0.0718896,-0.16298927,0.06973124,-0.003007001,0.09120438,-0.059065133,-0.11392284,0.0006245024,0.06739756,-0.037171587,0.037803866,-0.109992966,-0.054363072,0.13382725,0.020217458,-0.0821936,0.049358193,0.12962255,-0.04968718,0.032230467,-0.10967191,-0.0013453547,0.020227361,0.12799917,0.00048905064,0.08260668,-0.07202095,0.006841635,0.047064364,0.08036005,-0.124658056,0.059406407,0.089295655,-0.04363463,-0.018098705,0.06908927,0.006744297,-0.03155319,0.009262853,-0.06123423,0.05284564,-0.05927444,-0.07104908,0.15445867,0.034244794,-0.02770902,-0.052171513,0.03366759,-0.03619827,-0.02495331,-0.12379075,0.035458628,-0.036808923,-0.0826181,0.083398655,-0.061695628,-0.071881756,-0.036969926,-0.002975101,-0.09513109,0.06411247,0.079174995,-0.099045075,0.08818233,-0.06237542,-0.08377139,0.06870333,-0.10548464,0.089331366,-0.15906197,0.016139904,0.099979624,0.06924546,0.007145926,-0.06627065,0.12634896,0.11562649,-0.0852751,0.031134227,-0.027890896,-0.03288648,0.034465287,0.08900414,-0.011283177,-0.0017115031,-0.08844782,-0.04212418,-0.042747993,0.05061966,0.026625643,0.08364071,-0.0056353444,-0.04563392,-0.057144526,-0.16287248,0.11937367,0.09353059,0.10297319,-0.07142432,0.06342545,0.07782564,0.062189534,-0.16012475,0.022597028,0.113903925,-0.08860329,-0.007871582,0.098388724,0.024990862,-0.10488606,0.10413745,-0.030591726,-0.111601874,-0.11732214,0.09359864,-0.06566109,-0.07392747,0.007837723,-0.037605934,0.023183076,0.04695069,-0.07302187,-0.093816556,0.08962633,-0.0011277624,-0.025669921,-0.08217089,-0.06664713,0.0015052662,0.06605645,-0.07895984,-0.005738617,0.06546506
41,0.1106305,0.061979845,-0.03635323,-0.032130487,-0.020370545,-0.020848142,-0.0464718,-0.11233501,0.09500277,-0.017171994,0.11531693,-0.08103098,-0.0004621764,-0.1378144,-0.12011922,-0.020498661,0.0027617894,0.12128031,-0.108570315,0.07876045,-0.08165943,0.0030672196,0.016004851,-0.04548263,0.008924095,-0.09826953,-0.039643306,0.010051183,0.09660641,-0.07676784,0.056185678,-0.013603111,-0.10377199,-0.067870505,0.059503518,0.06851644,-0.115973905,-0.054992467,0.09230597,-0.02977325,0.012428192,0.046651497,-0.11319609,-0.0014861105,-0.11950933,-0.112294555,0.048819486,-0.0032513444,0.012875273,0.07206199,0.04306946,-0.12597995,-0.0919456,-0.017588373,-0.02718245,0.014958682,-0.022982977,0.091095105,0.0570627,0.11714844,0.044932604,0.0735431,0.085704505,0.010689318,-0.045681503,0.0683597,0.007361026,0.0645798,-0.07220142,-0.026877828,-0.0147942575,0.04348794,-0.05609036,-0.06932212,0.1151881,-0.05996627,-0.12950616,0.0833275,-0.06091892,0.042351972,0.08291763,0.093042664,0.030841874,0.11937483,0.0048906924,0.018164007,-0.124024086,-0.032295473,0.012565567,0.07106122,-0.067354396,0.05368018,-0.07789614,0.14783226,-0.07928813,0.060283147,-0.08073233,-0.08035179,0.003575226,0.021715991,0.066568464,0.018089699,0.08251489,-0.09144887,-0.062258117,0.009335157,-0.030670868,-0.1027304,-0.0038473394,-0.045327444,0.09527555,0.03569323,0.07383476,-0.008944248,-0.014035282,-0.08403572,0.1232018,0.1184185,0.054552965,-0.06951883,-0.0041127866,0.08049242,-0.040917978,0.07362479,-0.028021544,0.059792317,-0.026396016,-0.13533863,0.079099946,-0.051389515,-0.035786644,-0.07075385,0.116232306,-0.006745716,-0.021110108,0.031142455,0.06255251,-0.10948543,0.117015205,-0.08306581,0.05370732,-0.020159405,0.034913808,-0.112982504,-0.056294948,-0.077584825,0.022841288,-0.0067762677,-0.054974183,-0.0075290133
42,0.08015028,-0.10598975,0.08616961,-0.12440673,0.0013954611,-0.09119854,0.05580199,0.039978046,0.042515688,0.04478905,0.04415021,0.036378972,-0.035059977,0.093358174,-0.0467223,0.08526656,-0.11343143,-0.06603875,-0.061235253,-0.11389724,0.09654747,0.07912334,-0.13260038,0.11385733,-0.08830225,-0.12446561,-0.10402442,0.10623622,0.031623248,-0.051788386,0.008881688,0.103064105,0.10303417,-0.08385084,-0.046976175,0.039693,-0.046003737,0.0745894,0.0066024023,0.089920916,-0.046627756,-0.016849201,-0.06942991,0.032835644,0.046285905,-0.017020708,0.028773779,0.033168342,-0.116858535,0.0722533,0.08843489,-0.08402286,0.048523966,-0.1169975,-0.11198322,-0.08388346,0.05599232,-0.04361383,-0.11678515,0.031301122,0.028191788,-0.10053535,-0.04557582,-0.027935762,-0.027268145,0.024944378,0.014854626,-0.0757255,-0.13057631,0.039486986,0.034882158,-0.12011588,0.07795732,-0.04468156,0.025442827,0.06842465,-0.12322766,0.03792626,-0.024719626,0.08201172,-0.11246753,0.03972073,-0.08057505,0.064656615,0.019537937,0.0965904,0.09151068,0.03903153,0.033499416,0.024585916,-0.097174756,0.10348077,0.054059986,0.02140425,0.0641196,-0.08485429,0.020549089,0.115516104,0.026066825,-0.006109738,-0.027823739,0.031160234,0.12235345,-0.08683039,0.031585537,0.060433254,0.069634065,0.03470783,0.07738165,0.1281369,-0.058710575,0.11355073,-0.08930236,0.024687227,-0.07923406,-0.03248805,0.012794119,-0.028632402,0.10857007,-0.101175964,0.021605909,0.023400899,0.10520212,0.07719928,0.033415135,0.10532968,0.081767894,0.059050474,-0.124690145,-0.049614266,0.11987175,0.097447194,-0.041235555,-0.05298791,-0.002982293,-0.068481155,-0.10531922,-0.076132834,0.05077421,-0.025365217,-0.06090891,0.0051814863,-0.08541735,-0.0865056,-0.01989232,-0.07588067,0.1144686,-0.12092638,0.07995916,0.10243752
43,0.019700443,-0.07337817,-0.038323525,0.03744816,0.0287956,0.019201342,-0.10075038,0.06814161,-0.055500556,0.005013925,-0.09591258,0.102411754,0.047008645,0.02031216,-0.036690287,0.115866624,0.07859599,-0.11976352,0.07900032,0.098826066,0.015325702,-0.103059374,0.11797824,-0.004657486,0.015752297,-0.08968765,0.044330463,0.019785581,-0.0892888,0.12035679,0.056129113,-0.038066212,0.04810396,-0.0055241333,0.027868439,0.08329472,0.055648398,0.07623974,-0.07614673,0.04226367,0.08356367,0.041616276,-0.06972324,0.043558024,0.050503593,-0.009197448,-0.08062802,0.06974722,0.04773588,-0.025821336,-0.08834746,0.04286255,-0.043187812,-0.10382602,0.0034120164,0.08747133,-0.071828194,0.017356146,0.005696721,-0.00809432,0.011581482,0.048183773,0.056916453,0.015014468,-0.07685483,0.07004009,0.0027304,0.08862392,0.02430558,0.11794298,-0.116923,-0.033005647,-0.0442785,0.050825674,-0.099030435,-0.11086759,0.11026903,-0.118378334,0.02177358,0.10539253,0.05282372,-0.064590745,-0.012073789,0.05379657,-0.011155337,-0.12611236,-0.078913465,0.0046568136,0.022578131,-0.05259746,0.08783274,0.05907648,-0.0140196,-0.07775875,0.080186985,0.05933464,-0.065385245,-0.0738607,0.020923072,-0.0039758673,0.016016558,0.13039052,-0.023614556,-0.014788174,-0.072451666,0.047132783,0.027000755,-0.10122363,0.027440533,0.028502952,0.04667505,0.069094256,0.09950087,-0.09991969,-0.033755224,-0.003369655,0.04891361,-0.025143722,-0.023947809,-0.015934935,-0.022993982,0.06455579,0.080401115,-0.11171031,-0.10519563,-0.08496006,-0.005407223,-0.1201033,-0.07268583,-0.034310322,0.06096833,0.017118672,0.12158479,0.018837908,0.12945414,-0.03757291,0.06744438,-0.090608954,-0.09452238,0.09542191,0.05880799,-0.037247814,0.06343921,-0.005464795,-0.09056194,0.10625992,0.08746796,0.12264928,-0.003146681,0.04739574
44,-0.057256225,0.060060002,0.06873626,0.13072461,-0.12181872,0.10259905,-0.0055182944,0.023634521,0.011851409,-0.0075434158,0.034349702,0.07428631,-0.10997529,0.06930579,0.014076524,0.08794135,-0.024696168,-0.042649217,-0.09239125,-0.11016128,-0.16402665,0.04003623,-0.09651173,0.035577495,-0.094961435,-0.05806238,0.075315386,0.07672482,-0.13601953,-0.11817562,-0.037820093,0.053377938,-0.013852996,-0.01908906,0.11563668,0.057106737,-0.01889146,-0.054768976,-0.104022525,0.09073042,0.0650716,0.07466663,-0.092672385,0.07052035,0.047175474,0.10094133,-0.12304291,0.046997435,-0.05488986,-0.051663183,0.024253093,-0.10367741,0.006927593,0.044066917,-0.101497345,0.012446296,0.08133037,-0.097602814,0.051585905,-0.1067872,0.05743041,-0.06028698,-0.043220654,-0.059133098,0.087212086,0.041859414,-0.07941207,0.062007744,0.099100895,0.0056936955,-0.0018974384,-0.04489282,0.058790322,0.11516201,0.08588007,-0.043092802,0.09110018,0.086515576,-0.05728315,-0.06413244,-0.07702786,-0.041478835,-0.113521956,-0.062988095,0.10244624,-0.04406146,-0.062950805,-0.048515312,-0.08788392,0.054791633,-0.08273803,-0.015891278,0.03999691,0.07012093,-0.1196911,0.013518562,-0.018462863,-0.056777164,0.069565095,-0.0260158,-0.03271398,0.094886385,0.061343044,0.07802877,-0.061856717,-0.0457549,-0.0054443628,0.028975837,-0.07459962,-0.08472331,-0.1215426,-0.019299334,-0.040685505,-0.02270074,0.0028307158,-0.02465108,-0.01636863,-0.084067486,-0.035068866,0.084448665,-0.080652535,0.026457824,-3.756898e-05,-0.10179779,-0.080225095,0.11422821,0.101082034,-0.07201605,-0.062222168,-0.06048556,-0.0028421725,-0.07460751,0.103452995,0.025565207,-0.016785119,0.041158594,-0.07474728,-0.061829142,0.08101965,-0.11229293,0.07891831,0.08123394,0.007297065,0.049691867,-0.06238078,0.016157126,0.12619103,-0.04737381,-0.1022077,-0.013633371
45,0.05626428,0.03489828,0.12020033,0.08709582,-0.031071458,-0.08519917,0.04267996,-0.11054035,-0.08769127,-0.11296366,-0.089341454,-0.027866447,-0.111500435,0.034270648,0.0503461,-0.08913987,0.059952047,-0.040598996,-0.071161106,0.060860675,0.07568971,0.12010659,-0.028219977,0.10399461,-0.0101033505,-0.09934273,-0.042833664,0.11798938,-0.092697725,-0.046202768,-0.044474687,-0.005288005,0.10073164,0.12722532,-0.110547334,-0.10980986,-0.101855695,-0.047133736,0.093378246,-0.10399437,-0.044184327,-0.023503201,-0.0019436846,0.032743055,0.018180823,-0.106244124,0.10233219,-0.09516684,-0.062442236,0.016898474,-0.096438035,0.028611327,-0.0688297,-0.056590233,0.105311014,-0.043657385,0.013478608,0.10180758,-0.05026605,0.12756896,-0.05536826,0.07444624,0.018349146,0.09469846,-0.06341615,-0.023829943,-0.09778756,-0.053549293,-0.10289723,0.050908536,-0.0760487,-0.10763865,-0.0642515,0.102924556,0.08508036,0.12188669,0.13836294,0.044518467,-0.036552075,0.023037335,-0.008869361,0.06875028,0.05693435,0.09335836,-0.09740951,0.04213177,-0.025704177,0.12109317,-0.068902016,-0.042264238,0.02235711,0.10237194,0.13241506,0.071951084,-0.087998554,0.022992691,0.11700976,-0.08097842,0.021682646,0.047320586,0.072141744,0.06295508,0.10614358,0.116057314,0.11280161,-0.030394223,0.034232967,0.02367814,0.104795285,-0.010055715,0.08127278,0.11247647,0.009495129,-0.044304255,-0.041740905,0.034799814,-0.112419404,0.11412731,-0.1204605,0.10341481,-0.0933697,0.014555782,0.06209571,-0.070064045,0.06548669,-0.00920475,0.13543242,0.05288301,0.0047818744,0.0781712,0.025180917,0.11556877,0.08789037,-0.09173201,0.07652131,-0.09106232,0.09462984,-0.037810765,0.10520405,0.056324005,0.100015976,0.025696607,-0.00058093935,0.040048223,-0.11348881,-0.102806695,-0.012920798,0.019171454,-0.115607716,0.09700724
46,0.08913163,0.10218892,-0.04937654,-0.09537869,-0.13254137,-0.08711744,0.12114238,0.036613036,0.05118633,-0.012294832,-0.09440863,-0.13796532,0.13428426,0.07995168,0.0036395253,-0.014488932,-0.093411654,0.05999814,0.06454185,0.053552486,-0.060728587,-0.11695416,-0.10990821,-0.12843268,0.032220274,0.09952974,0.11014549,0.09345816,0.038547426,-0.093168475,-0.028155996,-0.09166045,0.1203635,0.110190205,0.082306325,-0.042381942,0.06554234,-0.0693144,0.048917,0.036067117,0.13509825,0.09991992,0.009937022,-0.064104535,-0.10024145,0.026365343,0.086316355,-0.007723083,0.106614746,-0.0015980755,-0.023409257,0.12827082,-0.08838907,0.082149446,0.1121675,0.08731059,-0.056703854,0.08056043,-0.030255228,0.05345227,0.08486975,-0.04987201,-0.06828533,-0.082840756,0.111715406,0.074826814,0.14376861,0.11792587,-0.030622514,-0.12015059,0.00023504243,-0.0633945,0.029340075,-0.009565867,0.038525715,-0.1053445,0.10685512,0.091284,-0.011762739,-0.1121194,-0.114913024,0.1391942,0.050906535,-0.1257139,-0.028601049,0.0886298,-0.10021384,0.08422225,0.079616606,-0.02171008,-0.08681536,0.0021495256,0.025334125,-0.0066623054,-0.033837333,-0.09562613,0.13450144,0.05549035,0.0429098,-0.10028552,-0.012385354,-0.09584207,-0.13107465,-0.038508087,0.12235184,-0.09681811,0.07110412,0.079451,0.10024925,0.03293086,-0.016415942,0.045488693,-0.12247019,0.12574703,0.07526366,0.03504093,0.0027612818,0.123263694,-0.07865516,0.07883622,0.011489632,-0.105733484,0.12590633,0.07639668,0.026175631,0.021537907,0.074313015,-0.110973604,-0.020377971,-0.009756477,0.032994505,0.07877483,-0.08382784,-0.103407934,-0.0077752066,-0.0009670159,-0.0441434,-0.00033839763,-0.06372541,0.045141447,-0.040840104,-0.015312394,-0.109060735,0.054527376,0.056564603,-0.048817255,0.07355637,0.06130409,-0.015375114,0.086204164
47,-0.074598774,-0.033752427,0.0103855645,-0.08594846,0.04499551,0.028044319,0.08563441,0.03134036,-0.06500772,0.004310822,-0.09626151,-0.02066756,-0.03743921,0.1536524,0.09204927,0.08800811,0.038819797,-0.008582097,-0.039958205,0.07556887,-0.05479302,0.016412988,-0.07450899,-0.031241214,-0.013678961,0.09765651,-0.016213952,-0.09792263,0.12456817,0.15251318,-0.09566862,0.084032185,-0.112427354,0.13104123,-0.019101804,-0.01722996,0.06192945,-0.032621235,0.0007168049,0.15571275,0.0976928,-0.06557692,-0.057904243,-0.10569343,-0.030526029,-0.06561265,0.15080057,0.010655159,-0.07837264,0.0067079966,0.056820955,0.12959452,0.1121063,0.044321053,-0.10145139,-0.12770875,-0.05588267,-0.081842706,0.017692722,0.056200575,0.03534424,0.13444397,0.11035861,0.029315155,0.004023551,0.0473098,-0.05703411,-0.07382132,0.005712821,0.030441878,0.03198704,0.006528936,0.13411303,0.012412426,0.014194733,0.0058823107,0.0035394968,-0.11475896,-0.14633703,0.085163735,-0.0072450414,0.04051529,-0.08060189,0.07109883,0.11087751,0.08623367,0.16836946,-0.071963936,-0.01383927,-0.039264463,-0.13212991,-0.021536801,0.016981885,-0.036769494,0.003866166,-0.06725048,-0.041913565,0.036007036,0.051793903,-0.08531316,-0.08683418,-0.0014816064,-0.006609179,-0.004209176,0.13104142,0.016225548,0.051401652,0.042823568,0.07818347,-0.008810297,0.042327184,-0.09687744,0.064219624,0.09684851,-0.086034276,0.031799376,0.033784855,-0.026944999,0.06278045,0.084268115,0.11747718,-0.0485742,-0.08519916,-0.015763413,0.11346539,-0.09942452,-0.09064947,0.05247472,-0.0013384703,-0.0951585,-0.07879035,-0.055281486,0.086988546,0.08668532,-0.101625256,-0.051528983,0.00096813473,-0.01075626,-0.090469316,-0.059845023,0.09496995,-0.015756635,0.0707857,-0.03430152,0.051504377,0.032924872,-0.074689664,-0.03821282,-0.15646382,0.06432954
48,-0.052285925,-0.15165664,-0.08752247,-0.041686192,-0.02040489,0.056130894,-0.10746206,0.112239346,-0.076939,0.10102108,-0.014356289,0.011436342,-0.012198472,-0.027372427,-0.05275899,0.100612946,-0.08044833,0.12384959,-0.063047014,-0.07881819,-0.13057408,0.08329882,-0.1134839,-0.124180466,-0.11656647,0.011666215,0.06816074,-0.040837713,-0.10264806,0.14390631,-0.11297649,-0.066255026,-0.03916072,0.042710617,-0.02729179,-0.0740681,0.09246118,0.032880124,-0.026974361,-0.109411076,-0.015645515,0.10114289,-0.094054684,-0.04191621,0.10300369,0.11990986,0.06069186,-0.06313847,0.05589384,-0.071722314,0.0055923946,0.04352282,-0.087360814,-0.04607423,-0.07950453,-0.06507675,-0.030918209,-0.012540426,-0.08237346,0.09381943,-0.020536507,0.059356224,-0.06576328,-0.050872073,0.05155062,0.032247126,-0.12493544,0.1087099,-0.026350403,-0.050029863,-0.0068332786,-0.023652764,0.10814734,0.08565831,0.10328397,-0.023942411,-0.106442176,-0.019995913,0.07127444,0.089816004,-0.097474754,-0.12251611,0.02589891,0.11629206,0.038648475,0.10520186,-0.039623838,0.0394796,-0.050611738,-0.117325075,-0.008490422,-0.02728722,-0.08237751,0.011703865,-0.10028691,-0.091415085,0.022442605,0.048135713,0.040407702,-0.092839286,0.020396484,0.16900706,0.09862044,-0.10931171,0.12269782,0.02460154,-0.060486965,-0.07734059,0.029381301,0.11666331,-0.031530634,-0.009692062,-0.08727993,0.10658837,-0.084866665,0.054782227,-0.03180289,-0.06167329,-0.019790677,0.081304744,-0.13476603,0.049971666,0.033844408,-0.114488594,-0.07041087,-0.07348342,-0.14551708,-0.043725833,0.0037785906,-0.084712185,0.07336644,-0.088193476,0.014953253,0.046344012,-0.05975548,-0.120372795,-0.004536047,0.010837943,0.11375455,0.000620786,0.097278245,0.008426188,-0.05437034,-0.04477775,-0.06496864,0.03944018,0.060592555,-0.09841672,0.1029507,0.02653893
49,-0.10872331,-0.079856515,-0.052196164,-0.03320939,-0.02568313,0.094586894,-0.08559767,0.03349953,0.048024014,0.11384906,0.13447592,-0.059343264,0.018470524,0.09601105,0.09440849,0.01876153,0.07551554,0.09570391,-0.093267806,0.038634926,0.03144639,-0.12022719,0.07745013,-0.039039314,-0.03156203,0.07835615,-0.018839572,-0.0040528844,0.106207736,0.0977581,-0.1030607,-0.029983707,0.08094407,-0.08251319,-0.0034191783,-0.086279154,-0.038509645,-0.027373536,-0.07905906,0.10189065,0.011254529,-0.05888715,0.12798984,-0.057106204,0.0128121115,0.033759903,0.0074224486,-0.040154625,0.069733575,0.051498637,-0.12898003,0.05967502,-0.02285219,-0.07193002,-0.01531808,0.109117016,0.011416794,-0.059039664,0.01808445,-0.008513743,0.09218548,-0.007302868,0.07587215,-0.037922077,-0.06692348,0.01715396,0.14412089,0.14537607,0.09390718,-0.0877813,0.10538005,0.045159787,0.058405727,0.05705008,0.11310097,-0.06899516,-0.068334386,0.03354843,-0.056373183,0.052798364,-0.06587718,-0.07933312,0.14641036,0.041271966,-0.027224967,0.11110378,-0.024567856,-0.049232457,0.10084383,0.034829147,0.107944734,-0.06897352,0.069821656,0.0024921005,0.14537685,0.06937502,0.12723118,0.06674813,-0.039683558,-0.03257864,-0.017656768,-0.0169286,-0.039654255,-0.08201984,0.0046030856,0.08790556,0.11815534,0.035445854,0.13991255,0.08192443,0.054555908,-0.12300908,-0.00884717,0.021264229,-0.08456733,-0.115793586,0.046131942,0.041685514,-0.051354997,0.05154263,0.08097216,0.02118487,-0.024935484,0.13276035,-0.06699702,-0.028120037,0.0062445863,0.023149673,-0.08224144,0.12978327,0.029069623,-0.0718604,0.028099343,-0.0017204793,0.090605244,0.07810065,0.09618338,-0.116289325,-0.036788482,-0.11743239,0.13177802,0.021935478,-0.04453324,-0.115389325,-0.10895368,-0.1084777,0.1119862,0.041712627,0.1176666,-0.058698725
50,0.08147046,-0.043755665,0.011027225,0.039699573,-0.062036388,-0.028669344,-0.11484415,0.046776403,0.10895526,0.029282648,-0.063480414,0.02705105,-0.112466805,-0.016019888,-0.042184006,-0.027134037,0.07319854,-0.11101882,0.10091734,-0.05611749,0.04344177,-0.0006198129,-0.06789625,0.11203793,-0.10126652,0.056572396,0.0571319,0.04623754,0.0057826294,0.011060488,-0.06243364,-0.11596598,0.11306086,0.014980584,-0.10765383,0.05879988,-0.07710191,0.008850614,0.12568909,-0.11069683,0.036633424,0.014964294,-0.07053936,-0.017467972,-0.04494373,0.049658906,-0.073713645,-0.049314603,0.010628112,-0.05083011,0.09641976,0.051207565,-0.117315456,-0.07860149,-0.039692476,0.08685778,0.07652846,0.104533724,-0.14416227,0.111599125,-0.019713083,0.09774007,-0.020923557,0.069810584,0.008239781,0.065238126,-0.003537886,-0.096772306,-0.027685722,0.08829768,0.062216327,0.00759978,0.10080251,0.040203933,0.03860414,0.0593116,0.031284448,0.093338095,-0.078020014,-0.04284779,0.020424364,-0.02483183,0.04031282,0.017328572,0.07521148,0.023920605,-0.103838846,-0.11815565,0.12408613,-0.10666091,0.08257754,-0.07750899,-0.049730007,0.048681602,-0.06317394,-0.010825488,-0.114588,0.08013214,-0.017882288,0.05966171,0.11867879,0.009510502,-0.07428436,-0.123299114,-0.020557784,-0.077423096,0.017402785,0.113579914,0.07779232,0.09512736,0.09601938,-0.040451843,-0.09738672,-0.13089351,-0.027594464,0.038160652,0.04092056,-0.07986829,-0.10561273,0.07460169,-0.099422485,-0.09966521,0.0073928586,0.0761844,-0.008521653,0.043955255,-0.053768203,-0.104807034,0.12195761,-0.0061380668,-0.08568152,0.05349943,-0.053335045,-0.012598818,-0.092519194,0.06063959,-0.016513074,-0.072149366,0.0013978773,-0.11975387,0.066106156,-0.044277985,0.014749636,0.022786384,0.11469565,-0.0049609374,0.12199963,-0.05997758,-0.03340419,-0.017712967
51,0.092256814,0.08916297,0.043771107,-0.105448104,-0.09622845,0.042161584,0.108780116,-0.08378107,0.010569597,-0.06534729,-0.06440471,0.12599161,-0.11739405,0.09544106,-0.110143706,-0.1062524,0.11732426,0.11097309,0.1282869,0.069719754,0.075249165,-0.05550311,0.041913047,0.011523054,-0.05500424,0.092635415,-0.11849077,0.06938903,0.015818933,-0.009876043,-0.062133793,-0.03605159,0.0738579,-0.076025225,-0.098442525,0.048346926,0.071509406,-0.0017185629,-0.014805943,-0.058145236,0.13710432,0.091680944,-0.03234564,-0.0077802246,0.13583972,-0.040019963,0.08709727,-0.0965634,0.09239394,-0.08755773,0.009971822,0.009462546,-0.08468441,-0.040795546,0.0881432,0.10320403,0.032715276,-0.08440706,-0.11827714,0.02924744,0.12899494,0.08606444,-0.12666331,-0.013279048,-0.08191177,0.04993905,-0.043204565,0.07113603,-0.02017846,-0.072876185,0.04529389,-0.08973685,-0.114052184,0.041880984,0.1273634,0.13632111,-0.07723211,0.04122368,0.048110694,-0.06543141,-0.094975956,-0.016390368,-0.108368136,-0.022203542,-0.09879492,0.1213165,0.14066805,-0.00701183,-0.0020376162,-0.109092526,-0.100010015,-0.0872182,0.05176977,0.104520455,-0.091593504,-0.07587742,-0.025232388,-0.111552894,0.080828585,0.023113914,-0.0024053562,0.12597485,0.07857825,0.081658244,0.10585535,-0.12708521,-0.03157769,-0.09102961,-0.099821314,0.08528616,-0.060284466,-0.059622068,-0.03155122,0.13003185,0.08787076,0.12152068,0.08905821,0.095374934,0.057217613,0.06630507,-0.03738993,-0.048978128,-0.039639995,-0.06948636,-0.045864772,0.066162296,0.0712376,-0.04635128,0.014819326,-0.046597265,-0.0561161,0.10889247,-0.08476497,-0.080232926,0.04114827,-0.11314394,0.09448539,-0.040440813,0.007860479,0.04668721,0.05066564,0.0009099459,0.12295703,0.12400063,0.10493848,0.07793066,-0.007742159,0.10916768,-0.045921426,-0.0066598374
52,0.08963758,-0.09655844,0.044617936,-0.124230646,0.027189026,-0.0018229953,0.054947514,0.080184884,0.06747812,-0.06822336,0.034302365,-0.06522876,-0.006062886,-0.0022586933,-0.07065928,0.099127546,-0.07526895,0.037032437,-0.09573034,0.09244554,0.0938226,0.11487079,0.009745129,0.04052621,-0.017068084,0.11303162,0.004377851,-0.039310332,-0.00088000845,0.026749048,-0.018811643,0.013653566,0.07063392,-0.11458351,0.07822232,0.032605927,0.082941644,0.09902461,-0.12801664,0.023898387,0.087767966,0.09791829,-0.1186329,-0.08393675,-0.026006881,-0.06446122,-0.044502098,0.019561721,-0.05895269,-0.028232908,0.051771574,0.04294148,-0.08252043,-0.08688938,0.010198758,-0.054542188,0.008414653,0.09364272,-0.083358176,0.033639092,0.06230472,0.051694572,-0.04559525,0.06527339,-0.015462499,0.033742182,0.03540564,0.057961557,0.037709616,0.012647433,0.026180873,-0.020210447,0.012747732,0.053222355,-0.060709056,-0.050587203,-0.0030764686,0.03412418,-0.06063838,-0.12161899,-0.10003824,0.09458932,-0.09922623,-0.06911779,0.037783496,0.045170017,0.040002994,0.037423536,0.1174442,-0.0017252506,0.10298008,0.044185784,-0.016669668,-0.08481586,0.0015883201,-0.04133312,-0.0648297,-0.03964496,0.010558931,0.018878577,-0.052958433,0.041413132,-0.010209714,-0.02702811,-0.06652041,-0.13618621,0.07083522,0.087981306,-0.058059964,0.02350565,-0.08467849,0.113844715,-0.00023899235,-0.103606,-0.07071888,-0.06327607,0.103365004,0.022373613,0.050350655,-0.11149672,-0.030798746,-0.026978372,0.07672572,-0.12470801,0.083797276,-0.093520105,-0.105241306,0.037591115,-0.05482732,0.013399572,-0.00919078,-0.03625143,-0.0844638,-0.06288072,-0.0510168,0.08430627,-0.01249491,0.108027495,0.118501574,-0.040932365,0.096174374,0.094810225,-0.107388645,-0.10989802,-0.07699045,0.09317118,0.054931827,0.061442785,-0.01841755,0.05838229
53,-0.024573648,0.014383093,-0.07825973,0.0473611,0.008811514,-0.101374924,0.09705814,-0.02518066,0.010309051,-0.041457642,0.02186107,-0.08890363,-0.10134734,0.023940163,-0.028216599,-0.038643315,-0.06426881,-0.09040643,-0.03702534,-0.07988275,0.066562645,0.07054769,-0.04387422,0.032168742,0.035927072,0.09937817,0.038924746,0.06491857,-0.059629098,-0.026794225,-0.077986844,-0.0072342996,0.102607995,0.07170976,-0.0023639805,-0.03358166,0.065648094,0.11460759,-0.09970764,-0.044287674,-0.0560378,-0.09245848,0.08552474,-0.069925845,-0.08070878,0.09056156,0.10077864,-0.018434012,-0.033299442,-0.0022313502,0.04564279,-0.10396507,0.06516489,-0.04431517,0.09874096,0.06555891,0.08389438,-0.13454756,-0.08991069,-0.0836886,-0.04134398,-0.01661956,0.10427936,0.08899925,0.08695752,-0.030242909,0.081332564,-0.05995965,-0.06366827,-0.118808314,-0.1080572,0.03223667,-0.13140893,-0.12399672,-0.1332587,0.05764577,0.11597506,-0.11917141,-0.11696214,0.10509938,0.024552079,-0.07173228,0.051322814,-0.03683592,0.07625928,0.026047004,-0.12397411,0.10550096,0.06343263,0.037663132,-0.009503634,-0.05661103,0.00979667,0.071665406,0.035466388,0.114651754,-0.0027997459,-0.03980903,0.0525909,-0.12665923,-0.0652644,-0.09717866,-0.11211659,-0.0814515,0.05206048,0.03482673,-0.04145806,-0.0071012797,-0.09635508,-0.03300178,0.0072706244,0.016993685,0.0044668023,0.058225278,-0.070848934,0.05218045,-0.030747432,-0.111827075,-0.030474067,-0.019799532,-0.079101525,0.05407158,-0.025246317,0.012636626,-0.015261956,-0.050826475,-0.00027750505,-0.09522581,0.083314195,0.10916699,0.005412925,0.0234528,0.10558738,0.0649678,-0.103203006,-0.03428007,-0.094408676,0.06343867,0.09430523,0.06283247,-0.09018414,0.022970304,-0.010404311,0.056401193,-0.017863575,0.1255777,0.008722526,-0.03529135,0.10048211,-0.008891762
54,-0.05640917,0.08395692,0.03880091,-0.05294925,0.106452584,0.009218053,0.06629998,-0.03096286,-0.00016266563,-0.105715394,-0.121376805,-0.012735329,-0.124313496,0.08683601,0.056587085,0.028767573,-0.029078728,0.017455006,-0.027917624,0.09893234,-0.06009945,-0.10928032,-0.034400206,0.06284165,0.004394292,-0.1504558,0.008843377,0.10013996,-0.086822554,-0.08551811,-0.01821902,0.0016751478,-0.1527978,-0.03570526,-0.019415723,-0.04425004,0.03414078,-0.099539176,0.058109764,-0.030143142,-0.014479499,0.05352588,0.002502627,0.07631895,-0.0150915515,-0.059278343,-0.044122864,0.08591022,-0.00053472957,-0.042394206,0.036801387,-0.09830327,-0.009906986,-0.0094188815,0.010362225,-0.00612575,-0.08876623,0.045369472,0.11899346,-0.109843574,-0.071377896,-0.090538226,-0.047709152,-0.10330423,-0.028647145,0.08992902,-0.086397246,-0.0844148,0.013393265,-0.1186363,-0.08660059,0.09428083,-0.0065972777,-0.06323503,-0.07325537,-0.083038986,-0.041505255,-0.08692955,0.051770423,-0.031195447,0.07138762,-0.113046505,0.079003215,0.0959908,-0.09884613,-0.021943789,0.08817269,-0.055678513,-0.00017112699,-0.065001495,0.09890412,-0.022279857,-0.048723813,-0.048374034,-0.103370614,-0.09013174,0.11410882,-0.021221785,0.033381216,-0.03609618,-0.11942527,0.008035526,0.06551325,-0.07872029,-0.019395063,0.001676579,0.08744846,-0.0020122991,0.01336076,0.01437331,0.18372048,-0.08377849,0.10519323,-0.11411858,0.012858729,-0.06257022,-0.0913701,-0.09799899,0.056892123,-0.07640632,-0.016334591,0.009862943,0.03866433,0.10623106,-0.022721082,0.090166345,-0.08881608,-0.09062769,0.045150254,-0.058608536,0.047001272,0.10467336,-0.0023340816,0.03842429,-0.12486479,-0.03228543,-0.08046556,0.06317432,0.051298946,-0.07666822,-0.018556634,-0.029997345,-0.0469713,-0.13026614,-0.037237722,-0.028326437,0.02948762,-0.037182204,0.120559834,0.04968586
