,0,1,2,3,4,5,6,7,8,9,10,11,12,13,14,15,16,17,18,19,20,21,22,23,24,25,26,27,28,29,30,31,32,33,34,35,36,37,38,39,40,41,42,43,44,45,46,47,48,49,50,51,52,53,54,55,56,57,58,59,60,61,62,63,64,65,66,67,68,69,70,71,72,73,74,75,76,77,78,79,80,81,82,83,84,85,86,87,88,89,90,91,92,93,94,95,96,97,98,99,100,101,102,103,104,105,106,107,108,109,110,111,112,113,114,115,116,117,118,119,120,121,122,123,124,125,126,127,128,129,130,131,132,133,134,135,136,137,138,139,140,141,142,143,144,145,146,147,148,149,150,151,152,153,154,155,156,157,158,159,160,161,162,163,164,165,166,167,168,169,170,171,172,173,174,175,176,177,178,179,180,181,182,183,184,185,186,187,188,189,190,191,192,193,194,195,196,197,198,199
0,0.07067425,0.14496608,-0.14327519,0.082292825,-0.026079746,-0.043354023,-0.051194422,0.09658467,0.1125485,-0.07861227,0.0622158,0.15743877,0.029451232,-0.085860796,-0.14995703,-0.096769266,-0.024216626,-0.0025236292,0.05318567,-0.04342033,0.061385706,-0.06836655,-0.040287714,-0.088750854,-0.079281345,0.0919186,0.13646099,-0.046168964,0.13855131,-0.045065746,0.091397695,0.07620778,0.0394974,-0.0827085,-0.11059618,-0.08940273,0.09328465,-0.05092936,0.075699255,-0.060487505,-0.032895062,-0.11967269,-0.07604596,-0.08633024,0.09735035,0.09501688,-0.06729611,-0.014947228,-0.11234486,-0.12889703,-0.078875236,0.14439721,0.10890951,0.13255571,0.03161195,-0.08549299,0.041378193,-0.056501456,-0.1358988,-0.037123706,0.13535973,0.0089709675,0.05661156,-0.058904625,0.04365949,-0.021059955,-0.06455917,0.06581788,0.041967083,0.15749858,-0.02012377,-0.005990501,0.034654126,0.07533632,0.016884115,-0.023598613,0.0125567475,0.072529875,-0.05754081,-0.060504075,-0.09570753,0.13540721,-0.03178341,0.037647214,0.016307864,0.149237,-0.099840924,0.002245624,0.12174317,-0.10223385,-0.105046496,0.1168228,-0.03812412,0.03723559,-0.05294804,0.0043392954,0.081138276,0.10297357,0.113285765,-0.025332645,-0.10355751,-0.12020942,-0.016011829,0.11189615,0.123173356,0.0040550986,-0.084695265,0.051753834,-0.003905602,0.019256761,0.09482952,0.08390764,-0.028481599,-0.0032267522,0.073453285,-0.113473885,-0.11807721,-0.1162503,0.007835588,-0.012016279,-0.011061733,0.043620657,0.10905774,-0.054320496,0.10456315,0.12987696,0.114872806,0.16323866,-0.010036497,0.07873615,0.103783384,0.0024448007,-0.06817088,-0.084468044,0.036048815,-0.13107878,0.10903954,0.11347546,0.112107426,0.0384255,-0.009090139,0.13523756,-0.0050212503,-0.041430503,0.12135428,0.04196253,0.054984156,0.048094407,0.068709925,0.10777949,0.060380854,-0.12389736,-0.101525575,-0.107402876,0.13626547,0.088937774,0.0051635783,0.052844867,-0.02670787,-0.034045804,0.05939797,0.006782125,-0.07497588,-0.0036517554,-0.053362723,-0.04324194,0.058602218,0.09617378,-0.12669942,-0.070614554,0.046614595,-0.043708935,0.10578063,0.04646588,-0.06681956,0.10602428,-0.022487937,-0.056549862,0.02200547,0.012179798,0.081426404,0.1349522,-0.11702992,-0.013571546,0.11098992,-0.047542483,0.11352653,0.11895782,-0.08115544,0.09606032,-0.09628842,0.03606332,-0.0069678253,-0.033489294,-0.06453384,-0.0651553,-0.10309964,0.14703828,0.099910714,-0.0426631
1,0.03156929,0.010786462,-0.014386808,0.024832584,0.110323206,-0.09205679,0.03912599,0.00052595907,0.08202234,-0.03653887,-0.08005891,-0.092153504,0.11271422,0.07934296,-0.09225945,-0.10449334,-0.099462874,0.049367055,0.088664144,-0.017520381,0.097578,-0.014385857,-0.07302683,-0.040007643,0.06881424,0.06722585,0.0943999,0.08511287,-0.15297781,0.054910354,-0.074634194,0.100750886,-0.03355837,-0.07171382,0.07892749,0.03725537,-0.04895005,0.049344126,0.07998417,-0.02153368,0.018209377,0.12061187,0.07021562,0.06955315,0.020414216,0.08312103,-0.006448855,0.09307891,-0.03287077,0.071804844,-0.0634674,0.10757258,-0.14572892,-0.10302104,0.07147566,0.08920762,-0.018585822,0.12100122,0.11302,0.0842317,-0.112061866,-0.116280355,-0.092406236,0.045368977,0.12465873,0.021285338,-0.08859739,-0.101056844,-0.08422611,-0.029159242,0.10846809,-0.08193197,0.045605548,0.11118933,0.12159897,0.045831606,-0.046660885,0.046475563,0.13980928,-0.037396103,0.03491189,-0.09223648,-0.053712152,0.039101664,-0.12854962,0.021368185,-0.08974923,0.061908584,-0.10400539,0.08529533,-0.1485871,-0.106255606,0.1075037,0.05240154,0.046426743,0.030521475,-0.073938005,-0.11673635,0.04981589,0.0320616,0.010680179,0.09549438,-0.05592113,-0.06267574,0.008646853,-0.08070774,0.07934944,-0.03638476,0.028763693,-0.09957009,0.124497175,0.04035065,-0.011458542,0.107472174,0.07563268,-0.15380599,-0.014537515,-0.08138805,-0.097444415,0.078961276,0.00975975,0.105704024,0.010290517,-0.0006014288,0.062088255,0.04065285,-0.006593802,0.032589205,0.06043611,0.115845434,0.0051754154,-0.058394425,-0.13198572,-0.038763512,-0.05741091,0.094919115,0.043103218,0.08596192,0.047746718,-0.045953844,-0.04333919,0.089915894,-0.15382506,0.054258205,0.036947016,0.10543545,-0.04940027,-0.08221365,-0.06031165,0.078202195,-0.042839896,-0.012636096,0.05698788,0.04696883,0.06812755,-0.06286677,-0.03250342,0.057619717,0.119499125,-0.025717486,0.10477579,-0.070503406,0.07238074,-0.1219079,0.08673027,-0.06996419,0.08308659,0.0611799,-0.042071357,-0.026925862,0.103597,0.08324201,0.07494768,0.013771238,-0.08463279,-0.10881464,-0.1387146,-0.07272583,0.009156561,-0.063351825,-0.0055473316,0.064317234,0.10562791,0.12866293,-0.014691026,-0.113619804,-0.044063073,-0.07253109,0.0698434,0.024270775,-0.053656153,0.10449158,0.092472926,-0.048166063,0.038696524,-0.08074522,-0.07282129,0.1148139,-0.03136382,-0.07546154
2,-0.08654649,-0.11795159,0.08984826,0.1332932,-0.06784537,0.0647873,0.04822111,-0.14087489,-0.12147209,0.03529141,-0.108613044,-0.10061607,-0.12763454,0.07163702,0.13321653,-0.0011964709,-0.024996663,-0.0728226,-0.0015654768,0.10537282,-0.03275264,-0.13751891,-0.1276757,-0.0025932246,0.053964082,0.07390589,0.022616126,0.0036068,-0.13445868,0.053617377,0.022032332,0.07918533,0.06042933,0.10525403,0.05823306,0.089600265,-0.12638797,0.09868133,-0.09410886,-0.018817088,-0.123351336,0.014100416,-0.116426215,0.03179258,-0.08047957,-0.0788246,-0.08632344,0.13977988,-0.017881041,-0.058371995,-0.057651844,-0.06989057,0.057531796,0.06907456,0.0311942,-0.085079014,0.057747714,0.054737393,-0.052246287,-0.11668725,-0.091262855,0.021784354,-0.0991875,0.005448343,-0.10219667,-0.12812455,-0.06643209,-0.11039014,-0.0009722451,0.10669485,0.0895792,-0.045710415,-0.07825821,-0.08795119,-0.010280369,-0.07491833,0.036169417,-0.00527872,-0.1133846,-0.09669433,0.09020884,-0.111917116,-0.07131392,-0.09775073,0.094525255,0.123848386,-0.06890535,0.087071,-0.030338198,-0.010893353,-0.014462731,0.116449095,0.03410729,-0.03277155,-0.049873583,-0.031230832,0.07577979,0.0052985214,-0.063174665,0.03644147,-0.06987945,-0.08480405,-0.0037864645,0.11511455,-0.0038346886,0.09008812,-0.0050374367,-0.00781562,-0.13410634,-0.05587458,0.11013152,-0.10642304,-0.109149024,0.046229124,0.08617333,-0.06659382,0.13214275,-0.0076284083,-0.07610635,-0.086287335,-0.055224564,-0.09451832,-0.13394035,-0.114879705,-0.119227305,0.071998574,0.10651358,0.0861468,0.021271534,0.0064208456,0.090805314,-0.01907201,0.032929473,0.05849454,-0.13304868,0.002843508,-0.0018349488,-0.010050338,0.10915164,0.11981489,0.028511066,0.00416106,-0.12463966,-0.049759258,0.12961715,0.084662914,-0.12799285,-0.07857954,0.018983664,-0.12485897,-0.10744834,-0.028106906,0.04563065,-0.1010685,-0.046670876,0.0653668,-0.13549322,0.10672842,0.11653639,-0.12100971,-0.1354432,-0.088529035,-0.13053608,-0.09690539,-0.068150476,0.018748317,0.06483221,0.01759625,0.067866795,0.12343047,-0.05998477,0.038427353,0.03477387,0.07950628,-0.06327942,0.087200075,0.08774692,-0.011081545,-0.017453989,0.051610883,0.09733637,0.10748088,0.09399036,0.016181206,-0.04477292,-0.08091057,0.034436285,0.026826387,-0.0837666,-0.06306985,0.101534694,0.0563348,0.120677404,0.10259055,0.043314166,-0.028065007,0.108901784,0.12824261,-0.1085957,0.041571174
3,0.008450484,0.010159238,0.05658765,-0.08825199,0.1012955,0.11222656,-0.11582565,0.04284685,-0.1086012,-0.09852985,0.08333675,-0.0012356573,-0.09768467,-0.08386454,0.013424193,-0.17805699,0.115749486,-0.12602966,-0.13907075,0.05715552,0.08304124,-0.09396388,-0.036837086,0.0007582591,-0.054047205,0.09720426,-0.0167115,-0.05980907,-0.025369149,0.15360469,-0.042582605,-0.08288218,-0.020749334,0.09428191,0.014848968,-0.0061842096,-0.131759,-0.049412735,-0.11699899,0.054046713,0.10113286,0.031946704,-0.045247223,-0.018093932,0.041325625,-0.10384209,0.055239044,0.11166948,0.07394838,-0.06377001,0.12557633,0.055463277,0.021630095,0.01817366,-0.0330564,-0.004314083,0.03571699,0.06368057,0.09796532,0.07831675,0.054684337,0.08681545,0.08162671,0.064574994,0.12540707,0.022691239,0.067445174,-0.01679008,0.028045528,0.0143571505,-0.05190343,-0.11619743,-0.08230257,0.01949525,0.039130576,0.03899078,-0.04605297,-0.042002026,0.027158806,-0.103297,0.07441256,0.14024028,-0.1093649,0.022367949,-0.08870215,-0.084572196,0.1273097,-0.04436782,-0.05374264,-0.12146381,0.036230836,-0.116430655,-0.03216738,0.038262736,-0.0190486,0.044565268,-0.05939471,0.10477819,-0.09964703,0.08555008,0.13424715,-0.0010453861,-0.02744381,-0.11322612,-0.11392191,0.09274636,0.079646625,-0.06654073,0.09129192,0.057319194,0.11880782,0.0596995,-0.011413388,-0.0052942582,-0.029489605,-0.061949797,-0.11836558,0.11894061,-0.058026314,0.037765045,-0.03462521,-0.013740674,-0.086891726,-0.022844097,-0.08658257,-0.12627427,-0.061629053,-0.021251045,0.036890265,-0.013207418,0.06374645,0.08043449,-0.044433285,0.09904501,-0.099559814,0.053098276,-0.106896155,-0.094685726,0.14284647,-0.0057479194,-0.122681625,0.06277774,0.06913389,-0.00384627,0.020905018,0.05311162,-0.090781435,-0.052427012,-0.02699548,-0.0123003535,0.03842101,-0.0022408853,-0.122485355,-0.046011332,0.020964265,-0.08178,-0.018623214,-0.057208043,-0.12104378,-0.0037558153,0.09005762,0.07120013,0.10824308,0.13653643,-0.0106494725,-0.11092037,-0.0035000155,0.0026615034,-0.096442334,0.1043908,-0.013803316,-0.13302208,-0.12740086,0.09657417,0.014995136,0.006396585,-0.026330743,0.008721021,-0.12119783,0.062408805,0.008058786,0.014949528,0.055226225,-0.07239377,-0.10054505,0.061613444,0.0062652277,-0.05798108,0.09378038,-0.034792136,-0.08231556,0.014282645,0.014161891,0.06841675,-0.114010766,-0.011267463,0.04563824,-0.10655942,-0.058819417,-0.11139086
4,-0.063861445,-0.022465035,-0.070801884,0.06574835,-0.066555776,0.04525691,0.1374543,-0.05218533,-0.048626497,-0.13600959,-0.07773748,0.052957483,-0.09712626,0.06757369,0.03721638,0.03769393,0.0025896907,-0.10813186,-0.10225688,-0.067967825,-0.1045699,-0.038933694,0.027230421,0.029199384,-0.122814864,0.028252706,0.11210652,-0.07764557,0.03746231,-0.04339046,-0.10242016,0.02922802,-0.12732838,0.054181285,0.040436137,0.09519216,0.03425706,0.0009262748,-0.11503164,-0.030997984,-0.07409079,0.118094675,0.05911885,0.020315444,-0.1093105,0.074807175,-0.07835932,-0.14558263,-0.07332562,-0.09680971,-0.10422388,0.061825514,0.079672754,0.09023896,-0.10061073,0.14468883,-0.11121856,-0.023288019,-0.12750317,0.041269284,-0.121682964,-0.0036163228,-0.13963054,-0.12165284,-0.16443536,0.0064558,0.013093514,0.010536893,-0.097424105,0.051246494,-0.07193922,-0.012255543,0.08804982,-0.11731761,0.014983274,-0.050584167,-0.08934537,-0.06312297,0.05362671,-0.062573716,-0.07669582,0.011265249,0.05376108,0.11755981,-0.063986786,0.108906075,-0.07642436,0.13542296,0.012985983,7.6568955e-05,-0.143263,-0.04382758,0.102248505,-0.09664308,-0.033405863,-0.14055657,0.067634314,-0.03736303,0.13141176,0.1186517,-0.08300241,0.117854804,0.14910118,-0.011943534,0.088706136,0.013957592,0.080820344,-0.09603109,-0.044550788,-0.09323126,-0.120765656,0.009506504,0.07618803,-0.08112926,0.05193446,-0.103807755,-0.0473526,-0.07082832,-0.073359005,0.026286691,-0.152309,0.009609419,0.08169766,0.14502472,0.040575415,0.12481924,0.0053981445,-0.04437888,0.090631865,-0.018248675,-0.065974236,-0.00050598854,0.02437751,0.017943436,-0.028293593,0.1006702,-0.13775283,0.08625467,0.082449384,-0.025684562,-0.0022127852,0.01919771,0.074082784,-0.03890665,-0.090022065,-0.105639964,-0.10166435,-0.13245381,0.11241333,0.099631585,-0.100457124,-0.098002024,-0.056236237,-0.0074271653,-0.0072723893,0.13887605,0.03342282,-0.08362681,0.049952097,-0.001978865,0.022493044,0.13848974,0.021207474,0.14020798,0.07936901,0.043211132,-0.112516314,0.03233195,0.045480724,-0.07668445,-0.043341387,-0.13044718,-0.11587326,-0.058644574,0.027682172,-0.008263429,-0.114996605,-0.054580368,0.116167165,0.113235414,-0.03351045,-0.015802233,-0.10163443,-0.053258482,-0.09364779,0.008029418,-0.031431723,0.058145013,-0.08723812,0.03974142,-0.0052304505,0.09449254,0.08893639,-0.14207791,0.023201076,-0.12617229,0.10922098,-0.12867168,0.059090216,0.039138757
5,-0.1016836,0.078390606,0.0029166762,-0.00040463466,-0.027946156,0.073944755,0.04963476,0.19774756,0.026054207,0.0246174,-0.11813449,-0.029059017,-0.05551661,-0.012785641,-0.122642204,0.053096224,-0.0071558403,-0.042864982,0.11934211,0.03165019,-0.063123316,0.021736152,0.12032733,-0.009111492,-0.11991547,-0.12317175,-0.036203314,-0.027307145,0.03161079,-0.007319126,0.010411238,-0.094985545,-0.050304662,0.11897201,-0.118459664,-0.057069182,-0.049050406,-0.049106155,-0.22691427,-0.00089734327,0.027043432,0.06267874,-0.0255461,-0.031354565,0.03037615,0.09123633,0.04745504,0.100062005,-0.14258412,0.0456968,0.063509606,-0.100617945,-0.07735496,-0.14327824,-0.07866692,0.0068244976,0.09332734,-0.07131208,-0.0027026762,-0.025346005,0.14999402,-0.060586818,0.08018956,0.11788302,0.03938547,0.10777755,0.0428548,0.04296276,0.064208806,0.09767501,-0.010479475,0.04240305,-0.054776236,-0.09691614,-0.038497854,0.061834022,0.10857624,0.032283194,-0.06556844,0.065318555,0.06666304,-0.0054698177,-0.0149796335,0.04854264,-0.092024505,0.05497876,0.10300502,0.079626895,0.044252235,-0.03699569,-0.13321485,-0.03670613,0.021165645,0.097520754,0.116995916,-0.00826672,-0.084963016,-0.08489929,0.00916277,-0.09635474,0.04572329,-0.04046409,-0.03259075,0.053404782,-0.015197568,-0.014820249,-0.03782441,0.05105922,-0.04924862,0.060966108,-0.10673728,-0.0058898,-0.070959434,0.057749797,-0.07542056,0.109637685,0.12288846,0.18039364,0.12667783,-0.073208876,-0.10431394,-0.099276595,0.12287822,0.080817394,0.12981348,0.20035903,0.037631817,0.080391586,-0.113275,-0.02303317,-0.14752084,-0.074517034,0.039142597,0.025466464,0.007884774,0.048345197,-0.0726982,0.09455104,-0.012801304,-0.1050706,-0.0059648636,-0.083385065,-0.18253422,-0.06326764,0.025297316,0.055219248,-0.0020058923,0.13978092,-0.0568426,0.007216296,-0.009037297,-0.115247525,-0.12140087,-0.09833151,0.0010033557,0.11598365,0.030748922,0.07820898,0.052325428,0.04334381,0.11857672,-0.16253829,-0.17188603,0.109523,-0.13731511,0.095752485,0.018336454,0.11688594,-0.007716175,-0.010088613,-0.07685906,0.09432005,0.04823169,-0.0774968,-0.030782778,0.13116114,-0.121645495,-0.096326075,-0.114925735,0.002244337,0.10040598,-0.10152945,-0.101058304,0.09172025,0.110007346,-0.08060672,0.07971694,-0.08666497,0.07552336,0.050861508,-0.08600234,-0.109936535,0.09839753,-0.005857504,-0.108786404,0.08899278,-0.09377289,0.10655098,0.12050766,0.076164365
6,-0.06572423,-0.09189987,0.054348428,0.11723142,-0.0780561,-0.1343419,0.07035751,0.1195045,-0.07780892,0.11665121,0.046267282,0.140032,0.11786845,-0.081308946,-0.09855875,0.080321476,0.10183006,0.07340937,-0.01942779,-0.09633791,0.029958239,-0.006840775,0.13740395,0.034981467,0.07231003,-0.08007767,0.056314457,-0.0090597365,-0.022894224,0.01809643,-0.0041995677,-0.11136019,0.14254758,0.025299037,-0.06303031,0.046764545,0.030578198,-0.06051804,0.021462407,-0.020127295,0.056082554,-0.09982998,0.1095166,-0.11907743,-0.03474182,0.014711833,-0.17399938,-0.047094796,0.15326855,0.058382843,-0.029660465,-0.026550587,-0.092481986,0.030665658,-0.11900939,0.0037863639,0.024603957,-0.010130102,0.022941781,0.035698246,0.11539233,-0.18812451,-0.15480593,0.06674254,0.11620444,0.033721063,-0.029403795,-0.059543137,0.12905847,-0.18781623,0.09406254,-0.049925003,-0.051463775,0.04553433,-0.15118764,-0.122141644,-0.05437707,0.02389797,0.010769243,0.057775043,-0.07808118,0.05418479,-0.089641675,-0.006832049,0.11323038,0.078520484,-0.08189011,0.12901326,0.08049155,-0.0367393,0.08272565,-0.09761774,-0.0783364,0.10547406,-0.11630508,0.015238984,-0.019480743,-0.06975451,0.025648205,0.077932864,-0.1370479,-0.011136687,-0.062006682,0.08509346,-0.07907002,-0.049425013,-0.026149634,0.04778261,0.06713679,-0.0060585886,0.023090389,0.06613868,0.01844583,0.0025763228,-0.010843482,0.11016606,0.030236788,-0.05664432,-0.06677361,0.11264308,0.10959895,-0.06309647,-0.047971904,0.08665644,-0.034663484,-0.13534264,0.020299686,-0.10564071,0.011323446,0.014876812,-0.10353711,-0.010866266,0.13515595,0.024115687,0.031775255,-0.09544683,-0.040673267,-0.01714638,-0.094015025,0.04963935,0.12198374,0.013468646,0.060078785,-0.028100848,-0.06680395,0.053296134,0.049842127,0.07906583,-0.10703478,0.0025252695,-0.034587275,-0.018418392,0.048555948,-0.076767966,-0.059757378,0.07106584,0.045633674,-0.14863938,-0.12959692,0.08997982,0.03389759,0.041356932,-0.0019194175,-0.04067756,-0.068158805,0.087876484,0.08235698,-0.08793994,0.08777417,0.003096264,-0.024810463,0.020384403,0.010349982,0.022356452,0.08597038,0.028453287,0.00520892,-0.018198075,0.088085346,0.04481819,0.069039635,-0.1384962,0.045271784,-0.14545858,-0.09149033,-0.09262469,-0.017618347,-0.100451075,-0.069265366,-0.004422106,0.030401913,0.097617455,0.099127784,-0.02379384,0.05578093,-0.08242138,-0.13869426,-0.082893156,0.11583645,-0.11013515
7,-0.16726919,-0.07909878,-0.08511415,-0.068536215,0.10974023,-0.022435153,0.09827754,-0.061110873,-0.0387143,0.009735039,0.06433885,0.053878322,-0.020695616,0.10584482,0.025829362,-0.036988974,0.10882077,0.07189345,0.035611417,-0.026103018,0.0023238095,-0.1315733,-0.118917115,-0.014846453,0.07716924,-0.033017278,-0.13648267,-0.06960018,0.0035790377,-0.10458816,0.07787225,-0.035699394,0.051007595,0.08849583,-0.014551603,-0.04073189,0.12371814,0.067104384,0.027365621,-0.09084407,0.043059547,0.04947804,-0.070595406,-0.06888899,0.055547327,-0.058021672,-0.093045406,-0.089083515,-0.11545808,-0.0368223,0.0922468,0.11909109,0.02068084,0.06747884,-0.10538988,-0.041632004,-0.0738159,-0.1163908,0.08831508,-0.059797272,0.0025310768,-0.038725905,0.01650067,0.008187801,0.09611191,-0.0443986,0.00033219627,-0.055153657,0.01111613,-0.11951709,-0.066382945,0.10984847,-0.06233605,-0.1163468,-0.0041990937,-0.052394215,-0.107247226,0.1290532,-0.00396412,-0.106928386,0.09784086,0.02907422,0.109187685,0.087583005,0.036537074,-0.027219024,0.07503964,-0.028909914,-0.022611741,-0.038208548,0.07742809,-0.025095554,0.08768865,0.070628285,0.014000947,0.05419581,0.03623551,0.068645895,0.10768743,0.100529894,0.026200503,0.09754098,-0.09051189,-0.053603213,-0.07746599,0.079300016,-0.074613474,0.096326105,-0.0051054587,-0.0748776,-0.116058156,-0.18247479,-0.10653916,0.09604768,-0.11814864,-0.06301261,-0.09612208,0.11662983,0.1062983,-0.09995822,-0.08173616,0.08934791,0.08413447,-0.004295355,-0.07815516,-0.08814073,0.014615913,-0.09978227,-0.041316856,0.060800985,-0.01759401,-0.11833801,0.061319068,-0.053320453,0.09097941,0.0727029,-0.10101109,-0.047536284,-0.12623356,-0.02143307,-0.11242905,-0.0236124,3.2987766e-05,0.06904342,0.013322022,0.07720411,0.033339705,0.010423381,0.1321347,-0.1403878,-0.14570042,-0.08731702,0.008626309,0.07901111,0.026694793,-0.11952667,-0.1287062,0.03847083,0.042000853,0.033049427,0.12470927,0.14686318,-0.13649225,-0.1151022,0.10308602,-0.050178126,0.07435807,-0.019178208,-0.09161303,-0.02549389,-0.09526054,0.045408353,0.038097102,-0.039619476,0.10776905,0.0017814931,0.07225456,0.052542284,0.01759561,0.006254859,-0.032245457,0.008331442,-0.017613066,0.09983555,-0.107073896,-0.046484824,0.110105395,0.14105622,0.069959864,0.07838198,-0.105133936,0.13227202,-0.078419514,0.059756327,0.12216058,-0.062449373,-0.004126273,0.11057921,-0.11357497,-0.10191152
8,-0.16331364,-0.044397846,-0.00076696044,-0.019762503,-0.025531266,0.048200194,0.02362977,-0.1338241,-0.10816815,-0.10744699,0.021439498,-0.062200166,0.009258285,0.030106729,0.021523504,-0.051215593,-0.07299931,-0.09947623,0.050845746,0.040200185,0.009579793,-0.11100365,0.100006565,0.088070855,-0.0030951968,-0.00033581784,0.06996043,0.041861735,-0.052863494,-0.053873338,0.06168284,0.12620312,-0.08785968,-0.048350073,0.094640896,-0.12157368,0.06015932,0.11900885,-0.14224115,-0.03269647,-0.05633709,-0.12162423,-0.07510305,0.09486024,0.11130405,0.06755002,-0.126406,-0.13324784,-0.08818661,-0.005854024,-0.070406795,-0.025681062,-0.057031136,0.04292153,0.056369342,0.10145817,0.08623051,-0.08108052,0.041692935,-0.07164828,-0.017428882,0.059216663,-0.09498688,0.07302764,-0.13331679,-0.05370083,-0.042004045,0.07384153,0.08417195,-0.009139115,-0.037723582,0.044348154,0.08982927,-0.032606415,0.016923118,0.072199024,0.04579601,0.08064854,0.08133076,-0.092880934,0.096546516,-0.099425524,-0.15061177,0.13862476,0.04959322,-0.10880157,0.044465806,-0.0034697019,-0.007821614,-0.11898175,0.083842374,-0.10486838,0.10639779,-0.034486257,-0.050418254,0.1174783,0.0972422,0.10489506,-0.024408989,0.09115133,0.056512866,-0.09152093,0.0035299934,-0.060984172,0.118641265,-0.11792466,0.06610448,0.045070622,0.10896746,-0.08735775,0.12007395,-0.1519189,0.100228086,-0.019700456,0.07340726,0.03324994,0.00050890836,0.08899823,0.010858284,-0.08112061,0.08958282,0.09487659,0.07723899,-0.08862919,0.007722576,-0.06791005,0.042774558,-0.00654227,-0.08755909,0.0013169677,0.028468868,0.02074421,-0.06408914,0.10114384,-0.031095691,-0.0072198026,0.051372178,0.046436984,0.01011493,-0.120199054,0.0044686534,0.03777996,0.07145822,-0.08911878,-0.0824698,0.0507086,-0.03071498,-0.010444869,-0.015981384,0.1204833,-0.011782449,0.0010675495,-0.1424177,0.07907056,-0.091666654,0.111009635,0.13248533,0.048103243,-0.018386766,-0.070292264,-0.08038404,-0.09318435,0.106252275,-0.022015085,0.09121282,0.088128075,-0.14187492,-0.13477482,0.002335998,0.034263443,0.10000337,0.006422884,0.04846311,-0.011337152,-0.015057327,0.064341515,0.028005442,-0.114886366,0.031173296,0.04778317,0.080837786,-0.043283295,0.055931482,-0.11649398,0.1284477,-0.0822943,-0.11257767,-0.12574665,-0.12098335,0.01853246,0.06576817,-0.08622494,0.10440998,-0.058774997,0.046756715,-0.071127236,-0.109760955,0.05294184,-0.11695866,0.034696646
9,-0.1238805,0.06687444,-0.04719982,0.08652753,0.01918707,0.10194036,-0.120399274,0.06445311,-0.030088644,0.06197266,-0.11465762,-0.020515898,-0.07121113,-0.098522395,0.044084266,0.11162474,0.11301157,-0.08867905,0.055741478,0.06316529,-0.050074276,0.004703153,0.03500332,0.13410157,0.11535787,-0.06824126,0.12159104,-0.08758632,-0.042857476,-0.11433662,-0.05181278,-0.05140023,-0.050374728,0.08591627,-0.00023665908,0.10359894,0.1050717,0.033368204,-0.059496466,0.105121836,0.08041191,-0.11061846,0.13728772,0.0746072,-0.040052045,-0.115014896,-0.06911924,0.090425625,-0.08194632,-0.1457898,0.048589252,0.0053215213,0.082767755,0.001905915,-0.03129358,-0.05164613,0.13107923,0.031523667,0.06644758,2.4432571e-05,0.010359633,-0.12444865,0.018869646,-0.115683906,-0.015012116,0.07647323,0.1278898,-0.07599789,0.12324024,-0.13194779,0.039212584,-0.085765705,-0.035804022,0.10155959,0.12802486,-0.08721592,-0.055458628,-0.010842651,0.010589243,0.12529941,-0.07761862,0.048834708,-0.044646677,0.030692084,-0.06550575,0.065656416,-0.056091793,-0.110008605,0.13134992,-0.08848868,0.059660666,0.12278847,0.08418739,-0.10763729,-0.1003096,-0.06572297,0.11010542,-0.09370232,-0.12834623,-0.13104337,0.0009589283,0.071650274,0.10049176,0.066708155,0.048145432,-0.058277085,0.10287932,-0.03964837,0.12652853,-0.009616029,0.08846279,0.108092986,-0.0832163,-0.13260466,0.11779311,-0.007907686,-0.11277702,-0.09999719,0.06878169,-0.03415337,-0.027253257,0.025997436,-0.021472348,0.13165984,0.058346935,-0.058359426,0.085331045,0.028665403,-0.10971836,0.051639017,0.01884557,0.09845806,0.07328868,0.070401326,0.090525135,0.025584908,0.10044505,-0.017924922,-0.03745133,-0.05503287,0.1269861,0.09904097,-0.027419547,-0.05831295,0.05713878,-0.03401982,0.095564686,0.06455486,0.11487235,0.0061499695,-0.07447312,0.014098848,-0.020299058,0.07332152,0.021769999,-0.009835439,-0.06923523,-0.06743747,0.028839042,-0.03321979,0.12159746,-0.09654092,-0.049919274,0.025190135,0.06335427,-0.046041865,-0.054772988,-0.13686068,0.022283116,0.119323835,0.090288796,-0.024802556,0.13314448,0.04464523,-0.015203644,-0.10444248,0.07862433,0.03640904,-0.07607457,0.11019036,-0.1255937,-0.024666058,-0.06713723,-0.069066405,0.09100033,-0.024685359,-0.0059209648,0.07643358,-0.07307694,-0.018354498,0.019517489,-0.00028125252,0.02960517,0.10710797,0.08423577,-0.024969008,-0.11258007,0.04329941,0.062356167,0.10453308
10,0.11736553,-0.14849149,0.08379858,0.0852361,-0.00039180083,0.12754044,-0.07040479,-0.026962971,0.08756983,0.028396131,-0.09911272,0.038037255,0.12297742,-0.051827278,0.048216917,0.08803719,0.06756594,0.088923655,-0.06910629,0.018959519,0.059260424,0.025465507,0.09720976,-0.04956591,0.07735633,0.040533677,-0.071539745,-0.036185514,-0.12506066,-0.08437816,0.0015330061,0.09282289,0.113396384,-0.09839443,0.022871275,-0.014016536,-0.039514456,0.012295074,-0.12408639,-0.06719084,-0.029269252,-0.013811227,0.03513586,0.03381378,-0.06865799,-0.021415427,-0.08698226,-0.01694017,0.047366444,0.06176482,-0.09168895,0.06234022,-0.020780109,-0.04087962,0.035824094,0.13250735,0.019242503,0.07790612,-0.0011591224,0.056662563,0.086215466,0.07271608,-0.056936458,0.06745531,-0.016395407,-0.07617992,0.09312898,0.084062584,0.099472165,0.06875795,-0.10084737,0.065885045,0.07935353,0.12604617,0.07841939,0.008142624,0.013909059,0.114343315,-0.12578751,-0.012951141,-0.0617843,0.07692492,0.07955406,0.0823874,-0.043557286,-0.088200636,0.033477712,-0.10405583,0.08038325,0.005214203,-0.07480778,0.04099374,-0.044081744,-0.054363597,-0.075946495,0.046340805,-0.13869433,-0.010487017,0.07463114,0.10042365,-0.088207096,0.096065395,0.10142668,0.080537364,-0.099543855,0.06481912,-0.110642076,0.085227795,-0.056346577,-0.037059687,-0.1180461,0.04528835,-0.16765249,0.09069149,0.03550431,-0.11508839,-0.06806871,-0.053097468,-0.0066921404,-0.049414877,-0.08122653,0.017964935,0.12007589,-0.07837894,-0.09895743,-0.0028518145,-0.09702988,-0.104926065,-0.0707052,-0.095497556,-0.03345736,-0.013320283,0.057126906,0.052124746,0.11691814,-0.1249333,-0.12959476,-0.146909,0.12590447,0.09530857,0.07478135,-0.08060627,0.10056634,-0.057666462,0.03975387,-0.112683006,-0.095032915,-0.025581062,-0.08352715,-0.08704164,0.14955094,-0.024097338,0.090407215,0.12827192,0.051174972,0.03302193,-0.10923886,0.118480645,0.044369552,-0.015208434,-0.099524915,-0.14410296,-0.07680909,-0.016810227,-0.02623302,-0.044582643,0.13042526,-0.12434482,-0.106050104,-0.04929059,-0.09323334,0.12689577,0.10411807,-0.008259974,-0.054891504,0.0036901764,0.110926405,0.068189114,-0.030458948,0.07604667,-0.08444344,0.09773862,0.040958457,0.12481654,-0.08320356,-0.012343665,-0.022156406,-0.11845973,-0.06913227,0.050626528,-0.06135425,0.088962376,-0.03674276,-0.06763668,-0.012486539,-0.08883814,-0.062225126,-0.08876952,0.08227896,0.067027524
11,0.030990418,-0.091351986,0.020256821,0.068741195,0.06745527,0.034797333,-0.10478169,0.047002703,-0.01055729,0.02969743,0.027068146,0.011727446,0.040358182,0.07473649,-0.091328435,0.0010281369,0.046793327,-0.021551427,-0.097595364,0.01012803,0.13338758,-0.0714473,-0.03613332,-0.10278985,-0.079840064,0.112589166,-0.056551173,-0.07379069,-0.010871827,0.07338399,0.10308934,-0.08146601,-0.029984498,0.13267048,0.0056929346,-0.07594819,0.097296506,-0.066755116,-0.054057684,0.10254676,-0.020619366,-0.008177877,-0.13250154,0.021173893,-0.08798388,-0.10668936,-0.11647662,0.11431806,0.08933897,0.06766663,-0.0042112144,-0.09509277,-0.10406249,-0.114022814,0.053765316,0.053538963,0.0937758,0.0627278,0.076267675,-0.054035977,0.0863049,0.03432325,-0.109614134,-0.0004712833,-0.03372814,-0.08759594,0.12445889,-0.07540851,0.061217193,-0.024544246,-0.048984423,-0.09039507,0.13815781,-0.09395227,-0.10113215,0.060904935,-0.012535349,-0.10421699,0.10100023,-0.07054912,-0.02441272,-0.039833136,-0.1566333,0.13408522,0.009252697,0.059086327,-0.06425004,-0.008949674,-0.0359702,0.08828519,-0.10305065,0.12217149,0.15385552,-0.050596826,-0.07573209,-0.07607582,-0.06726745,0.066950075,0.059231795,-0.110282086,-0.109019,-0.053205337,0.104571864,-0.030931408,-0.09437181,0.088258654,-0.0030207762,0.059352588,-0.019635648,-0.085370325,0.038690083,0.08555528,-0.021043006,-0.08928784,-0.021234846,-0.07865806,-0.04526964,0.12874036,0.0046039317,0.011973658,0.032046173,-0.07351631,0.049956493,0.06281803,0.100973554,-0.10169142,-0.10306759,0.11947603,0.085591465,-0.13428551,-0.10672765,-0.088598855,-0.02986821,-0.18273152,-0.03975609,0.13238142,0.029968347,0.06037097,0.05979011,0.07289045,-0.056420375,0.080417335,-0.039136477,0.047724348,-0.046292096,0.078283355,0.12220666,0.08520653,0.026562696,0.0739435,0.053792123,0.027585132,-0.025824554,0.045834478,-0.0839186,-0.062175255,-0.08501916,0.009238648,0.010415002,0.08547223,0.06773829,-0.01793595,-0.11353583,-0.12271933,0.042568743,-0.025523977,0.11126521,-0.11106562,0.14540273,-0.08192568,-0.118817255,-0.033882387,-0.08536386,0.04293972,-0.034965947,0.05272233,0.09465817,0.098655164,0.071332164,0.026608737,-0.06089952,0.041359086,-0.014651285,-0.048160337,0.054769486,-0.055930085,0.065823674,-0.0070210695,-0.0059475023,-0.053541,0.0029085225,-0.11695512,0.018995767,0.10029871,-0.035060316,0.008812643,0.10883853,0.07042717,-0.0359671,0.006813859
12,0.008108801,0.11784074,-0.063930154,-0.03664157,-0.057994504,-0.0007476546,0.1388392,0.09559961,-0.11813538,-0.011694857,0.04934805,-0.13930728,0.017585332,0.115573294,0.074038535,0.086893395,0.0012072695,0.049592957,0.11057122,-0.04376909,0.12736727,0.046054095,0.0022521769,-0.061706003,-0.015791656,0.09522965,0.107880615,0.078807525,-0.060549963,0.10682062,-0.05947375,-0.01019154,-0.0671531,0.09066712,0.08316031,-0.0669177,0.13253249,0.01862633,0.026311385,0.04212765,-0.0054709637,0.05166824,0.027096337,0.08030344,0.015499115,0.053144887,-0.0113900835,-0.024753742,0.08764545,-0.071918994,-0.10299917,-0.14155492,0.13152112,0.086152814,0.021071002,0.011148717,-0.0037028252,-0.07835633,-0.1264356,0.03924271,-0.039315425,0.023947684,0.077540696,0.05748738,-0.048800997,-0.039713003,-0.035330918,-0.122861326,-0.026280424,-0.13105693,-0.15107025,-0.0407662,-0.07515722,0.118711606,0.0625587,0.09354692,-0.094432645,-0.013483402,-0.011538598,-0.0069443667,-0.090328716,0.05164357,0.042289965,-0.069558285,0.09698141,0.04988446,-0.07466935,0.082519546,0.05740876,0.12288783,-0.09524431,0.10554474,0.105099775,0.07246707,-0.11217215,-0.14297831,-0.13471027,-0.11430924,0.049928837,0.09956908,0.07646394,-0.08273913,0.07952843,-0.0639949,-0.10531777,-0.038159,-0.044085927,0.09207019,-0.06199827,-0.11729012,-0.10127773,0.05908289,-0.10984828,-0.14205003,0.033307992,0.00044561975,0.041040327,-0.07033011,0.08357645,-0.10050535,-0.10611156,-0.12426407,-0.030663513,-0.04741528,-0.10420528,0.05281701,-0.030432086,0.020371139,0.08377753,-0.11007825,-0.09376731,-0.03644283,-0.00063588814,0.07097336,0.053712834,-0.097248934,0.08854221,0.045180622,0.0006970097,-0.06722529,0.09827393,-0.119241945,-0.119648926,-0.035988536,-0.046528216,0.059825506,-0.17658786,-0.12279771,-0.02412631,0.0941907,-0.09357456,0.101486914,0.042278923,0.12249338,-0.13922957,0.10683967,0.11276126,0.10074737,0.1367838,0.001238015,-0.09272984,0.073542625,-0.14914034,-0.03310039,0.072442144,-0.10705301,-0.06399446,0.06166364,0.07672445,0.07994286,-0.11326518,-0.12018083,0.022004835,0.12178112,0.06855333,0.029991679,0.042085737,-0.1280005,0.0751866,-0.02911629,0.02714578,-0.09347401,0.011469607,0.01684995,0.11177874,0.040024955,0.010742846,0.12523638,-0.104677156,0.0044201096,-0.12719414,-0.14731874,-0.06221192,-0.1219525,0.10397287,0.09941782,-0.09194948,-0.09228759,-0.011707454,-0.108057305
13,0.05242196,0.06630256,0.0019821723,-0.0863063,-0.2459604,-0.045009557,-0.03647006,0.0187062,0.079480946,0.037862264,0.103182495,0.113357484,0.057181958,0.054989886,0.010128218,0.09165204,0.10354389,0.13085291,0.035921305,0.046879306,-0.07788193,0.021040512,0.077931404,0.051836684,-0.106508985,-0.09842344,0.036235936,-0.04731742,0.13780802,0.080541514,-0.014525161,-0.0022044962,0.25086653,-0.022651743,0.039878253,-0.08741299,-0.08182246,-0.14482027,0.051161557,-0.11833174,-0.031685844,0.06309077,0.119369045,-0.020723445,0.123234235,-0.09928601,0.013614138,0.028993616,-0.046398066,-0.091230266,-0.09728221,-0.05504444,-0.005529596,-0.023753863,0.038685318,-0.13175157,-0.07364044,-0.099747896,-0.085041285,0.1462668,0.12549457,0.12306614,-0.09152401,0.032944094,-0.15981072,0.036449157,0.0073111206,-0.11936616,0.06943662,-0.019986574,0.13814595,-0.12314246,-0.11540091,0.07314188,-0.021164102,-0.05841729,0.1653455,-0.006014852,-0.07826902,0.063913085,-0.12364375,0.055065017,0.10052581,-0.06973008,0.09316701,-0.009561576,0.026348367,0.016972017,0.09763106,-0.026413947,-0.06538157,0.068825945,-0.02432167,0.014736455,0.09748271,0.050168395,0.13190854,0.17822987,0.066881515,0.11380998,-0.057401974,0.0070167133,0.05092749,-0.10824583,0.08572254,0.0108479215,0.071167715,-0.03508566,0.13559817,0.14241107,-0.0515591,0.12185451,-0.11045677,-0.084048,0.044474415,0.04551632,0.07206876,0.0720523,0.020684296,-0.1042566,-0.044154074,0.027858922,-0.07839341,0.00013796796,0.03129253,0.08974623,0.022905253,0.0887519,-0.11873635,0.051448584,0.15015092,-0.024805853,-0.11111317,0.0021442433,-0.12188007,0.0052966545,0.05580344,-0.11029101,-0.06082289,-0.03312748,0.019923605,0.077594995,0.041933242,0.009653663,-0.0842632,1.8082861e-05,-0.025533201,0.15073587,-0.03903575,0.1335265,0.1134191,0.09910187,-0.062520355,0.07024177,-0.002624912,0.043034393,-0.022084413,0.011789908,0.009160607,0.02610871,0.02507771,-0.130294,-0.15542637,0.064009935,-0.06529502,0.13384789,0.11204735,0.13964042,-0.06653187,-0.13083355,0.10242521,-0.01595626,0.01214247,0.010593188,0.13651769,-0.13943622,0.1874558,0.07874747,0.05735173,0.024934672,0.10040427,0.07699615,0.029391838,0.11984767,0.08566176,0.115550034,0.11633691,-0.122556664,0.080084905,0.019107658,-0.040259056,0.087223254,-0.014093066,0.011661486,0.011933093,-0.0788052,-0.047208704,0.0568196,0.0026559655,0.05158616
14,-0.13527626,0.048690446,0.09567296,0.095834695,0.047132153,0.12517692,-0.11625934,-0.038341198,0.089582086,-0.06884783,-0.08441492,-0.04933371,-0.059724208,0.14731331,-0.07962035,0.063601695,0.019398667,-0.11735194,-0.009070525,0.11042373,-0.08811842,0.11568665,-0.023668256,0.14673011,-0.017982883,0.100943945,0.040996302,-0.07658083,-0.012331725,-0.10770322,0.15642966,0.0452646,-0.061602052,0.03388967,-0.04193449,-0.047127366,0.043219697,-0.0015218626,-0.018813128,-0.010924087,0.104513295,-0.13085961,-0.1303633,0.07342874,0.06091675,0.0058538197,0.0012291643,-0.071780525,-0.080829605,-0.09290112,-0.015884988,-0.06648438,0.07243556,0.04494479,-0.12681234,-0.0038656907,0.02546622,0.08037596,0.100903615,0.017165512,-0.06819692,0.11509184,-0.057017975,-0.010143817,0.10778846,0.057463814,0.0976242,0.048163854,-0.13009621,-0.16855788,-0.06997782,0.103231125,0.05419978,-0.03302223,-0.07321535,0.08808751,0.10701199,0.008980074,-0.092292346,-0.057255134,-0.0151255755,0.05876309,0.0881991,0.039252255,-0.064130284,0.06999938,0.114283465,-0.081301846,0.04026197,-0.08313732,0.1499927,0.031529527,-0.1311908,-0.093359746,-0.052172,0.017454118,-0.083935745,0.103884876,-0.11705134,-0.14017828,0.07382364,0.09798387,0.10589055,-0.0019652704,0.046155296,-0.0040135747,0.028100442,0.09582969,-0.13826321,-0.0029882875,0.13408217,-0.074407786,-0.043833304,-0.054363284,0.09308235,-0.0008454507,0.08201731,-0.05377449,-0.008146366,0.049173057,-0.02289513,-0.112861365,0.05079209,0.10003211,0.113445476,-0.104218386,0.09535881,-0.020278567,-0.06648903,-0.13050516,-0.024239454,0.01563587,0.091040045,-0.12730251,-0.054175068,0.12945898,-0.08370884,0.13447319,-0.09558324,0.0071096257,0.11573874,-0.09965465,0.024175769,0.08573752,-0.0008160345,-0.06428298,-0.14549862,0.14292574,-0.10359405,0.039919328,-0.083956875,-0.04507301,-0.06068142,-0.065811485,0.10811414,0.010625776,-0.050179422,-0.10120672,0.13275571,-0.06459465,-0.118202604,0.07162062,0.033853192,0.05224254,0.059708484,-0.12381892,0.12169075,0.06957887,0.021476908,0.12697591,0.015215758,-0.10640278,0.11450857,-0.019261617,-0.033566,0.14584225,0.016413448,0.06662433,-0.1099352,0.058389,0.02062688,-0.13043764,-0.12573113,0.006961398,0.07587795,-0.093841285,0.038490355,-0.09318026,-0.06569953,-0.03630265,0.03348417,-0.106561586,-0.06913881,-0.11006117,0.094565116,-0.05821447,-0.10245854,-0.10507539,0.03550365,-0.051865265
15,-0.09537394,0.110424526,0.12386936,-0.09538963,0.120167814,-0.023586689,0.017896129,-0.023404332,0.07843846,-0.12868108,-0.01886148,0.04875432,-0.06812338,-0.102506176,0.11607633,-0.12121572,-0.030076964,0.06953426,0.11566408,0.0057305237,-0.0066562197,-0.09573215,0.09712128,-0.051463287,-0.079830736,0.08391309,0.04185869,0.096817456,-0.09656256,0.11739773,-0.118648455,0.13171482,0.12072313,-0.0911203,-0.10230992,-0.12994707,-0.04413763,0.019268809,-0.0618296,0.13762264,0.13532652,-0.10447466,-0.08484557,0.12654276,-0.098236434,-0.071720004,-0.047935724,0.019395888,0.065265544,0.057837322,-0.11499356,0.14435183,0.03835853,-0.14297758,0.06147082,-0.09778457,0.028606655,-0.061882306,0.09320304,-0.08249136,-0.10043078,-0.09309095,0.036052175,0.0031793758,-0.024360295,0.063132256,-0.09273586,-0.0752937,-0.08241517,0.15129073,0.07509186,0.13201712,-0.09400519,-0.04142029,0.01630875,-0.056869067,0.15292847,0.043935936,0.056305137,0.1029971,0.11430473,-0.061120264,-0.06967882,-0.0890149,-0.0015282705,-0.07487703,0.11737348,0.06728344,-0.026914466,0.067814805,0.038448516,0.107366875,0.0089023905,0.026121855,-0.01280913,-0.06379876,0.06780287,-0.11507678,0.13447022,-0.03180942,0.078160994,-0.06238341,0.1030452,-0.12736224,-0.12588313,0.06418015,-0.09622355,-0.017749622,0.06639616,-0.010319181,-0.08122414,-0.038959727,-0.0146568725,0.15286286,-0.070578896,0.013969587,-0.055667628,0.020703493,0.078448854,-0.07409869,-0.030110499,0.06470135,-0.10630834,-0.06774486,-0.024241984,-0.10628469,0.029523311,0.08399158,0.105363436,0.105826125,0.14629526,0.054361507,-0.034329906,-0.14236869,-0.065506205,-0.08171784,-0.08267689,-0.02053712,0.14271533,-0.0966396,0.117382206,0.09031571,-0.04494876,-0.110776156,-0.12188332,-0.087139435,-0.08974466,-0.10554685,0.11127209,0.05833339,0.13331659,0.07039111,-0.0038879868,0.045795884,0.02170118,0.121160425,0.1268904,0.09449756,-0.117215335,0.13256016,0.058304567,-0.06721664,0.016792597,0.015300978,0.01984809,0.067891024,0.03585429,-0.037135888,-0.06721507,-0.029323174,0.052129857,-0.044783738,0.072179556,0.024623077,0.10542419,-0.10879327,-0.11659552,-0.061967637,-0.12586313,-0.011331106,-0.097163774,-0.034408174,0.08836805,0.13199757,0.031837713,0.14299302,-0.015457663,-0.09898333,-0.11676867,-0.057540093,-0.091521315,-0.03734814,0.12413914,0.052041534,-0.1067485,0.0029920274,-0.053099435,-0.10333539,0.040074162,-0.076818794
16,-0.09308978,-0.03337699,0.034974106,-0.04768365,-0.022882575,-0.063335486,0.09272863,-0.084355794,-0.026156403,0.10568916,0.02885766,0.06796346,0.013027883,0.011531346,0.017753169,-0.079447925,-0.13809842,-0.01978946,0.043928735,-0.03946265,0.12791215,-0.08087007,0.11997774,0.0009842907,0.054026708,-0.10855612,0.006382831,-0.05559214,-0.021675734,-0.060796134,-0.031198176,0.07480614,-0.08550158,0.12126793,-0.014002092,-0.016590092,0.11852776,-0.11806577,-0.06423369,-0.065920204,-0.087121986,-0.09689634,-0.0636645,-0.113707885,-0.1161007,-0.01706327,-0.09994754,-0.09833154,0.008668363,-0.090829216,0.13059656,-0.12223228,0.12783162,0.04175648,-0.08287707,-0.1402043,0.13640057,0.08479824,0.103403196,0.10689799,0.029180625,-0.021682357,0.04580137,-0.100303195,0.104747765,-0.027908158,0.077633135,0.047265586,-0.015517808,-0.14230813,0.1292628,0.028343482,-0.036012977,-0.03492662,-0.11967683,-0.03822822,0.04559155,-0.12691097,-0.019884812,0.051893134,0.12966546,0.098604426,0.13451114,0.00551069,-0.015884336,-0.026899446,-0.13215362,-0.08913826,-0.10497964,0.038577475,-0.0959024,-0.015993053,-0.10998368,0.026725395,-0.04270654,-0.035414066,0.11415766,0.04709432,0.014575554,0.08043718,-0.064153984,-0.020482896,0.10168202,-0.103216745,0.019011514,-0.11554408,0.009749633,0.050230596,-0.08568972,-0.08828815,-0.075698026,-0.10375339,-0.16482022,-0.11955908,0.021193732,0.13238516,0.1308703,0.0018156117,-0.023827707,0.078909665,-0.05297618,-0.09579803,0.021567661,-0.06132246,0.064631775,-0.054999594,-0.022762723,-0.059167482,-0.04985678,-0.12858576,0.08161696,-0.019101199,-0.04747528,0.08658389,-0.122009836,0.016413487,0.039825678,0.016465051,-0.091882415,-0.021070099,-0.12640427,-0.09491688,0.048450466,0.103812315,-0.1340877,-0.0028867256,-0.15058556,-0.053901725,-0.096992634,0.13213411,0.04423825,0.09832007,-0.08386416,-0.036193512,-0.07275322,0.060354084,0.04696768,0.10395872,-0.07864228,-0.11107094,-0.0136488415,-0.05617913,0.07472481,0.013106631,0.01594931,-0.025267852,-0.07991312,-0.10226568,-0.041904174,0.047750555,0.042895686,0.043608095,0.07912471,-0.014551447,0.05998258,0.10752044,-0.045762602,-0.13457839,0.05117142,0.02675542,-0.1010162,0.08788256,-0.0356424,-0.07635019,0.13274498,-0.025785092,-0.13569774,0.0033071716,-0.10840958,0.03445708,0.067440785,-0.16275899,0.13805318,0.016443325,-0.09956729,0.0068370076,-0.14228961,0.054787792,0.02773131,-0.074901775
17,0.15605137,0.14168583,0.098121256,-0.1349835,0.03862545,-0.08586146,0.10856767,0.15168142,0.07551006,-0.011086203,0.061506733,0.046120375,-0.024603564,-0.104331456,-0.13552147,0.054567713,0.13824607,0.0065826634,-0.0852886,-0.08824287,-0.11344602,-0.072186954,0.12782757,0.12588516,-0.056994166,0.0057957764,0.05400937,-0.0084244395,0.09616372,0.08804183,0.047803283,-0.06880993,0.14618702,-0.13264577,-0.005800147,0.12754977,-0.013959147,0.102492295,-0.022259843,0.043119278,0.0955868,-0.09202654,-0.008888901,-0.024236778,0.10372505,-0.04076423,0.13308403,0.07158634,0.0061300253,0.10132037,0.008647286,-0.054085292,0.002062251,0.1287231,-0.11462915,0.079904474,0.10265155,-0.08784762,-0.14029837,0.093879685,0.04296005,0.12649812,0.15335172,-0.0026055046,0.027002625,-0.06910527,0.082552336,-0.10298292,-0.1328593,-0.08275525,-0.099311195,0.09330509,-0.056577504,0.12664104,0.030350609,0.13658927,0.096202314,0.09071584,0.0012344733,0.078987144,0.025684875,0.007604614,-0.046445798,-0.083665,0.0061611817,0.013832059,0.0057329447,0.11805818,0.07855775,0.01972338,0.024742924,0.057476506,0.13735527,0.010734655,0.06509899,-0.08677487,0.025756445,0.09411054,0.094543144,-0.1269313,0.005387265,-0.010778649,-0.058944404,-0.10620884,-0.023497237,-0.031014936,-0.14797306,0.02871782,0.042238228,-0.04963282,-0.11896313,0.048570625,-0.032840155,0.13556303,0.029869966,-0.009931756,0.07732764,0.023449218,-0.074012354,-0.00068250427,0.13250199,-0.123271026,-0.028157147,0.018769275,0.09588434,0.07958057,-0.0836621,-0.052199718,0.037253097,-0.0148911895,0.044281047,-0.033124786,0.050764434,0.12811388,-0.032513667,0.0181235,-0.041590184,-0.016310338,-0.10342298,-0.006765593,0.13089706,0.026714845,-0.08027224,-0.112839594,0.0102606835,0.026834808,-0.007047266,-0.016684128,0.07387547,-0.11953242,0.0023581719,-0.057645082,-0.13617049,-0.06971545,-0.1399147,-0.016203294,0.061926402,-0.010367342,-0.034779817,-0.01425601,0.03296376,-0.069947585,0.021883836,-0.116126806,0.0065010707,-0.01885913,0.10036834,0.010609744,0.11674171,0.03329756,-0.1166109,-0.1584841,-0.10684136,0.019436719,-0.009475994,0.016962333,0.010755377,-0.09212616,-0.03613878,-0.013403822,-0.010944109,-0.008275617,0.13000886,0.120613694,-0.07759443,0.10051529,0.102735385,0.13584791,-0.056743786,0.05519115,0.10268254,0.031381298,0.05774904,0.12594727,-0.11691911,0.1260847,0.1603908,-0.074313715,0.063390054,-0.031258993
18,0.094954446,-0.11135748,0.015958825,0.041476037,0.07004292,0.046543248,-0.08449282,0.1460126,-0.048115414,-0.06479547,0.09407929,-0.11511949,-0.010594116,0.13464777,-0.042445313,0.11039184,-0.114995666,-0.006753505,-0.05386094,-0.056413688,-0.04147947,0.06832606,-0.123535104,0.027519822,0.03128453,0.014690753,0.08009122,0.119720146,0.0056711566,-0.054567933,-0.03187787,0.036398474,-0.06555518,-0.036670562,0.08358953,-0.084919676,0.07003139,-0.093312904,-0.04073725,0.023327842,-0.0013587074,0.08228346,0.11476189,-0.123652816,0.017679285,0.018776836,0.06856266,0.05069761,-0.1354495,0.03529154,0.10991836,-0.060339287,-0.06648045,0.028927779,-0.027103037,-0.109637626,0.050624203,0.05866269,-0.06606695,0.06632791,-0.08671753,0.015713995,-0.060985822,0.013706449,0.011990398,0.026077442,-0.061549556,0.08391653,0.04409691,-0.0066105532,-0.06288881,0.09158514,0.07016616,-0.062323336,-0.090257294,-0.023545144,0.0790745,0.12543923,0.10267893,0.06868245,0.03169659,0.18206422,-0.11332962,0.037073147,-0.08669447,0.023459371,0.018520221,-0.0125508495,0.13134794,-0.024749938,-0.040542036,-0.030968305,0.12829278,0.096796155,0.07672735,0.09714693,0.04965421,0.018677244,0.081553034,-0.06711722,0.053662457,0.12995046,-0.122266196,-0.1082884,0.034610726,0.030262103,0.054284036,-0.051682964,-0.04094127,0.041072067,-0.06627623,-0.07996479,-0.07810879,-0.026257996,-0.034740236,0.0531903,0.07032216,-0.16043977,0.021469843,0.037470885,0.12269669,0.100722834,0.032919765,-0.09636265,0.00433299,0.101958156,-0.07130408,0.03359285,-0.01614246,-0.038030952,0.063661575,0.1313772,-0.031789765,-0.007890386,0.11328301,0.097479746,0.13680151,-0.04029971,-0.08879518,-0.08448924,0.08685745,-0.04219271,0.116700016,0.027952945,0.01156923,-0.04098779,0.11504739,0.09184343,-0.12181426,-0.011254444,0.0015722978,-0.09086241,0.04235865,0.08006964,-0.056360096,-0.029753707,-0.053038914,0.097469166,0.08659237,0.10589516,0.11855138,0.11220485,-0.11639554,0.10365039,0.0005342231,0.085209355,-0.0123414695,-0.02158867,-0.03775899,0.060464427,0.08571155,-0.037066158,-0.050665926,-0.038211197,-0.07809355,-0.040223002,0.1397084,0.12922364,-0.1363653,0.14514932,-0.1180847,0.003554766,-0.07117287,0.025736526,0.017180828,-0.066245355,-0.031776078,-0.087940335,-0.035490572,0.083773956,-0.049085233,-0.042807344,0.0544199,-0.14136301,0.09485009,-0.03827794,0.16121194,-0.02250943,0.10691605,0.102607235
19,-0.022670178,0.09782374,0.011861985,0.03458232,0.095624015,0.055363987,0.09453349,-0.08151488,-0.09805872,-0.08137191,0.027183095,0.011662034,0.13586468,-0.052544147,0.04733644,0.08958995,-0.09069682,-0.061335865,0.034286793,0.07770177,0.042548306,0.030467726,0.13508879,-0.06990776,-0.096645445,-0.051290344,-0.09790575,-0.069181286,0.01251789,-0.069225386,0.08540444,0.026358955,-0.083270304,-0.11054752,0.1050106,-0.10872075,-0.07298762,0.07152103,1.1268865e-05,-0.03473897,-0.031651724,-0.079872064,0.13715889,0.05975395,0.018124638,-0.13020502,0.027775634,-0.11639319,0.08033853,-0.12853342,-0.01203095,-0.0005041206,0.0855431,0.112646535,0.024819752,-0.0130811855,-0.041663673,-0.09825848,-0.03225912,0.06282546,0.13068187,-0.11458845,0.092691936,0.026742939,0.08223382,0.07789218,-0.015756844,-0.10905698,-0.09178564,-0.012212077,0.02227965,-0.12908144,-0.03895155,0.09773915,-0.020300472,-0.033137605,-0.09661245,0.09812345,-0.10652195,0.07598855,-0.006108021,-0.019601287,-0.061690636,-0.1249475,0.11298475,0.10204067,-0.10753653,-0.1324111,-0.037368637,0.0817897,0.042705256,0.027172595,0.049295392,0.015364392,0.095529124,-0.038790867,-0.06397377,0.07919973,-0.06277439,0.13208094,0.0174329,0.02755573,-0.043707035,-0.117324695,0.09827012,0.11258724,0.1149546,-0.063362174,0.0062440145,0.07610193,0.10757964,0.0067298776,-0.080854796,0.10106026,0.010610037,-0.14448301,0.0772238,-0.037453998,-0.07679491,-0.08311402,0.029684307,-0.03642306,0.0398093,-0.09258412,0.035124775,0.10994376,0.13533548,0.0034755836,-0.089058265,-0.024241168,0.027866106,-0.094558,0.012610161,0.07942351,0.13377477,0.11938868,0.10007285,0.06465533,-0.13494907,-0.008819076,-0.17276832,-0.057535317,0.021694714,0.15290534,0.12326457,-0.03872734,-0.13518062,-0.12104752,-0.06463643,0.020970058,0.08215991,0.089179814,-0.021947699,0.007206861,-0.11855213,0.06543191,-0.014291736,-0.09197509,0.008845123,0.13782558,0.05045531,0.023891846,0.10206248,0.040953476,0.046978112,0.103087366,0.1094352,-0.079010785,0.031880993,0.04151789,0.10461431,0.0038581844,0.0062255273,0.010817156,0.10085762,0.033201035,0.016121719,-0.016767198,0.11758825,-0.06835199,0.019433757,-0.05633896,-0.052347314,0.10923957,0.0978823,-0.05014254,-0.0073040505,-0.06688131,0.107521355,-0.11712763,-0.09898117,0.083788924,-0.04221774,0.06621415,0.003924113,0.030972969,-0.12475248,0.088438675,0.048974622,-0.04358881
20,-0.12100991,-0.06225851,-0.092662334,0.026240936,0.078397416,-0.08441932,0.116796695,-0.09892422,-0.06405519,-0.01560403,-0.19682923,0.0431136,-0.09120502,-0.12358747,-0.09704713,0.10450519,-0.10040015,0.07485201,-0.12483947,-0.05374963,0.12694618,-0.0031151648,-0.07847539,-0.09637937,-0.07427887,-0.089471586,0.03920753,0.046452746,-0.10462758,0.07526414,-0.01665404,-0.09366987,-0.08674566,0.006923682,0.09776256,0.10370071,0.081331976,0.13084772,0.054040033,-0.037162054,0.075396806,0.055204824,-0.12471353,-0.06425423,-0.06490656,0.115891576,0.09926315,0.021723855,-0.025851766,0.004293113,-0.116084285,0.013593927,0.06845856,0.059344254,0.13325351,-0.094225205,0.00575827,-0.005421014,-0.06920229,0.0686413,-0.009174396,-0.085611865,0.07425173,0.031395286,0.009723387,-0.027459247,0.044737794,-0.11940084,0.11101856,-0.08510935,0.1380643,-0.11659331,0.090378374,-0.08660201,0.031026527,-0.14059363,-0.095526576,0.064412,-0.059232693,-0.168068,0.065120146,0.007329107,0.097293586,-0.057383064,0.015157544,-0.015720576,0.1695448,-0.13176163,-0.042564467,0.088523105,0.06395201,-0.038646415,-0.04173106,-0.13560107,-0.08391832,0.012824781,-0.028964061,0.04437228,-0.12179964,-0.07741207,-0.03720125,0.026944686,0.056572765,0.08067356,0.07789098,-0.061620213,-0.0052922526,0.05185942,-0.08622266,-0.07311416,-0.050947037,-0.045570813,0.075464986,-0.020700797,-0.11180367,0.10307127,-0.04941436,-0.035464816,-0.0693889,-0.09039516,0.036428,-0.09547397,-0.1153303,0.08225063,0.05731143,-0.12558632,0.057849564,0.08487047,-0.24658176,-0.03171746,-0.044760406,-0.13850956,-0.066714525,0.07675422,0.059253633,-0.05300169,0.12846896,-0.0048617017,-0.025373345,0.08030465,0.13398269,0.10041497,-0.0579248,0.07811672,0.11875209,0.07958013,-0.10223623,0.039175667,-0.07860699,-0.07343578,-0.01903729,-0.121814124,0.09393827,-0.13144301,0.093662865,0.0390162,-0.043773144,0.0546687,-0.07540438,0.028383901,-0.06576007,0.117211044,-0.025343943,-0.039413616,0.083520055,-0.11195817,0.03831832,-0.058379892,-0.06947471,0.0425854,0.1645631,0.09484118,-0.07014022,0.032360423,-0.012190401,-0.096531205,0.057004213,-0.11918936,0.09281407,-0.07451317,-0.07932494,-0.022744272,-0.04475552,-0.07365731,0.06784397,0.03338091,0.06508938,0.015895054,-0.03385544,0.025487822,0.09934539,0.20284687,0.13864303,-0.029057743,-0.047760203,0.026583718,-0.108804554,0.034331277,0.045199152,-0.08573732
21,0.1858432,-0.019394355,-0.13617723,0.0068958555,0.019236643,-0.13248536,-0.10713158,0.09786914,0.10742128,0.09866139,-0.10604593,0.052866112,0.121581204,-0.030313795,-0.09213555,0.056723278,0.105815396,-0.12760447,0.05855673,-0.07445364,0.060911722,0.07480967,0.14314106,0.104673006,-0.038373906,0.01201895,0.11555449,0.053135164,-0.047316235,-0.08471819,-0.12272647,0.014163807,-0.025579607,-0.08938263,-0.09027231,0.034733478,-0.010547489,0.0601563,-0.06964842,0.0098861335,-0.049265966,0.12137547,0.06033133,-0.088902056,0.03980128,0.061271794,-0.048154555,-0.04406198,0.058306545,0.0541786,0.13764004,-0.10023329,-0.0025994724,0.06430687,0.061169118,0.050109953,0.059710972,-0.05089087,-0.124595374,-0.0955519,0.037934594,0.024994196,0.0818245,-0.09393547,-0.04979919,0.025829729,0.12154811,-0.04351236,-0.08759365,-0.0067386003,-0.057475112,0.065981224,0.059958067,0.08775926,0.036573477,-0.039318312,-0.060612943,-0.09231868,-0.10863259,0.02243348,-0.04403986,-0.060335796,-0.032551896,0.13174488,-0.050488923,0.06860589,0.0824991,-0.11296057,0.11693977,-0.030144554,0.043959275,0.10995677,-0.14212713,-0.026096296,0.09820594,0.0986259,-0.09060306,-0.09189222,0.000948,-0.011168128,0.08408864,-0.06806209,-0.029298034,0.07850818,0.06313024,0.027815776,0.08196725,-0.026269002,0.11632196,0.07008342,0.028164936,-0.0690722,-0.129855,-0.09700456,-0.07567504,-0.023373835,0.06394208,-0.025201833,-0.009080102,0.004194461,0.10162049,0.057474256,0.010287193,-0.13407609,-0.088877834,0.03705426,-0.067042254,-0.018345175,-0.114893205,0.054687165,0.12660053,-0.03228653,0.04189719,0.06845867,-0.033229474,-0.029732052,0.012370813,0.023935156,-0.03878293,-0.014879052,0.07009448,0.034477152,0.04449148,-0.12984124,0.052501548,-0.11125653,0.09967448,-0.050432287,-0.055607483,-0.08187476,0.07073167,0.07978804,-0.11596831,-0.12917145,-0.09161016,-0.014445609,0.077054285,-0.09787948,-0.00947868,0.11531352,0.023427121,-0.10561721,-0.09247173,-0.025831869,0.020567983,-0.017449444,0.009173492,0.086133085,0.12974377,0.009463891,0.14082985,-0.08309892,0.08296436,-0.0742677,-0.030416075,0.12105436,-0.042582713,0.061741,-0.03661902,-0.0036485028,0.10364873,0.032675393,0.07749099,0.115709186,-0.12010132,-0.08909804,0.12319385,-0.08709175,0.09639605,-0.033633456,0.07521537,-0.08270654,-0.12897848,-0.030035557,0.120700404,-0.008242567,-0.092799224,0.05263111,0.04779607,0.12938307
22,0.06302643,-0.05503671,-0.10253183,0.08459428,0.054204952,0.031854495,0.0054550925,0.037265383,-0.108913556,0.07988571,-0.08903226,-0.045544032,-0.037201293,0.029451184,-0.070421,-0.0051799286,-0.08586537,0.056292437,-0.15583292,0.089691624,0.014702021,-0.078237794,0.1192849,0.038193464,-0.13124971,0.004889183,0.075194836,0.13221844,0.07710394,0.105006926,0.011195074,-0.013029018,0.15353061,0.020670744,0.04803939,0.080274366,-0.12988542,-0.1410652,0.124112606,-0.012316519,0.12446707,0.066245556,0.08387157,0.038517725,0.077675976,0.12461409,0.095953174,-0.004148459,-0.060048055,-0.13444474,-0.10465832,0.03335227,-0.08727354,0.089383006,-0.09377764,-0.1056908,-0.032945585,-0.13056916,-0.013063015,-0.13584433,0.0069016367,0.07470405,0.11722961,0.051982656,-0.07293108,0.094500154,-0.013298827,0.06997363,-0.027033769,0.08885891,0.12518302,0.08691006,-0.015710661,-0.07250329,0.025957575,-0.030696254,0.028123176,0.037124056,0.030125074,0.040316254,-0.05966572,-0.0331638,0.07306314,-0.06877779,0.08772897,0.0065978006,-0.018737677,-0.13588315,0.013003616,-0.067071594,0.04271018,-0.056332868,0.13255483,-0.02260571,0.050288774,0.04831819,0.11855051,0.065198,0.04432312,0.0077061118,-0.069984525,-0.094498895,0.05405385,-0.09938331,-0.07833078,0.15326606,-0.14480564,-0.112539515,-0.013907111,0.14168075,0.081100434,0.068333596,0.027956782,0.083090544,-0.02725682,-0.012942391,0.012335199,0.08507182,-0.012692604,0.14677092,0.06771877,0.13720185,-0.022699662,-0.047436077,-0.098675616,0.07267103,-0.1104425,-0.051897746,-0.04121747,0.12530878,-0.013472812,0.05240942,0.0915729,0.00077348674,-0.11858491,0.059682664,-0.03603263,-0.037627522,-0.08955453,0.11754044,0.07639217,-0.0693996,-0.0068387687,-0.034375213,-0.072906636,0.09766306,-0.01860589,0.097076066,0.0036191782,0.027734326,0.055533107,0.0067589865,-0.070631675,-0.00020265949,-0.11628187,-0.058332693,-0.052894726,-0.07924161,0.14729093,0.015228587,-0.053210884,0.016588354,-0.027697911,0.09009286,0.09192683,-0.04673299,0.0749593,-0.07359016,-0.12585203,-0.12931332,-0.05716401,-0.11520532,-0.12748457,0.06397386,-0.010021328,0.06691084,0.15301004,-0.12855841,-0.009555628,-0.120284274,0.013941062,0.108897,0.0035831816,0.118874915,0.082075566,0.11728189,0.033851154,-0.049627393,0.033319242,-0.082767695,-0.11226666,0.123366244,0.13424338,-0.060351312,-0.124411866,-0.051185004,0.021475982,-0.07205438,-0.14758797,0.12269781
23,0.12154356,0.028939964,-0.08800719,-0.052433904,-0.07673364,-0.047442354,0.060196348,0.06655293,-0.13546197,-0.09011502,0.09955152,0.037799582,-0.11608228,0.14611389,-0.0939137,-0.007671,-0.029253129,0.05868126,0.08472967,-0.09083218,-0.096852,0.0750174,0.12918352,0.12411719,-0.15465409,-0.08679678,0.09796354,0.111105405,-0.103423685,-0.11731417,0.086998105,-0.08426121,0.12094463,-0.12523729,0.1512823,0.057776038,-0.08830668,-0.020777483,-0.09004203,-0.021824745,-0.12928896,-0.11479718,-0.11736633,-0.097595744,-0.034399215,0.060038876,-0.036683388,-0.029018564,0.07176521,-0.111747466,-0.1340733,0.091183625,-0.08672891,0.06117456,0.03947748,-0.010975284,0.103459775,-0.13084614,0.06933809,0.10528256,0.02650583,-0.05403354,0.12113218,-0.09249972,-0.11533982,-0.0810611,-0.11599299,0.072984,0.09165856,0.057396207,0.13988979,-0.100975595,0.01934111,0.089019895,0.11991475,-0.0814957,-0.054619938,-0.050041754,0.1362579,-0.018227808,-0.028287822,0.06601362,0.03078093,-0.11003438,-0.041066587,-0.0005486463,0.10392791,-0.12445279,-0.07618786,-0.052350625,-0.11398128,-0.13828439,-0.007859664,0.106088735,-0.13382572,0.04436374,-0.12260721,-0.06472276,0.013968185,0.07830017,-0.10318958,-0.04844833,-0.015067838,0.07427232,0.005846763,0.12763295,0.10442871,-0.11462588,0.039293673,0.11338994,-0.06579713,-0.01656134,-0.0630186,0.009339059,0.06778055,0.10074824,0.09390664,-0.033808205,-0.05572405,-0.02164836,0.06970852,-0.097482726,0.06539273,-0.01655141,-0.05376723,-0.016838908,0.0002393227,-0.06212062,-0.080961645,-0.030382203,-0.07654411,0.1482075,-0.012360989,-0.10579433,0.022428744,0.037247524,-0.00023920293,-0.11837738,-0.049267504,0.029745001,0.06972224,0.11743422,-0.0021670673,0.09769036,-0.024139935,0.0899108,-0.087964065,0.12822266,-0.075952865,-0.11046583,-0.044182207,-0.009168071,-0.10449503,-0.0077319853,0.14002578,-0.10862606,0.1142874,0.03929557,-0.069649056,0.118124254,0.038412157,0.10138101,0.0011406468,-0.10500863,-0.050424412,-0.13264172,0.023610977,0.12836133,0.042849746,-0.13337408,-0.100030795,0.080453254,0.058665574,0.064676896,-0.038201816,0.1455325,0.08246088,-0.0071005872,0.09374398,-0.051618546,-0.0026954757,0.038616862,0.08504673,-0.06447522,-0.015206154,-0.12657581,0.1397358,0.0033196185,0.10633474,0.015723296,-0.03247755,0.165918,-0.042849973,0.10433914,-0.105956435,-0.0077021294,0.12849878,0.045201857,0.06164001,-0.02438223
24,-0.023596494,0.094410494,0.056968164,0.11197457,-0.07950507,-0.016792497,0.11102842,-0.0158253,-0.10712325,0.124609925,-0.09793802,-0.028934468,0.12713976,0.012013088,-0.13533583,-0.17398944,0.031378314,0.10568221,0.075147636,-0.10879131,0.13845421,-0.052952882,-0.014880137,-0.08232894,-0.11448118,-0.038507685,0.057793517,-0.04429316,0.019016596,-0.05502067,0.06918653,-0.009427607,0.08734643,0.07258234,-0.00332471,0.08171906,0.08476945,-0.065338165,0.062082455,-0.063052006,-0.09962252,0.042747412,-0.028218636,-0.07368044,-0.112013906,0.04746406,0.007127287,0.090747066,0.014872031,0.10463263,0.103785895,0.03303894,-0.031587586,0.09011172,-0.05797135,0.07991234,0.028439855,-0.046161953,-0.06593643,-0.0009915883,-0.09933327,-0.04553029,-0.04786263,-0.10553768,-0.047516044,0.0756856,0.11496116,-0.080054425,-0.043634735,-0.02009146,-0.07766456,-0.052010935,0.12788999,-0.04181389,-0.072387375,-0.08560528,0.10577901,-0.06940008,0.042779386,0.064727806,-0.061816406,0.101237245,0.07067397,-0.02275802,0.020149227,0.09926884,0.04153031,-0.11192924,0.030867798,0.11492248,0.11464884,0.0144433975,0.052731346,0.000752954,0.042398464,-0.096741706,-0.00052638043,-0.054275326,0.08895739,-0.049680933,-0.07991796,0.09077321,0.092803456,-0.122433,0.024933375,0.112247415,0.0512698,0.02446685,0.05467103,-0.034964163,0.0019495172,-0.1352589,0.12055105,-0.15248081,-0.0136648975,0.01750607,-0.07589004,0.091869615,0.1000813,-0.08032539,0.0026704003,-0.029517628,-0.06688339,0.065715335,-0.094103,-0.045736983,-0.068644054,-0.078447126,-0.15301065,-0.0754531,0.012402452,0.020355642,-0.14726196,-0.04446732,-0.07396829,0.036519196,-0.0463996,0.028937597,-0.028404675,0.030268889,0.09501983,0.008134776,0.010415334,-0.07051157,0.06716362,-0.011562501,-0.06755525,0.019134257,0.103697136,0.045013484,-0.096755765,-0.12679885,0.013202326,-0.05442478,-0.08741192,-0.10792898,0.064144075,-0.12670298,0.07832266,-0.04841568,0.069267504,-0.056547586,-0.0022085414,0.11038365,-0.016518107,-0.20302232,-0.0038441373,-0.12450309,-0.040512722,-0.054997344,0.09964335,-0.015037986,0.028483387,-0.017632173,-0.10109102,0.09628799,0.03728925,0.10584409,0.12121211,0.0505518,-0.09674622,-0.03533472,0.025331432,0.0216313,0.08611778,0.02586388,-0.031932037,-0.06343491,-0.1316583,0.13750547,0.105787635,0.035580814,-0.061527878,-0.11782773,0.024011074,0.066331826,0.11073156,0.1244814,-0.0018643992,0.021878486
25,0.10276868,0.061363705,0.06966632,0.12746142,-0.14448436,0.059540488,-0.026370954,-0.03576231,0.020426475,-0.13146614,0.03959425,-0.002269834,0.0016359078,0.0006021506,-0.01581667,0.063260905,0.037077367,0.075595856,-0.0876709,-0.16803169,-0.008415692,-0.14529093,0.049577016,-0.05207866,0.11587745,0.008790982,-0.060400892,-0.055375285,0.007105247,0.057837784,-0.077927366,-0.069939576,-0.062272545,0.006949564,-0.057545148,0.08979991,-0.08104744,0.09635102,0.054404657,-0.09117049,-0.10863904,0.06411062,0.12963814,0.053323608,0.10949915,0.062119015,-0.0093749575,-0.13424042,0.05234666,0.081619054,0.012745875,-0.0180305,0.09391721,0.06886248,-0.011100668,-0.06072049,-0.10126457,0.03358104,0.08825558,0.10495262,0.021856694,-0.10346769,0.055834755,-0.110277615,0.07112487,-0.13704902,-0.11714397,-0.08672408,-0.068608895,0.056553386,0.025792858,0.09524961,-0.022718564,-0.0065810014,0.029052485,-0.12356671,-0.028034199,0.0719209,0.012542987,0.09459308,-0.07826726,-0.054194998,-0.07652804,-0.0048916526,-0.08640744,-0.038596805,0.0265966,-0.11401527,0.024346242,-0.09522507,0.01818461,0.030197734,-0.012036705,0.1077351,0.045999553,-0.061279844,0.047914356,-0.042348262,-0.09663159,0.09853409,0.0912108,0.025291989,-0.05633038,-0.008973069,0.07342724,-0.016678356,-0.09231573,-0.11351698,0.07699748,0.07550479,0.07966846,0.03062976,-0.08061305,-0.117145225,0.099230394,-0.073206194,-0.008236107,0.12030691,-0.00664324,-0.1343599,0.026896771,-0.11210177,0.12518762,-0.058138672,-0.09428472,-0.117393,0.084340535,-0.12625064,0.07516476,-0.04347025,-0.02541016,-0.03004237,0.00171527,0.011329645,0.08893779,-0.032301493,0.089002825,0.021486728,0.059241604,0.02117031,0.1168439,-0.072317235,0.116367795,0.007930074,-0.060927425,-0.10797309,-0.080106,-0.02094617,0.07450938,0.10808337,-0.0517756,0.09103034,-0.08263646,0.13184837,0.0823932,0.019767096,0.05090526,0.04931829,0.02390493,0.115776524,-0.12632439,0.10287963,0.085282505,-0.11086323,-0.067583874,-0.0026630391,0.06401551,0.039091755,0.026907938,-0.13016592,0.13498019,0.022576733,-0.13838102,-0.11224443,0.109463334,-0.081788585,0.0084128985,0.09196545,-0.008497419,0.058651637,-0.058731772,-0.055502836,-0.058967087,-0.040931083,0.049613196,0.050543252,-0.02010002,0.037780873,0.086950354,-0.023000546,-0.048528377,-0.12719998,0.06871142,-0.057973187,0.058822956,-0.010636551,-0.07722969,-0.14168963,-0.0859579,-0.06032368
26,-0.059713356,0.007009832,0.0993817,0.04352045,-0.12525442,0.096519485,-0.12370291,0.082798995,-0.08652755,0.06004083,0.002944609,0.014898174,0.11173682,-0.012631535,0.058120586,0.056944616,-0.09831993,0.16609521,-0.07381948,0.072831444,-0.11255839,-0.02771946,-0.12509502,0.09651545,0.019471802,-0.079053454,-0.100149915,0.11337034,-0.055650793,0.11265929,0.05379853,0.042350233,-0.03620699,-0.13250811,-0.11665596,0.12451063,-0.004222891,0.12107292,-0.082413934,0.067806736,0.13568275,0.11633329,0.12083425,0.13022223,-0.0025073197,0.06519849,0.1278112,-0.13662103,0.082895905,-0.05706055,-0.061130393,0.084536575,0.065982014,-0.0063492274,-0.007930633,-0.055716254,-0.113359936,-0.094340086,-0.039445184,0.06936717,0.036148056,0.03187857,-0.07449249,-0.021499444,0.0044062976,0.099204585,-0.01141207,0.1071686,0.10123999,-0.0007119693,-0.06429645,-0.047162008,-0.026246578,0.068518996,-0.04162887,-0.04410633,-0.014934045,-0.11992476,-0.08813358,-0.069593705,-0.043535866,0.08095225,0.097681634,0.13248055,0.05038977,0.009091848,-0.08714734,0.05374278,-0.050718535,0.00056615303,-0.04697468,-0.0493471,-0.068989284,-0.04145359,0.13183965,0.12578309,-0.10010954,0.0411104,0.10262948,0.036375128,0.10622587,0.015925689,0.0838661,-0.06753856,-0.034325887,0.037641298,-0.07929545,0.052283637,0.023040412,-0.09008722,-0.04801212,0.02112059,0.13219154,-0.1027999,-0.08916561,0.0702393,0.13328269,-0.029969059,0.039886303,0.054537266,0.06377675,0.067266285,-0.035023097,0.017652983,-0.04099924,0.0009445359,-0.08496223,-0.13198863,0.04832704,-0.0049129594,0.055768184,0.058076378,0.010671835,-0.07025042,-0.08409203,-0.042234752,0.014125979,0.11319656,-0.031498622,-0.13607958,0.046441462,0.053454187,-0.10862109,0.014761489,0.08135435,-0.057078224,-0.008207855,0.0062156217,0.13784054,0.09606499,0.017753094,0.067222096,0.11567712,0.000121806,0.024376826,-0.04479224,0.06468811,0.08946126,0.0135376705,-0.013208201,-0.0699102,-0.01569566,-0.1128127,0.08061424,0.12492007,0.122964464,0.06367395,0.011919632,0.1115521,0.09943825,-0.122695975,-0.112254925,0.00044723964,0.05662367,0.05655783,-0.04531707,0.0056021297,0.05096962,-0.022770483,-0.12450773,-0.0092804255,-0.12309898,0.08923833,0.108622484,0.008206079,-0.05112368,0.04934018,0.08409887,-0.1324617,-0.00061095634,-0.116309054,0.053376734,-0.0773339,-0.06630564,0.054131616,0.07574747,-0.042717706,-0.13028651,0.043702107,0.019140748
27,-0.04651232,-0.06970025,0.13846481,0.117649674,-0.11390276,-0.05614423,0.11841674,-0.13116753,0.005625725,0.019369576,0.06820793,-0.115817316,0.040816825,-0.10137014,0.07381033,0.12703638,0.08671893,-0.03850117,0.11883226,0.097974345,0.04614028,0.09099738,0.03868828,0.03796315,-0.030014776,-0.03709358,-0.07548866,-0.12569922,-0.052962076,0.14259881,-0.051605713,-0.023328198,0.052883238,0.013717341,0.033453103,-0.00200899,0.07755051,-0.09256327,-0.026883949,-0.07038749,0.036914043,0.041859444,0.12603036,0.1173053,0.012444971,-0.10039984,-0.11224489,0.040754702,-0.04888141,-0.00077502447,0.09678444,-0.055618558,-0.0628696,0.04663322,0.070098996,0.009433371,-0.13309722,0.00235281,0.13262792,0.07284709,-0.13627926,-0.14236774,-0.08857654,-0.00052380405,0.098647214,-0.08093612,0.0069551845,-0.12544958,0.04869492,-0.014275936,-0.13118301,0.049028307,0.1180807,0.07290088,-0.1176843,-0.008652023,-0.04592894,-0.04278158,0.053308953,0.10097768,0.004506245,-0.12458483,0.0012685206,-0.07531518,-0.05974208,0.120718785,-0.020276714,0.13579212,0.06115596,-0.13883099,-0.075345084,0.06504679,-0.10592101,0.05568569,0.06151126,-0.05901968,-0.060514625,-0.05317286,0.036647648,0.016136238,-0.12396691,0.029147029,0.10079883,-0.0802503,0.1005835,-0.10894724,0.10563658,0.10849698,-0.14101645,-0.11093076,0.05392982,0.06316639,0.024881683,-0.14800192,-0.02263405,-0.11061849,0.070125856,-0.00828487,-0.068293765,0.1496493,-0.03624784,-0.11053618,-0.10944824,-0.13943173,0.10608726,-0.0625932,0.04292307,-0.060522515,-0.05287567,-0.05866563,0.09381455,-0.09915888,0.100435615,0.07015879,-0.049477123,-0.0161983,-0.068558365,-0.0061177006,-0.078143366,-0.10924539,0.039139837,0.04491972,0.0962924,-0.10715786,-0.06849686,0.005181046,-0.0024192077,-0.11213419,0.09723706,0.039557684,-0.008758679,-0.027211184,-0.10359794,0.045659274,-0.12826502,-0.04497101,-0.0834296,0.011856825,0.06650434,0.11173067,-0.12151424,-0.104966395,-0.10813616,0.03994716,-0.04623008,0.12092674,-0.11936483,-0.07697694,-0.009707585,0.09156059,-0.10287122,-0.06485765,0.0841772,0.089696266,-0.068410054,0.0067933104,-0.040789906,0.07826287,-0.12675743,0.10613796,0.05255039,-0.029157046,-0.0011998278,0.101241454,-0.106047854,-0.11669422,0.10730047,-0.015906468,0.05141232,0.075263456,-0.10609053,-0.08850228,0.0087752305,0.054263107,-0.06917009,-0.011306646,0.056287777,0.04235235,0.029064953,0.0064903204
28,-0.038852427,-0.0686273,0.10962838,-0.03510062,-0.15754841,-0.0049000606,0.101370715,-0.13646467,0.11496757,0.12983921,-0.10054023,-0.15209334,0.021389954,0.076857276,-0.114681125,0.13290669,0.05130146,-0.037827134,-0.07752607,0.015090542,0.034425683,-0.12960432,-0.013018018,-0.057817806,0.07479618,-0.08382039,-0.0029637276,0.037183598,-0.046440452,0.06906089,0.08157022,0.14196014,-0.070608355,-0.09680407,-0.07572584,0.12396385,0.11449582,0.11373887,-0.033782355,-0.11677453,0.03568829,0.10166259,0.114385664,0.011733932,0.0128486175,0.010008636,-0.16672784,-0.06803825,0.02962484,0.0147298,-0.09259959,-0.071044356,0.0580589,0.014812615,-0.06941691,-0.11725937,-0.08460415,0.07130301,0.08611811,0.07751005,0.044084825,-0.07287672,0.0054433867,0.079334386,-0.115765296,0.02736189,0.008539197,0.06706906,-0.13015851,-0.105464265,-0.05823528,0.0752226,0.10683868,-0.0013774814,-0.110102735,0.07426103,-0.12695092,0.014911033,0.016237954,-0.1149977,-0.095424466,0.12770389,0.0012989959,-0.051222365,-0.092675716,0.022901619,-0.100884356,0.010014194,-0.07840689,-0.08473596,0.052561227,0.0061071482,0.034601074,0.057178777,0.092218995,0.0014471543,-0.015762724,-0.015746674,0.048317317,0.07852878,-0.11260563,0.07442588,0.082663074,-0.0730535,-0.086459674,-0.11059202,0.02213564,0.089426965,0.07342358,0.09492226,-0.07222182,-0.060454447,0.030632852,-0.045287345,-0.09957817,-0.1399838,-0.06905853,0.122444235,0.03820164,0.10293303,-0.034737293,0.004338614,0.026464384,-0.11736757,-0.029910441,-0.057363417,-0.1114023,0.13295479,-0.13701807,-0.05662583,-0.01104572,-0.039002884,-0.0752142,0.058506794,-0.11175341,0.12019268,0.10725458,-0.082245044,-0.06814415,-0.060933273,-0.036792908,-0.11619304,0.042532317,-0.06821251,-0.013568166,0.041175384,-0.067521855,-0.14683919,0.03207149,0.10962136,-0.07078358,0.13297147,0.05060649,0.08712932,-0.022555701,0.13732444,-0.10599194,-0.046481527,0.07766534,0.07862416,-0.038030036,0.09567521,-0.13696086,-0.007372817,-0.096935846,-0.04697978,0.0072237183,-0.13466616,0.038135417,-0.11263266,0.014523488,-0.109179094,0.12344483,0.1276238,-0.099930555,-0.0039401883,0.0026057623,-0.027323436,-0.03242167,-0.009125791,0.017656785,0.0605389,-0.020051667,0.06375058,0.1208751,-0.09618096,-0.06622229,0.053142887,-0.050142217,-0.106508195,-0.0043416824,-0.13883138,-0.12392227,0.06301642,-0.07025974,-0.14650093,-0.07444687,0.104698904,-0.008438215,0.09932819
29,0.09181843,0.12293931,-0.050338957,0.033796124,-0.060373865,-0.00049449154,0.05678548,0.0085211,0.03046764,0.09441973,0.007167135,-0.06358095,-0.09833884,0.108853064,-0.044328228,-0.1531523,-0.03591027,-0.06370424,0.11722099,0.05200697,-0.03721015,0.033540335,-0.0149727585,-0.14339691,0.034827676,-0.11556589,0.075032495,0.019129809,0.07665861,-0.080836244,0.016200589,0.026265135,-0.013338357,0.08838632,-0.025517555,-0.13769707,-0.0101139825,-0.01228013,-0.0050031254,-0.08578778,-0.109891675,0.1331216,-0.028118648,0.028930545,-0.124385014,0.08371906,-0.07512623,0.061808158,0.02159096,0.012515825,0.06533281,0.11619779,0.12822579,0.09212365,0.120675616,0.062219977,0.10721558,0.14362209,0.13758121,0.02070958,0.11862331,-0.068393365,-0.025594233,-0.06825882,0.103649005,0.016985523,0.093778476,-0.074739374,0.01484364,0.06610016,-0.12840326,-0.013847131,0.07895849,0.03456829,0.10573589,0.052681815,-0.044417832,0.09008737,-0.063366815,-0.024896484,-0.114815615,0.1017453,-0.036269277,0.104220405,-0.043116115,-0.08712847,-0.010506684,-0.035277203,0.0020894867,0.12507981,-0.0442042,-0.0033980834,0.13935572,-0.091418155,-0.0541009,0.035740428,0.11150358,0.054265507,-0.00933003,0.0121591445,0.0886501,-0.111390695,-0.12953547,0.027480409,-0.077815145,0.011671673,-0.14036207,-0.1321545,-0.028344456,-0.088655055,-0.07011403,0.03307988,0.056855205,-0.11756686,-0.015299495,0.059189107,0.07180077,-0.078774706,-0.09837435,0.121121585,0.13404387,0.050258048,-0.02026938,0.083650365,0.0017845156,0.06515684,-0.0883355,-0.013256879,-0.116210416,-0.031667523,0.12502547,-0.016986283,0.1440685,0.08637969,0.11128928,0.10499519,0.05105346,-0.08804982,0.026751008,0.009108941,-0.05213102,0.08704158,0.08070869,-0.06816237,0.04153664,0.06416431,0.004769025,0.11466173,0.057212148,0.032731064,0.04360297,0.087994166,0.071181156,-0.09784471,0.016538553,0.09232984,0.09068805,0.031285476,0.072306655,-0.12764893,-0.10357008,0.12734233,0.027428947,-0.013207745,0.08305203,-0.024237677,-0.1294025,-0.08510808,0.13104305,0.035611637,0.030411527,-0.05698675,0.014386516,-0.071697034,0.046936207,-0.061425984,0.033646703,0.11474164,0.037618633,-0.09900612,-0.13537394,-0.11468485,0.12000527,-0.11321862,-0.117264375,-0.02662749,-0.12085549,-0.08587303,-0.023719953,-0.09233587,-0.066140294,0.04578276,0.00017405041,0.12937613,0.07519297,0.07198662,0.018815603,-0.06682997,0.07652991,0.041797996
30,0.15020083,0.11405604,0.09434459,-0.051853072,-0.042695634,-0.037023574,0.08047472,0.11418422,0.13124625,-0.051512796,0.088575974,-0.104020886,0.08244396,0.08705589,0.04190078,-0.09725668,0.11705456,0.016909199,-0.008515583,0.133195,0.04428436,0.110858366,0.018197784,0.011183183,-0.15214202,0.029858146,0.12424585,0.052239772,0.15519498,0.09321321,-0.0403621,0.051895283,-0.09233301,0.09545222,0.12929167,0.06755166,0.084380604,-0.116687156,0.06775011,0.003454665,-0.04232018,0.017433783,-0.0063123745,0.098502,-0.1004186,0.028899712,0.09261531,-0.1310946,0.11370043,-0.062576704,-0.044488356,-0.05106637,0.030586118,-0.048058495,0.13927552,0.016522199,-0.11929151,-0.07757566,-0.07489936,0.12392206,-0.087911755,-0.07596564,-0.12122642,0.071509235,-0.06922436,-0.068824746,-0.011629311,0.03900235,0.1231866,0.12041923,0.008442937,0.04430855,-0.05509298,-0.13817224,0.10699487,0.08316141,0.017216671,-0.050126344,0.05292566,0.03167494,0.02519785,0.10515467,0.031021042,0.09716965,0.14004828,0.0808607,0.11430369,0.07284348,-0.12954071,0.0399695,0.039630014,0.017565131,0.0012627498,-0.08037387,-0.07979482,-0.077966124,0.14288701,-0.051362403,-0.06420541,0.050632674,0.044587303,-0.11175354,-0.003594916,-0.11939488,-0.117502876,-0.081373595,-0.119547136,-0.13261549,0.023847792,0.061831273,-0.13065857,-0.018146079,0.16849488,0.036833048,-0.028695436,-0.13332786,0.04426645,-0.11954373,-0.032235846,-0.10796486,-0.088426225,-0.02117514,0.023941506,-0.065942235,-0.073011726,-0.018216027,-0.05961343,-0.057873312,0.14075287,-0.10163838,0.14904858,0.09544291,-0.026750421,-0.12829764,-0.051030695,0.073269755,0.06609024,-0.001854962,-0.07364351,0.16026887,-0.00011488257,0.031619806,0.09404811,0.029762207,0.02543377,-0.10336845,0.0119405445,-0.066445984,-0.10443568,-0.053081553,0.017439267,-0.13220927,0.045294818,-0.006203368,0.040160235,-0.13373505,0.13481128,-0.12935315,0.117651574,0.024261907,0.06930591,0.04038703,0.05119928,-0.026878754,0.11648702,0.034107227,-0.07112801,0.08362645,0.081327856,-0.0126921125,0.122225806,-0.06945281,0.03353175,-0.021248315,0.057363033,0.06948999,0.0021045792,-0.06411082,0.097454004,0.081540145,-0.10676355,-0.12275119,0.10764161,0.0055658026,-0.09120066,0.057264205,0.103625834,0.06748191,-0.12373769,0.010097646,-0.08594097,-0.08669188,-0.055553664,-0.09212312,-0.001543779,-0.012083499,-0.05029362,-0.10723909,-0.02718048,-0.049509708
31,0.116168864,-0.12386444,-0.13023089,-0.008254018,-0.08357403,0.0712169,-0.038064435,0.15521748,0.04551759,-0.07472354,-0.0085824495,0.066700004,0.042254437,0.07949588,0.106244944,0.09676253,0.06280849,-0.10343274,-0.015381358,-0.11849706,0.10569045,-0.08230559,0.130566,-0.10587081,0.010518069,-0.0040967534,-0.07815932,-0.014341872,0.036469392,-0.03512978,0.13518701,-0.077889495,0.107763946,0.05154909,0.060093146,0.04769492,-0.10815217,0.057658985,0.048055105,0.11941758,0.022305561,-0.10214544,0.05180838,-0.123539336,0.11088492,0.0037642487,-0.107973404,0.06145506,-0.13199514,0.06504607,0.056369122,-0.10346313,0.10450176,-0.011561477,-0.06700847,-0.11667913,-0.13970634,-0.07609534,0.061981287,0.106353395,-0.1368912,-0.07572524,0.14483948,-0.056944583,0.07623263,-0.1186293,-0.018205717,-0.0020954453,-0.07108142,0.02291755,0.035118304,-0.09150346,-0.10367969,0.13175677,-0.013673939,-0.13410379,0.08295543,-0.027227677,0.08491174,0.0025732315,-0.12025409,0.06282766,0.08232486,-0.01795199,-0.09887013,0.0369451,-0.035449192,0.13659588,-0.10948561,-0.054810528,-0.038042966,-0.019415846,0.096647605,0.03837982,0.11616168,-0.06335534,0.010031357,-0.017257724,-0.059308443,-0.12530404,0.14087264,-0.06096037,-0.12705411,-0.135302,0.12007708,-0.073261626,-0.06903348,-0.13330379,0.061660603,-0.036045156,-0.07106878,-0.042879,0.088246934,-0.10329133,0.07206238,-0.12148793,-0.09093409,0.023450175,-0.08871198,-0.12548345,0.02436524,-0.012824533,0.08614167,0.10927108,-0.10935432,-0.05540817,0.040586036,-0.043971736,0.011321962,0.003203865,0.12454028,-0.05403845,0.045355663,0.05701858,0.075841844,0.13590784,0.044498686,-0.12151345,0.10112669,0.0018210594,-0.06019808,-0.049736578,0.04156078,-0.10840697,0.0048589846,0.01665371,-0.09508871,-0.10117708,-0.062284786,0.07679292,-0.021684159,-0.022781165,-0.097792625,0.13807423,0.033719603,0.13408312,-0.014630571,-0.060734354,-0.10158533,-0.07743957,0.124696285,0.16826458,-0.03606535,0.07413062,0.06643615,0.051472317,0.12637421,-0.04032274,0.13563253,-0.10337344,0.03887077,-0.06816554,0.11574452,-0.11365039,0.010422335,-0.08537263,-0.038504083,0.050998997,0.065078504,0.015043025,0.03417119,-0.076935664,-0.139503,0.11108521,0.11255442,-0.014519791,0.048901975,0.13108924,-0.13116275,0.13736027,-0.050786473,0.089951724,0.008596879,-0.046958763,0.002391766,0.093187734,-0.11223489,0.06286278,-0.063339725,0.004413163
32,0.14033808,0.050255045,-0.056547876,0.13454492,-0.09905408,0.11156222,0.07378092,0.03294551,-0.052615464,0.047452148,0.14169398,-0.052440856,0.08710393,-0.082324475,-0.067412615,-0.05968554,1.4566965e-05,0.05577248,0.021086857,0.0041845646,-0.121251166,0.054164335,-0.047425788,0.10718144,0.039678525,0.007580533,-0.037912637,0.115894005,-0.029746084,-0.025831271,-0.046473086,0.0013910421,0.020453997,-0.09670029,0.11244342,-0.014433762,-0.07222275,-0.0023799725,0.17212756,-0.0032175854,-0.023681061,0.038463794,0.11790455,-0.13094188,0.056557585,-0.0993613,0.16547544,-0.12244206,0.08183013,-0.07965049,0.07073839,0.07782928,0.048990965,0.12198472,-0.13349651,0.020652631,0.062462974,-0.0766222,0.02444375,0.031680968,-0.12488187,-0.096434966,-0.050963573,0.060444836,0.07912523,-0.10098585,-0.10101934,0.05751507,0.051428586,0.037887227,-0.09735551,0.13481885,0.024379525,-0.08528781,0.12252692,-0.0604914,0.008084475,0.100127265,-0.010555247,-0.022781488,-0.08638115,-0.005865514,-0.102565594,-0.07919181,-0.08815306,-0.12701994,-0.11244776,0.0048043206,0.19384462,0.04551885,0.051513914,-0.016586075,0.06930606,-0.10435848,0.047313485,-0.10184457,0.10527427,0.023807665,0.052864034,-0.037166145,-0.05215631,0.058842648,0.06272295,0.047240525,0.052907664,0.104040295,0.030128371,-0.07473594,0.028600829,0.021449575,0.063134894,-0.030291056,-0.08137537,0.08309678,-0.07327102,-0.22123021,0.050226025,0.11850955,-0.12968144,0.009749627,0.015427437,-0.008144499,0.028950531,0.08638257,0.040439617,0.098620094,0.016053263,-0.058390915,-0.09259042,-0.10026377,0.029018028,-0.10589476,-0.08762885,0.101968504,-0.097501695,0.11781865,0.09452314,-0.028936503,-0.042702824,-0.07180583,-0.15487775,0.0830857,0.053404577,0.0036872448,-0.11340221,0.07275221,0.07680155,0.005303742,0.077396974,-0.05119222,0.08145774,-0.078872174,0.0010432586,-0.0061123795,-0.066901304,0.03224657,-0.0795803,0.011904183,0.037831165,-0.064924784,-0.0056193643,-0.085754365,-0.04436622,-0.055346552,0.08700827,0.050136212,-0.12897742,0.0022791768,-0.034290653,0.05309465,-0.038877185,0.117083594,0.030767184,-0.116285495,0.05404722,-0.12621023,0.12060052,0.019889558,-0.02972047,0.0992811,-0.10369955,-0.03395211,-0.06649519,-0.06723431,-0.08915781,-0.015315386,-0.1355956,0.055803288,0.12389837,-0.1340667,0.081846036,0.08725363,0.037017927,0.094966665,-0.02085673,0.0995405,-0.08596687,-0.062888086,-0.14361033,0.16870303
33,-0.037591983,-0.12859,-0.12553482,0.13068035,0.066868104,0.050031733,-0.10822171,-0.0015859456,-0.086703196,0.10914762,-0.057468757,-0.0071049365,0.021268845,-0.032901708,0.019772429,0.08594655,-0.066053346,-0.0990916,-0.063251674,-0.053313524,0.12068697,0.018699324,-0.052140895,0.1455679,0.12572396,0.12834543,0.042246293,0.00015285294,-0.07282861,0.005860372,0.11173517,0.065102,0.074392445,-0.110121034,0.12685691,0.06976681,0.06308369,0.09122542,0.1365395,-0.12361011,0.011907942,-0.108743414,-0.111251354,-0.030407613,-0.058452617,-0.15258864,-0.02667591,0.1188099,0.12754673,-0.09262849,0.09237964,-0.016476337,0.009423265,-0.09180939,-0.009778588,0.012953051,-0.09595458,-0.08626414,0.09960498,0.10291293,0.107259154,-0.12812568,0.08990066,-0.0589131,-0.12032451,-0.08845584,-0.042324964,0.07070003,0.11849482,0.05809011,0.06689068,-0.13473612,0.036111537,0.014283449,0.08064097,-0.01308963,0.10685231,0.02536487,-0.096176356,0.040002786,0.019865384,-0.03978049,-0.039517254,-0.032483805,0.11308047,-0.037124,-0.038926225,-0.093413666,-0.056362245,0.123621106,0.11021135,0.12512718,0.00992743,-0.06481361,0.067833334,-0.14848317,0.040412992,-0.09871368,-0.0932031,0.05098735,0.0042839954,-0.10403763,-0.03024766,0.12781009,-0.061940674,0.07770594,0.06575321,-0.08933357,0.035972834,-0.056845095,0.050615326,0.025111066,0.022176232,0.10873692,0.08219594,0.0590261,0.031830728,0.016420005,0.12064463,-0.021856755,-0.01600963,-0.09124447,0.10599372,0.041824844,-0.13948365,0.028405333,-0.0070887017,-0.075507574,-0.0520893,0.11900964,0.023710504,-0.06341381,-0.053742666,-0.035850912,0.14076391,-0.0535186,-0.017944016,0.12869246,-0.13568765,-0.014548465,0.09527939,-0.05284769,-0.068172276,0.123231605,-0.014856242,0.03266439,-0.082218125,0.12002682,-0.06262481,-0.11547822,0.08890762,-0.020188317,-0.022397513,-0.07255897,0.014586313,-0.06703643,0.108610824,-0.07952356,0.068550535,-0.020618968,0.060654223,-0.06505507,0.050148647,-0.100440755,0.123956315,-0.035536997,0.101245746,0.055973925,-0.022427928,-0.08044609,0.042237997,-0.11532445,0.08605987,-0.06785372,-0.112985,0.08864428,-0.08476418,0.079076946,-0.017636511,-0.11497744,0.011139352,-0.020622827,0.039566536,0.039991684,-0.017190514,0.05248066,0.06840905,0.11028417,0.08358892,-0.124362975,0.00036697995,0.0043660565,-0.018754033,0.06312598,-0.018475244,0.04047566,-0.008538317,0.0014258376,-0.006081098,0.124435484
34,-0.10524924,-0.03192942,0.10953107,-0.023487352,-0.119786836,-0.11169688,0.00084535364,0.046758253,0.015595957,-0.038055543,-0.032579646,0.06272441,-0.023912078,-0.013724164,-0.07399635,-0.005697682,-0.10151364,0.063687176,0.062213656,0.073061846,0.025859902,0.06497355,0.046970338,0.06259749,0.017062748,-0.08806397,0.044889364,0.062866226,0.12193383,-0.10312518,0.06199736,0.06822723,-0.09826821,-0.0644534,-0.1243033,-0.046827793,-0.108683854,0.101302296,-0.11088644,-0.072503306,-0.07624612,-0.15384488,0.10046166,0.024649095,0.024254885,0.10712476,0.05377861,0.034453787,-0.08726204,0.06171005,-0.10014291,-0.063521676,0.052087035,-0.01122467,0.12088558,0.10665801,0.073724926,0.099751465,0.036730416,-0.10418216,0.0024609256,-0.003675954,0.02260761,0.054957148,0.061571475,-0.015786333,0.050403677,-0.06828814,-0.04991211,-0.03392387,-0.005546551,-0.07079157,0.015655713,0.05501607,-0.037064303,-0.0989941,-0.01981369,0.09648519,-0.0607755,-0.08525992,0.07584771,-0.13058655,0.08246899,-0.14853135,-0.0172952,-0.12054858,-0.1583879,-0.008971199,0.09391628,-0.026090771,0.0743746,0.010520674,-0.10188272,0.08654479,-0.015450372,0.0031138933,0.0076508406,0.085285425,-0.14989477,-0.057762306,-0.102607906,-0.03616898,0.13429573,0.022359943,0.08725911,-0.006368388,-0.095172524,-0.10511644,0.005084495,0.11773861,-0.11634481,-0.005091857,-0.036740325,-0.03150465,0.052508026,-0.07662484,0.0108373165,0.056136478,-0.021677565,0.09390657,-0.055895753,-0.059954554,0.12144699,0.11358445,0.1334817,-0.105427645,0.10482235,0.035183262,0.02355345,0.0046131983,-0.033962008,0.099724844,0.055716563,0.04565183,0.10316949,0.06873126,0.0328031,-0.06434539,0.12901402,-0.03519787,-0.017255766,0.06392481,0.10637251,0.13759579,-0.108013764,-0.018238747,-0.095478326,-0.11568755,-0.09290712,-0.033805523,-0.075373344,-0.06906359,0.08780209,-0.03773729,0.05381073,0.095478415,0.03003142,0.11225045,0.039249312,0.017695636,0.0895629,0.014733727,0.04955149,-0.041395918,0.08254282,0.07258568,-0.061068382,-0.08179789,0.05282199,-0.04749029,-0.09583525,-0.012508375,-0.10108515,0.10716115,-0.10372535,0.044119753,0.046688844,0.1265249,-0.125536,0.04168299,-0.11325091,-0.0073414277,0.06338917,-0.05411792,0.08242926,0.03378405,-0.13712406,-0.13237402,0.04284805,0.041038595,0.04055143,0.026521396,0.109816104,0.04100352,-0.10499314,-0.05387323,0.008928737,0.101873904,0.09350689,0.0050423355
35,-0.010484353,-0.036240842,-0.09216342,0.13939154,0.016570318,-0.035570946,-0.015069727,0.0299952,-0.12377593,-0.117282584,0.030913915,0.05353372,0.0883167,-0.009134048,-0.0650509,0.0073927282,0.011211815,0.14164305,-0.047981996,-0.08635207,-0.028298635,0.061527565,-0.11440111,0.15135671,0.08908129,0.03231899,-0.07727841,0.020405808,-0.09128716,-0.028452277,-0.14474174,-0.009603384,-0.09027532,-0.11018071,-0.122594334,0.037768796,-0.029717768,-0.12347362,0.028082306,0.11880241,0.00126568,0.008117193,-0.07109722,-0.10258479,-0.013690294,-0.16562937,0.11201782,-0.031163303,0.026259279,-0.12721634,-0.045840885,-0.08246663,0.04755646,0.11989716,-0.058097467,0.123497546,-0.13425636,-0.0195943,-0.037589822,0.05688721,-0.13077976,-0.074489065,0.0795994,-0.08913379,-0.058336988,-0.11849838,0.0024396766,-0.1096846,-0.11599503,0.07036803,-0.034223843,0.10926792,0.04897684,-0.01344637,0.04400934,-0.022625783,-0.05612143,0.0038423631,0.1096446,-0.072705545,-0.019971274,-0.043449603,-0.111699484,-0.11185769,-0.12162263,0.122234,-0.037247237,0.012426395,0.06304589,0.07881998,-0.029998226,-0.10421942,-0.10796225,-0.09691232,0.084707975,-0.1609886,0.076036,0.12360549,-0.055283632,0.036202613,0.033773232,0.0525398,0.049957152,-0.078127265,0.03109662,0.11029996,-0.11507924,0.059292957,-0.046343006,-0.039305706,-0.039788034,-0.09242034,0.034969904,-0.054871608,0.1380323,-0.14483543,-0.093880385,-0.10642981,0.088952295,-0.00690959,0.12211361,-0.07794467,-0.093656786,-0.07563537,-0.0007141474,-0.028723195,0.016658496,-0.038792312,-0.03979564,-0.11339821,0.13003418,-0.04521528,-0.047021262,-0.0051175524,0.11184133,-0.10182704,-0.07302706,-0.1363416,0.043093063,0.08979196,-0.10425592,0.13623108,0.06399892,0.010706879,-0.08070529,0.04508642,-0.13485941,0.014713904,0.12961762,-0.06015831,0.010724454,-0.11402694,-0.07143171,-0.0467766,-0.1222187,-0.1152481,-0.11020636,-0.047971535,0.07096208,-0.13809593,-0.01650386,0.0984744,-0.13565768,0.018262941,-0.0424952,0.057724725,-0.05082978,0.030580236,-0.12715064,-0.097318165,-0.036010258,-0.066122204,0.026112352,0.0907428,-0.06722268,-0.067558125,0.07773361,0.069793105,0.104076505,0.004736582,0.06026494,0.10534468,0.10617983,0.042705942,0.09264379,-0.046017222,-0.06628448,-0.0029499137,-0.007844767,0.115038656,-0.1510698,-0.18303242,0.10535882,0.00094205054,-0.117790006,-0.12956499,0.0036437102,0.08969552,-0.11890386,-0.10360888
36,-0.100412585,0.038247216,-0.07811843,-0.013821104,0.09247256,-0.09730756,0.06293812,-0.007946356,0.08834739,0.053606838,0.033973057,-0.13691014,0.028601995,0.022347497,0.09594328,0.049975976,-0.031007772,0.041805726,0.027908504,-0.009395828,-0.048713163,0.102492705,0.07583039,0.10359675,0.09796747,-0.09138582,0.13059428,0.09891486,0.058362886,-0.03149303,0.034136124,-0.048739385,-0.079290904,-0.1148594,0.07712682,0.040886894,0.010671838,0.11663385,-0.09597459,0.05193568,0.050617736,0.029878434,-0.01012343,-0.07099564,-0.034023844,-0.10882325,0.090986215,0.041675046,0.107134596,-0.047091167,0.092911296,-0.0643073,0.07072082,-0.059475355,-0.023757385,0.11175223,0.101076886,0.036022224,0.11238253,-0.019061716,0.05540605,-0.11970472,-0.0775369,0.10137174,0.12785517,-0.08040631,-0.015880853,0.110940985,0.1305177,0.061305095,0.12471062,-0.035482842,-0.1502813,-0.06420643,0.087392315,0.010220354,0.06125802,0.04621099,0.024594769,-0.042655528,0.07336877,-0.109648824,-0.08485209,-0.10284145,0.054139704,-0.015174705,-0.036608115,0.14386399,0.005364248,0.024823233,0.015934393,-0.13494521,0.057172358,-0.04435953,-0.047925472,0.008354272,-0.0070955334,-0.097396985,-0.049534347,-0.06750038,0.065287024,-0.04668998,-0.046815116,0.105665766,0.040175892,-0.06344535,-0.047608186,0.10855109,-0.039255254,-0.012081482,-0.058912903,0.010382523,-0.109016344,0.10001971,-0.120114036,-0.05878052,0.124782376,0.09381875,0.11753256,-0.033369854,0.041256696,0.09773827,-0.07760596,0.0064053414,0.11680569,0.10492105,0.10755818,0.016649578,-0.024259178,-0.05051734,-0.07711117,0.090767965,-0.10644927,0.004279344,-0.081365906,0.020343341,-0.022547795,-0.056162007,-0.024375232,-0.034335684,-0.09397417,-0.0033558279,-0.09749281,0.038943104,0.0936486,0.10381576,0.05793702,0.07299123,0.03490658,-0.08773827,0.13972536,-0.049352627,0.07856986,0.062372934,-0.040747136,0.042308956,-0.00039380585,-0.072236516,-0.07289073,0.081518814,-0.1533303,-0.1196523,0.0994839,-0.12466278,0.07082701,0.077551864,-0.024012955,-0.015975969,-0.027694048,-0.07999307,0.098714426,-0.04769284,-0.06548683,-0.1283143,0.056924276,-0.049223304,-0.029767426,0.027809042,-0.11304136,0.024019886,0.05089242,0.043072008,0.0051929466,-0.10579324,0.058183443,-0.085607216,-0.07656211,-0.057376016,0.107047796,-0.097584456,-0.01036961,-0.031943873,-0.053234424,0.037301756,0.059765846,-0.040749367,-0.037016816,0.11955525,0.077190995,0.024522213
37,0.107489176,0.08313744,0.0026386837,-0.09025904,-0.13563946,0.032651883,0.11329021,0.028540686,0.08591367,-0.12872119,0.019730106,-0.09781206,0.010118901,0.043923564,-0.021294286,0.09381151,0.10070552,0.030901397,0.15466343,0.02504264,0.004261344,-0.14004487,0.10840233,0.03287651,0.055805556,0.07454484,0.059988853,0.03718775,0.06427712,-0.056119297,0.08313689,-0.0038167655,-0.044405594,0.11030334,0.06487395,-0.10523416,0.042518545,0.055759244,0.10920342,-0.023419095,0.02444333,0.033274088,0.048390474,-0.02861081,-0.0048779435,-0.002179219,-0.09220448,-0.06073172,-0.114070326,0.064558424,0.016804975,-0.007942514,-0.10041666,-0.12640604,0.12909858,-0.105109505,-0.050361592,-0.069850266,-0.0016330247,-0.12830515,-0.086259164,0.03540995,-0.14783746,-0.0994544,-0.05135562,-0.087730065,-0.04597266,0.076250926,0.021739015,-0.034706943,-0.10245721,0.05892195,-0.13668126,0.05492156,0.06569603,-0.031341806,-0.14216322,0.10438202,-0.055204324,-0.083133556,0.10025855,-0.11090366,-0.030865578,-0.0571987,-0.03747167,-0.08109855,0.12450683,0.07923984,0.008332467,0.032786474,0.061866134,0.13368405,-0.031190617,-0.044181738,-0.10530899,0.06832082,-0.013143098,-0.0546412,-0.050892334,0.07675409,0.028441,0.08003694,-0.03732713,0.10512328,-0.032592848,0.11502057,0.0026406117,0.11314468,-0.099365845,-0.024247112,0.105328225,-0.061213046,-0.08104508,-0.12372081,-0.10805896,-0.13116287,0.10940145,-0.11367151,0.09058722,0.07183868,-0.120579116,0.030519607,-0.11849779,0.11127588,-0.006297745,-0.1393975,-0.08027192,-0.114768684,-0.13786124,0.037157398,0.096691236,-0.14031835,-0.1282859,-0.008202322,-0.009026008,0.051084943,0.015633963,0.0001495169,-0.12672697,-0.006583247,-0.009455352,0.013840704,0.10062407,0.067789085,-0.06317311,-0.04213053,-0.13258296,-0.022618428,-0.05503645,-0.091191314,-0.026386522,-0.12945853,0.14468236,-0.01895732,0.018585706,0.061803028,0.025865646,0.03789216,0.12605302,-0.12200162,0.047968935,-0.09227182,-0.1392279,0.0061682854,-0.0021122964,-0.024520637,0.10731069,-0.07640993,0.045083247,-0.13153268,-0.12847683,-0.0960621,-0.08728743,-0.06511045,0.010387581,-0.07436801,0.004237431,-0.0133731365,0.0663844,-0.016730033,-0.01788703,0.013716307,0.036464237,-0.061150108,-0.007834005,-0.015258823,0.056927882,-0.03999989,0.092662685,0.09377229,-0.038860295,0.11201984,-0.07753719,0.031552594,0.046545304,0.0018577692,0.05723161,0.11676291,0.07547347,0.12963717
38,0.10049584,-0.13232769,0.069830745,-0.058745705,0.10379198,-0.036226027,0.057278626,0.060839564,0.08418779,0.06146404,0.112279475,-0.072699994,0.07800878,0.0707371,-0.05203376,0.11796032,-0.011701933,-0.035011742,-0.13303982,0.00093996606,-0.075484335,0.043509543,-0.08190369,0.120827146,0.07789113,-0.07410412,-0.06849309,0.030923609,0.03730839,-0.103166394,0.041526757,0.0332342,-0.14372493,0.10955894,-0.12340264,0.09718154,-0.014712554,0.02105435,0.16746522,-0.14151627,0.023142122,-0.085576914,-0.05066038,-0.007398421,-0.07961496,-0.022971949,-0.017741162,0.06554422,-0.10725518,0.14876132,-0.12321612,0.011824497,0.016018456,0.093185045,0.073336504,-0.036184754,0.06503589,0.005975355,-0.05166061,0.049781326,0.04536885,0.17049128,0.05355478,0.094641745,-0.14620402,0.008373962,-0.006146222,0.030473853,0.072152846,0.027375957,0.017412635,-0.07824205,-0.017232759,0.12630652,0.06747107,0.08991439,-0.02932742,-0.061867002,0.090202495,-0.018934889,0.10272091,-0.073845334,0.077800974,-0.07345559,-0.04811003,0.08177872,-0.12339006,0.0076623494,-0.05407465,-0.101413615,-0.053335864,-0.10900626,-0.065712504,0.06953181,0.0001350718,0.035587657,-0.094364904,0.0031668427,0.07943677,0.037805192,0.047094062,0.042337805,0.0067825955,0.060768288,-0.1066855,0.043542814,-0.03960309,-0.114798866,-0.0023062963,0.0077381823,-0.113371484,-0.13214873,0.02375969,0.07642921,-0.10680446,-0.08712385,-0.1074114,-0.07084771,0.022259673,-0.05223357,-0.0094451895,0.11272708,0.12730993,-0.08909534,0.012258484,0.043843165,-0.11172574,-0.02639977,-0.032971635,0.059355862,0.03712982,0.04221907,-0.05536113,0.09706405,-0.05428714,0.05865712,-0.05961809,0.07750179,-0.11124481,0.11776862,0.048662152,-0.123135306,0.026495032,-0.05208223,0.13397028,-0.056353655,-0.15352021,-0.031955045,-0.0256136,-0.032358326,-0.11333039,-0.1022804,-0.08389717,0.12463864,0.022153534,-0.02340365,-0.11854083,0.10546236,0.0765314,0.023646582,0.0541936,-0.06050529,0.025026582,0.101355664,-0.058794983,-0.06946767,0.056266956,-0.102006584,0.11116095,-0.06749189,0.056212552,-0.024339518,0.09854494,-0.13120368,0.014890383,0.012639438,0.13343683,-0.10835252,0.02414079,-0.042746734,0.08522098,-0.13586497,-0.080732115,0.010028735,-0.116849884,-0.04306493,0.04108455,0.06433846,0.0016215219,-0.024071807,0.05731346,-0.07517237,-0.036099963,0.11761044,-0.07186507,0.09784536,-0.0051262984,-0.076604865,0.076415256,0.021828607
39,0.1745939,0.11663588,0.050292168,-0.052896656,0.12402432,0.029568298,-0.14110117,-0.060080744,0.050732084,0.08384129,-0.058401085,-0.07058942,0.117259145,0.07357531,-0.0015618417,0.042153865,0.09599709,-0.13569105,-0.018941572,-0.14634603,-0.05910974,0.062265497,-0.029534005,-0.058831234,0.10271843,0.114584856,-0.10381234,-0.0919685,0.045674242,-0.029631378,-0.07425469,0.08109998,-0.083875805,0.027928926,0.07597333,0.13577273,-0.11678103,0.008709706,0.012364393,0.021765813,-0.08766997,-0.08294272,-0.10010653,-0.12261682,0.16288754,-0.19953309,-0.057043027,0.14363664,-0.0455314,0.05933931,0.117284454,-0.04200297,-0.10180959,0.02510102,-0.03834741,-0.095904134,0.031730745,-0.08099816,0.059783053,0.052573703,0.0021691083,-0.03946833,-0.11563313,0.092107885,0.010105466,-0.10622982,0.06911941,-0.12649025,-0.09284203,-0.14290367,0.060795743,-0.067631274,-0.046085715,0.025083805,0.042698372,-0.121319465,-0.044355486,0.009115045,-0.00034925996,0.04768658,0.012692488,-0.09960134,0.0915856,-0.0074106245,0.101844415,0.0376035,0.077831395,0.10564647,0.12124674,0.0417199,0.122194484,0.11201252,0.13998564,-0.018531587,0.010242648,-0.037461113,0.05311533,0.05266644,-0.088576235,0.103450015,0.11453321,0.02888017,-0.03172137,0.12777501,0.05253134,-0.0388634,-0.044927146,0.006454948,0.10276626,0.045142606,0.102885194,-0.09510032,0.10601333,-0.11224359,-0.036720306,0.104812615,-0.07932065,-0.03890175,-0.058796145,-0.05073233,-0.03104159,-0.084680215,-0.12014286,-0.05932785,-0.122838065,-0.048032068,-0.05001327,0.12791143,-0.11422725,0.09664045,-0.048536044,-0.09823301,0.039946746,0.08997333,-0.07407247,-0.123931706,0.098876186,-0.08834076,0.015640965,0.07858835,-0.008090359,0.14048904,-0.072418794,-0.002794343,0.0033595206,0.023250438,-0.038038384,-0.028716255,0.112606876,0.019278513,-0.11856211,0.011385445,-0.06912717,0.00011740524,-0.010773173,-0.11478554,-0.037293896,-0.10573134,-0.11376806,-0.06257942,0.054620508,0.07734578,-0.22986354,-0.048167497,0.092581615,0.12962641,-0.08510339,-0.025086166,-0.098452866,-0.13337938,0.04849624,-0.10253974,-0.030111412,0.050867535,0.022273414,0.019960023,-0.004378416,0.10603348,-0.13404104,0.039742053,0.10411189,-0.10721582,0.10301116,0.019916497,-0.0046271207,0.11967792,-0.011243775,0.04601367,0.066191755,0.114579536,0.0733552,-0.04490334,0.08120807,0.04631306,-0.013174036,-0.12835978,0.10157372,0.030626824,0.013076879,-0.08554502
40,-0.03192684,0.09969065,0.09258704,-0.028627355,0.13660568,-0.091467254,0.1155005,0.00047225907,-0.03244628,0.036542207,-0.18116638,-0.11182808,-0.043333873,0.06776138,-0.037310436,0.00122404,-0.043491684,-0.12461747,-0.039714955,0.0070556183,0.027250148,0.10573071,-0.02426099,0.048392102,0.06476942,-0.086612366,0.0598685,0.10317947,-0.015679983,-0.020762993,-0.08753323,-0.08826566,-0.09015432,-0.09886379,-0.05231174,-0.051824808,0.020496435,0.10643829,-0.032240056,-0.0553051,-0.09604593,-0.06248832,0.051287405,0.1562695,0.13150421,-0.13481352,0.001174084,0.057391815,-0.06899322,-0.14248152,0.1100957,-0.038641892,0.0030302084,-0.11634005,-0.023024984,-0.10116978,-0.037171047,0.07610844,-0.15236956,0.021762561,0.017961588,0.029033374,0.067293875,0.12038067,0.11728054,0.06666997,-0.0264037,-0.0037711104,-0.1052914,-0.044319503,-0.07618885,0.05628563,-0.15716822,0.09864124,0.041671634,0.01692229,0.04936058,0.06650444,-0.018773293,-0.07219741,-0.04285971,0.048908874,-0.06936438,-0.08851511,-0.06281379,0.11401446,-0.10250469,0.0799875,0.020197086,0.10738988,-0.073951215,0.005921351,-0.024479657,0.07916343,-0.029678129,0.0061379573,0.090513036,-0.127473,0.00049330643,-0.0413279,6.369441e-05,0.1010314,0.007949404,-0.019565504,0.009364147,0.02614553,-0.07656935,-0.068778686,0.0858741,-0.038542707,-0.02335299,-0.09913074,-0.001963211,-0.0774764,-0.0041873544,-0.06406845,0.10533676,0.14047089,-0.029416421,-0.001414507,0.09559459,0.021712836,0.06318645,0.086944416,-0.067608416,0.09060702,0.13413264,0.10187931,-0.14473088,0.078098655,-0.044741746,-0.07502404,-0.029302863,-0.02803201,0.014190944,0.040740088,-0.13549267,-0.1033305,0.08232856,0.046135664,-0.12634546,0.05586737,0.09806968,0.04336056,-0.08636194,-0.046967622,0.081830986,0.021891158,-0.1370633,-0.108543776,0.030015696,0.018347232,0.12021419,0.04978245,-0.07941356,0.0791365,0.025250783,-0.08266271,-0.07173819,-0.05337241,0.06895956,-0.040162016,-0.117623426,-0.062261205,0.09936348,-0.06945823,-0.055114493,0.0026764616,-0.011682305,0.058138374,0.060924128,-0.2040743,0.096955895,-0.018971171,-0.11458278,-0.006185803,-0.07339486,0.14725819,0.091949835,0.018880196,0.059710477,0.07409533,-0.04394793,-0.09864216,0.09529169,0.093873985,-0.091544226,-0.07243676,-0.09094031,0.15381476,-0.026114546,0.0016652307,0.09880248,-0.073242284,-0.008234344,0.09846061,0.04269705,0.10851925,-0.09229986,-0.02250373
