,0,1,2,3,4,5,6,7,8,9,10,11,12,13,14,15,16,17,18,19,20,21,22,23,24,25,26,27,28,29,30,31,32,33,34,35,36,37,38,39,40,41,42,43,44,45,46,47,48,49,50,51,52,53,54,55,56,57,58,59,60,61,62,63,64,65,66,67,68,69,70,71,72,73,74,75,76,77,78,79,80,81,82,83,84,85,86,87,88,89,90,91,92,93,94,95,96,97,98,99
0,-0.021723488,0.06234868,0.0938338,0.023945149,-0.08916004,0.054269794,-0.09201962,0.09157446,0.08149234,-0.015677422,-0.03906636,-0.14800143,-0.053886853,0.13507642,-0.05481776,0.04360332,0.009904462,-0.09401066,0.11333166,0.004930962,0.028835263,-0.13213992,0.05457288,-0.055787176,0.12024166,0.023698708,0.10865524,-0.06738683,-0.09706674,0.13670246,0.14716437,0.019196497,0.073923215,-0.0010721792,-0.114911705,-0.14382416,0.07911779,-0.033911586,-0.018603442,0.111625284,-0.05317324,-0.03655099,-0.09250247,-0.026789786,-0.09509764,-0.06974661,0.111172974,0.120440215,0.051563483,0.083245486,-0.14660548,-0.17323507,-0.056668196,-0.06468507,-0.09962315,-0.051824722,-0.09623458,-0.15815866,-0.097423285,-0.030469785,0.13114052,-0.09641217,-0.14538236,-0.098274246,-0.0061197584,-0.08325308,0.03294192,-0.0452485,0.073119596,0.042569842,0.05904294,0.08649474,-0.12838146,0.006083532,-0.18860568,0.035475194,-0.07126559,-0.053742357,-0.07432097,-0.10605697,-0.13799423,-0.11722667,0.08921099,0.054002892,0.027994554,-0.078409635,0.04642017,0.10774091,-0.041648954,0.10757807,-0.007228123,0.0077278134,-0.11727094,0.032500464,-0.08938435,0.1021899,0.034511656,-0.06495168,0.011611396,-0.104614526
1,0.061776016,-0.0757552,-0.09271038,-0.00702558,-0.117726825,-0.02338902,0.09585461,-0.05361204,-0.13340124,-0.17647788,0.019534996,0.053472392,0.0523193,-0.025963197,-0.11569236,-0.08244001,-0.099506915,-0.0010933209,0.057332713,0.13319802,-0.15136962,-0.14633073,-0.13213085,0.049161874,0.12593424,0.07602194,0.014275143,0.009948225,-0.098516054,0.07857823,0.05766292,-0.14404888,-0.019806717,0.103728615,0.08648533,-0.06898726,-0.032428823,0.11390336,-0.09685161,0.12659721,-0.076570794,-0.00041455007,-0.1057858,-0.09752267,-0.05781878,-0.15320836,-0.018798787,0.14444529,-0.122827366,0.01483736,-0.098869994,-0.07654255,-0.06824947,-0.0596583,-0.098667674,0.05462252,-0.0258218,-0.016036162,-0.11681998,-0.108598925,0.13100389,-0.080224454,0.13654923,0.02653117,-0.12751383,-0.12525007,-0.06533129,0.042998254,-0.009903827,-0.12761292,0.12500083,-0.0058661522,-0.16460386,-0.097348645,-0.119126685,-0.043820485,-0.1248721,0.027542425,0.012883236,-0.036685973,-0.1417205,-0.010035834,-0.0036368195,-0.025484435,0.07510394,0.04018558,-0.068157904,-0.14362429,-0.075794905,0.05135134,-0.049974456,0.059539903,-0.072705746,0.016288195,-0.04347236,-0.026051534,-0.054536015,0.015512013,-0.057173844,0.007139342
2,-0.23286721,0.16490397,-0.0736591,-0.0060286,-0.075682655,-0.095420524,-0.099303864,-0.07389564,0.09304233,-0.09063812,-0.00614304,-0.11341996,-0.14932518,0.072656035,-0.072472796,0.05957525,0.1273751,-0.15903476,0.09391331,0.043101322,-0.034417547,0.021806473,0.057646643,-0.13689959,-0.007894151,-0.04719531,0.14528114,-0.08158815,0.15359767,0.09661598,0.030378982,0.047595143,-0.09830603,-0.023749873,-0.08757777,-0.094668254,0.02893984,-0.003731327,-0.053234693,0.060867522,-0.016710903,-0.117359035,-0.12549949,-0.14927185,0.12268647,0.13006061,-0.025308898,-0.086177275,-0.03397049,-0.12773807,0.057191454,0.029618982,0.06502202,0.05339476,-0.046885956,-0.04119655,0.042343553,-0.059379164,0.09331396,-0.14741994,-0.029078431,0.084400825,-0.12895742,0.040857702,-0.057371166,-0.13309588,-0.0031444577,0.10586572,0.118131354,0.127511,-0.050378107,-0.12866391,0.013116565,0.009593101,0.07199842,-0.06263052,-0.088561036,0.011123654,0.023646198,0.104141206,0.07588703,0.025130888,0.07897609,-0.013517229,0.0156523,-0.03614148,-0.015749589,0.015774548,-0.052083805,-0.026235152,0.06674326,-0.074956365,-0.13906917,0.06262973,-0.028158493,-0.05613282,0.0023098306,-0.05575074,-0.084839694,0.046280466
3,-0.02500175,-0.04525684,0.02595389,0.042599726,0.14574929,0.031277943,0.12190405,-0.11999132,-0.056431666,0.064942,-0.06418278,0.003509243,0.062139466,0.0029143621,-0.037121054,0.029027812,-0.02212383,-0.023036143,0.053394638,-0.052429665,-0.118138134,0.12296321,0.16097875,-0.07944773,0.035396893,0.05648296,0.03458448,0.11175692,0.08444412,0.034897808,-0.1356645,0.024198418,-0.11941987,0.11691374,0.09198765,0.10671576,-0.028285243,0.053608023,-0.027651707,-0.14128128,0.045788515,-0.116369985,-0.14409372,0.08843041,0.0022085481,-0.15850468,0.0026320433,-0.11833185,-0.052890167,0.122007675,-0.06481707,-0.0032650456,-0.13244317,0.031453133,0.09895481,-0.07033688,0.019262457,-0.053090684,0.04619065,0.010316837,-0.08982327,-0.030009877,-0.0040285606,-0.096057795,0.033420816,-0.040161837,0.1035959,-0.13516244,-0.15835664,0.038026024,-0.011264792,0.03095958,0.14854008,0.08337768,-0.08695562,0.02052331,0.14627628,-0.14182083,0.08700476,0.04987994,0.003999911,-0.15246841,0.020621117,0.11495659,0.058561303,-0.10642365,0.08948222,0.119076364,0.09644282,-0.12079881,0.12550363,-0.091148235,0.010588347,0.027661243,0.044882305,0.08057928,-0.08156495,0.10543419,-0.015894918,0.018790817
4,-0.13000773,0.047917567,-0.07369429,0.050202627,-0.09337095,-0.044379227,-0.049871825,-0.010964256,0.058714345,0.04288642,0.16037048,-0.010814126,-0.009326057,-0.01939991,0.09107278,-0.04347457,-0.085339464,-0.04204315,0.032202266,-0.049413767,-0.11788373,-0.08414989,-0.10945922,-0.051551763,0.09230577,0.07430618,-0.11122937,-0.05469423,-0.030900456,0.0024484736,0.035610743,0.008832358,0.06426768,0.027184406,0.10573498,0.14337978,0.06165049,-0.040370412,0.0713436,-0.11114522,-0.14371163,0.08920549,0.049415976,0.034933653,-0.029033568,-0.031067345,0.043161295,0.059033856,0.10889014,-0.037789278,0.02264574,0.05345563,0.045217257,-0.040831763,0.009508494,0.064555824,-0.12824088,0.09210262,-0.076848775,0.04156438,0.17581038,0.11737224,0.04985006,-0.101997316,0.07050958,0.037459463,-0.005950784,-0.0778344,0.021805163,-0.002938657,0.015623802,-0.048698172,-0.07837189,-0.014240086,-0.04736188,0.017921679,0.0871423,-0.012025895,-0.027286183,-0.053090815,0.053672217,0.0772854,-0.058530737,-0.06390965,0.085183024,-0.03412687,-0.016818464,0.08833378,-0.0008756816,0.12466672,0.08849264,0.05984952,0.10754776,-0.011578392,-0.041332293,0.11994753,0.037821993,-0.09657878,0.14667884,-0.037310116
5,-0.10209303,0.1404627,0.13431185,0.017045353,0.063073896,-0.09593845,-0.029454226,0.1720645,-0.013999078,-0.12611543,0.12087364,0.111108825,0.064621046,0.13386159,-0.051273897,0.01283877,0.12650704,0.12888175,0.16136253,0.0029082387,0.074069016,0.017820897,0.09674037,0.040510826,-0.115044355,-0.03791181,0.14254703,0.1475055,-0.051936407,0.027572185,0.0866968,-0.09780177,-0.07318647,-0.029969998,-0.066308476,0.1037063,-0.11742821,-0.009442979,0.018147621,0.00042579192,-0.045499586,-0.041324914,-0.060391545,0.12992227,-0.096524104,0.12941289,0.033521295,0.10703337,0.108523905,0.057482205,-0.14334597,0.11589105,0.09466094,-0.08989397,-0.09969441,-0.07665479,0.14097391,0.041687,0.009217616,0.026933376,-0.0019836233,-0.034519576,0.02876676,-0.09515857,0.08970779,0.111085676,-0.015357751,0.05293654,-0.057522163,0.042036794,-0.015382148,-0.057932504,0.07748208,0.07769907,-0.060450107,0.03612866,-0.10830205,0.014575963,0.0862271,-0.02758538,0.11594267,-0.13897194,-0.029472452,0.10682031,0.086846076,-0.0859323,0.017910436,-0.08699649,-0.10445291,0.1285897,-0.1421859,-0.08806113,0.1458077,0.09387233,0.05360791,-0.0015938005,0.030594599,-0.06997991,-0.08290366,0.11827453
6,0.031835414,0.0022321653,0.022860192,0.0678601,0.11779773,-0.05147811,-0.032407437,-0.0034737077,-0.08483242,0.09625067,-0.07283761,0.022125984,0.0033436094,0.045458272,0.026863929,-0.0052293446,-0.04298638,-0.12258062,-0.002094182,0.09800859,-0.12459912,0.09595074,0.06657811,-0.10412449,0.08983427,-0.031468444,0.093818426,-0.03886057,0.09689637,0.025878584,-0.026956769,-0.0827014,-0.05945576,-0.11033544,0.05836387,-0.1360238,0.12949313,0.040650174,0.13707204,0.15296477,0.08351048,-0.076616,-0.041333076,0.031938788,0.077478655,-0.072296925,0.16014102,0.15230376,0.0153091205,-0.08396722,0.104534484,0.10956969,0.097603925,0.093391374,-0.024776297,0.1045021,0.108210795,0.05557578,0.114374235,-0.01721062,0.11532651,0.08633523,0.041987397,0.13140269,0.15596856,-0.0074249567,-0.113104254,0.010115887,0.010321216,0.119867295,-0.059292257,0.15796924,-0.124470204,-0.087819435,-0.05150324,0.13560879,0.015885817,-0.1382244,0.15152286,0.0056428937,0.09872946,0.14128742,-0.02417521,0.09581217,-0.07063303,-0.12081499,0.057169855,0.15781997,0.003853532,-0.10272347,-0.09526971,-0.035339847,0.048378266,0.033674557,0.011968471,-0.073452756,-0.036783487,-0.14183475,-0.0054778275,-0.103349686
7,-0.0941308,-0.03386751,0.04079748,0.07432973,-0.06360511,0.14972264,-0.07286022,0.033179812,0.04812386,-0.031461224,-0.11430896,0.07973608,-0.105521955,-0.1556831,-0.06644365,0.05618423,-0.06531837,0.020764636,-0.08344282,-0.010975788,0.030787779,0.0036753968,0.15981272,-0.036226418,-0.026729893,-0.07706966,0.16208026,-0.022834469,0.048514634,0.064338915,-0.112675525,-0.051458567,-0.09075701,0.010366232,-0.03995003,0.044306878,-0.11114605,0.07553099,0.018170658,0.0870133,-0.0057697943,-0.06726872,-0.12379054,-0.07988267,-0.12504104,0.01944872,0.059205353,-0.046208307,-0.05599545,-0.1033178,-0.12978399,-0.06672395,0.06538689,0.012081715,0.09576976,-0.024161464,-0.17065306,-0.0431367,0.08070258,0.03721552,0.07610388,0.065725245,-0.10699156,-0.03202313,0.041803204,-0.05064775,-0.021974731,0.016409792,-0.12523468,-0.021946983,-0.04912446,0.029723672,0.009930535,0.08394661,-0.09723305,0.056128234,-0.08938571,0.1252201,-0.060759444,-0.045464586,-0.030901678,0.083390564,0.026076656,-0.048407935,-0.06251891,-0.15529226,-0.08557606,-0.032315005,-0.019159779,0.0015479297,0.044920363,0.121225655,-0.027532829,0.046236802,0.07424151,0.023856265,0.054016903,-0.036467865,0.10184124,0.18782344
8,-0.145569,-0.12430096,-0.044997722,0.0048784004,0.0047832,-0.04272054,-0.1266748,-0.05734367,-0.052674394,0.04831299,0.051567726,-0.14150734,-0.053999983,0.008950113,0.18496357,-0.088353306,0.027977247,0.03631749,-0.04791813,0.07070236,0.0020204287,-0.025642635,-0.0016978858,0.21242352,0.08311466,-0.06601212,-0.043681778,0.046671804,-0.03493761,-0.112666294,-0.007757978,0.1428337,-0.10709017,0.05748728,-0.06698353,0.08001631,0.122364104,-0.15314962,-0.046055872,0.034089874,-0.0073280716,-0.047101527,-0.01077214,0.14579199,0.05429621,0.073361345,-0.11035941,0.06289588,-0.07684462,0.018002775,0.037227,-0.14120917,-0.0046585156,-0.063483335,0.110418886,0.038067993,0.097165994,-0.13446094,-0.15139581,0.07967936,0.009167854,-0.003937009,-0.07503402,-0.14993916,-0.117727585,-0.04279744,0.052996393,-0.005650113,-0.093283646,0.071337886,-0.083412796,-0.03191028,-0.07533835,0.086080424,0.12893388,0.070510514,0.08671844,-0.041085564,0.05799261,0.0053920355,0.101045206,0.003513637,-0.06488241,-0.09417615,0.086073905,-0.09301898,0.102907404,0.0361172,-0.044298477,0.13591102,0.07340981,-0.12623516,-0.09934022,0.12938283,0.12865143,0.051409636,0.045967955,-0.11786558,-0.016028762,0.06603488
9,0.016155185,-0.08138991,0.13665907,-0.054368403,0.03702915,-0.0964038,0.012423967,-0.09190363,0.010884082,-0.10895777,-0.070732154,-0.049505875,-0.06942915,-0.012589693,-0.13448809,0.003990271,0.06005806,0.02436445,0.008080646,-0.08246199,-0.062198848,-0.14068931,-0.14305855,0.07752195,0.12716274,0.038789697,-0.0082636895,-0.05141154,0.037362326,0.050311454,-0.08052342,-0.02831566,0.12904522,-0.066937424,-0.11419951,-0.06394016,0.0006392093,0.033647332,-0.11751656,0.029446397,-0.06364224,0.10191861,0.047129236,-0.07599114,-0.07848496,0.14615092,-0.03995466,-0.14453639,-0.118048325,-0.013216421,0.046187364,0.07195787,0.12600215,-0.039911266,-0.007069947,-0.11488181,-0.15056986,-0.12561007,-0.09625867,0.10935661,0.0506824,0.10096329,0.03808883,0.036956582,0.12558886,-0.050232142,-0.04189182,-0.033078272,0.13702849,0.0055238786,0.011393248,0.01234003,-0.10783874,-0.02184112,0.027112395,-0.1469101,-0.101953104,0.008669958,-0.04472946,-0.044867244,0.10810532,0.11130691,0.07803889,-0.08766414,0.11583625,-0.10358692,-0.1196568,-0.0031573218,-0.13856302,0.13264118,0.10152754,-0.04729788,-0.026361002,0.06316644,-0.018850747,0.111091696,0.12890418,0.08659782,-0.016945962,0.031569485
10,-0.1207708,-0.060528062,0.016201448,0.0687989,0.054528777,0.010741962,0.10169641,-0.034174282,0.08751288,-0.088500336,0.08797581,-0.057287086,0.105929255,0.09493408,-0.031521693,-0.07521162,-0.13571922,0.09936161,-0.012911033,-0.100153,0.049118266,-0.02267752,0.11484917,-0.118495926,-0.13909943,0.04582332,-0.11293293,0.052518144,-0.010362994,0.09646062,-0.10190087,-0.059096027,-0.02981321,-0.009705061,0.08785815,0.032716665,0.08696929,0.069304675,-0.046581868,0.021230845,-0.1456741,-0.17372322,0.00163638,0.049173318,-0.1860629,-0.07772601,-0.030024841,0.098038174,-0.06321569,-0.04724978,0.0269796,-0.02850692,-0.06890544,-0.016847339,0.010501149,0.026064314,-0.16641495,-0.0651241,0.02056886,0.046238255,-0.02008911,-0.092130505,-0.03208171,0.048127387,0.0064428006,0.042716123,-0.12386266,-0.11674147,0.06466254,-0.026636755,0.027137486,-0.13533336,-0.027633483,-0.12410549,-0.020957034,0.028593296,-0.09576182,0.061361834,-0.057265013,0.032155324,-0.13431475,0.00015809157,0.15050519,-0.01582082,0.13967389,-0.16696416,0.0050629973,-0.050896205,0.07562533,-0.14625818,0.023702474,-0.031146249,0.113673694,-0.04304653,0.027254457,0.06904707,-0.045185015,0.03904209,-0.035425663,-0.023583354
11,0.00908754,0.020332126,0.043372322,-0.057075344,0.07455796,0.022789257,-0.06516394,0.03295105,0.07882966,-0.09877874,0.07010203,-0.0151921585,-0.04498361,0.06816095,0.092331596,-0.13448948,0.028693467,0.06001227,-0.09517163,0.052822016,-0.04425323,0.0061344006,-0.05736732,0.1327556,0.026275031,-0.15554549,-0.04359186,0.020596886,-0.17998369,-0.09471095,-0.24795842,0.042604316,-0.027141372,0.049663246,0.013535621,0.10699343,-0.011447448,-0.07181066,0.107467465,-0.17150782,-0.22549228,0.051937036,0.013288818,0.08692557,0.09555976,0.09211084,-0.032855548,0.061298616,0.073174104,0.103565894,0.0349676,-0.0618467,-0.03668926,-0.029208532,-0.06540268,-0.077116214,0.09010682,-0.07932698,-0.13032228,-0.04069047,0.160045,-0.027995348,-0.09079135,-0.13813484,-0.16148888,0.10018462,0.025447177,-0.02045882,-0.121507525,-0.07975068,0.020433256,-0.031700626,0.11916734,-0.09661555,-0.10691313,-0.037744083,-0.016126502,0.0341789,0.14030519,0.027693382,-0.01983298,0.114504546,0.020059103,-0.115297824,0.034107804,-0.04196644,0.048982948,0.0389678,-0.07609578,-0.16489059,0.06771166,0.035990614,0.0022734485,0.109056704,0.013838344,0.026614517,0.00017390026,0.048050497,-0.08750292,0.09441261
12,-0.10927881,0.03391255,0.024768166,-0.05797131,-0.007887989,-0.08054406,-0.0051127104,-0.07922754,0.02196256,0.11372985,-0.061406456,-0.04224975,-0.009947495,0.11503323,-0.17393379,0.05593009,-0.063693985,-0.036736302,-0.093024015,-0.034154654,-0.06694984,-0.07715425,-0.08338281,0.12990658,0.0043820967,0.09575175,-0.08831841,0.033816796,-0.17841798,-0.067282766,0.03524937,0.043602537,0.08087028,0.037621096,0.06360326,0.037442252,-0.14052959,0.11545729,-0.109394684,-0.046560753,0.07397618,-0.1040673,0.051185735,-0.0049692774,0.09253644,0.007153702,-0.042100757,0.081826195,-0.007481351,0.006234656,-0.043432493,-0.066342965,0.06341797,0.04754083,0.033858776,-0.08317884,-0.04352242,-0.0010750919,0.16548096,0.007466783,-0.056002557,-0.0013591241,-0.001157812,0.09271625,-0.05739385,0.07758295,0.101034604,-0.06963552,-0.09763049,-0.1488183,0.08558363,0.06153886,-0.035167966,-0.029359844,0.027886774,-0.05801432,-0.008441689,-0.13569106,-0.027390318,0.020032184,-0.06292916,-0.069677986,0.028294142,-0.08086796,0.036598776,0.040407833,-0.06336961,0.04454828,-0.14048766,0.12393498,0.0056907237,0.054792836,-0.31138468,-0.00033682503,-0.1699331,0.20708863,0.08465678,-0.12957446,0.08324821,-0.1371473
13,0.025444914,-0.15521272,-0.09156212,-0.013052577,-0.0061805802,0.09600256,-0.1268906,0.023420358,0.089168966,0.076387905,-0.025739491,-0.069304705,-0.049608648,-0.0014298536,0.121256426,0.1323986,0.1082929,-0.16561875,0.08828985,-0.0030591674,-0.060671363,0.0064075612,-0.111376226,0.12618051,-0.062867716,-0.061486125,-0.11776858,0.024208903,-0.07853302,-0.11659896,-0.009430539,-0.0073397607,-0.06315404,-0.1339573,-0.08004787,0.061107237,0.027816648,-0.020464938,0.03131207,0.08581586,0.05663241,0.12877667,0.0930978,0.08231131,-0.106981486,-0.10236145,0.022613171,-0.05009357,-0.13861887,0.19378681,-0.0035077152,0.005612715,-0.056929547,0.069649816,0.09871963,0.007360158,0.12460509,0.053640034,-0.10584673,0.061002005,0.009252982,-0.010424964,0.09823366,0.01969163,0.0167678,-0.002254763,-0.031922903,0.09461509,0.017539412,0.08918433,-0.12805101,-0.11821532,-0.023462744,-0.094855025,0.057752,0.09302048,-0.016724763,-0.020313026,0.038779903,0.011952886,0.051681906,0.111811034,0.1313942,0.12276804,-0.0119197555,0.12114741,0.1378362,-0.0631056,-0.036941443,-0.09743439,-0.007503643,0.11015843,-0.056201126,0.022465715,-0.050250746,-0.08109306,0.10718242,-0.12969641,0.14179586,-0.100382976
14,-0.0965954,-0.100390166,0.01884552,0.04899625,0.038381644,0.100575276,0.07407028,-0.14382166,0.08454276,-0.039784636,0.07105767,0.010202838,0.12812194,-0.09749447,-0.08627491,0.08514745,-0.10155383,-0.069743186,-0.1406313,0.06788365,0.027235875,-0.105803415,0.07104926,0.02249862,-0.14363837,0.08857642,0.057417627,0.12929572,0.10469409,0.072605446,-0.16204737,-0.06446034,0.03691282,0.07826282,-0.005826402,0.038649607,-0.014176573,0.13053225,-0.004951531,0.09161829,0.011803463,-0.13463452,0.02574799,-0.050010175,0.027446728,0.12266013,0.039139915,0.036658414,0.04549585,-0.1503058,0.024841351,-0.028038159,-0.050315075,0.0676801,0.04172687,-0.07445253,0.117712855,-0.03889476,0.14336528,-0.12166235,-0.046099838,-0.110409476,0.06308157,0.061271813,-0.023969578,-0.06926779,-0.038053904,-0.11081355,0.05097928,0.09653249,-0.08698241,0.047374282,-0.056052335,-0.047636922,-0.031629566,-0.12796651,-0.06269038,-0.09137632,-0.11209205,0.098472595,0.05448361,0.03040002,-0.047005173,0.15123034,-0.04951558,-0.056284968,0.07935251,0.10807928,0.067739904,0.027206335,-0.05303064,-0.014343575,-0.025176127,-0.1025265,-0.025343714,-0.14902781,-0.09671576,0.0001381943,-0.0843297,0.017739639
15,-0.050305404,0.011161199,0.14083922,0.10254422,-0.12328966,0.10913579,-0.07623722,0.11168176,0.053998698,-0.08921177,-0.03649763,0.10279935,-0.07483926,0.12806085,0.13851428,0.014094822,0.05028475,-0.13935186,-0.052471083,0.08037492,0.01819428,0.014381753,0.010306071,0.05802098,-0.022785101,0.08073488,0.027866803,-0.108204216,0.0006646841,0.05393343,-0.047502026,-0.08142314,-0.12894736,-0.09244085,0.0012726203,0.04204053,0.06370455,0.064153604,-0.16159628,-0.041860055,-0.08044455,0.067162536,-0.047352925,0.02755745,-0.08787066,-0.039319288,0.16076857,0.08192102,0.14501017,-0.1307366,0.105982125,-0.10299815,0.12436513,0.055836726,0.03496353,0.023952967,-0.0965388,-0.19635446,0.040617127,-0.14066048,0.041424796,0.11335452,-0.11202778,-0.03826585,0.075691104,-0.033743516,-0.061054748,0.08845871,-0.053170744,-0.013825953,0.15147215,0.1557091,0.1346458,-0.14797078,0.15774614,-0.097975895,0.11646952,0.08579439,0.106113225,-0.068048276,0.1342019,-0.0024756056,0.011450427,-0.037736792,0.042710274,0.1374951,-0.13874611,-0.0051173153,0.06361134,-0.009300392,0.087151915,0.06420169,0.06270608,0.09117495,0.12900738,0.041975092,0.015383572,-0.11392024,-0.022567991,0.12747496
16,0.13469256,0.04455109,-0.012698521,-0.027423004,0.053195797,0.15147609,0.10494162,0.066492975,0.0939773,-0.08676297,-0.057281848,0.08805253,-0.14396356,0.11293158,0.036833778,0.010189463,-0.14038815,-0.026212068,0.03003614,0.046823334,-0.04477802,-0.1430074,-0.07309092,0.07528405,-0.089886926,-0.06486213,-0.04426253,0.059945304,-0.026715664,-0.14478512,-0.042957254,-0.0229585,-0.08172002,-0.10788751,-0.04962079,-0.037848808,0.09616784,-0.07252698,-0.0801848,-0.091611326,0.00042099,-0.027235119,-0.13556802,0.08791957,0.15139382,0.10754446,0.08455823,0.10274048,-0.06558132,0.12287787,0.08237378,-0.05264734,0.12420933,-0.079266466,0.032997888,0.10952672,0.03664159,0.091914356,0.02103618,-0.041645154,0.05570176,0.0022031805,-0.12094685,-0.07622598,-0.14989872,-0.05333108,0.01447258,0.08684129,-0.06514747,-0.116224214,-0.0019780633,-0.13485143,-0.15814514,-0.14074624,0.11694812,-0.034232233,0.1231043,0.093241766,-0.07593832,0.04077159,0.13750887,0.05398921,0.1035744,-0.07283937,0.10532205,0.0040285136,0.087648034,0.028706992,-0.10913129,-0.05143783,-0.10475177,0.084366605,-0.12702589,0.09414827,-0.09486035,-0.006499448,-0.08822451,-0.11622592,0.09745968,0.03188764
17,-0.14895982,-0.13810214,-0.053416993,0.033476647,0.10347746,0.14880978,-0.03257252,0.09800005,0.02017679,-0.067779414,0.007828192,-0.003383603,0.04554963,-0.10752413,-0.10825505,0.046727717,0.07007695,-0.14745714,0.09067333,-0.13816582,0.08979117,-0.06325319,0.10242208,-0.009680462,0.023789011,0.027999971,0.15374157,-0.024225963,-0.02711662,-0.04365176,0.00047956966,0.032099638,-0.07193018,-0.0022133556,0.06896847,-0.049386673,-0.013846842,-0.02362889,-0.041918915,0.025004836,-0.045764808,0.04638315,-0.0895744,-0.080621436,-0.029217144,-0.15124345,0.0132287685,-0.13044938,-0.08644641,0.011082694,0.05730276,0.012009565,-0.052640542,-0.09406206,-0.0037809985,-0.12567765,0.0074783126,0.08413852,0.038723204,-0.069115035,0.12525374,-0.10093615,-0.14531109,0.07207808,-0.09713015,0.09345268,-0.05342738,0.12586121,0.09887611,-0.14045781,-0.010617253,0.12667876,0.054785684,0.11543169,-0.14039575,0.04233907,0.11888347,0.14781651,0.06781863,0.021702558,-0.14172536,-0.009461296,-0.08534176,0.00785955,0.02119853,-0.05032379,0.055131376,-0.00871609,0.08191584,0.11607425,-0.100732975,0.14953016,-0.086565055,0.02372537,0.047083315,0.032172468,0.08437401,-0.024683187,0.052765727,-0.055203434
18,-0.037833437,-0.013029669,-0.07161181,-0.13890262,0.12635787,0.14781407,0.0529877,0.10098682,0.04891224,-0.09307073,-0.0894734,-0.13825484,0.14492385,0.011623336,0.028708784,-0.04687415,-0.09309596,-0.08351486,-0.14302899,0.037213538,-0.024985936,0.092630364,0.07332819,-0.123739384,0.0665435,-0.050632127,-0.052175313,0.12718073,-0.048526354,0.005585398,0.09767207,0.048855897,-0.02867397,0.1804645,0.07572344,-0.12387825,0.07936164,-0.0028513798,-0.049987994,0.08847854,-0.1428448,0.1281623,-0.03701354,0.14251664,-0.12266448,-0.15202755,0.0677578,0.08558088,-0.05183709,0.03800046,-0.032646943,-0.07566709,0.040624652,-0.05236822,0.032429814,0.046113793,-0.02709479,0.13054924,-0.11469297,0.12006982,0.09617484,0.047042806,-0.14871013,0.023710093,-0.057184394,-0.11487162,-0.14728661,-0.063427046,-0.0724182,0.057851546,0.06808446,-0.12790085,0.099727176,0.14260983,-0.16325739,-0.1592124,-0.21320058,0.11625773,0.01157895,-0.0060520405,0.063844055,0.045694232,0.03963678,-0.003017653,-0.036068905,0.027172163,-0.11097826,0.0230992,0.003949235,-0.048166323,0.15180181,0.10699945,0.07542112,0.03164212,-0.05430577,0.14741628,-0.037421413,0.078231625,0.10627002,-0.14792438
19,0.0858128,-0.13076825,-0.012676708,-0.07798228,0.031879995,0.06385263,0.048720166,-0.14151773,0.09176499,-0.0077387705,0.12378409,0.11155081,-0.060353406,-0.081630915,0.12494131,-0.11165793,0.15591393,0.054917,-0.13099183,-0.116827734,-0.11469247,-0.021354211,0.024295496,0.12257622,-0.113265984,-0.044556744,0.040825322,-0.10029789,0.06375998,0.06670587,-0.075815275,-0.08335272,0.05638297,0.105161555,0.115764216,0.12720774,0.074908495,-0.12916839,0.04514701,0.026965333,0.13793302,0.08988335,0.11133049,0.029308138,-0.124205634,0.048837975,0.09217846,-0.024347672,-0.06894401,-0.11454037,-0.03045597,-0.12312366,0.097388215,-0.039098006,-0.083068326,0.02924724,-0.0775426,0.009582756,0.014828625,-0.031646565,0.15144782,-0.08735177,-0.15232556,-0.17812164,0.0718233,-0.077876076,-0.11448957,0.11232518,0.13719976,-0.04295609,0.09790456,-0.032246545,-0.059073433,0.066908926,0.103333,0.05358152,-0.031901166,0.12794542,-0.059066925,-0.122883335,-0.017375255,0.09200672,0.11807183,0.08360871,0.11863513,0.014340172,0.00917308,-0.060143843,-0.14438342,0.013045349,0.061482307,0.019801592,0.05541245,0.068315424,0.14188604,-0.050416607,-0.058036853,-0.0210351,-0.1870738,0.13246204
20,-0.14413805,0.041319456,-0.026234997,-0.0057337726,-0.09137757,0.11301709,-0.10216644,-0.11281872,0.009832747,0.008281188,-0.04267034,0.13241653,0.001782426,-0.07361044,-0.049878143,0.05434619,0.09899235,-0.049516674,-0.12523541,-0.091117606,-0.021784427,0.06451799,-0.08065686,0.075409554,0.007361089,-0.024621133,-0.036193807,0.055593997,-0.09873762,0.13513517,-0.11447283,0.09340018,-0.042995997,0.11189596,-0.031812467,0.11245942,-0.09977899,-0.05762968,0.059800252,0.037478335,0.06314577,-0.0025379418,0.1321303,0.039188616,-0.011563996,0.111799255,0.03679505,0.106568545,-0.118351944,-0.19784287,0.1159209,-0.042580463,0.09339989,-0.075950034,0.091946,-0.08478177,0.012940153,0.09550588,0.02751968,0.055267025,0.0941771,0.054254483,0.006772505,-0.065797664,0.100638986,-0.033294924,0.06316723,0.101488076,0.08466628,0.036231603,-0.036463715,-0.05755234,0.14122076,0.15029871,0.08493521,-0.06180612,0.121428795,0.012416169,-0.07347798,0.0846884,-0.072674185,-0.046887398,-0.097845204,0.009411795,-0.08220652,-0.1598302,0.09484628,-0.08601215,-0.053944074,-0.117074,0.124888726,-0.026658768,-0.10675881,-0.06595922,0.104081884,0.010728377,-0.11930551,0.11525967,0.02875465,0.08209998
21,-0.07242467,-0.07457378,-0.060549725,0.005566592,0.12336296,-0.05419659,-0.020938078,-0.08672655,-0.08839816,0.0448972,0.10059751,-0.018588461,-0.04185802,-0.07250034,0.13798147,-0.1255928,-0.046235282,-0.11776448,-0.039794512,-0.07452739,0.08012085,-0.07406351,-0.12115771,0.15187092,-0.048689432,0.0008600382,-0.08604517,-0.087309204,-0.06144659,0.046335522,-0.002578372,0.095004275,-0.055326182,-0.121513836,0.0020248157,0.017855695,-0.04281197,-0.09446519,-0.054593578,0.02445012,-0.15402031,0.041272797,-0.010537489,0.09855536,-0.16862218,0.10294596,-0.10190991,-0.07094645,-0.07072797,-0.0009975807,0.025233105,0.046285767,-0.04473599,-0.09850506,0.026385233,-0.0030668376,0.15965346,-0.036558133,-0.016785828,0.05685426,0.0685091,0.071153015,0.003108787,0.04801422,-0.012168337,-0.050612353,-0.0920525,0.008941219,0.12439605,-0.0012611989,0.07509831,-0.11448716,0.04373634,0.022706391,-0.028122762,-0.030714262,-0.063354865,-0.16435729,-0.07128953,-0.096210554,-0.026924046,-0.032603722,-0.056488123,-0.020898506,0.028827777,0.02278098,0.014806941,0.053257097,-0.08518678,-0.13370132,0.009368348,0.10814131,-0.15642701,-0.032247603,-0.009357383,0.013365632,0.12874769,-0.15605393,0.0942306,0.0626685
22,-0.12050181,-0.069680855,0.083630554,0.024105562,0.034109246,-0.037752066,0.021139776,0.029289009,0.09491986,-0.0011878039,0.10700797,0.107945375,-0.028704021,-0.021032915,0.009315681,0.11570968,-0.07528419,0.21522412,-0.024841059,-0.10052076,-0.047840443,-0.0027060506,0.0931772,-0.041281775,-0.029829226,0.004864393,0.0911963,-0.013201061,0.02525283,0.017787565,0.12157315,-0.0830515,0.12736094,-0.001346638,-0.03132552,0.07445117,-0.054841615,0.027250752,0.007681754,-0.035128456,-0.007544559,0.03168855,0.042339664,-0.06805346,-0.034278285,0.099346325,-0.05182104,-0.0028811453,0.04556444,-0.02998935,0.09227902,-0.014817878,-0.119603746,0.034189314,-0.12212478,0.10843553,0.05256436,0.11193817,0.078252785,-0.03532574,-0.083145544,0.0069924276,-0.03374586,-0.051560085,0.06940793,0.09207514,-0.019489987,-0.113075584,0.07642096,-0.058974147,0.0014805532,0.021721926,-0.09391896,-0.02853951,0.10793704,-0.06439532,0.14149974,0.11916937,-0.04423125,-0.06602372,-0.07634211,-0.14932801,-0.012795896,0.019683285,-0.0447248,0.06382422,-0.0939288,-0.024521245,0.15287982,-0.037619058,-0.049013115,0.064921774,-0.040157318,0.058776375,-0.028352926,-0.11930211,-0.0743252,0.09994132,-0.07307769,-0.022796134
23,-0.017318826,-0.053048622,0.092181966,0.06842595,-0.038635857,-0.089158624,0.1341334,0.022078253,0.11791418,0.05427322,0.120659806,0.12470393,-0.056008205,0.07993793,-0.08826545,0.041422196,0.036565088,0.015912144,0.02247665,-0.055692405,0.10088585,0.055843517,-0.029121088,-0.020495601,-0.08514411,0.028445512,0.10177542,-0.07441758,-0.052012563,0.08201826,0.0899916,-0.14501186,0.066224374,0.012431547,-0.03254875,-0.03600744,0.0881699,0.122968934,0.103446566,-0.050304443,0.07686558,-0.05857752,-0.028182445,0.024902163,0.11506774,-0.096153274,0.1604854,0.051253498,0.108893365,-0.12780899,-0.10251286,-0.011877362,0.055688594,-0.07115872,0.004410323,0.015429757,0.07815261,0.019362004,-0.06861375,0.002831999,0.07241794,0.13186862,0.10385789,-0.0038510922,-0.10360882,0.054033786,-0.109533496,-0.0066989698,0.15462437,-0.123597756,0.042258814,0.08323821,-0.059649944,0.030458149,0.07559907,0.0361569,0.10260385,0.04162718,-0.00029683168,-0.03436095,-0.020797841,0.12302447,0.022486387,0.1109727,0.15068819,0.071359836,0.043795004,0.12227263,0.111350074,0.11684758,-0.058554318,0.05463629,0.043189116,-0.024186064,0.12180942,0.061981194,-0.14424819,-0.05242063,-0.05408856,0.0152294915
24,-0.280156,0.021918708,0.025947955,0.14910126,-0.0666256,0.10628606,-0.09030855,0.14210476,-0.030506909,-0.040065743,-0.008327048,-0.06918327,-0.14181608,0.075468384,0.03779541,-0.07236388,0.08104323,-0.00878061,0.037889466,0.025498739,-0.14229886,0.09289829,0.0908549,0.013151044,-0.15058997,0.09657059,-0.0748123,0.027859844,-0.045857392,0.05009067,-0.037053216,0.14698248,-0.10029401,0.015556039,-0.060499538,-0.034305938,0.07842314,0.11809033,-0.11111961,-0.08698817,0.11351897,-0.0631869,0.08532885,0.027406452,-0.061989237,0.11301011,-0.09263879,-0.09017492,-0.04286351,-0.08333846,0.014316869,-0.100946754,0.0318109,0.061782204,-0.05415727,-0.10120968,0.04578295,-0.117079526,-0.027214302,-0.046337068,-0.020959666,0.09262147,-0.0446337,-0.09330734,-0.07174435,-0.07383833,-0.05415011,0.020688787,0.11072992,-0.06592559,-0.08323043,0.09047904,0.101388834,0.033309888,-0.095824845,0.009521399,-0.03311365,-0.111319296,0.07412803,0.05635559,-0.034262422,-0.030004747,0.09913556,0.0046736933,-0.00016741235,0.025561793,-0.12027861,0.07343649,-0.0014732275,0.1617915,0.05498692,-0.09258313,0.106174365,-0.157472,-0.006633157,-0.066218,0.060090955,-0.032400295,0.10894785,-0.055877525
25,-0.15332548,0.07116503,-0.092053205,0.12291849,-0.13663825,0.07450343,0.10983919,0.107811905,-0.045762364,0.028637707,0.073621646,0.057231862,-0.040341143,0.058221485,-0.14729969,-0.020643618,0.047653425,-0.031290483,0.05228047,0.11918315,0.023323571,0.05854442,0.05661328,0.09521397,0.07466248,0.07369939,0.13307276,-0.069673784,0.067313746,0.032135677,-0.15875271,0.064156316,0.067757145,-0.10268992,-0.019966792,0.12015664,-0.03450627,0.0021724473,-0.16079779,-0.14421928,0.1250948,-0.024721937,-0.066676416,-0.122693695,-0.08515104,0.09638947,-0.13136755,-0.123646885,-0.003928681,-0.061026998,0.027249074,-0.03227144,-0.016386723,-0.0009442678,-0.120302655,-0.08090217,-0.024133122,0.0683749,0.018098446,-0.005392211,-0.047918823,0.07491774,0.060882818,-0.02928512,-0.06635579,0.0662353,-0.00013508224,0.0062963143,0.025136197,-0.13933013,-0.12966165,0.10505882,0.07027577,-0.10958667,-0.1531237,0.17472166,-0.11163042,-0.18765457,-0.15489724,0.08062177,0.028618077,0.088667534,0.011771895,-0.0601792,-0.063483216,-0.026401179,0.07549152,-0.03620573,-0.13544308,-0.1324228,-0.03045175,-0.043086957,-0.090842396,0.0699519,-0.050565578,-0.14977469,-0.053091623,-0.06297095,-0.012804068,0.05835151
26,-0.0062195985,0.040654056,-0.019356668,0.021831717,0.1351047,-0.072918266,-0.1584855,0.058877017,-0.114597656,0.02482763,0.015138048,0.0060597155,0.09529202,-0.06478652,-0.03521937,-0.027965352,0.0795243,0.15985295,-0.0175343,0.08824899,0.12699096,0.090367414,-0.05181057,-0.18659012,-0.00083727867,-0.023305176,-0.11776782,-0.11973666,-0.08781254,0.0884403,-0.10584762,0.013852511,0.05779129,0.1125092,0.040186148,-0.04653443,-0.010024649,0.049666505,-0.11714417,-0.098593004,0.03913724,-0.112472124,0.025426792,-0.054584306,-0.3352432,0.13009197,0.012343092,-0.14375095,-0.06633912,0.055907484,-0.04070469,-0.12950902,0.13166669,-0.036358047,0.021831686,-0.17290244,0.06547815,0.001454572,-0.056998223,-0.09364951,-0.055112153,-0.16191724,-0.06886583,-0.034905184,-0.033908386,-0.003070114,-0.13317437,-0.03660494,0.13624123,0.12188172,-0.099421166,0.03866414,-0.006722373,0.02426796,-0.0283764,0.12597921,0.019954495,0.034554154,-0.01527259,0.038329083,-0.005690032,-4.24008e-05,-0.06576974,0.07200441,0.06561119,-0.13288227,-0.13960667,0.006162979,0.12904163,-0.14671588,0.027504154,0.059105176,-0.046204757,0.11224903,0.10102264,0.06138061,-0.07525439,-0.06309248,-0.09441052,-0.024420768
27,0.12012648,0.102424644,0.016031794,0.060175754,0.04112454,-0.02519009,0.15355054,-0.14686018,0.05348752,0.06897813,-0.11095439,0.016946573,-9.091236e-05,-0.05486543,-0.08807114,0.123231545,0.007355487,-0.066553555,0.037022986,-0.11984474,-0.111015625,0.09516211,-0.022438223,0.15323444,0.07307942,-0.041627888,-0.021395057,-0.015692726,0.12763004,0.10334238,0.08271835,-0.050526556,0.027636146,0.060802598,0.06296985,0.057382848,0.10500218,0.05235162,-0.019357214,0.11265828,0.105981395,-0.0850889,-0.023435377,-0.079748705,-0.11277736,0.12206259,-0.100710414,0.15012719,0.08185204,0.051929057,0.033785958,0.06210911,-0.043783404,0.0625077,-0.0688998,0.051939245,-0.088172086,0.123057716,0.09851661,0.0681623,-0.124373086,-0.12781021,0.08245058,-0.11456446,0.10881043,0.12492319,0.13030313,0.003988876,0.08211065,0.017388785,0.057061262,0.12663727,0.0949136,-0.106878504,0.035138927,-0.039108742,0.00706432,-0.0035579046,-0.0026579166,0.037584852,0.03141572,-0.028600775,0.10408838,-0.11549885,-0.04161669,-0.16194668,-0.100085564,-0.0035617251,0.084853,-0.15222298,-0.05713737,-0.12219499,-0.0455026,-0.047968257,0.06496327,0.14564534,-0.10474812,0.059934437,0.079493366,-0.090364255
28,-0.11857553,0.083214656,0.112402715,0.027103877,0.069152094,-0.015987298,-0.031183237,-0.042271018,-0.0710009,0.030322628,-0.11754099,0.036589105,-0.115181535,-0.124740675,-0.10596427,-0.11663541,-0.06299525,-0.01957749,-0.06981108,-0.04318749,0.061044324,-0.03190669,0.10260262,-0.12863618,-0.07620868,-0.019973584,0.102701984,0.04827583,0.04748106,-0.098366946,-0.009738167,0.07444847,0.08030677,0.04813934,-0.05766218,0.027697802,0.019592494,0.019178266,-0.054141533,-0.036159445,-0.053624712,0.0405708,-0.12005756,-0.1132915,-0.031843882,0.020519324,0.017732237,0.09244926,0.053176016,-0.034745555,0.04775609,-0.10374337,-0.122209094,0.081938356,-0.04376306,-0.004201232,-0.17655548,-0.041584294,0.13222462,-0.085422724,-0.018864611,-0.08943595,-0.083177336,-0.04229973,-0.15356562,0.025226636,-0.016191116,0.021563742,0.05008697,-0.13580362,0.17801547,-0.029694645,0.053398527,-0.033537794,-0.037519332,0.14693597,-0.109225355,0.16182187,0.016611682,0.11782079,0.07879775,0.020294592,-0.03296746,0.12487284,0.055927496,0.08738747,0.08290772,0.10399318,0.04556967,-0.09859479,0.07733593,0.047395878,-0.114057325,-0.12115627,0.08920838,-0.07094747,-0.007721066,0.1374668,-0.10820831,-0.079454966
29,-0.07929671,0.056172907,-0.039364744,-0.061156306,-0.09358755,-0.06920383,0.08088059,0.06671409,-0.07578042,-0.061990064,0.0655005,-0.057932284,-0.04286557,-0.1471438,-0.013597443,-0.029618002,0.0481219,-0.0065514217,-0.0209843,0.11017092,0.025956644,0.06452083,0.03752412,-0.05582386,-0.042542174,-0.008518594,-0.13206112,0.019944975,0.15330873,0.07908575,-0.05845885,0.0908757,-0.07561602,-0.028675057,-0.0909038,-0.13054577,0.0022866032,0.021473521,-0.08433562,-0.09083513,-0.0774001,0.04433933,-0.08609372,0.03613067,0.122382596,0.0038555188,-0.13428108,-0.106479734,-0.032531064,0.07957166,-0.0754096,0.087953426,0.006522895,-0.114242755,0.019429605,0.06891822,0.035445016,-0.071798086,-0.012612694,0.075504765,0.0845167,-0.08422677,0.034404993,-0.017844098,-0.023749005,0.02074818,0.0989476,-0.112052456,0.020360477,0.11737,0.0176385,-0.14021571,0.009939401,-0.08848406,-0.024460388,-0.12111614,-0.19390707,0.057649698,-0.06004632,0.11622887,0.032087,0.103207655,-0.016477479,-0.09924434,-0.061032217,0.091645256,0.09441438,0.03522875,-0.14698826,-0.042055435,0.10537584,-0.13315843,-0.11964594,0.011021402,0.036059562,0.0739176,-0.005190769,0.0810908,-0.13647622,-0.11274574
30,0.074649386,-0.05629129,-0.043681994,-0.055065513,-0.10254456,-0.08075249,-0.14337362,0.030876327,-0.06005223,0.00051902473,-0.08450491,-0.0018390586,0.049700845,0.023571683,0.010019309,0.14378385,-0.0392258,0.04093906,-0.015563219,0.09228554,-0.037564635,-0.0016149182,-0.02001991,-0.11798248,0.08697807,0.049138065,-0.045534737,0.009087088,-0.0020305624,0.09148538,0.050513636,0.021123618,-0.05251334,-0.00792921,0.006148596,-0.07426902,0.0033352678,-0.06953672,-0.040516663,-0.014651529,0.059441708,-0.102379315,-0.031981066,0.022314595,-0.12185605,0.07091506,-0.029050678,-0.117933586,0.02456596,0.028111758,-0.049341373,0.03509888,0.021809904,-0.087536484,0.012435426,-0.105221584,-0.060274143,0.1021304,-0.04748091,0.061333753,0.012064794,-0.11984034,0.030382663,-0.017447885,-0.028858049,-0.12138951,0.11465696,-0.074473254,0.013881869,-0.12170274,0.13291202,-0.07877524,-0.0039269608,0.042948257,-0.044523384,-0.014857601,-0.046563044,0.031560563,0.05282378,0.024231695,0.041565716,0.04219148,-0.103834175,-0.06718823,0.117950134,-0.008433326,0.10728474,0.0029613122,-0.048306882,-0.01996079,0.049981464,0.034741957,0.02250523,-0.057773225,-0.12799795,0.025140291,-0.053821076,0.072243944,-0.108594745,-0.086113125
31,-0.16540655,-0.08215948,0.12114969,-0.03258269,-0.14291696,0.08298821,0.06952374,-0.04107068,-0.039249275,0.11351478,0.023802662,0.03458316,0.031770475,0.11006886,-0.050036352,0.09430243,-0.0626527,-0.07744926,-0.14496006,-0.09440342,0.05588812,-0.15243787,0.023547746,-0.14121254,-0.018714044,0.054029457,0.037388917,-0.08416279,-0.110765696,0.040772364,-0.06040256,0.023721451,-0.09051504,-0.14042914,-0.045973375,0.0812748,-0.07907182,0.07101067,0.042874712,0.097050294,0.059755627,-0.14399473,-0.120673575,-0.09482543,0.027600195,-0.030450135,-0.07381176,0.086853445,0.14855483,0.082935385,0.10436377,-0.011822406,-0.03696304,0.046852585,-0.031681214,0.039179016,-0.14148106,-0.07595824,-0.07271525,0.032034155,-0.02490557,-0.008101425,-0.031664778,0.001472461,-0.018637473,-0.044069994,-0.08791017,-0.1363484,-0.0009204765,-0.1306796,-0.013062545,-0.13632743,0.09046802,-0.10767807,-0.01469416,0.039140493,-0.011041688,-0.12620153,-0.087161206,0.07059367,-0.07369468,0.020504221,0.12867102,-0.05227992,0.14716494,0.061831634,-0.13282381,-0.025285989,-0.14871435,0.024628688,0.118602894,0.059374645,-0.112286195,0.08824221,-0.066369586,-0.04484127,0.0018151749,-0.051187973,-0.11280894,-0.05019646
32,0.1116333,0.0072273477,-0.07604522,-0.014190698,-0.0030432355,0.052518312,0.058151267,0.124350354,0.12383756,0.08856056,-0.005500317,-0.009372652,0.06817386,0.020203032,-0.042035315,0.116980985,-0.04629705,-0.08859078,0.0026688129,0.06973622,0.050967734,0.028040944,0.07922632,-0.13498248,-0.030096998,-0.12321103,0.028229807,-0.014439731,0.04694269,0.059367973,0.14181718,-0.018878482,0.12915379,-0.033235386,-0.03084279,0.099097535,-0.02627467,0.017777981,0.14018251,-0.07513265,0.11933113,-0.08091507,-0.07431168,-0.10798318,0.017635033,0.021722184,0.009827174,0.037771013,0.029136553,-0.121006966,0.1189227,0.034600157,0.11432003,0.047272973,-0.019692313,0.08957785,0.09404622,-0.07509494,0.00444746,0.10826289,-0.03678403,0.035700258,-0.10205865,0.018599574,0.123316504,0.14994054,-0.09795448,0.109978735,0.06307755,-0.1063287,-0.09445777,-0.03448314,-0.038753916,-0.036994524,-0.061352722,0.0084158955,-0.13012657,0.11158948,-0.045564774,-0.018340994,0.13372858,0.08161896,0.11872159,0.041207146,0.023586277,-0.020223243,0.14309628,-0.060337365,-0.12595059,-0.004007973,0.03118702,0.065046705,0.06407464,-0.023930904,-0.17754433,-0.041799325,-0.02341557,-0.11771696,-0.08236473,-0.030669434
33,0.08572219,-0.024312459,-0.14734103,0.0003776408,0.13469985,0.03980899,-0.1017719,0.006990883,-0.09317138,0.009921001,-0.098145485,-0.13580114,-0.07688855,-0.08779583,0.0041486183,0.083460465,-0.05203144,0.12686479,0.03193321,0.035739858,-0.08341956,-0.13383438,-0.0019063944,-0.0183791,-0.12810923,0.08069923,0.048186466,0.062965415,-0.064208925,0.002121635,-0.0976322,-0.043972544,0.0058425246,0.012821322,0.022791835,-0.09715416,0.12871888,0.056916304,-0.031399943,0.04966957,0.016356,0.068923794,0.05062794,-0.04149641,0.15297163,-0.12876861,0.047409553,-0.015040868,-0.03006832,-0.0051258537,0.097179174,0.14766067,0.16387823,0.16053624,-0.08538817,0.092417,0.023815453,-0.01136139,-0.06453147,-0.0028880155,-0.12887147,0.11690776,0.13475245,-0.084722094,0.007173692,-0.15184264,0.12430925,-0.078075565,-0.11578774,0.002773918,0.042837594,0.14414653,0.09389813,0.031760752,0.05046275,0.11627909,0.09657472,0.07384578,-0.046686955,-0.052681405,0.026564972,-0.11279457,-0.0156233115,0.07919965,-0.02621589,0.021320252,0.003944546,0.15502064,0.14310937,0.037104588,0.11322629,0.10525946,0.08774107,0.018706996,-0.025868852,-0.13473095,0.078642555,0.0013799652,-0.15115531,-0.15693383
34,-0.07724117,0.010406615,-0.08820472,-0.07742001,-0.09149519,0.038743213,0.050253488,-0.14892292,-0.06042066,-0.16180176,0.021674147,0.007582022,0.044777982,0.08719854,0.13931413,-0.12315439,0.11190176,0.119062655,-0.06174866,0.15094064,-0.08686806,0.01762401,0.16708013,-0.005643548,0.043485045,-0.14381048,-0.038965434,-0.1346118,-0.020638086,0.02344233,-0.07933716,-0.09570302,-0.09848925,0.00042231963,-0.0035737064,-0.093632564,0.10689282,-0.039943997,0.09852347,0.03997322,-0.055111106,0.16625573,0.055132538,0.14903626,-0.13592766,0.09205322,-0.043898944,0.014078991,-0.10361638,-0.11845967,-0.15295267,-0.11388828,-0.04853563,-0.10907858,0.01940743,0.14172417,0.08117299,0.033684693,-0.113499895,-0.015262469,-0.021349845,-0.09186669,-0.047742676,0.06371402,-0.040550787,-0.010484186,0.10047381,0.004033539,0.017892346,-0.05691592,0.0015074963,0.13505024,-0.10657882,-0.03662023,-0.007926456,0.14971724,-0.14432266,0.09842635,-0.035016865,-0.015712671,-0.04961662,-0.1851356,-0.053048905,-0.06493456,-0.029127331,-0.034332488,0.027929962,-0.0049686963,-0.13178921,0.015071014,-0.13280466,0.046428684,0.05014189,-0.07502864,0.1430862,-0.010319812,-0.020356748,0.0018616567,-0.066683225,-0.04780067
35,-0.01048942,0.10937421,0.10914335,-0.050431203,-0.123307385,-0.06361216,0.054789312,0.10630341,0.046923347,-0.055235837,0.09035489,-0.023489928,-0.0038520258,-0.100080915,0.06440984,-0.07338883,-0.104572,0.07467092,-0.15281853,0.112227954,0.08073514,-0.12819068,0.10545052,-0.08084746,-0.020824425,-0.04743077,0.09719568,0.025968503,-0.037575394,-0.12954955,0.072213195,0.006920747,0.13537012,-0.0067774598,0.12657502,0.1509584,0.0067598466,0.0897958,0.024868673,-0.08806394,0.01417815,-0.13231239,-0.120954946,-0.089653954,0.08956815,-0.00877217,-0.0061521917,-0.06368136,-0.13482052,-0.1208976,0.004919966,0.07874417,-0.09386655,-0.10855606,-0.083224356,-0.06293043,-0.11902509,-0.08740894,0.10688356,0.14626569,-0.011038685,-0.05189421,0.08386216,0.008731473,-0.1138974,-0.10602844,-0.065815605,0.08950444,0.08175005,-0.008537741,0.11907715,0.061825164,0.009395097,0.113469385,-0.1072088,-0.13120061,0.04892687,-0.08307507,0.05133067,0.057251,-0.0019083548,0.037127726,0.14972216,0.0978138,0.11229709,0.085866295,-0.14822024,0.12830174,0.008265802,0.061613835,-0.049765207,-0.055596102,-0.102147356,0.15651484,-0.12829454,-0.0858663,-0.0061592655,-0.13153005,-0.0999806,-0.013139844
36,-0.07493129,0.03647917,0.013399734,-0.102764875,0.062423006,-0.10044312,0.011884581,0.03164252,-0.10177768,-0.0852405,-0.1365612,-0.13885741,-0.16457972,0.05125057,-0.12593049,-0.020904507,0.09728291,0.03376046,-0.15831469,-0.028902285,0.06722293,-0.15145293,0.02067635,0.16152516,0.082283325,-0.10979366,0.02845097,-0.008598427,0.024401888,0.014735398,0.11843326,-0.09314244,0.059774637,-0.0022539133,-0.07848912,0.04290669,0.0382885,-0.11010762,-0.085919745,0.1006942,-0.03622553,0.03562929,-0.09432053,-0.0033041106,-0.0072715753,-0.063374855,-0.11640265,-0.07791797,0.01817161,-0.1236193,0.02549819,-0.15384746,0.026653614,0.082428716,0.07308996,0.017368147,-0.006901529,-0.03684905,-0.02724168,0.08046311,-0.10537723,-0.13103656,-0.010986449,0.017366463,-0.089019895,-0.012689788,0.104847245,0.09206459,-0.086497396,-0.0017175949,-0.053892907,-0.09975749,0.11724944,0.10465456,0.07271964,0.016775345,-0.04777524,-0.14915112,-0.10865605,-0.13296324,0.10375191,-0.106440105,0.10688154,0.038673107,-0.018420208,0.0432078,-0.0763085,0.10516693,-0.12621787,0.028886633,0.0019247914,-0.085096434,-0.13694823,0.0694113,0.0512573,0.06521082,0.013138306,-0.078870006,0.023989433,-0.07514347
37,-0.18540098,-0.076126255,-0.030418659,0.08157531,-0.0736492,-0.036450494,0.08572497,0.07457741,0.03634725,-0.036735628,0.08467114,-0.16277032,0.10520413,-0.02547482,0.09471551,0.09622697,0.083245024,0.11143941,0.11878072,0.04977469,0.115151666,0.006182204,0.01857318,-0.00021569373,0.093869805,0.013934526,0.029591285,0.07117546,-0.049457658,-0.07900357,0.076056115,-0.041271463,0.09912244,-0.07095867,-0.005933363,0.10106,-0.004871373,0.0007419274,0.051523548,-0.14015849,-0.1073576,0.0042541237,-0.04863261,-0.041030377,0.15145673,-0.022022743,0.04148797,0.08315541,-0.022511294,-0.1283515,0.039001413,-0.13541694,0.16421504,0.14466353,-0.062104944,0.09229515,-0.09921764,-0.035267968,-0.059152875,0.083911575,-0.0050008628,-0.08003212,0.002977055,0.04359022,-0.15731761,-0.0611731,0.07500039,0.07486118,0.04082035,0.095477,-0.07371287,0.09662813,0.04313075,0.050332814,-0.0062554814,-0.04747523,0.013904978,0.0059836106,0.11186194,0.006850588,-0.086502224,0.06543512,-0.03770847,0.081059024,-0.12676622,-0.055309262,-0.023635417,-0.095898464,-0.14606947,-0.12635523,0.089913204,-0.067802876,0.079400435,-0.12210676,-0.11306626,0.060455963,0.11798891,-0.024915954,0.083027035,-0.10400761
38,0.11232908,-0.0335015,0.15222935,-0.13433155,-0.10133859,0.122024104,-0.008217281,0.12790832,-0.08098013,0.08733747,-0.0010802074,0.07832677,0.09567297,-0.06647643,-0.07103284,-0.048330467,0.017964168,-0.012157144,-0.054597057,0.05335328,0.11156536,-0.124340504,-0.12605952,-0.102992,-0.06463914,-0.106996395,-0.039959412,0.021823358,0.07797798,-0.00053663936,-0.02627319,-0.14050035,-0.0022769058,0.03677103,0.13040097,0.093867116,0.011255618,-0.0013304793,0.09104008,0.0016433866,0.010144206,-0.089214265,0.12401329,0.09422915,-0.038143873,-0.022527093,0.13299233,0.0075513525,-0.10080781,0.14833638,-0.04438454,-0.043375477,0.083911926,0.059842587,-0.10221202,0.03422188,-0.08770118,-0.07847815,-0.032113396,0.036385465,-0.016900137,-0.003875466,-0.03799176,0.07845543,0.11052431,0.13335727,-0.05630233,-0.09312432,-0.033450145,-0.018899137,-0.005960344,0.1097841,0.08806836,0.06265957,-0.048495747,-0.036480084,0.066084854,0.10803459,0.002412093,0.097446606,0.0041136947,-0.05927928,0.054009542,0.007192327,0.1300064,-0.056577526,0.09965588,0.092444226,-0.14117289,-0.16129689,-0.13873127,0.039272364,-0.12532057,0.021406522,-0.009649669,0.10805235,-0.12484435,0.008267192,-0.14780805,0.064459704
39,-0.14227678,0.052717224,-0.09511159,-0.15817071,0.12561245,0.12787256,-0.099133156,-0.033667494,0.057681713,0.07291955,0.07780154,0.0023963281,-0.09414519,0.01102336,-0.13817076,-0.067092165,-0.0023626206,0.02056404,-0.10364128,0.00873095,-0.14565058,0.056957882,0.03256764,-0.036363967,-0.05709294,0.10100031,-0.01000903,0.08110615,-0.13317761,-0.084989525,-0.032076627,0.11308991,-0.15758467,0.022537418,-0.06884894,0.0022424615,-0.04161032,0.014065761,-0.05207622,-0.09878761,-0.039982054,0.080527216,-0.03394602,-0.087215565,-0.14449118,-0.07173174,-0.10875469,-0.0651096,0.008992039,0.07987741,-0.046649333,0.122121744,-0.14091417,0.08138573,-0.069151595,0.034435667,0.0605793,-0.08630856,0.0031950756,-0.06330222,-0.08104293,-0.083065905,-0.12513445,0.1389229,-0.031147135,-0.025606917,0.060790047,0.05801638,0.03659064,-0.13188678,0.117015064,-0.033716943,0.0758506,-0.025315413,0.06398293,0.010079043,-0.085049525,-0.04685717,-0.057972115,-0.08067261,0.11113545,-0.00087464077,-0.13298555,0.08925385,0.032606144,0.11451832,-0.0551129,-0.045447495,0.059885286,0.005922871,-0.034407943,-0.12023177,-0.13028942,0.053478405,0.08760584,0.041657973,0.009762304,0.07240617,0.045247946,-0.086262874
40,0.1213467,-0.07526109,0.06769502,-0.07858528,0.014003827,-0.065519944,-0.12013065,-0.10591619,0.12861916,0.014384758,0.10838867,0.045554955,-0.08104214,0.13996686,-0.11837445,-0.06523379,0.03954637,0.11206777,0.08498216,0.1174437,-0.12658715,0.055444237,0.15934356,0.11897687,-0.10720364,-0.064265735,-0.05551367,0.10330764,0.053921614,-0.03902003,0.13885061,-0.11993664,-0.008204054,0.14183429,-0.08389311,-0.05144041,0.055366054,-0.08362092,0.11340156,-0.17051204,-0.05219836,0.014916044,0.027039427,0.016421406,0.040937275,-0.10190581,-0.039871957,-0.06323245,-0.056326862,-0.1356989,-0.008775864,0.1918895,-0.07804336,-0.043442726,0.032240175,-0.043221902,-0.1125046,0.021014892,-0.08419638,-0.018246168,-0.13632795,-0.022200184,-0.09582889,-0.13724679,0.07002386,-0.1338628,-0.044222128,0.15939322,0.13785176,-0.05966236,-0.007939427,0.16242532,0.096097976,0.042406056,-0.040677655,-0.13069607,-0.07525892,0.10870305,-0.09993425,0.15753886,0.13159902,-0.023525765,0.01881181,0.049811862,-0.047047034,-0.07234828,0.15328898,-0.008268024,0.013612236,0.12628372,-0.03654932,0.02780627,-0.0021692002,-0.14474902,-0.025249135,0.11276635,0.12775642,-0.08288286,0.09155148,0.08532874
41,-0.01115497,-0.10371598,-0.15854111,0.04775265,-0.025538659,-0.07207688,-0.06513588,-0.03467978,0.12444751,0.11395582,0.09844652,-0.038028825,-0.030446013,0.14244899,0.089432895,0.06985706,0.1364679,0.032348305,-0.05574426,-0.056375552,-0.07169214,0.10950063,0.028140446,0.10269862,0.030877993,-0.090675384,0.029984627,-0.10686336,-0.049378112,-0.18890975,-0.016019445,0.051330555,-0.06032486,0.07609645,-0.15604827,0.075839475,0.107643306,-0.041026924,0.034711342,0.082594775,0.0131019885,-0.023831833,0.054337077,-0.104620524,0.019827882,0.1422043,-0.11700721,-0.06013185,0.022662774,0.037636857,-0.049544986,0.07442914,-0.0856077,-0.030562248,0.03556924,-0.070329495,0.08090302,0.05787843,-0.06518833,-0.05203928,0.0539283,-0.12842695,0.018164327,-0.09625824,-0.11179633,0.08900632,-0.06739358,0.17571545,0.000572678,0.08094234,-0.07706594,0.08676617,-0.15021937,0.113025315,-0.013256048,-0.12130252,0.07149225,-0.010261213,-0.07269111,0.05938471,-0.086774155,0.036201604,0.13173829,0.035093162,-0.12981062,-0.07220807,-0.07469053,-0.03235636,-0.10777649,0.09186432,-0.09598739,0.13994844,-0.115855284,-0.022093719,-0.12301866,-0.100057594,0.042620346,0.047384333,0.08660858,-0.042170636
42,0.048236147,0.038875114,0.07815617,-0.02568039,0.07418825,0.1033415,0.11955289,0.10369028,0.034948472,0.01649945,-0.005191942,-0.049062144,0.03761507,-0.1472834,-0.0034119233,0.014726265,-0.051590458,-0.023687249,-0.040588923,0.04311878,0.069076106,0.07849479,0.10913062,-0.05063173,-0.057700466,-0.067582056,0.09569646,-0.12380257,0.036891703,0.04420217,-0.16422868,0.12732029,-0.055212814,-0.11497539,-0.0005159624,0.101531826,-0.06514818,-0.07006932,-0.15649368,-0.06957832,0.00034607606,-0.12025179,-0.08136301,-0.066228636,0.09614421,0.042155214,0.13534011,0.1269271,0.13025205,0.09063029,0.041896436,0.14975156,0.055791814,-0.03279464,0.037219822,-0.072071396,0.0137971565,0.042750508,0.15603557,0.008175045,0.115771614,-0.12998381,-0.12680332,-0.07258378,-0.046126127,0.08926455,-0.09606716,0.08994271,0.031520613,0.123825856,0.021182049,0.09687469,-0.059503704,-0.016212322,-0.14859094,0.016246544,0.08249071,-0.037127137,0.10181695,-0.02930559,0.07642,0.08571504,0.0026245476,0.0026521736,-0.12946594,-0.16431358,-0.09832262,-0.110832274,-0.12201884,-0.1140854,0.023305254,0.0957844,-0.06796194,-0.00012884142,-0.1305891,0.12821542,-0.04194296,-0.11110524,-0.095947236,-0.047195297
43,-0.11667441,0.006920665,-0.0047559906,-0.020311208,-0.103666425,0.008899973,-0.039888177,0.1318502,-0.072208956,0.1296691,-0.09994356,0.02932134,0.11045416,-0.114734806,-0.062709495,-0.07998067,0.07843036,-0.034127083,-0.11111034,-0.1299513,0.07996437,0.020787554,-0.13481209,-0.069564156,0.012165384,0.05829818,0.09710484,-0.079917714,-0.052999154,-0.062233042,0.031543214,-0.029490456,0.07099434,-0.033116866,-0.036206756,0.07330381,-0.024123777,0.054155916,0.005206357,-0.03691752,0.028752334,0.08746707,0.062500596,-0.0735444,0.04131361,-0.11286317,0.036557067,0.07195167,0.15815021,-0.057855275,0.045925647,-0.09130339,0.070126176,-0.10557778,-0.15805157,0.10730681,-0.102160744,-0.14878558,0.12013536,-0.098952204,-0.0021991767,0.101063,-0.10016967,-0.072864816,0.02488218,-0.12771127,0.00764998,0.0052565117,0.17313577,0.0617377,-0.10168404,-0.036315534,0.009547693,-0.11260089,-0.12809147,-0.10759618,-0.061927583,-0.016776297,0.08396683,0.13154204,-0.0656297,0.016141005,-0.008278508,-0.14079241,-0.08554269,0.059295777,-0.025525823,-0.09644094,0.029033102,0.13660233,0.050942197,-0.0029436406,0.09213396,-0.016873568,0.05273379,0.10963476,-0.08110108,0.09582244,0.093135856,-0.07360936
44,0.13164335,0.13287565,0.14686088,0.09708457,-0.052548073,-0.07738633,0.015166343,0.059308268,-0.11548145,0.15145516,-0.13079087,0.05607252,-0.10867259,0.101418845,0.11833455,0.08763335,0.037754007,0.06370058,0.17298667,0.047146477,0.11212317,0.15320447,0.1643735,0.12165441,0.11783846,0.12417916,-0.019678323,0.08247923,-0.013639252,0.06877922,0.08569724,0.0717335,0.11674766,0.10569062,-0.07694354,-0.13689058,0.019126013,0.05926484,0.006091992,0.057282005,-0.05039284,-0.13728644,-0.029553737,-0.122980386,0.13214833,-0.14568266,-0.053717818,-0.074746676,-0.007452551,0.06510474,0.034179613,0.010665132,-0.04588571,0.06317858,-0.040984407,0.04370884,0.025830328,0.13648237,0.043589745,0.07626068,0.072274536,0.09760645,0.0682145,-0.058093637,0.0025411672,-0.12713607,0.08491347,0.040225096,-0.026466979,0.061485495,0.07840253,0.074522056,0.0901936,0.13237159,-0.065418236,0.0005512101,0.11273634,-0.007852783,-0.07765398,-0.031050831,0.05703975,-0.08276675,-0.20585859,0.034742724,-0.028633336,-0.026019624,-0.09740326,0.10040048,0.14476012,-0.018169245,0.07077843,-0.019959142,0.042825814,-0.085789375,0.084529,0.07245481,0.003488576,-0.07221828,-0.06985467,0.040018927
45,0.1461034,0.12420073,-0.11439678,-0.06931991,0.018694855,-0.09123652,-0.06486561,0.11923339,-0.041852824,-0.03746372,0.098513044,0.10397419,-0.018300032,0.13209155,-0.043429915,0.095635,0.1315483,-0.058963556,0.09336443,-0.13699995,0.12674753,-0.092058994,-0.059933465,0.16267328,-0.060647,-0.122695245,-0.052984286,-0.09291739,-0.052540768,-0.09971593,0.1184752,-0.017387543,0.04475838,-0.04593689,-0.029482313,0.06900318,0.13928084,0.012691688,0.1378998,-0.030586042,-0.13512856,0.006013981,0.03006604,-0.027657721,-0.12970899,-0.04391719,-0.03313452,-0.03851888,-0.15141535,-0.08145353,0.058198504,-0.025156109,0.060389545,-8.711402e-05,0.13497241,-0.093496576,0.04802528,0.022485122,0.004260468,0.14187747,-0.10819505,0.13681214,-0.0027957293,0.12148609,0.14794673,-0.087392755,-0.11196099,-0.07744369,0.015891206,-0.08161618,0.01374111,-0.047225315,0.067977786,0.014294199,-0.08356112,0.120915025,-0.023133552,0.08480511,0.10602661,-0.093964204,-0.03982087,0.12968855,0.07499285,0.118358284,0.11968847,0.10529439,-0.088710934,0.13304213,0.06768742,0.09106193,-0.12683655,-0.09112922,0.014231671,0.046443135,0.121068716,0.07962711,0.06574539,-0.12553498,0.020046594,-0.14948452
46,0.07434796,0.003744552,-0.092639595,0.13305388,0.14304456,0.08790183,-0.11804983,0.12168871,-0.015264912,-0.07594149,-0.05796476,-0.085535705,-0.041620195,0.12787125,-0.046932735,0.015025471,0.046379477,-0.025845328,0.057128917,0.05766207,0.122343145,-0.1600933,-0.07518458,0.1374799,-0.03252691,-0.13906646,0.010333036,0.12595597,-0.12834767,-0.098344274,-0.09467401,0.1106228,0.025965456,0.041424856,-0.008418242,-0.04297513,0.12196963,0.039615538,0.029774094,-0.09793231,0.12296071,0.0454428,-0.033866197,0.15345977,0.08220951,0.0128618525,-0.15161645,-0.12371139,-0.028591184,-0.14891592,0.121948704,0.052605223,-0.01957442,0.08656983,0.05140786,0.11928451,-0.031956073,0.038781352,-0.051899135,-0.029873105,0.11438498,-0.06597291,-0.10010819,0.106775336,0.021046637,-0.042266272,0.03606469,-0.0068762475,-0.010053063,0.12952083,0.04917969,0.028919345,-0.051604737,-0.016992312,0.0047179065,0.0059179654,0.06860967,0.116165265,-0.081896424,-0.084915556,-0.0010248311,-0.10989757,0.08656626,0.041968722,-0.11629079,-0.029086683,-0.009201378,0.1402288,0.13854676,-0.106155716,0.05109842,0.07771063,0.112649985,-0.060640335,-0.072773606,-0.064858384,-0.11899769,0.011832912,-0.033031125,-0.08163545
47,-0.10839043,0.08473526,-0.053779844,-0.16297795,-0.14699805,0.055399254,0.105915554,-0.08046437,-0.058148168,0.0006556095,-0.13401608,0.09110458,0.113908626,-0.1330451,0.09725058,0.06259391,0.100156136,0.13629179,-0.060591307,-0.040316157,0.06853783,0.024420572,0.018000886,-0.102472626,0.1284466,0.08412473,-0.12992917,-0.11522773,0.084917784,0.02415123,-0.010991291,-0.087029144,0.106085286,-0.056380022,-0.009780883,-0.013787567,-0.04701686,-0.06435376,-0.1208631,0.09978208,-0.030864693,0.03691667,0.10012821,-0.050904013,0.10275791,0.12823106,0.011612642,0.0138546955,-0.089703985,-0.1038704,-0.08859191,0.053520113,-0.027977772,0.01921801,0.043892946,0.06633347,-0.07602984,-0.07199597,0.043028045,0.0858669,0.12888797,-0.038577918,0.005440445,0.12754291,-0.08694071,0.010789496,0.037099686,0.031789858,0.048213106,-0.058831416,-0.025771445,0.065705396,-0.0705743,0.02415272,-0.06435202,0.00038593623,0.093791366,0.05463659,-0.066387065,0.11824024,0.018944623,0.0050364863,-0.082907096,-0.07813973,-0.06051575,-0.063631386,-0.044270292,-0.0026917395,-0.14195713,0.029335473,-0.08264667,0.07056629,0.03830439,-0.067250706,0.07140868,0.08913731,0.12087508,-0.15483485,-0.12323002,-0.051611073
48,-0.004649765,0.087820046,0.023073925,-0.0010750267,-0.0112296995,0.053556465,0.10215883,0.07149286,0.064898856,0.096253626,0.07143267,-0.031560212,-0.056338068,0.07711698,0.06200306,-0.049903013,0.03271132,-0.06977106,-0.028577046,-0.1261417,-0.1189233,0.031433083,0.14101894,-0.040321704,-0.1267763,0.11069597,0.12746646,0.089567676,0.08984877,-0.14082456,0.13489068,0.091044426,0.019694155,-0.05831921,-0.09361935,-0.1070553,0.049451593,-0.012292372,-0.00200079,-0.12020674,0.022713087,-0.11399439,0.111379445,-0.13008362,-0.0008546449,-0.1422274,-0.04235039,0.10409762,-0.09954401,-0.045031644,0.05015856,-0.031052632,-0.01707558,0.13996802,-0.0983026,-0.06222319,0.11819747,-0.0075443746,0.09462527,0.08101527,-0.15025166,-0.01750465,0.026774537,0.027769336,-0.07005174,0.01777123,0.113295026,-0.06920855,0.12932779,0.04103304,0.12838864,-0.15944046,-0.13271408,-0.011340587,0.066353194,-0.14258592,-0.03605073,0.025755588,-0.07336844,-0.09457604,0.016554417,-0.06734944,-0.07448909,0.0968946,-0.14390655,-0.0895441,0.045163393,0.019799791,-0.061011143,0.03599751,-0.10838752,-0.114200205,-0.03010675,-0.14583594,-0.02989186,0.12125347,0.08906286,-0.06452601,0.06733809,-0.11982948
49,0.03280537,0.029049754,-0.15342595,0.05430807,-0.15541972,-0.07710132,0.046816334,0.11402519,-0.0695873,-0.050033458,-0.111450806,0.08191438,0.017342443,0.088422045,0.12287339,-0.1497412,0.06749745,-0.12203675,-0.042097032,-0.13474205,-0.11981679,0.116278976,0.09825509,-0.12074007,-0.1376902,-0.11936745,-0.09091546,0.07140233,-0.042816315,0.021522043,-0.012243486,0.10604396,-0.06141443,0.031990033,0.035711993,0.043864805,0.01950396,0.0037123193,0.046869546,0.085610725,-0.09480877,-0.11783521,0.025004717,0.14371046,0.06120452,-0.16572517,0.08567062,0.0045931065,0.10017275,0.056517154,-0.049279824,0.004987486,-0.07258002,0.049123876,-0.057431556,0.10284763,0.05569439,0.05047217,-0.021746958,0.0038051435,-0.08205376,-0.15597531,0.0426632,0.1029113,0.11507621,0.102216825,0.008488606,-0.005791192,-0.08301982,-0.088039234,-0.15784669,-0.10012356,0.015442368,0.005376263,0.066814885,-0.13298704,-0.080962285,0.087963596,-0.04850898,0.018551806,0.07970818,0.09139195,-0.12665035,-0.07699466,0.11575852,0.11730003,-0.11774324,0.07777607,-0.0028491959,-0.075428754,0.04610733,0.1515473,0.05455722,-0.12462914,0.018564356,-0.021449976,0.13714972,-0.015728917,0.084458046,0.11184177
50,0.072304934,-0.011519817,0.06378687,0.0048245457,-0.12385438,-0.05179835,0.11670718,-0.09160466,-0.13417435,0.08596476,-0.09835185,0.114340946,-0.034931965,0.071547486,-0.065853976,-0.019655496,0.07221471,-0.034598395,-0.06818771,-0.09056438,0.061890084,-0.11708704,0.056544162,-0.10240476,0.10703394,0.13951023,0.10695608,-0.031010732,-0.08600864,-0.09442615,0.0047499216,-0.0058900667,0.13308284,-0.10538383,-0.10635029,-0.06178616,0.09309112,-0.078535646,-0.0606644,-0.013659193,0.096820086,0.097287305,0.03895358,0.026742399,-0.1230781,0.086560644,-0.0020338653,0.08367423,-0.06277772,-0.11116901,0.11137525,-0.04552186,-0.0049296734,0.01693434,0.05860799,-0.060284622,0.07105505,0.05849258,-0.06362968,0.03798817,-0.09570796,0.14098251,0.024422178,-0.038165204,0.05998832,-0.043638095,0.084353514,-0.11505673,0.13900442,-0.009187681,-0.104824275,0.013865065,-0.06938839,0.013888885,-0.0463625,-0.097136855,-0.12275093,0.11763971,-0.09011865,0.044582713,0.031843245,0.021558939,0.09913356,0.056117445,0.073276095,-0.08011016,-0.05802901,0.043658044,0.12475072,-0.0036059988,0.05062811,-0.09259592,-0.059333805,-0.0028779102,-0.10473241,0.065111436,-0.03995975,0.005976106,0.040458616,0.058998797
51,-0.08751684,-0.015634898,0.041953515,-0.065038696,0.109087944,-0.05235207,-0.16405752,0.008562121,-0.1461566,0.07476351,0.01631437,0.09077668,-0.02590965,0.097967684,-0.09120321,0.043107495,-0.03888096,0.019670187,-0.1439177,-0.16378787,-0.044724807,0.113872916,0.09248733,-0.09447542,-0.13971817,-0.12670352,-0.08668304,-0.01967988,-0.13729762,-0.15552813,0.0035969857,-0.09914484,0.055529803,0.02126489,0.12338735,-0.1373882,0.086226106,-0.14019378,-0.12683366,-0.01995691,-0.08067595,0.067917086,0.08292436,0.1136245,-0.031172896,-0.0336204,0.07687495,0.039985448,-0.022251619,-0.016411843,0.028366145,-0.08181017,0.13325576,0.13917331,0.05248556,-0.03791568,0.020640887,-0.0009850216,0.15487075,-0.096689574,-0.08017033,0.10706444,-0.0984213,-0.13817814,0.11188344,0.042957347,-0.039367985,-0.14589553,0.08483834,-0.15504928,-0.1432485,0.07832712,0.0050104954,0.05779648,-0.10911126,0.14209938,-0.11373509,-0.096923694,0.12547827,0.12338925,0.07041943,-0.115563504,-0.04945534,0.08870729,-0.033628017,0.028666578,0.078290835,-0.04228385,-0.11982632,-0.026413238,0.13688861,-0.093371056,-0.0074670855,-0.11222054,-0.06206854,0.03957122,0.01141686,-0.02926717,0.12436439,-0.14021182
52,-0.12802391,0.05125004,-0.018775381,0.009766256,-0.06451776,-0.022390692,-0.15283917,0.03227501,0.04615536,0.090322666,-0.031000387,0.07204475,-0.09925805,0.005642838,-0.106305085,0.047559135,-0.0030334415,-0.12652583,0.10536659,0.043526605,0.08921809,0.07365481,-0.101773866,-0.04213851,-0.15164992,0.07854447,0.07890931,0.14954968,-0.1133361,-0.06244739,-0.0740695,0.030575182,-0.14690678,0.03813628,0.049606077,0.09420975,0.023634342,0.07893902,0.089854784,-0.10714698,-0.17085296,0.03818268,0.03623705,-0.15914118,-0.10296983,-0.028879615,0.077220015,-0.044649445,0.038296543,0.11163019,-0.12734,-0.121261545,0.055894703,-0.040067594,-0.066103354,-0.019211732,-0.06408808,-0.066711016,-0.029427944,0.073759,0.08903888,-0.08599626,-0.14499003,0.0805018,-0.04806708,-0.056486234,0.029562403,0.12596999,0.014805974,0.0060501355,0.007118283,0.06400505,0.13943823,-0.0039977394,0.012254598,0.09449573,0.011642541,-0.10230622,0.13492823,0.07361734,-0.10592152,0.033695757,0.041027304,-0.0051557748,-0.055580832,0.036007203,-0.08353732,-0.07241806,0.017107338,0.096685484,-0.033131827,-0.10424301,0.1453213,0.05794481,-0.043155275,-0.06672783,-0.105525814,0.093791164,0.055227626,0.029171737
53,0.05351849,-0.11881682,-0.03694923,-0.088846914,0.1061551,-0.0471919,0.13970059,-0.13549514,0.1128592,0.12171021,0.12897696,-0.06545922,0.09833765,0.06037658,0.11531498,0.07777864,-0.15780722,-0.099657305,-0.057147898,0.065177016,0.06324264,-0.09847756,-0.09569723,-0.11098206,0.105110094,-0.04429358,-0.056257676,0.013046172,0.115375616,0.10464698,0.13202582,-0.10207537,0.026951136,0.049175683,-0.1012157,0.060887028,-0.023379432,0.08997459,-0.13359137,-0.07073168,0.16661707,-0.0982951,0.052169092,0.052419666,-0.013899058,-0.100330666,-0.15671316,0.007920622,0.021820089,-0.04662697,0.06724862,-0.029975336,-0.08410496,0.007856213,0.014436086,0.038561802,0.025573695,-0.03524107,0.16393526,-0.07127465,0.025350476,0.033394285,-0.058167223,-0.044329688,0.03459252,-0.06713313,0.14474763,0.12786362,0.13110684,-0.024004834,-0.03151628,0.020851506,-0.06817162,-0.03407377,-0.043750346,0.041642427,0.0990846,0.12829134,0.010489723,0.037750944,0.12397821,0.077823296,-0.025197426,0.10179102,-0.091989845,0.05261368,-0.11044985,-0.18409877,0.026012504,0.073215574,-0.012890176,0.14592785,0.12776075,0.062670276,0.036728717,-0.12583862,-0.09949935,-0.058542337,0.14038947,-0.07916062
54,-0.091138326,0.014156734,-0.024431584,0.11308753,-0.12104511,0.12876764,0.07521303,0.0697982,0.041359656,0.0511099,-0.11793697,-0.10729908,-0.09304503,0.043423917,-0.016830876,-0.04709015,-0.13752519,-0.0016940173,-0.119885355,0.005313046,0.016004274,-0.031432483,0.08640756,0.042972296,-0.113624394,0.14065458,-0.13478345,0.1204699,0.033862475,0.04813224,0.03747213,0.07093874,0.076101646,-0.13386366,-0.09500384,-0.13651219,-0.1480403,-0.1648799,-0.043361936,0.071645364,0.075025015,0.12755838,-0.11481452,0.10450194,0.04540339,0.13717052,-0.13608529,0.08243731,0.12878093,0.22314662,-0.0062131234,-0.095120385,0.02550966,-0.06372887,0.120456606,0.07415004,0.03937348,0.08261716,0.12253946,-0.08235781,0.117488794,0.12720239,-0.12306362,0.11193181,-0.12627889,0.055047143,0.09909384,0.11012893,-0.13796556,0.109228574,-0.03569697,0.07608031,-0.08324458,-0.021188544,-0.042906303,-0.03965429,0.1100383,-0.037261963,-0.059681486,-0.12095509,0.02994581,0.10907297,-0.018693147,0.050237384,0.037406694,0.08905098,-0.14866096,-0.12201261,-0.064073786,0.01179678,0.10737772,-0.08436194,-0.040765867,0.00087845133,-0.04463014,0.12647492,-0.12631135,0.051639438,-0.050827388,0.022331608
55,-0.080685265,0.07596531,0.005070249,-0.016419707,-0.13836725,-0.13486764,-0.038536932,-0.13312025,0.12003202,-0.11990411,0.13854961,0.03765142,-0.15584317,-0.057889566,-0.06770581,-0.11045493,0.007890809,-0.050742313,0.038769387,0.12051131,-0.05134302,-0.08652786,-0.021994356,-0.19430494,-0.010897839,-0.058926404,-0.1238352,-0.10544399,-0.09828143,-0.10772644,-0.13119972,0.11872799,0.028181762,-0.049373295,-0.108627506,0.011384303,-0.03135458,0.12348105,0.07112542,0.0792074,-0.10901531,-0.007296066,0.07402803,-0.08784725,0.060267232,-0.094063304,0.12181645,0.11759583,0.06722807,0.19410625,0.10539177,0.15179573,0.049499262,0.13607326,-0.15066686,-0.026556686,-0.028668964,-0.14783624,-0.12956363,-0.12371314,-0.02355571,-0.061850827,0.06772249,-0.13614331,-0.11111512,0.10222321,-0.026516205,0.041968457,0.0010511278,0.10461196,0.12301244,-0.14803104,-0.120459266,-0.0520571,0.15293874,-0.05538698,0.100747585,0.04405144,-0.15188132,-0.0962181,0.12448936,-0.057055157,0.006481748,0.108381934,-0.04565758,-0.031528167,-0.086470895,-0.03436275,0.029607218,0.049419682,0.027030677,0.09938917,-0.0037584605,-0.1582673,-0.12851515,0.03610148,0.07715308,0.011474702,-0.018463291,0.06540183
56,-0.057087105,0.027107857,0.025045488,-0.042994782,0.010565498,0.035249222,0.07108117,-0.06589378,0.10069597,0.007247393,-0.046682306,-0.0075930767,0.038522698,0.16711119,-0.10110727,-0.05010868,-0.10553917,-0.038765736,0.019282658,0.021814262,0.113002844,0.11244512,0.10832658,0.19020702,-0.026680147,-0.1048509,-0.045666523,-0.11246191,-0.0684251,0.051749438,0.071130596,-0.11361287,-0.038355697,0.086547345,-0.11737028,-0.15788612,-0.027810378,-0.058571137,0.06622654,0.0805671,-0.13382444,0.03634877,-0.042480387,0.114752434,0.058069382,0.114964135,0.110187985,-0.12951523,-0.049612228,0.06219585,-0.10072775,0.14708345,0.019314846,0.09977699,0.10717849,0.14345488,0.10396958,-0.10465522,-0.023706628,0.11327224,0.12089398,0.086162776,-0.07687684,-0.06806184,-0.038171094,-0.08346123,-0.036734466,-0.1305676,0.090937234,0.05663813,-0.09215551,-0.046757236,-0.09003202,0.11771751,0.044786163,-0.034056578,-0.07370585,-0.030186726,-0.076932535,-0.018946636,0.08406022,-0.044330698,-0.17225623,-0.09788184,0.041747715,-0.10107565,0.00084516406,0.0052070925,-0.0895876,-0.069443904,-0.06454066,-0.14521731,-0.01834664,0.053237863,-0.08545691,0.063834354,0.08766237,0.06445377,-0.11754849,-0.020610422
57,0.16209254,-0.14402387,-0.038948826,0.036003195,0.03496981,-0.051431917,-0.074791044,0.015069155,0.03313839,0.110770345,0.067015804,-0.013626557,-0.037753776,0.004428954,0.09561758,0.10745243,0.10942578,-0.08351164,0.053865425,-0.071193606,0.13948922,-0.030488988,0.11009835,-0.050766025,-0.07890958,-0.13556069,0.01610651,-0.10014291,0.07341665,-0.054970756,-0.18342662,0.0770187,-0.020925492,0.14068519,-0.09690034,-0.07431977,-0.038604125,-0.12746349,-0.062394146,0.02607099,-0.051281646,0.0903228,0.08524986,-0.064952195,-0.118730575,0.034648463,-0.005295688,-0.0726544,-0.025718365,0.12917395,0.0077499966,-0.12846579,0.03098577,-0.049153063,-0.10926958,0.0011019725,0.029341012,-0.091819055,0.014939338,-0.0026731805,-0.018520992,-0.08726123,0.089249946,0.0706165,-0.07714487,-0.11669701,0.117946655,0.14113167,-0.020039164,-0.11507643,0.07646774,-0.0076905917,0.11119829,0.06290574,0.1190891,-0.0048571853,0.09803461,0.008219514,-0.059733216,-0.072369486,0.026264949,0.0099339755,-0.09160081,-0.10506755,-0.09182107,-0.011246101,0.06797917,-0.028063267,0.14617933,0.103722915,-0.120606005,0.091706246,-0.17641108,-0.13992575,0.1375534,-0.018588314,0.061728667,-0.0367203,0.14058271,0.0231442
58,-0.0347088,0.036176953,0.101445116,0.021885687,-0.043672867,0.030394018,0.059625126,-0.10498963,-0.028765839,-0.049721826,0.042455353,-0.14339314,0.08850549,0.01077888,-0.04925975,0.13866194,-0.060188048,-0.012714753,0.026781352,0.06095684,-0.04451711,-0.06627055,-0.14008051,0.0143081155,0.055783812,0.05229564,-0.08437486,0.016544035,-0.04049543,-0.10054681,-0.18140872,0.08520508,-0.009539568,0.07591649,0.09915324,-0.077651516,-0.06993018,0.034197483,0.108252004,-0.0058658794,-0.15332285,0.0686678,-0.045165535,-0.09279147,0.059946347,-0.025545003,0.048074186,0.052470643,-0.029021008,-0.015988585,0.029032217,0.037754815,0.022091053,-0.058230378,0.06800072,-0.139847,-0.080963515,0.15355954,-0.075064555,-0.046287388,-0.09421899,-0.14619577,-0.08533509,0.031522404,0.023466408,0.039677847,-0.10482303,-0.022162298,-0.06443185,-0.088082395,0.074370615,0.077311605,-0.05220207,-0.06995266,-0.13536347,0.019521797,-0.10693949,0.12856576,-0.09207837,0.053290054,0.06942622,-0.13022362,-0.19716531,0.10968298,0.040819097,0.092196554,0.05694446,0.04828041,0.060636148,-0.029324178,-0.035851136,0.05445153,-0.0038604636,0.04866417,-0.025181005,0.16355374,0.00585818,0.07724986,0.017249119,0.005272761
59,0.009467352,-0.07053213,0.005870918,0.054649003,-0.12360564,-0.10893344,0.028190313,0.14912917,-0.00089659163,0.011904293,-0.15020841,-0.16094726,0.110586606,0.020728843,-0.039268352,-0.111730404,0.0009535945,0.0611615,-0.09345995,-0.062576465,0.04407851,0.10046222,0.011377733,0.03859808,0.028208612,-0.12213487,-0.09179114,0.12616205,-0.021964546,-0.030089999,-0.1355706,0.0016164778,0.106579274,-0.14168136,0.109752156,-0.024845425,-0.109904215,0.120551415,-0.104359485,-0.06590484,0.070257805,0.0029406091,0.05302942,0.12503232,0.11331886,0.04342093,0.023853267,0.01353565,0.014207042,0.1268141,-0.015111503,0.17305289,0.02469002,-0.001722042,-0.13775225,-0.047819767,-0.051826656,-0.12811677,-0.028842105,0.07096306,-0.10591669,-0.14451176,0.05936756,-0.044021066,-0.0055676997,0.023213662,0.14435753,-0.030441104,0.09504184,0.016344251,-0.04332693,0.027255647,0.106359385,-0.07513879,0.09134143,-0.052795965,-0.07864949,-0.0732532,-0.10479336,-0.10974512,-0.12681451,0.14179683,0.09445321,-0.08159204,0.10484345,0.12696245,0.1038578,0.11094572,0.03791599,0.12492059,-0.13744444,0.015112824,-0.002194088,-0.015687246,0.043985266,-0.009902616,-0.11131323,-0.062786676,0.14033625,-0.046058986
60,0.14184062,-0.12552382,0.039201424,-0.064600095,0.15251008,0.07245828,0.033580966,-0.018536136,-0.056543022,0.051637474,0.0054576867,0.059927203,0.10040026,0.07237246,0.09760091,-0.10755122,-0.13213523,0.06273226,-0.05689113,-0.052848432,-0.0015931351,-0.111325055,-0.032268405,-0.06083981,0.0198304,0.1085192,-0.1229159,-0.12209748,0.016924758,-0.16452509,-0.04004654,0.15685913,0.15060884,-0.09434351,0.05930084,0.0066291196,0.06929625,-0.0065402966,0.025853246,0.115013465,0.034657985,0.07004237,-0.14462154,0.114489354,-0.079862714,0.0016954489,0.10669834,-0.10050085,0.13882431,0.10637433,0.13953634,0.029979821,-0.094785795,0.05738797,0.008143973,-0.037037555,-0.02298273,0.04886391,-0.13819525,0.138549,0.01613227,-0.05807521,0.06836949,0.09107227,-0.13992329,0.03277641,0.11458861,0.084875934,0.15789889,0.033929195,-0.027846554,-0.033017732,0.12771301,0.07517174,0.056840647,0.0846536,-0.1108154,0.116577424,0.08154964,0.05624525,-0.08227605,-0.023941802,-0.014053153,0.13659959,-0.12785238,-0.0483396,0.13232382,0.07754653,-0.11979188,-0.14112936,0.033501685,-0.044211946,-0.014915289,0.12907605,-0.08244317,0.1085328,0.030458523,-0.05586512,0.016359722,-0.14607787
61,-0.10881997,-0.09443136,-0.089464314,0.07054914,-0.114076786,-0.11329251,-0.016979458,0.10752166,0.010759238,-0.077795535,0.03199002,0.062273532,0.12718952,-0.1049666,0.06577606,-0.0954938,0.01341064,-0.1660468,0.02277202,0.092587136,-0.05094609,-0.093102284,0.011697906,-0.09333341,0.02675316,0.112366915,-0.0704256,0.08484097,0.09854874,0.0855347,0.15815344,-0.046689678,-0.12671976,-0.017217474,-0.037796617,0.051202085,-0.052978173,0.02013896,0.09068739,0.09777616,0.10872771,-0.021516802,0.08443108,0.058486637,0.06704762,-0.019161547,0.08904002,0.00022132884,0.050286643,-0.006789718,-0.04188091,-0.03103646,0.076046854,-0.106715776,0.053732187,-0.04123154,-0.14701068,-0.09945425,-0.049002454,-0.023905845,0.01645291,0.020799499,0.10500393,0.16293216,-0.029232707,-0.08138835,0.025830552,0.035630282,0.08945962,-0.021176038,-0.032097533,-0.15614398,0.051542196,0.034372702,-0.05676385,0.06495081,0.05284641,0.12555256,0.0013925316,0.0016167514,-0.011906435,-0.06349694,-0.15136789,-0.0018626455,0.147343,0.05549908,-0.074098416,0.04449229,-0.12600695,0.11260471,-0.051311567,-0.13907687,-0.08809118,0.02937524,0.03227186,0.050210975,0.05137192,0.06649722,0.11572815,-0.0051382617
62,0.011023008,0.06425191,-0.086248256,0.14254417,-0.1231558,0.02887961,-0.093762696,-0.01002337,0.04368004,0.0845258,0.06788171,-0.03102573,-0.07676521,0.0010653413,-0.009721225,-0.09286332,0.13911682,0.09977933,-0.029818507,0.06641473,-0.092173845,0.077245936,-0.11066412,0.10917302,-0.0775626,0.017295586,0.13651194,0.007282359,-0.14491324,-0.116022795,-0.084536366,-0.0052108234,0.0984846,-0.098062254,-0.14329323,0.036686383,0.11749355,-0.058670472,0.12891176,0.053401284,0.14155656,-0.11941068,-0.0025435274,-0.048794154,0.024277866,-0.12093267,0.129114,0.12944818,-0.04850537,0.14085293,0.08578153,0.11933778,-0.015209595,-0.09451755,-0.014268789,0.12798102,-0.080028296,-0.07559135,0.12341568,0.11877481,0.11194197,0.07894138,-0.0682206,-0.10571305,0.065189004,-0.04952296,-0.12867345,-0.051398143,-0.12467623,-0.115999125,-0.022050863,0.031115139,-0.05328554,-0.05963362,-0.049338646,0.09604081,0.053881437,-0.012894095,0.06731049,0.11700896,-0.046640694,-0.09962759,-0.13692667,0.026777664,-0.08937561,-0.08640642,-0.12743464,-0.04726706,-0.1353886,-0.11561635,-0.015844189,0.015526956,-0.05598269,0.053341348,-0.11390565,0.057474066,0.1368166,0.093410835,-0.10516554,-0.015563796
63,0.15398887,-0.061990708,0.112619,0.008035615,0.095230296,0.007200999,-0.03217012,0.107415594,-0.16701803,0.053911716,0.07060346,-0.13737898,-0.14885116,0.11870417,-0.08158527,-0.042622354,-0.009040145,0.07730928,0.095639706,0.1390823,0.022060327,0.069028236,-0.09264343,-0.03196187,0.02854874,-0.09054841,0.00791295,-0.10842049,-0.097685926,-0.061021294,-0.035616998,-0.110237665,0.109817035,0.12784608,0.10777099,0.14289887,0.08708149,0.11833915,-0.09848577,-0.119241096,-0.10251753,-0.046519402,0.09697335,0.08515495,-0.088427804,-0.021568375,0.07879405,0.13417363,-0.062032875,-0.05202837,0.11708715,-0.016377553,0.10570585,-0.05632913,-0.021822881,0.02595252,-0.11923633,-0.050235167,0.12367764,0.12499586,0.09191502,-0.084522896,-0.06592199,-0.053976446,0.10231618,-0.04705581,0.09614585,0.099605024,-0.14590469,-0.076791614,0.06530686,0.030959966,-0.11381209,0.13928376,-0.06646589,0.0589959,0.052344542,-0.05352191,-0.090039,-0.10177986,0.08463662,-0.03544101,0.13052164,-0.1271064,0.08228881,-0.042876247,-0.09900811,-0.14942859,-0.12725197,0.04185714,-0.026428321,-0.15321614,-0.040681288,0.018836038,0.098095044,0.03990848,-0.0279979,-0.09686449,-0.12960066,-0.06375956
64,0.06925958,0.033313494,0.012813284,-0.14539477,0.17273559,0.15286785,0.14387003,0.0568899,-0.12794445,-0.14526208,0.023372266,-0.09303222,-0.10910433,-0.10000047,0.14993373,-0.033307027,-0.08726519,0.011258144,0.0074138097,0.031794023,-0.14397068,0.0670949,-0.07978734,-0.12290164,-0.12797955,0.029636558,0.01759359,0.13882583,0.128973,-0.14246178,-0.040134095,-0.0050052623,-0.13541573,0.09088769,-0.0068007763,-0.12593178,0.021040667,-0.09019512,0.05597759,0.063388854,0.044602502,-0.05834986,-0.07987082,0.082068354,-0.0061221444,-0.1421987,0.18907449,-0.06572223,-0.14672908,-0.11706059,0.00512165,0.12965204,0.15094677,-0.13785158,-0.053854518,-0.018320726,0.07792467,-0.013254425,0.0050646323,0.042652164,-0.12720376,-0.107447885,-0.13325255,0.1510515,-0.081211,-0.07185049,-0.013189359,-0.068868786,-0.106901,-0.11855287,0.019594977,-0.1340413,-0.01664422,0.12204578,0.068340674,0.075008065,-0.09662458,-0.07111907,-0.10304781,0.12839872,-0.007354751,-0.05201797,-0.09955169,0.11636636,0.027515963,0.1394903,-0.13642591,0.0837157,-0.06881599,-0.06009863,0.08974781,-0.1388156,-0.06424435,-0.15769587,-0.10161304,-0.12575245,-0.080251664,-0.07634119,-0.12658766,-0.12372778
65,-0.1428406,0.05742364,-0.1399474,0.144375,-0.07186822,0.07303112,-0.1023669,0.11662429,-0.028014598,0.031927157,0.0066208113,-0.13748296,0.024204072,0.12277689,0.15109563,0.13274835,-0.008011325,0.11521602,0.11873757,-0.10822181,-0.011645365,-0.14076716,0.009876598,-0.026936216,-0.12601173,-0.13873006,-0.11527035,-0.04949252,-0.0026886296,0.13579495,-0.014078402,-0.052445006,-0.13222139,0.029780991,0.09139471,-0.11243271,0.02298527,-0.12234309,0.08477456,0.10112327,-0.0027400726,0.048776645,-0.03899446,0.06905305,-0.04188722,-0.0070060105,0.13690822,-0.014009804,-0.023664458,-0.047479063,-0.08349008,-0.13460109,-0.04781227,0.122531,0.11532426,0.11429798,-0.09599638,-0.1502927,-0.1369489,0.038501285,-0.060626052,0.09817756,-0.00086674106,-0.021760345,-0.072348334,0.049530398,0.08772118,0.107875936,0.1222392,0.11190933,0.004084353,0.003681441,-0.11348747,-0.12625399,0.14788331,0.037232734,0.06667429,-0.07361867,0.11697371,-0.005376459,0.043913864,-0.10581051,-0.10531765,-0.022147126,0.12804809,0.108455434,0.017861336,0.10584793,-0.08984054,-0.06435505,-0.05050025,-0.046905205,-0.14312033,0.018109264,0.010346097,0.057907593,0.03949667,-0.006872405,0.0303832,0.04107734
66,0.026215935,-0.06646843,0.10791532,0.1288021,0.1499402,-0.012094683,0.107584976,-0.013745605,-0.062214132,-0.065176494,-0.011983089,0.0725405,-0.1274793,-0.110659055,-0.0877957,0.109846815,0.058586143,0.03398201,0.1600545,0.11159651,0.08050324,0.09581067,0.04341788,0.06437956,0.084015526,-0.0728761,-0.0590994,0.11471474,0.10044158,0.14745232,0.07456282,0.06867401,0.015594362,0.07912793,-0.05773691,0.07929251,-0.020094348,0.112486675,-0.0876478,0.057661835,0.064582676,0.010320876,-0.062885724,0.06949599,-0.08830159,0.11275957,0.03278509,0.080804154,0.08746951,-0.07747001,-0.12717539,-0.083635844,0.0281323,0.16208725,0.002050511,-0.02163878,-0.016354838,-0.13968031,0.09472128,-0.037099235,0.0008375878,-0.10076281,0.10780068,-0.10661928,0.1388829,-0.03016723,0.024565687,0.14816087,0.07330849,0.023826044,-0.05975102,-0.027551819,0.09117535,0.03245121,-0.030097976,-0.097755834,0.09949164,0.1424446,0.020178622,-0.016681496,0.12835778,-0.010250569,0.12841226,0.08007522,-0.06770979,0.1454907,-0.039506078,0.007956865,0.03997095,-0.051256996,0.061065312,0.024887169,-0.047873158,0.105756566,0.09232061,-0.026725117,0.02830966,0.066051655,0.0779175,-0.07051994
67,0.014484739,-0.13355319,0.012750186,0.093368195,-0.004286139,-0.03626134,-0.07332818,-0.11564551,-0.062992536,0.004706257,0.15323524,0.053960837,-0.0259108,-0.10972675,0.14868411,-0.12497089,0.12755251,-0.01827098,0.014838685,-0.11489314,0.029214786,0.02991428,-0.055956643,0.06423927,-0.052499656,-0.13348608,0.15388077,0.030787345,-0.06764442,0.004516463,0.0051834225,0.11950172,0.13042083,-0.023553332,0.021779666,-0.03025076,0.12186786,0.12568773,-0.025576934,-0.14319657,-0.103862,0.09436242,0.010664523,-0.113126084,0.06661435,0.04121447,-0.01759274,0.0786437,-0.06531045,0.0040193424,-0.1034415,0.051678687,-0.048513994,-0.11213329,0.102410465,0.119653225,0.10842547,0.11644769,-0.07871197,-0.128369,-0.014870263,-0.06388386,0.034383427,0.11556057,-0.10332741,0.021109276,-0.116713114,0.06667624,0.12563138,0.13564372,0.09606269,-0.046602674,-0.07962495,0.009406288,0.060651276,0.116410315,-0.10362521,0.040080484,-0.06724638,-0.067374654,-0.019494785,-0.12970845,-0.017123802,-0.14233859,0.1759458,-0.10898127,-0.000640139,0.032674354,-0.063789785,0.04245185,0.10732318,-0.11833224,-0.0028158098,0.10585516,0.06711477,-0.14226472,0.12671837,-0.0024704454,-0.06742915,0.05070165
68,0.037959173,-0.05952903,-0.0714143,0.11729618,-0.12044509,0.020633714,-0.002536086,-0.07255497,-0.1125549,0.10318891,0.091816776,-0.124127924,0.13993481,0.10033863,0.1579975,-0.1426769,-0.011169582,-0.126714,0.13238782,-0.023437701,0.14851107,-0.04473467,-0.06656203,0.033394348,0.15948062,-0.030969573,-0.047246974,0.00251657,-0.019088153,0.12756905,0.0800352,0.12350292,0.10461731,0.066788286,-0.06888176,0.0064113755,-0.09763204,0.07655687,0.0416957,0.08010939,-0.12677252,0.14398143,-0.021048043,-0.004840897,0.063116044,-0.002104021,-0.0035255419,-0.08911581,-0.05525557,0.10757226,-0.037115805,-0.13955851,0.14362872,0.14621758,-0.12194233,0.003545111,0.025152389,-0.07846769,-0.14572118,0.00768932,0.07767152,0.102114506,-0.14000916,0.081263095,-0.12838675,0.031532798,-0.12540798,0.113584995,0.0039609745,0.11012636,0.015784796,0.1453154,0.10393901,0.10934072,0.14321999,-0.10558043,0.16708837,0.09127746,-0.10772238,0.005740558,-0.13744456,0.116683714,0.021983067,0.088457726,0.055554774,-0.030633397,0.0034682602,0.12887892,-0.007875119,0.0319397,-0.025339259,-0.09691118,0.0077813785,0.02879068,0.043868124,-0.075718254,0.029111812,0.08206077,0.13261925,0.10034404
69,-0.099896654,0.022316959,0.032193653,0.043606505,-0.020047473,0.11870765,-0.07462356,-0.1603143,-0.0700485,0.094177596,0.03595732,0.07219557,-0.15674107,0.012270317,0.050385725,-0.13081557,-0.07741735,-0.0629255,-0.12829383,0.13468698,0.034626182,-0.043843593,0.01864265,-0.09278883,-0.011665992,-0.09633518,0.11430752,-0.12146749,0.038220745,0.016355291,0.010927984,0.03419817,0.1188319,-0.061610863,0.071889244,0.033329137,0.094982296,-0.16062573,0.06878601,-0.13167828,-0.10563636,0.11753263,0.035352316,-0.05940691,-0.08659469,0.030257251,0.07249918,0.043011732,0.13301373,-0.11351349,0.08952687,-0.0558026,-0.048377495,0.020121396,-0.026818933,-0.043657836,-0.07944979,-0.13370089,-0.12915172,0.008557238,0.07758156,0.10534017,0.10155349,0.123201594,-0.04966663,0.1359,-0.12161666,-0.06215175,0.047331855,0.011390718,-0.026790934,0.004218386,0.080630325,-0.05667274,0.07372194,-0.114745826,-0.050821174,-0.04779967,0.0050179353,0.14392048,-0.08642273,0.13648853,0.005654202,-0.0741588,0.04773535,-0.15037766,-0.052659854,0.1001978,0.070868544,-0.08262848,0.00038729885,-0.1270138,0.0970108,0.093417645,0.0031508117,-0.021145862,-0.031370196,-0.079409,0.04449243,-0.024281843
70,0.10386748,0.11142347,-0.040690977,-0.016629128,-0.0082846945,-0.13549864,-0.05228746,0.051732697,-0.004124309,-0.06777939,-0.14133707,-0.062560044,-0.08554423,0.0151565205,-0.12246851,-0.12890168,-0.007154635,-0.05290932,0.029029777,-0.021003095,-0.1257187,0.028035576,0.022847144,0.14427882,0.13062322,-0.11099962,-0.043804236,-0.08775679,0.022031665,-0.076986685,0.0056442623,0.18898918,-0.00554751,-0.123361066,-0.046957254,-0.05053493,-0.1424211,0.019824974,0.087045126,0.04539486,-0.09312996,-0.17604819,0.024383882,0.026356261,-0.0006817273,0.12675287,0.013971443,0.0035511474,0.13024287,-0.10749016,0.067763224,0.04886492,-0.08552334,0.104741976,-0.06275046,-0.087459415,0.09478675,5.3864092e-05,0.0020827423,0.08781267,-0.107875586,-0.075757705,0.15185088,0.12603985,0.063775755,-0.09706571,-0.031527933,0.0068861363,0.0076759206,0.080393545,-0.0050531887,-0.113965034,0.02379716,-0.13466221,0.021535318,0.0691532,0.04081286,-0.07796445,0.03524957,0.07330212,0.089736,0.03989534,0.12165794,-0.12299455,-0.0942418,0.18626961,-0.016657531,0.0600926,-0.14588504,-0.055167843,0.05517311,-0.13209443,0.09101285,0.059774917,-0.102044046,0.077264324,0.023055715,0.14856833,0.09476271,-0.016300324
71,0.13567324,-0.16802748,0.08777256,-0.07250255,0.05830491,-0.11279109,-0.052942857,-0.15249632,0.045556825,0.111319825,0.02288854,-0.16702697,0.06426955,-0.12630704,-0.041341398,-0.12846005,-0.057612747,0.053795826,-0.060087472,0.031934813,0.122207925,0.0035487139,0.1437682,0.008545135,-0.024381438,0.110512085,0.052981853,0.09323098,0.108379506,0.11848224,-0.017176922,-0.10471914,-0.09409194,-0.018024681,0.014747682,0.001644426,0.105443545,0.017525073,-0.03141543,-0.047777016,0.12792425,0.11554426,0.048126422,0.1327881,-0.031060746,-0.13064502,0.051086314,-0.049771227,0.06361962,0.0891944,0.08232847,-0.09175324,0.002735507,-0.045088585,-0.046924513,0.112581655,0.12155969,-7.324654e-05,0.10579627,-0.14103742,-0.020121537,-0.050396282,-0.08873776,-0.115020394,0.0047065113,0.015666911,-0.069737285,-0.22246884,-0.026964461,0.078634426,-0.036101896,-0.08076949,-0.035038218,-0.028806938,-0.01551597,0.09501851,0.06940704,-0.002809999,-0.045238536,-0.05704376,0.12936546,0.121409,0.07010637,0.06746338,0.083882645,0.069835454,0.09446207,-0.046201278,0.005206259,-0.03342919,-0.13567854,0.1478517,0.11630675,-0.17776743,-0.05096023,-0.00042644428,-0.110996835,0.08470582,0.069352634,0.09836072
72,-0.058427215,0.021928849,0.09821836,0.029403087,-0.029916516,-0.03973611,-0.0062726075,0.08696969,0.09017343,-0.10985358,-0.021231148,0.006076638,-0.036902405,0.101574935,-0.074215576,0.038158897,0.047661312,0.05049913,0.08341545,0.017376479,0.092665814,0.0077206763,0.043667037,-0.038757253,0.07140128,0.10370658,-0.026756352,0.09667715,-0.04971475,-0.13578497,-0.10475282,-0.07338421,0.06918685,0.025926558,-0.15702431,-0.030868433,0.10500381,0.03672366,0.032430224,-0.10006854,0.18867752,-0.005923428,-0.03586872,0.09074541,0.14881334,0.14389597,-0.03557911,-0.0009683685,-0.023898795,0.015434942,0.053818736,-0.051654648,0.017230991,-0.067665175,0.09153844,-0.058673296,0.013305994,-0.031164888,0.069794126,-0.0075751157,0.011716114,0.05464751,-0.085149586,0.09590745,0.11316837,0.014210802,0.13743177,-0.11949119,-0.091331534,-0.033892293,-0.03217692,-0.008043262,0.02618547,-0.082157,-0.040394515,0.07515254,-0.057674382,0.100157194,0.041006755,-0.052515283,0.04935923,-0.06824759,-0.08067185,-0.118578725,-0.011168708,0.08797144,0.14635558,0.04399068,0.07027313,-0.11268768,0.018719686,0.010251849,0.070984244,0.069981664,0.017756471,-0.07582047,-0.021090733,0.031299863,0.15102337,-0.17005806
73,0.016648721,0.065105304,-0.12846437,0.08056038,-0.09439172,-0.07615787,0.051730923,-0.09396958,0.046467822,-0.093131244,0.02596283,0.048856784,0.046997808,-0.04751736,-0.035604432,-0.06894305,0.016619999,-0.10317911,-0.117405206,0.003275001,-0.14676963,-0.03421411,0.14423871,0.14625283,-0.08363707,0.11178385,-0.08127077,-0.0625241,0.052142527,-0.09719353,0.016213918,-0.02563795,-0.08922279,0.04672167,0.1318727,0.01889363,-0.07869932,0.041950583,-0.012487501,-0.10108925,0.0876978,0.13941619,0.062423017,-0.025072217,-0.03561972,0.06672182,-0.01924186,0.030944027,0.05007147,0.1401328,0.050559904,-0.16213748,-0.10303898,0.09007818,-0.041021578,-0.12844315,0.03621224,-0.031613037,0.022510303,-0.014651217,-0.122091584,0.017027883,0.11963064,0.08456072,-0.081432596,0.08675312,-0.0779545,-0.03788466,0.028091,0.088255785,0.027677769,0.0041136434,0.0990656,0.015361929,-0.12420121,-0.101649895,-0.042729624,-0.006206716,0.11754208,0.008629339,-0.020138154,0.07563565,0.051516045,0.14342573,-0.12149722,-0.059806988,-0.0239764,-0.072460696,-0.06822284,0.0504084,-0.05047781,-0.0069615524,-0.06635719,-0.044096872,0.015045935,-0.05336113,-0.08100872,-0.028559575,-0.13928929,0.0576429
74,-0.030317858,-0.11516557,0.107164025,0.02354012,-0.0686579,-0.09099916,0.055758677,-0.0601849,0.068879396,-0.083445735,0.06564541,0.11281401,-0.0639706,-0.0405622,-0.006159096,0.10457113,-0.100539275,-0.07782471,-0.12448157,-0.06400546,0.047878593,-0.06228029,0.011649447,0.07884204,0.060589742,0.08170264,-0.11139449,-0.03594855,0.014145338,-0.0015440375,0.044317458,0.035773378,0.06835101,0.02723984,-0.028370682,0.037748218,-0.016279351,-0.13709456,-0.002674012,-0.005530191,-0.13212445,-0.066447236,-0.117369056,0.05363257,-0.08234317,-0.03991038,-0.1306457,-0.062214006,0.11499236,-0.06262372,0.031343464,0.04223872,-0.032276362,0.11796196,0.07068798,0.12326095,-0.16757476,-0.11335983,0.07295691,-0.062157508,0.12307415,-0.0099074235,0.041142076,-0.0050990116,0.056691688,0.064741515,0.011234648,-0.07385704,-0.025090367,-0.11283163,-0.08078835,-0.12776218,0.09259267,-0.0016483978,0.080913186,-0.018274885,0.0013759757,-0.042528283,-0.016530605,-0.085992925,0.017947426,-0.04195366,-0.06066805,0.08007136,-0.13052626,0.12372493,0.08721009,-0.018087413,-0.056797832,-0.1066822,-0.00019321239,-0.09567207,-0.023947403,0.117596,0.058899052,-0.09580726,0.12397103,0.008687127,0.08450341,-0.014537885
75,0.024288915,-0.035994116,-0.084850796,0.016344585,-0.15469916,-0.07297958,-0.0016052795,0.08152482,0.09234174,0.041005168,-0.04370126,0.09575872,0.013376132,0.06603211,0.04711126,-0.14472772,0.0025599748,-0.15184185,0.009158277,-0.13517933,-0.01456755,-0.12280987,-0.16066208,0.049208213,0.053590935,0.016751785,0.07260761,0.12338485,0.06090383,-0.009650496,-0.02309242,-0.1501183,-0.007801984,0.112756446,0.13113183,0.13345733,0.06418302,-0.07428656,-0.028451832,-0.006431522,0.01432422,0.09141391,0.117777295,-0.029065764,0.09548261,0.084269166,0.09789131,0.017789884,-0.0106177535,-0.15255162,-0.16220582,-0.17418066,0.00066300423,0.09310521,0.06703,-0.13482639,-0.1278709,-0.10615023,0.172749,-0.033066515,-0.11153158,0.048093144,0.038868595,-0.031639162,0.022146909,0.090436585,-0.09174019,-0.08882715,-0.10002987,0.048872344,-0.016128456,-0.03467255,-0.12442637,0.04791654,-0.13176487,0.05267525,-0.13284458,-0.04132077,0.12320971,-0.078102246,-0.011720279,-0.109089576,0.110351466,0.015998613,0.06285738,-0.14451227,-0.03875255,0.13184288,0.08405367,-0.045723386,-0.057876147,0.0075483406,0.1256028,0.093272515,-0.05934386,0.009790216,-0.023706887,-0.15524149,-0.14848454,0.03477638
76,0.15258916,0.06514783,-0.01447355,0.09146963,0.13931815,0.10355238,0.13315678,0.11978657,0.021309083,-0.032946724,-0.12384956,0.12193485,-0.07266446,0.06312801,0.09279014,0.048687056,-0.048365094,-0.069654524,0.08091756,0.076100595,-0.041406672,-0.14240114,0.14811957,-0.06343525,0.085016996,-0.039251804,-0.073953345,-0.13537396,0.12488958,0.02936482,0.023278294,0.046844248,-0.0022127356,-0.07720692,-0.0037766327,-0.011079532,0.14884567,0.15134425,0.13097641,0.09043003,0.0068801977,-0.13054316,-0.055440407,-0.041675888,0.11199637,-0.112059526,-0.07704762,-0.022763582,-0.08733406,-0.088797554,-0.1120812,-0.043429837,0.06276805,-0.12822609,-0.020491118,-0.044901874,-0.1318927,-0.11027918,0.015590897,0.03640057,-0.044086125,-0.10899211,-0.01616914,0.10677476,-0.106960915,-0.13092689,0.07862028,-0.12780648,-0.09652701,-0.09062475,0.14413105,0.048690557,-0.13037996,-0.06654176,0.05021611,-0.14507693,0.09727947,0.051209092,-0.024696982,-0.066492125,0.03227159,0.07954588,-0.026086463,-0.059834138,-0.012153627,0.013318243,-0.061959513,0.027349742,0.037498027,-0.058755506,0.053670645,0.0503049,-0.14862034,0.11916355,-0.05473403,-0.09248588,0.09059255,-0.026916282,0.07156316,0.06294809
77,0.030289227,-0.09936913,0.075919814,0.15711461,0.08523477,-0.03729249,0.07444663,-0.058396876,-0.10292364,-0.10168518,0.011564991,-0.01155506,-0.091199085,0.09317378,0.1508558,-0.014438413,-0.005528005,0.09753487,0.08560111,0.11536604,-0.010941708,0.13795802,0.11478532,-0.05138754,-0.10015832,0.013819025,-0.11967394,-0.0392848,0.028410938,-0.13006634,0.033458594,0.12024896,-0.004382983,0.101719916,-0.13838968,0.045054246,0.038789503,-0.027771028,-0.00920417,-0.026597181,0.09375291,0.07483305,-0.103924945,-0.12800358,-0.06258463,-0.09359323,-0.09905035,-0.034605358,-0.15273465,-0.091882356,-0.024316752,-0.030368516,-0.13373299,0.08285112,-0.017560026,0.13944702,-0.0037679102,0.10153651,0.03979132,0.098104626,0.026601294,0.09777556,-0.12535168,0.06582523,0.02602695,-0.01891266,0.16621956,0.02084963,0.053379234,-0.14715478,0.062076047,-0.07048326,0.15505466,-0.047723692,-0.029221777,0.08305586,0.16331393,-0.045193806,-0.06572993,0.15162978,0.12812509,-0.14006028,0.1098702,-0.10408943,-0.029449012,-0.03122481,0.10543488,-0.12154469,0.026693955,-0.11279165,-0.035111412,-0.13013999,0.046943527,-0.022999227,0.03342357,0.027547453,0.0036722976,0.10019202,0.039633475,-0.06705139
78,-0.0005634321,-0.06471361,0.046152167,0.10678224,0.076588005,-0.023136655,0.037607636,-0.05193261,-0.11978503,0.08177123,0.132583,-0.008961653,0.09047588,0.02373955,-0.0521128,0.011126927,-0.05192551,-0.019236919,0.049896233,0.026612703,0.108917706,0.049770992,0.11939154,0.028633129,0.061836597,0.07013042,0.104135744,-0.10673031,-0.03876144,0.05390167,0.063707836,0.18679675,0.07188402,-0.078197025,0.027672872,-0.13754529,0.08619858,0.010656908,-0.07103358,0.04899167,0.06849238,0.034459636,0.06694898,-0.018347586,-0.045233928,-0.056307953,0.02762511,-0.10999827,-0.08899894,0.1365892,0.0040078526,-0.10805479,0.03997583,0.05696899,-0.097892165,0.13328497,0.06586257,0.061633598,0.09376267,0.058083154,0.046904627,0.053473,0.14124314,0.050945193,0.048126638,-0.11462036,0.04215476,-0.17598802,-0.044378906,-0.0070855767,0.05388898,-0.08723527,-0.1089663,0.018191868,0.06533881,0.0055326386,-0.1256573,-0.015605756,-0.036946367,0.07844951,-0.0011973263,-0.06870407,-0.0911855,0.12544388,0.07722085,0.044078466,0.06841287,0.024128938,0.13085891,-0.10574766,0.13090427,-0.07310446,-0.058448736,-0.12399842,-0.08033637,-0.037766844,-0.0033652226,0.02417842,-0.10054161,-0.11743614
79,-0.12524463,0.08126783,-0.09924202,0.111064576,0.010080482,0.10918754,-0.07284395,-0.016729793,-0.04349473,0.024993565,0.068391584,0.011386515,-0.020428827,0.11110233,-0.108088374,0.03717392,0.02165477,-0.057655547,-0.095192656,-0.15936999,-0.09684281,0.16040814,0.15818197,-0.056245483,-0.114821054,-0.07793412,-0.117969796,0.12915765,-0.12354036,0.073905215,-0.09902641,-0.084620275,0.01717375,0.054595187,-0.15116052,-0.048804004,0.00019803952,0.16322199,0.069149904,0.13062789,-0.105622284,-0.027261067,-0.031549983,0.016009519,0.008163757,-0.05656189,0.09543994,-0.12582676,0.03326443,-0.027327413,-0.040685274,0.07540657,0.14500932,0.027860079,-0.10033205,0.13613145,-0.10874781,0.026058823,-0.07863797,0.027139537,0.0059553245,0.008584052,-0.02933372,-0.09346262,0.08222656,0.087356605,0.11141871,-0.030100137,-0.06815301,0.017101374,0.026799938,0.15894105,-0.12329561,0.03390636,0.14983773,-0.11265819,0.1679514,0.07922805,0.029324558,0.0790416,-0.08757712,-0.094639175,0.17583232,-0.102739915,0.051427223,0.14393896,0.015321016,0.12000845,-0.0450202,-0.028202293,-0.08638178,-0.0670375,-0.07693577,0.010030221,0.1417342,0.030669969,-0.03258982,0.06363697,0.13179895,-0.11258157
80,0.09648454,0.071461715,-0.03489958,0.031748317,0.033137314,-0.06556708,-0.13242939,0.045049887,0.02650233,-0.07295795,0.076867715,-0.07761406,0.054105774,-0.053562876,0.13520436,-0.16037342,-0.07395881,0.00064352935,0.108353116,0.02237206,0.06781228,-0.06050794,0.027427377,0.04228576,-0.026044091,-0.12676321,0.097844005,-0.0041776816,0.011992673,-0.0046823267,-0.10667092,-0.068209365,0.065221034,-0.043052334,0.018225787,0.008144612,-0.024445035,0.06381812,0.022907348,0.056156047,-0.12661473,-0.0955066,-0.1400577,0.030511286,-0.049573682,-0.046560753,-0.037483323,-0.06399934,-0.1564233,-0.021851487,-0.14037994,0.097719975,0.08990949,0.1267789,0.09812848,-0.06444838,0.018298145,0.15566882,-0.05603451,-0.06796729,-0.13822502,-0.10056081,0.094801195,-0.17806625,0.059615955,-0.094090484,0.022832919,0.038546495,0.05165229,0.0050958046,0.08385753,0.041580338,0.08192252,0.14029776,0.05012014,0.12778042,-0.06191434,0.121702544,-0.050442614,0.023018489,0.100717224,0.004179816,0.08188065,0.028221654,-0.12501375,0.06047679,0.07008402,0.018631537,-0.13321713,-0.13493122,0.049228728,-0.14402987,-0.15273944,0.017382672,-0.003537476,0.04345449,0.04889733,0.11531824,-0.11731976,0.061366983
81,0.07802323,-0.03711393,0.10813973,-0.1295339,0.12882106,0.099924125,0.036639795,0.11612575,0.0112034045,0.08043589,-0.05437913,-0.0023274343,-0.033525515,0.10005403,-0.13194741,-0.057665333,-0.020105813,-0.16244966,-0.05943384,0.07664503,0.08940087,-0.00024195052,0.14837135,-0.12203998,0.046965137,-0.031688463,0.117273964,0.04171156,-0.044821844,0.08297135,0.0107208835,0.029259194,-0.0059452294,-0.14572312,0.035325073,0.12996773,0.04621448,-0.014951963,0.10450428,-0.012059554,0.034019884,-0.087530054,-0.051655207,-0.013526992,0.09214239,0.0895206,0.06741356,0.010774279,-0.05152443,-0.14466694,0.10098946,-0.07507466,-0.03196577,-0.0939733,-0.10343194,0.0109621305,-0.16116546,0.06481003,0.0017250729,0.107277684,0.03979366,-0.026469897,-0.120021954,0.065783426,0.10905373,-0.030452557,-0.07311766,-0.04848055,-0.045507804,0.020173026,0.08044105,0.016598817,0.14304481,0.04362568,0.1263027,0.08592224,0.014087093,-0.028936202,0.04685477,-0.025691135,0.051289666,-0.09094969,0.06143712,-0.0169132,-0.0236882,-0.042567454,0.13349564,-0.004924651,0.097986296,0.09252051,-0.06439943,-0.07264772,0.13422626,-0.0909239,0.107148774,-0.06073889,0.025343748,0.08758425,0.08340938,0.09057169
82,0.12617601,0.12867567,-0.091699176,0.09923544,0.056488145,0.04943027,-0.048257496,0.04754202,-0.06848561,-0.10440942,-0.037296895,0.0069866045,0.0151805915,0.01558162,-0.012004374,-0.10266076,0.011621309,-0.095355324,0.095320486,0.04032861,-0.06318885,0.06429395,0.02871333,-0.09270099,0.078283764,-0.058931816,-0.025503367,-0.107579425,0.12770025,-0.1933004,-0.06753026,-0.0888465,0.106991835,0.055595413,0.09114584,-0.122971386,-0.017330319,0.08406555,0.04271996,-0.080066465,-0.1505366,-0.106021315,0.054060508,0.0932847,0.07429219,0.043059666,-0.010682927,-0.021239474,-0.041428268,0.02701479,-0.014324729,-0.065183654,0.1392465,0.19412147,-0.0548664,-0.13969427,0.09897139,-0.14604577,-0.049564973,-0.06329927,0.019219616,0.06354569,0.14299849,-0.02693021,0.1130932,0.055247996,0.09234861,0.039839175,0.076533824,0.084325254,-0.008933335,-0.18021189,-0.083289325,-0.00936348,0.12157889,-0.16979757,0.01374673,0.0717297,-0.0584744,-0.074608214,-0.042705093,-0.054589447,-0.13522598,0.07962498,0.0064652553,-0.0319853,-0.12153964,-0.03435063,0.112187155,-0.009098062,0.009849712,0.020850727,-0.035260525,0.03790054,0.025600297,0.052195646,0.10373392,-0.06180593,0.004767988,0.02291052
